INS_PrefixExpression_InfixExpression 0.10025758 -0.030573312 -0.18698207 -0.001049544 0.024495041 0.035649847 0.141662 -0.05486708 -0.07135047 -0.127811 -0.05282227 0.03572384 0.1329533 -0.02402593 0.05486565 0.032656085 0.18464218 0.1021767 -0.027315661 -0.030017601 -0.04046214 -0.114982866 -0.10026028 -0.021262055 -0.18886079 0.016518591 0.18032794 -0.08670979 -0.005592457 -0.15827121 -0.09295879 -0.042227663 0.14350365 -0.08306282 -0.08014025 0.062179215 0.05538088 0.002714084 0.12456026 -0.089392185 0.0093050795 -0.024674432 -0.14243117 -0.28112707 -0.0437309 0.21470773 0.17917086 0.010516966 0.090904355 -0.08377915 -0.0019093354 -0.14168394 -0.073308304 -0.042826384 -0.22751847 0.08892871 0.16122796 0.33543104 0.0053568278 -0.06344257 0.20833604 -0.23859404 -0.24910077 -0.21555588
INS_BooleanLiteral_ArrayInitializer 0.13834354 -0.15522368 -0.10840285 -0.024609776 -0.055384226 0.105206706 -0.019017829 0.12035413 -0.071334764 0.1715281 0.12521961 0.04603215 0.11367587 -0.025387017 0.016331987 0.124247834 -0.22070247 -0.20820135 0.10577147 0.007058372 -0.25974622 0.0865381 -0.107184544 0.18003711 -0.00781639 -0.123774834 0.11741569 0.06317697 -0.16884363 -0.09964641 0.16467679 0.014758284 0.16686733 -0.01580036 -0.063986465 -0.0033089926 0.012096501 -0.018700179 0.08917492 -0.0347116 -0.03923773 -0.07019281 0.0077600237 0.041094575 0.17405929 0.002494691 0.2951508 0.10279134 -0.007987315 0.102016255 -0.15840055 -0.029556202 0.016429922 -0.07880632 0.19980313 0.047531687 0.06012698 0.18359035 -0.10395748 -0.012052583 0.14879596 -0.120154165 -0.13308825 -0.3834707
INS_SingleMemberAnnotation_VariableDeclarationStatement 0.2161131 -0.099608034 -0.07981564 -0.053342387 -0.13656087 0.047848735 0.08166792 -0.26679298 -0.03363695 0.033550743 -0.16945487 -0.095263675 -0.12296453 0.25760722 0.060780507 -0.18399502 0.11889887 0.047985703 -0.13843739 0.064668536 0.09645678 -0.05438061 -0.06130167 0.20476949 -0.0704558 -0.04357054 0.09625657 -0.144885 0.000586423 -0.12078376 0.02673406 0.050697535 -0.01131454 -0.0065060267 0.015033227 0.12901226 -0.06858906 -0.043114446 -0.059731837 0.11188097 0.18809384 0.05057671 -0.12075468 0.047972452 -0.1355874 -0.16266082 -0.10583202 -0.2169785 0.045291435 -0.15329836 0.16352192 0.27763063 -0.16855533 -0.06933909 -0.07658185 0.021599226 -0.243375 -0.13223313 0.22277874 0.09913013 -0.10064537 0.07467613 -0.009343873 -0.07102537
INS_ParameterizedType_VariableDeclarationExpression -0.046459567 -0.088878304 0.037449125 -0.06523138 -0.12865287 0.12372393 0.07078709 -0.28264073 -0.021027256 0.11737563 0.07655164 -0.17462194 -0.09894413 0.19466184 0.03995639 0.07634096 0.21507734 0.06984634 -0.08013808 0.17442185 0.041214492 -0.01007936 0.19961125 0.08610282 0.0741215 -0.0485575 0.12727618 -0.12576558 -0.22069839 -0.19784719 -0.12330357 0.05005434 0.03676516 0.18972537 0.13702628 -0.032248914 -0.084739536 -0.01119761 0.0044659656 -0.10934673 0.1211442 -0.15834463 -0.14592522 0.09500276 0.10961295 -0.14826414 -0.09701662 -0.07711152 0.16590282 -0.18665491 0.22571763 0.067755215 -0.043536525 0.054760836 0.059035305 0.09046925 -0.23008944 0.17125395 0.13959852 0.13375008 -0.07798232 -0.061670523 0.13430962 0.038376853
INS_PackageDeclaration_CompilationUnit -0.107515715 -0.011481435 -0.22622903 -0.031814657 0.019099606 -0.036116365 0.09152285 0.1569725 -0.20966864 0.002997508 0.19239128 -0.25365335 0.2001825 -0.0072992183 -0.039913367 0.11044882 -0.10362795 0.19896996 0.028096123 -0.14275704 -0.1553565 -0.006979974 -0.16392514 0.03468364 0.15224785 -0.09768571 0.021434598 -0.20189257 -0.07740299 0.07521159 0.29284123 0.09225736 -0.09939877 0.15248281 0.1557085 0.028181775 -0.02596539 0.053528614 0.008183868 0.07700375 -0.1423778 -0.13177413 0.051504903 -0.045780282 0.20366001 -0.21054487 -0.2266318 0.16080232 -0.031084953 -0.09110523 0.02536981 -0.12770472 0.0008692856 -0.21214299 0.09132109 -0.041090652 0.09132399 0.0001807893 0.10251546 -0.0064733084 -0.09375196 0.12476315 -0.018791039 0.024628477
INS_Block_TryStatement -0.18295074 0.009551892 0.00037393245 0.06613513 -0.10242357 0.0030782127 -0.08368511 -0.05082048 0.014070161 0.32308438 -0.09428554 0.23111689 0.12298694 -0.06033217 -0.21813537 -0.011552488 -0.18158777 0.1130886 0.14470905 -0.01700173 -0.028037682 -0.013308045 -0.12730683 0.060635157 -0.1058025 -0.06571328 -0.13203594 -0.12863813 -0.03711287 -0.038948733 -0.10241389 0.29824337 0.064024 0.19142465 0.23591624 0.09825051 0.042444468 0.026155844 0.07999102 0.009291119 0.07849076 -0.14735408 0.086894885 -0.04648314 -0.21081103 -0.15311812 0.13152437 -0.03691398 -0.012095232 0.016993837 -0.23135546 0.19746809 -0.05928776 -0.109953605 -0.26846242 -0.024463352 0.10789629 -0.124576814 -0.06432443 0.05355235 -0.0558387 0.099475734 0.026438598 0.026070364
INS_ParameterizedType_MethodDeclaration 0.012986678 -0.01302859 0.1455567 -0.036165975 0.17444672 -0.095175155 0.09020491 -0.00015875696 -0.19355372 -0.1255918 -0.060454737 -0.19284858 -0.07772257 0.13445896 0.13475792 -0.12880385 0.21499701 0.004875041 -0.04680477 0.2317456 0.023773838 0.10279715 -0.045556977 0.19992757 -0.019867457 -0.021476345 0.114299126 0.26237145 0.0033206986 0.10847997 -0.03784688 0.124701455 -0.14255242 0.013313301 0.22273748 -0.15066174 -0.08813338 0.23708579 0.07386281 -0.19075227 0.038057063 -0.04050136 0.03894522 0.06985441 0.011432399 -0.021756768 -0.22171743 -0.13880834 0.12757097 0.058135994 0.087049656 -0.009609252 -0.0059863036 0.032957584 0.23033193 0.03147118 -0.10785106 0.05940445 0.020147068 0.21523649 -0.102917105 0.18930537 0.1326183 -0.15556741
INS_QualifiedType_MethodDeclaration -0.14725427 -0.29727143 -0.0428733 0.06937843 0.051927872 0.007475928 0.37189415 0.19287725 -0.22328195 -0.13145363 0.1297913 -0.27885428 -0.02478494 -0.016173963 0.13156527 0.14253221 -0.0024192932 0.09891783 0.11062989 -0.051476408 0.070201114 -0.12150027 0.05025647 0.07268025 -0.06906277 0.040688515 0.2899428 -0.12898815 0.02334444 0.021916948 0.016495414 0.08085325 0.08120051 0.009350154 0.013227842 -0.123641826 -0.17603935 -0.16066125 -0.09779089 -0.06814811 -0.010822535 -0.05141669 -0.052187826 -0.04995374 -0.016863385 -0.15387745 -0.036267854 -0.060033616 0.086099975 0.013888367 -0.02633205 0.18592782 0.08604061 0.04506912 0.067623116 0.19695458 0.15371443 -0.04402968 -0.060892325 -0.11719291 0.030118085 0.057713162 0.23229091 0.10375198
INS_ExpressionMethodReference_Assignment -0.08467994 -0.111067936 0.21097678 -0.05210099 -0.041165307 -0.06981921 0.1464403 -0.0030797988 0.045652773 0.17763461 0.0027092395 0.10066289 -0.045163576 -0.003448058 0.11149516 0.07178369 -0.1438451 -0.104300156 0.027518751 -0.06975236 0.057300333 0.26447266 0.00932578 0.24874224 0.09197502 0.07459202 0.2915516 -0.13281298 0.22793183 0.109786786 0.1316243 -0.12185229 0.080216095 0.014470357 0.035551716 0.12011907 -0.09009705 0.15456045 0.067161284 0.07286875 0.010416397 -0.06862934 0.065642916 -0.026170274 0.0683881 -0.14250979 -0.15352382 0.06922306 -0.23822808 -0.029814936 -0.2693928 0.19307008 -0.118728325 -0.20340599 -0.19072592 0.2070479 0.080572024 0.06520741 -0.012041086 -0.03724246 0.052880842 0.012546807 0.10878471 0.003429535
INS_FieldAccess_ReturnStatement -0.010374223 0.030752465 0.15213698 0.1751911 -0.10015772 0.006227868 0.15101612 0.058041085 -0.07899411 -0.12036298 -0.06629749 0.18322305 -0.2161906 -0.0016449224 -0.061316136 -0.053291664 0.049572423 0.2895956 -0.17303596 0.14600708 0.1492611 -0.18331504 0.09278732 0.042578064 -0.116209954 0.052073404 0.014290106 -0.1025719 -0.08413216 -0.20546827 0.062486764 0.12721403 -0.023051357 0.092742555 0.08968059 -0.0047405665 -0.021597797 0.16339745 -0.0491751 0.10740479 -0.117383726 -0.09320155 -0.059173677 -0.11766168 -0.04768838 0.12854427 -0.13005753 -0.04146961 0.07169549 0.104250625 0.13013913 -0.26968774 -0.041759375 0.13736162 0.103135265 0.14609559 0.3172639 -0.048769794 0.03526708 -0.014358953 -0.007756666 0.0024727706 -0.027743632 0.31219602
INS_NormalAnnotation_SingleVariableDeclaration 0.16945349 0.02315758 0.07954697 0.029375862 -0.05235648 -0.17746253 0.06327443 0.05203534 -0.21229538 -0.0748593 -0.06434173 -0.072209485 0.15000923 -0.106924705 0.06290918 -0.0217173 -0.025817458 0.18533897 -0.21988186 -0.06326363 -0.05576191 0.12899616 -0.16398898 -0.09027634 -0.08360591 0.1804336 -0.21074933 0.11915581 0.06938467 0.002888093 -0.0707616 -0.041529357 0.17719218 -0.08876862 0.13143364 -0.13023265 -0.040434916 0.021152124 -0.034997113 -0.07596802 0.133333 -0.11404889 0.19675897 -0.06431661 -0.04821811 -0.09413744 0.033935864 -0.05033058 0.22799549 -0.18388438 0.094527915 -0.19108436 0.084689155 -0.06813768 0.32569727 0.089131 -0.20809023 -0.19645526 -0.021515412 0.15392636 0.014266451 0.095498644 0.16592276 0.035516325
INS_Modifier_SingleVariableDeclaration -0.15967758 0.19890289 0.06461953 -0.04839111 0.0023416416 -0.0561767 0.0927651 0.006389278 -0.20383298 0.11659382 0.1657181 0.21981794 -0.050962847 0.06492985 -0.13416517 0.07710375 -0.018775301 0.21737258 -0.027673177 -0.007983713 -0.15020882 -0.0804456 -0.022537585 0.040770832 -0.088769965 -0.040304292 -0.25892603 0.20991531 0.009876368 0.08172083 -0.10277058 0.027600769 -0.16006257 -0.12587568 0.18347973 -0.057422955 0.05066289 -0.12231862 -0.16437513 -0.10303378 0.09500591 0.037470944 -0.00020997779 0.048215955 0.108412676 0.21680154 -0.033812217 -0.2565061 -0.0043400764 -0.11432724 0.1751854 -0.06709299 -0.0977993 -0.10936521 -0.05852126 0.11562442 0.11410855 0.21925057 -0.14415027 0.19463903 -0.0102244625 0.21741751 0.09547249 0.041217014
INS_MethodInvocation_InstanceofExpression -0.002441491 -0.045526173 -0.019839816 0.15349151 -0.13838369 -0.10121185 0.01068661 -0.066726156 -0.1318983 0.085076325 -0.120529845 -0.25934318 -0.148886 0.0017280133 0.0026398273 0.048670128 0.07603441 -0.06562364 -0.2505604 -0.03448809 -0.019917166 0.0037714245 -0.04325605 0.09039311 -0.055502325 -0.06552501 0.238139 -0.057063594 -0.16721271 -0.11798624 -0.09910952 -0.21519917 -0.056452278 0.018694527 -0.34128168 0.016889343 -0.02083312 -0.119499765 0.025010522 0.16457722 0.06995825 -0.097943224 -0.36688676 -0.13766621 -0.048013397 -0.036323052 0.10885394 -0.249394 -0.0934299 0.120358005 -0.054603722 -0.05583038 0.18668054 0.098678365 0.02978269 0.07066092 0.06304764 0.06129635 0.15704653 -0.11006677 0.06683401 -0.12143287 0.045511384 0.07185702
INS_ParenthesizedExpression_VariableDeclarationFragment -0.11239377 -0.30037892 -0.18114002 0.07112557 -0.14170319 -0.028109858 0.18277702 -0.17036456 0.08209117 0.26522315 -0.10947085 -0.09230443 0.12991701 -0.10709998 0.04854803 -0.042711686 0.020982208 -0.04768925 -0.04026517 -0.11872566 -0.104465544 0.093618095 0.06686421 -0.22336736 0.028246539 -0.005681382 0.16487475 -0.30840546 0.03834987 -0.039043874 0.12691759 0.17144476 0.042042118 0.06233203 -0.17588875 -0.02637732 -0.05725395 -0.029675223 0.2659178 0.035881117 0.027770804 -0.016278712 -0.33753678 -0.02478411 -0.09130517 0.013319585 0.08668565 0.11055404 0.08882596 -0.2104465 0.028927688 0.048315767 -0.028187482 0.011539115 -0.09508037 -0.07694811 0.03432481 0.1469145 -0.0021049904 -0.08935014 0.043439165 -0.05195016 0.061456166 -0.118861996
INS_ArrayCreation_SuperConstructorInvocation -0.1200656 -0.31079406 -0.036558907 0.014322903 -0.08025474 0.10817431 0.33135533 0.21431959 -0.20417792 -0.010132411 0.17164396 -0.21670581 0.040253405 -0.13144276 0.095138036 0.07098941 -0.107008554 0.09911663 0.0083180405 -0.08425185 0.032946438 0.029202405 -0.052645307 0.089515455 0.056743257 -0.0111913495 0.2956002 -0.1332312 -0.029403478 0.0011112744 0.08981746 -0.042560477 0.01806942 0.053517353 -0.017296785 -0.1458426 -0.109354556 -0.24941786 -0.10254511 0.06832864 0.049282108 -0.02787636 0.07270713 -0.10836514 0.01076431 -0.120231934 0.054119874 0.012628551 -0.009929988 -0.015886879 -0.015233861 0.17716514 0.10336082 0.07368469 -0.07711754 0.27495953 0.15815207 0.10440836 -0.058121543 0.027402641 -0.016811728 0.055684987 0.27131584 -0.057552423
INS_SuperMethodInvocation_CastExpression 0.06532336 0.017599126 0.058445368 -0.0812893 -0.11945448 0.04629274 0.06526465 -0.0031717354 -0.27202654 -0.09158234 -0.045991182 -0.03385612 -0.16401373 0.06897663 0.07095063 -0.15383448 -0.081639774 -0.079004064 -0.22509302 0.24474938 -0.099625304 0.07183258 -0.011509042 0.06558736 -0.054410763 -0.091639474 -0.036627308 0.13725486 -0.25618085 0.036288146 -0.030955104 -0.19777632 0.0015372967 0.15895984 -0.008629977 -0.053910732 0.13983637 0.01797867 0.11661462 0.18856485 -0.0011880479 -0.08995574 -0.108517475 0.19787768 -0.088311054 -0.04097347 -0.05996096 0.036698617 -0.10144456 0.054674238 0.05463027 -0.1122668 0.207827 0.35503805 0.20607166 -0.0404269 -0.23118414 -0.079339616 0.1152352 0.12876989 0.0664044 0.0034201995 0.10722941 0.13673604
INS_QualifiedName_SynchronizedStatement -0.31278816 0.09649949 -0.012433748 0.2657115 -0.026989514 0.17374708 -0.19019271 -0.107214995 0.04658886 0.029633278 -0.059087105 0.23077312 -0.08802434 0.081543066 0.14202708 0.22959913 -0.04132856 -0.03880209 -0.017365308 -0.14284039 0.11547251 -0.038794946 -0.043560173 -0.024444295 -0.150302 0.06657398 -0.021461973 -0.11613701 0.06755 -0.1660239 -0.04078727 -0.028249748 -0.04742157 0.08236373 -0.10502227 0.085464545 -0.0064417995 0.10188139 0.106315635 0.12357161 -0.25972155 -0.007989526 -0.06310288 -0.03768085 -0.07813374 -0.19772284 0.005803609 0.042832423 -0.033013333 -0.1456314 0.14556116 0.0804883 -0.014117401 -0.19419776 0.20502487 -0.0604331 -0.068657495 -0.17617913 -0.0035829907 0.08194375 -0.107220225 -0.016452888 -0.3225292 0.058565997
DEL_ParenthesizedExpression 0.049865678 -0.06902246 -0.04273047 0.03756994 -0.16407423 0.15987511 -0.025196968 -0.07214891 -0.19554101 -0.13381721 0.078246444 -0.021147233 0.106339194 0.06139995 0.06409417 0.20249487 0.15359601 -0.12215076 -0.043018788 -0.024119861 0.011989988 -0.1803916 0.09130447 0.09348968 0.11641026 -0.056502227 0.012081545 0.15093805 -0.2336628 -0.113003686 -0.24627657 -0.09922195 -0.104619384 -0.15935981 -0.113858856 -0.20565712 0.12860082 -0.03658973 -0.014887167 -0.098676555 0.08875884 0.09920005 -0.12459404 0.1208183 0.036039054 0.12102567 0.019920038 0.26890397 -0.002821672 -0.065308474 -0.2167876 0.021177975 0.205303 0.105096504 -0.14911059 0.1150406 -0.115072176 0.23588261 -0.117494345 -0.14189065 -0.10349355 0.10329083 0.022080557 0.1380146
INS_MethodInvocation_ArrayCreation 0.039520454 -0.29515484 -0.09798453 0.11930776 0.033410385 0.006328235 0.12436005 -0.24622178 0.11829337 0.07715043 0.13015644 -0.21920012 -0.0009504682 0.099620804 -0.08548715 0.19786058 0.0029059632 0.049998764 -0.0100098 0.065363705 -0.07931489 -0.16341127 0.23666205 -0.0039073112 0.018527636 -0.06511665 -0.011717555 -0.0065274513 -0.038457997 -0.07663967 -0.0062567643 -0.010588748 0.020207126 0.12704673 -0.025203308 -0.05114126 -0.17375892 0.06760132 -0.1020945 -0.03398011 -0.08140252 -0.3201568 -0.25491264 0.053076547 0.12578252 0.1338155 -0.077952124 -0.12585932 -0.04482915 0.03265947 0.03299875 0.0434577 0.14418875 -0.1224744 -0.23454241 0.0328389 -0.01439907 0.30467114 0.09172334 -0.15202819 -0.08148079 -0.15208018 0.014673789 -0.09784591
INS_MemberValuePair_NormalAnnotation -0.14512433 -0.08541985 0.036939207 0.075738214 0.045982778 -0.09904283 -0.014453607 0.07473463 -0.077097744 -0.0116470745 -0.033764336 -0.13445485 0.119881846 -0.06363142 0.19383375 -0.106542505 0.02263748 0.08969432 0.10021059 -0.061792538 0.19135834 0.13030367 -0.25072828 -0.11862412 0.21304195 0.10515535 0.048963904 -0.116289824 0.1474568 0.17065734 0.42976084 -0.03509006 -0.11339239 -0.18734036 0.07725992 0.066881105 0.104495175 0.049830835 -0.020547507 -0.26126453 0.018585678 0.057809502 -0.012731898 -0.02533559 -0.14211904 -0.038982574 0.09941437 0.005664501 0.13194825 -0.03118199 0.10276714 0.1777127 0.058266494 -0.11465856 0.25547928 0.03448238 -0.12861884 -0.13384622 -0.08534499 0.018339993 -0.06626357 -0.11820242 0.027460033 -0.103672095
MOVE_MemberRef -0.055116255 0.21957627 0.10829085 -0.10608113 0.16056614 0.07016202 -0.10866823 -0.06937614 0.11091089 0.04200044 -0.11802345 -0.027028421 -0.22561255 0.031351205 0.2022839 -0.12721092 0.07077563 0.07120217 -0.085198306 0.22357109 0.10902181 0.043963294 0.16556388 0.11379435 -0.112096116 -0.011627076 -0.07581892 0.08409044 -0.044752344 -0.14826603 -0.071606845 -0.30513272 -0.027378127 -0.095290676 -0.25134954 0.16389206 0.088350706 0.0896433 0.2255176 0.036505565 -0.060260218 0.104195096 0.055847347 0.00036900665 -0.14781684 -0.041440208 -0.015328616 0.15077808 0.06826364 0.18910389 0.098188505 -0.17618956 -0.034753285 -0.039220307 -0.012325456 -0.087353736 -0.1315742 0.016268538 0.15621413 -0.07205654 -0.20777036 -0.028283618 -0.122823805 0.20393738
INS_PrefixExpression_EnumConstantDeclaration 0.056742452 0.011623654 0.08788811 0.03531432 -0.1125452 0.06522778 -0.0035301016 0.21879487 0.09494292 -0.030557668 0.062383957 -0.040083226 -0.0017572098 0.023112139 0.078065485 0.10830045 -0.050082617 0.13200772 0.02907072 -0.0593921 -0.036375325 0.061089512 -0.074329995 -0.018660698 0.15111896 0.10085852 0.2395478 -0.075000614 0.12819897 -0.1181914 0.068013206 -0.07562587 -0.17377616 0.19310865 0.05457774 -0.06425417 -0.07861318 -0.1214283 -0.15124516 -0.14487968 -0.15969586 -0.0015157558 0.09852747 -0.13950242 -0.07574587 -0.26638016 -0.12222656 0.007828109 -0.079601 -0.11044383 0.232723 0.09285052 0.029379155 -0.15922295 -0.0958631 0.2846552 -0.059383783 0.22278073 -0.032872356 0.10066516 -0.24638359 0.11784884 0.28695145 -0.11067349
INS_ConditionalExpression_ReturnStatement 0.18859097 -0.10132382 0.21463211 0.16859668 -0.0040035658 -0.11806665 0.15372726 -0.026851323 0.06851185 0.16745302 -0.050806627 -0.055342346 -0.021895988 0.07083047 0.061107405 -0.12331132 0.06944862 0.075535685 -0.071911 0.1272739 0.1411584 -0.061312117 0.0080976505 0.021690758 -0.14393578 0.13447814 -0.07585246 -0.07887129 -0.2505671 -0.119318664 0.18280901 0.22224797 -0.11669103 0.24628039 0.082397915 0.01451725 0.04869613 -0.030429436 0.15743157 -0.0068785837 0.13315526 0.06604934 -0.13869052 -0.08940223 0.058411304 -0.092630245 0.02381734 0.15748566 0.058021694 0.043318104 0.11449381 -0.21689995 0.059848703 0.030356994 -0.1250585 -0.2705458 -0.03621649 0.27800786 -0.092516474 0.0179161 0.017168768 0.17397578 0.14270099 -0.13637465
INS_QualifiedName_SuperMethodInvocation -0.05782362 0.12282547 -0.17502171 0.20401333 0.09959116 -0.0007587369 0.144742 0.13605358 0.046393674 -0.3590863 0.06611182 0.03795741 0.08268206 -0.060305357 0.086835824 0.11735043 -0.05631084 0.033801656 0.17528613 0.097467095 -0.17558657 -0.18702562 0.05213335 -0.0013664336 -0.045675363 0.047684737 0.000925811 -0.042052593 0.061556388 -0.11689554 0.071643956 0.032450195 -0.15603602 0.06680953 -0.18454927 -0.036897577 -0.29936078 0.18680741 -0.027667943 -0.007560058 -0.16547461 0.028145418 -0.18456692 0.09385905 0.041913614 -0.026064266 0.08217506 0.07145605 -0.23095746 -0.10461274 0.0714964 -0.17349494 0.17487234 0.019581787 -0.050172243 0.1781754 0.10208318 -0.18559746 0.064721845 -0.13547249 -0.13631864 0.15017603 0.009681922 0.011600526
INS_ArrayInitializer_VariableDeclarationFragment -0.026904622 -0.33511406 -0.0034277597 0.03761648 -0.009594421 0.048075877 0.1315613 -0.30098093 -0.11144016 0.08851212 -0.12833388 -0.16718093 -0.15809795 0.062095672 0.097673625 0.10603643 -0.09141711 0.054000475 0.14947286 -0.038097538 0.11586463 0.12718704 -0.029349495 -0.21744053 0.055660266 -0.14588845 0.24250686 0.030039787 0.0041392525 -0.0692249 0.10859601 0.09360821 0.07354146 0.2023099 -0.08832573 -0.060839895 -0.24735008 0.0719649 -0.065151386 -0.055583782 -0.060381506 0.017827494 -0.06348919 -0.028228112 -0.057461586 0.16139911 -0.10127969 0.0064854934 0.08491356 -0.14306931 0.040671732 0.21494721 0.14649986 -0.23370612 0.07884359 -0.12579064 0.08700164 -0.06170704 -0.08555325 0.11834561 0.019142682 -0.18574832 -0.057523713 0.1189846
INS_SimpleName_DoStatement -0.006365184 -0.32577005 -0.06378577 -0.057349976 -0.16939494 -0.037412055 0.21607131 0.103704624 -0.21704026 0.0180823 0.02944003 -0.07031232 0.0976241 -0.21028131 0.05167115 0.07236899 -0.14910807 0.11820075 0.078906156 -0.07514478 0.14073035 -0.08375955 -0.036192622 0.13637272 0.03647466 -0.033729237 0.243423 -0.2725984 -0.054018617 -0.03836752 -0.08409253 0.008735635 0.073475406 0.15641433 -0.013783863 -0.13414101 -0.22183172 -0.15810244 -0.08512853 0.13799438 0.018456858 -0.054484714 0.16213141 -0.067043826 -0.15220228 -0.1003716 0.13457428 0.058527697 0.14409553 -0.01098975 -0.016081577 0.17047895 -0.0008376397 0.024843566 -0.15530483 0.10836636 0.23602805 0.10250805 -0.16729742 0.12759124 0.072024226 -0.027893007 0.020369109 -0.02649883
INS_StringLiteral_MemberValuePair -0.26477396 -0.17023331 0.10980828 0.18807246 0.108050086 -0.056692936 -0.01685923 0.07551492 -0.025365733 0.10635344 -0.108814865 -0.19238912 0.045087896 -0.03481454 0.14755826 -0.018912584 -0.012570256 0.044799466 -0.032184813 0.07262395 0.059152745 0.064383835 -0.1622713 -0.10869828 0.1687154 0.216996 -0.05307667 -0.039966315 0.3032713 -0.007062404 0.17475721 -0.040882032 0.075010486 -0.26152343 0.058003698 -0.122253574 0.21288094 0.09220392 0.036118835 -0.31523615 0.00015401465 0.058419302 -0.013043582 0.012741743 -0.110100545 0.19463551 0.092630826 -0.00086305715 0.081561185 0.036477864 0.0032149574 0.15403508 -0.0029527594 -0.017323144 0.21290608 -0.02266203 -0.07523936 -0.19361474 -0.17155597 -0.036598068 0.09507403 0.009173946 0.018863188 -0.13239133
INS_Javadoc_PackageDeclaration -0.072046846 0.10290644 -0.011998771 -0.060637135 -0.12443977 0.0031317272 0.068922535 -0.027746893 -0.10440427 0.003035221 0.12740004 0.03785559 0.18120383 0.16241826 0.03944493 0.08763966 0.20090456 -0.10364122 0.06733456 0.062923595 -0.04179584 0.21831195 -0.089517124 -0.2513284 0.2995257 0.034936316 0.25291017 -0.14352457 0.020924676 -0.10053249 -0.25216937 0.23588073 -0.12335875 0.14038937 -0.08134726 -0.13151701 -0.04779742 -0.17783168 -0.02153226 -0.13521095 -0.013274593 -0.10393679 0.14637561 0.20774746 0.11454504 0.04468488 0.020626845 -0.07026917 -0.12721014 -0.1267741 -0.096099615 -0.031748246 0.06738421 -0.023843585 -0.110773556 -0.02976888 0.21574193 0.017080197 0.04473734 -0.027905805 0.019749988 0.12948069 0.19913815 0.04660515
INS_ConditionalExpression_IfStatement 0.072563216 -0.13177048 0.06511977 0.10740094 -0.05943048 -0.009976885 0.12018023 0.09657118 0.052940674 -0.041720327 0.018678933 -0.2086481 0.023306483 0.10924935 0.22515947 0.00096685265 -0.12973495 -0.034845904 0.061209265 -0.04083847 0.03118454 0.07836355 0.1994102 0.029070463 -0.04709027 -0.2246657 0.50445473 -0.06721906 0.035514113 -0.03409176 0.080487765 0.3104221 0.06631891 -0.004106644 -0.0018240594 -0.03902405 0.017442867 -0.028143372 0.10437241 0.019165153 -0.16182064 -0.070180796 0.03425018 -0.14033398 0.08081657 -0.14905429 0.054838017 0.024752969 0.031962577 0.059141297 0.09793178 0.05494937 0.10738396 0.06528464 0.037259966 0.15046062 0.085091904 0.28655282 -0.08023399 0.06918328 0.07133265 -0.16674712 0.15140879 -0.1359114
INS_BooleanLiteral_AssertStatement -0.11442762 -0.24931124 -0.059990633 0.027020052 -0.093446314 0.102007374 0.33644822 0.1891851 -0.1993647 -0.050121117 0.17589656 -0.17742041 0.08981879 -0.10695905 0.09135586 0.100139305 -0.10467705 0.054627053 -0.0072075073 -0.1052407 0.010797312 0.022916285 -0.034998663 0.06536145 0.012756007 0.060911644 0.2377084 -0.123448 -0.044505313 -0.06395004 0.017227883 0.02892057 -0.015448169 0.043538347 -0.06602618 -0.1645813 -0.104743876 -0.3503882 -0.056669123 0.015233827 0.061018556 0.029050179 0.13702478 -0.11941982 -0.063445404 -0.06422558 0.09725631 0.0015243206 0.05657988 -0.04856629 -0.05855473 0.15595515 0.14384446 0.052516196 -0.067527056 0.2714633 0.19332154 0.124019384 -0.06690197 0.008798526 -0.06238564 0.110130906 0.23744783 -0.07074244
DEL_VariableDeclarationStatement 0.13417146 -0.07280958 0.07944897 -0.07953231 -0.04156134 0.27238196 -0.035737474 -0.058580596 0.103682406 -0.15203282 0.09116414 -0.16782868 -0.040409435 -0.20872396 -0.17367318 -0.11347649 0.04414821 -0.04586906 -0.016569786 -0.1602273 -0.102090046 0.12481568 0.13690372 0.10510851 0.13774188 0.018728819 -0.031824246 0.025586536 0.018121995 0.23151357 0.070061244 -0.11262864 0.17094932 -0.16417153 -0.055486847 0.035781126 0.015520005 -0.054521352 -0.24181117 0.018713359 0.24883886 0.0407431 -0.13416156 0.16057496 0.11142392 0.05042427 -0.110370465 0.058457065 -0.04474048 -0.19687346 -0.32852316 0.020346064 0.08188915 0.09466905 -0.22742096 -0.048105832 -0.11319183 0.038955167 0.06555837 -0.120269485 -0.025310269 -0.05010591 0.0027063512 0.17606667
INS_NullLiteral_CastExpression -0.062419236 -0.26410648 -0.005935778 0.08056445 -0.014600472 0.10398899 0.26518548 0.14208885 -0.30609798 -0.044449743 0.13565335 -0.24562874 0.11026308 -0.105992235 0.021298682 0.037456717 -0.21218006 -0.003109315 0.009153695 -0.14621736 -0.03346854 0.08566609 -0.07990292 0.14097628 0.052846562 0.019404072 0.29887682 -0.13617505 -0.025877917 -0.096229695 0.07384941 0.03595709 -0.029699909 0.09052602 -0.058261797 -0.117449395 -0.09142947 -0.31190047 -0.06997417 0.12720108 0.02219027 0.088387184 -0.07576109 -0.09028712 -0.012377946 -0.03346827 0.018118856 -0.0044944705 -0.08187715 -0.040983725 -0.044840224 0.21331371 0.17875172 0.04768251 -0.062613025 0.20127463 0.1739865 0.02604881 -0.009354496 0.02865556 -0.015859952 0.06281267 0.20498331 -0.01651574
DEL_TryStatement -0.019216817 0.15444939 0.12245377 -0.000809305 0.07965829 0.057010643 -0.07477442 -0.11293959 0.017216519 -0.06992552 -0.03985195 -0.03490939 0.15200984 -0.035238508 -0.12861055 -0.21179521 -0.069792725 -0.0048969947 0.111539535 0.01957065 -0.0042905402 0.036466446 0.14894795 0.062109813 0.09343823 -0.05895198 -0.05015081 0.055361405 -0.017300162 0.36533585 -0.037279733 -0.13417938 0.090573125 -0.062212527 0.0351847 -0.040973976 -0.049773235 -0.09443173 -0.17365958 -0.10080362 0.12180191 0.021981804 0.02847756 0.1868678 -0.05615954 -0.026645666 -0.099673025 0.2501257 -0.10556594 -0.1672 -0.43425345 0.23173861 0.072800174 0.001747266 -0.3031244 0.11083381 0.14586861 -0.016216893 0.07031843 -0.07415705 0.0070087602 0.064312704 -0.03680698 0.02342359
INS_ThisExpression_SwitchStatement 0.09256985 0.28902638 0.091149114 -0.044436466 0.05478666 -0.09045256 -0.3168386 -0.15749663 0.23334876 0.0044140983 -0.090054564 0.14031099 -0.13121314 0.1719832 -0.13126272 -0.024537692 0.23649257 -0.13324952 -0.016232666 0.12675291 -0.039159473 -0.016507205 0.034526527 -0.042239882 0.0004647111 -0.036702797 -0.17086524 0.23870246 0.043190543 0.04293147 -0.15326355 0.0034392928 -0.03368708 -0.094277956 0.031364866 0.11465441 0.097922914 0.33793882 0.028350942 -0.020382442 -0.11098325 -0.075974055 -0.050789353 0.136704 0.038786042 0.11257516 -0.09729406 0.0869861 -0.052523855 0.04832276 0.089197196 -0.20413853 -0.04971282 -0.027597772 0.010875011 -0.23546782 -0.09020274 -0.0022379986 0.11011033 0.010981792 -0.022837799 -0.021286653 -0.21970458 0.04397203
INS_MarkerAnnotation_MethodDeclaration 0.002280489 0.011481846 -0.11341708 -0.11668412 -0.08988722 -0.13373864 -0.06105676 0.004185577 -0.014657404 -0.120258495 0.16742423 -0.030698722 -0.0917125 -0.10776309 0.07280222 0.008761902 0.12120038 -0.08595261 -0.0931459 -0.015595352 0.08482319 -0.07078001 0.024756664 0.15008287 -0.19566031 -0.049983073 -0.020083738 0.2658554 0.16416693 -0.14804187 0.22568262 0.03367945 -0.328886 -0.09642437 0.26966417 -0.0784726 -0.19302936 -0.11690233 0.024639212 0.025997307 0.085159 0.13060187 -0.14857641 0.047221977 0.106799215 -0.032135423 -0.0944512 -0.016675912 0.35365084 0.201426 0.04136564 0.09615275 0.045806494 -0.010875236 0.005165042 -0.040642712 -0.075623624 -0.0028118624 0.04573105 0.19294198 -0.06817544 0.17677942 0.026273768 -0.1206511
INS_PrefixExpression_ArrayAccess 0.1055184 0.030007435 0.023107553 0.09469992 -0.015820034 0.09544408 0.22703376 -0.013242853 -0.039325383 -0.08366794 0.07633579 -0.011114325 -0.15098886 0.0121418405 0.043184407 0.15104182 0.089682534 -0.025012223 -0.1667922 0.066347525 0.0036158022 -0.072154164 -0.0058191144 0.08296917 -0.12000864 -0.0005750404 -0.29010946 0.3179556 0.022786587 0.04103163 0.28434384 -0.120158955 -0.014724648 -0.177796 -0.30612957 0.107180715 0.028839236 0.13595052 0.059687123 0.33213863 0.012332714 0.026786957 -0.020607414 0.005229248 -0.16044168 0.068572775 -0.26482514 -0.022864781 -0.040760044 -0.14554949 0.098056436 0.12375983 -0.079118304 0.0062537096 -0.1574949 -0.08591465 0.12287511 0.08521215 0.077836186 -0.054426756 -0.047690198 -0.090295665 0.06528987 -0.010189753
DEL_LambdaExpression -0.11028205 -0.30947176 0.12411276 -0.023841668 -0.067009225 0.06023866 0.15578482 0.119642794 -0.20024095 -0.17721583 0.20395985 -0.04127042 0.12418969 0.012469855 0.114051536 -0.054020353 -0.10920344 -0.13919336 -0.10437237 -0.013615422 0.02810612 0.1626714 0.052989747 0.06041247 0.04997067 0.003485656 -0.23412661 -0.099599436 0.04131339 0.21130998 0.04227321 -0.19997542 -0.07429782 -0.087339975 -0.079128005 0.023353582 -0.17243628 -0.18184547 -0.07916876 0.020722702 0.22831127 0.012515992 0.0065185674 -0.25959334 -0.073591575 0.070574805 0.062325805 0.2264115 0.034560688 -0.0073508965 0.06621645 0.0153412055 0.07029532 0.1164096 0.009391013 0.11032231 0.22034453 0.02970466 0.053643987 -0.17558795 0.0036324004 0.0027679566 0.100297116 0.21692666
INS_InfixExpression_ReturnStatement 0.17911233 0.02904699 -0.12126546 0.019058019 0.0262407 0.14303847 0.06334298 0.13707726 -0.052018795 -0.0005293283 -0.11805532 0.14274324 0.064311184 -0.012054466 0.16325827 0.21342039 -0.01759486 0.13542691 -0.064837374 0.1490182 0.1733064 -0.086211376 -0.07495831 0.019743133 -0.33710027 0.13500166 0.1646383 -0.021861844 0.10925521 -0.12702079 0.09564244 0.17492618 0.0945297 -0.06456929 -0.03241533 -0.20294894 0.17687863 0.11504589 0.016969021 -0.035220586 -0.06804489 0.16271004 -0.2949521 -0.049247023 0.066029675 0.16842745 -0.0512238 0.11621663 -0.008968444 0.08565687 0.042207118 -0.18091993 -0.026657559 0.069134764 -0.12697126 -0.066783525 0.23127359 0.22466071 -0.023281703 0.10446246 0.100095876 0.013096996 0.00047130146 -0.11986261
INS_ParameterizedType_InstanceofExpression 0.032292463 -0.1365984 0.0708585 -0.029275639 -0.032369226 -0.037935324 0.039567266 -0.28948176 -0.29219857 0.110602014 0.10116698 -0.40472594 0.01175286 0.14125445 0.19155449 -0.11527625 0.18586446 -0.07717345 -0.046257064 0.060343836 -0.044457562 0.037894845 0.254241 0.049653716 0.17385846 0.13495271 0.14326142 -0.17294364 -0.05167256 -0.23312035 -0.026208168 0.06308937 -0.011221961 0.0009738254 0.11263539 0.039781574 0.079295374 0.06340077 0.06913829 -0.04944895 0.17939831 -0.074883536 -0.040275045 -0.0939616 -0.08925729 -0.14182656 -0.18470927 -0.067064315 -0.022004813 -0.09574752 0.25039732 0.011245231 0.08905436 0.07980906 -0.04757265 0.0990165 0.023619542 0.084471285 -0.067122936 0.06035713 -0.012824239 -0.051180664 0.033501618 0.045062415
MOVE_FieldDeclaration -0.07565699 -0.038689207 0.2817378 -0.06946206 -0.023755368 0.18379873 -0.18502535 0.16434266 0.046848286 -0.1419634 -0.009957617 -0.002548526 -0.16358651 0.01202312 -0.01813143 -0.10696981 -0.036224507 -0.06218745 0.007818507 0.09848654 0.15995781 -0.09181597 0.12790291 -0.08551719 0.039885934 -0.1294354 -0.0368526 0.040431637 0.1379685 -0.12067667 0.10244184 0.22481923 -0.14263587 0.04379655 -0.06779078 0.05860732 -0.03550097 0.013656063 -0.06285997 -0.21922337 0.05846969 -0.18472654 0.2038239 0.13030079 0.013265841 0.11927279 -0.07400094 -0.113776304 0.19959366 -0.07262484 0.15986487 0.10205642 -0.13079105 -0.15948896 0.2498067 0.024606174 0.07121033 -0.02082564 -0.26172233 0.12824735 0.017597117 0.074682705 0.26003733 -0.004861132
INS_MethodDeclaration_EnumDeclaration 0.1633154 0.044153854 0.06208541 -0.038544 -0.015999705 -0.014931371 -0.09167014 0.26139876 0.17051247 -0.12464213 0.07727352 -0.07338938 0.13047954 0.041817028 0.015046856 0.07956474 0.0014346343 -0.1393523 -0.08017872 0.054339036 0.061723225 0.034580436 -0.1700009 0.14145845 0.15225913 -0.040809575 0.116953894 -0.01149919 0.1300633 0.014473442 0.036159575 -0.21384455 -0.17770296 0.16720769 0.0710973 -0.0029175407 0.033223063 -0.0029353846 -0.080139264 -0.21924683 -0.13285853 -0.099641286 0.07508901 -0.1890175 -0.036932714 -0.15075895 -0.033021636 0.18767391 -0.047554534 0.012187088 0.003443018 -0.07091529 -0.1960044 -0.037401427 -0.15680361 0.2687429 -0.09252857 0.03364405 -0.18590805 0.22759558 -0.11142391 0.028649101 0.1630802 -0.30408975
INS_QualifiedName_AnnotationTypeMemberDeclaration -0.0607541 -0.21670115 -0.03190979 0.117397495 0.041203406 0.1200874 0.2505788 0.17391196 -0.21543139 -0.17384128 0.23338419 -0.15136233 0.13185497 -0.12124519 0.033339657 0.031590965 -0.11708944 -0.07097402 0.037614845 -0.083312415 -0.030866105 -0.011919725 -0.10580722 0.06170195 0.06248419 0.008039672 0.265322 -0.17359948 0.021890562 -0.06304123 0.15823711 0.03872257 -0.09076422 0.058516454 -0.114930145 -0.10986386 -0.20693177 -0.1796221 -0.103757545 0.06931715 -0.0039468925 0.0026194598 0.07033829 -0.064562745 -0.019259794 -0.120237574 0.036700755 0.13526043 -0.06893855 0.031575117 0.009303738 0.13325657 0.10247593 0.030540744 0.016056446 0.29930252 0.13893038 0.2275199 0.002703214 0.01593608 -0.052646957 0.010326688 0.29092482 -0.05983052
INS_NumberLiteral_EnumConstantDeclaration 0.07557926 0.07953802 0.13420846 0.057039753 -0.070567615 -0.015069125 -0.00044619353 0.23024361 0.20807919 -0.10966904 0.092998795 -0.0070349122 0.02679498 -0.03553327 0.032950938 0.14964445 -0.09877619 0.1836137 -0.038144 -0.0795491 -0.02347198 -0.039626196 -0.04861396 -0.0020051892 0.08105806 0.044306174 0.15457024 -0.026185678 0.05254133 -0.10498052 0.09216356 -0.07537479 -0.114702694 0.15056393 0.13126816 -0.062685154 -0.065942764 -0.017654223 -0.121399805 -0.20281543 -0.24744602 -0.005157768 0.12593819 -0.033776376 -0.024113454 -0.21671054 -0.13949898 0.04724565 -0.02279464 -0.16652387 0.19237621 0.0062391316 -0.014229566 -0.17557983 -0.16945453 0.2537543 -0.054723337 0.28267306 -0.040292203 0.060625296 -0.21732676 0.061627585 0.29507414 -0.14642836
INS_InstanceofExpression_MethodInvocation 0.080143474 -0.22488928 -0.043824963 -0.0014044321 -0.18512024 0.14406018 0.10199817 0.07726332 -0.15126096 0.16418797 -0.33478186 -0.18275046 -0.047264896 -0.029645404 -0.048274487 0.050013866 -0.20925169 -0.047157403 -0.06325654 -0.081346326 0.013501322 -0.0475501 -0.018992618 -0.07495772 -0.07861058 -0.19478261 0.15123239 -0.01242398 -0.20169027 -0.024914468 -0.07721126 0.085404046 -0.031573363 -0.20108585 -0.13924326 0.01795438 -0.036129776 -0.21040983 -0.088555105 0.11275921 0.10907798 0.11237804 -0.35494125 -0.13142706 -0.06912948 0.026029218 0.1282661 0.14718813 0.0633328 0.004626451 0.08814285 0.065851584 0.0065102964 -0.021348631 -0.044348013 -0.01869489 0.15081738 -0.020614786 -0.28145763 -0.079069175 0.006714021 -0.097093694 -0.010314898 0.06217814
INS_CastExpression_SwitchStatement 0.037739184 0.35811046 0.022516921 0.017071705 -0.049614493 -0.011042755 -0.41825646 -0.1391215 0.0033509755 -0.0490287 -0.20836349 0.15194918 -0.046047695 0.1381231 -0.033538066 -0.18416885 0.17988734 -0.04016417 -0.1483639 0.005062205 0.027123384 -0.06333025 0.11262768 -0.1374296 -0.0034521865 0.016921103 0.09180302 0.10799808 -0.10331214 -0.044021152 0.018576834 -0.01407636 -0.12545827 -0.013182244 -0.06945533 0.055646874 0.056031156 0.19231762 0.020410834 -0.019331796 0.0004008657 0.10262972 -0.16391733 0.016308146 -0.1406493 0.09692609 0.04129526 -0.06017994 0.03391313 0.035969727 0.09152286 -0.1007804 -0.14672744 -0.011615136 0.12520778 -0.20694254 -0.18313046 -0.11622999 0.05710529 0.015921354 -0.03495277 -0.032477487 -0.31338757 0.18030767
INS_Modifier_VariableDeclarationExpression -0.12778275 -0.00012571296 0.000780071 -0.15913121 -0.062050477 -0.093272276 0.2326319 0.15355301 -0.0016770083 0.0060426164 0.11228984 0.23672734 -0.0024377496 -0.06478461 -0.19942915 -0.16106059 -0.088017955 0.16659765 0.104749486 0.06441839 -0.08453595 0.086075224 -0.08193618 0.08755357 0.029275263 -0.039248295 -0.1182511 -0.15312217 0.07130903 0.15021698 -0.056805655 0.00093701604 0.11763492 -0.016942916 0.19193245 -0.1198796 -0.08740788 -0.12707146 -0.232173 0.122215606 0.12861449 -0.023121065 0.027745558 0.06600319 0.0602912 0.043304954 -0.07485179 -0.08769598 0.14225 -0.26079684 -0.14114144 0.19525741 0.055493414 -0.065402456 -0.24446139 0.12175049 0.03486237 0.2293785 -0.00795753 0.042711917 0.023209808 0.036092788 0.26998633 0.14689031
INS_CharacterLiteral_ArrayInitializer -0.11362464 -0.3035408 -0.06765732 0.1521407 0.0897732 0.12553464 0.18737508 0.20301417 -0.14414246 -0.0964611 0.23377548 -0.06293681 0.15127493 0.013196747 -0.013122418 0.1569883 -0.14370552 0.035220083 0.11528293 -0.13597937 -0.032931812 0.014309072 0.054377772 0.07593633 0.10058824 0.12341355 0.258422 -0.34680784 0.11435714 -0.009282111 0.09438358 -0.020413587 0.13010658 0.041807137 0.025178645 -0.05583044 -0.122885354 -0.13206662 -0.032756332 0.088519074 -0.024136202 -0.029240526 -0.09288933 -0.09693079 0.005011033 -0.17813298 0.053433985 0.11117705 -0.0054441853 -0.13342538 -0.07605572 0.10031899 0.054475877 0.009619577 -0.15806362 0.19787729 -0.042109337 0.016269874 -0.03797945 -0.058740556 -0.102799766 0.10690388 0.24696432 -0.10405125
INS_StringLiteral_SwitchCase -0.061906703 0.13697347 0.010138039 0.09163581 -0.017316239 0.08071638 0.1458089 0.16145255 0.03297595 -0.07114539 -0.04802079 0.009706503 -0.30186817 -0.07744041 0.08641482 0.24165389 -0.060145676 -0.13174397 -0.06133116 -0.11248193 0.08120308 -0.10563999 0.0571413 -0.039114363 -0.044443436 0.20691694 0.10589987 -0.06371997 0.06587735 -0.17578453 -0.1434268 -0.17961219 0.035013113 0.13460848 0.016238775 -0.0137147475 -0.10504058 -0.2175142 -0.08444877 0.10332552 -0.21560004 -0.089086026 0.07833045 -0.30511338 -0.17756741 -0.072221115 -0.10764013 0.0010900177 -0.14365284 -0.27246475 0.1284088 0.10760921 -0.08832915 -0.119329415 -0.077963576 -0.07136526 0.02978653 0.061575912 0.10245869 0.10340473 -0.17605823 0.11655126 0.094366804 -0.04137875
INS_FieldDeclaration_AnnotationTypeDeclaration 0.031437546 0.038907666 0.11515608 -0.01187735 0.045836262 -0.09888227 -0.25912634 -0.034146897 0.069387734 0.24750511 -0.021732628 0.020210203 0.067934185 -0.08499114 0.089269325 0.1225252 -0.08235909 -0.04231622 0.04069268 -0.12065984 -0.19253364 0.038436644 -0.07248569 -0.13444924 -0.031118734 0.25575286 0.18404739 -0.18182212 0.38363323 -0.0065899026 0.088017374 -0.033569038 -0.13723922 -0.064418115 -0.019973632 -0.0053002867 -0.09943081 0.086552694 -0.002870557 -0.068176866 -0.23658136 0.16877681 -0.023197874 0.062499177 -0.24242426 0.12326373 0.119874656 0.15532063 -0.06488221 0.059121665 -0.05946029 -0.038362514 0.1317173 0.08670908 0.2432311 -0.09598618 -0.1518456 0.09535679 -0.09085178 -0.109879375 -0.09221813 0.06136039 -0.09243536 0.003511446
INS_Modifier_VariableDeclarationStatement 0.003622648 0.10564358 -0.15727971 -0.060082674 -0.042761464 -0.1641643 0.1557684 -0.035051186 0.02732957 0.18345311 0.20240788 0.23871645 -0.14458036 -0.04755109 0.01354893 -0.13546881 0.032121368 0.17674153 -0.07907178 0.084182374 -0.10876307 -0.14947452 -0.04991028 0.05889846 -0.16481656 -0.00784593 -0.2502576 -0.10046196 -0.031047707 0.008952191 -0.18348178 0.122909136 0.11601051 -0.021525295 -0.00826429 -0.04522858 -0.04319148 -0.100989975 -0.19035773 0.15595858 0.22410105 -0.20503968 0.009684008 0.028400462 0.08449882 0.2151251 0.06449838 -0.09375625 0.20463747 -0.2339746 0.15748477 0.18607898 -0.022742715 -0.035279706 -0.1489016 -0.04997701 -0.042931747 0.09320323 0.04357048 0.014714038 0.06816912 0.13278043 -0.14145073 0.105104856
MOVE_EnhancedForStatement -0.024496047 -0.05390965 -0.13531302 0.04220214 0.1505945 -0.036684386 -0.06486817 -0.014706395 0.13158773 0.2092417 -0.16742408 0.019777102 -0.21401413 -0.12065313 -0.019256242 0.02810017 -0.043231793 -0.0019431477 -0.27839255 -0.014042662 -0.06367866 -0.07264189 -5.2872624e-06 0.018658506 -0.03962472 -0.0059156045 -0.1170593 -0.21070783 -0.14165068 0.04552693 -0.15480724 0.07903679 0.22397402 -0.031139439 0.051035766 0.048482515 0.19435579 0.05886015 0.066410325 -0.067323476 0.16646075 -0.3050252 -0.0452058 -0.119356275 -0.011263159 -0.1393551 -0.18500336 -0.22092202 0.3433622 0.09943186 0.068498164 -0.01272885 -0.0073919296 0.09024265 -0.13991885 0.1007499 -0.02076144 -0.16923657 -0.01758857 0.03570611 -0.013351314 -0.18354274 -0.04664571 0.11160472
INS_DoStatement_Block -0.115273006 0.06819861 -0.037334517 -0.07182366 0.023876913 -0.017654503 0.16264518 -0.2272167 -0.008058076 0.11159904 -0.0911456 -0.07184965 -0.01779566 -0.07928262 0.025009405 0.22020449 -0.19011585 0.24440092 0.2161539 -0.1874199 0.11037798 -0.13811728 -0.11253254 0.021824189 -0.25497136 0.042937707 0.05698065 0.06881164 0.02537824 -0.07790991 0.038851026 0.24776262 0.06362602 0.029477516 -0.18199754 0.06942799 0.10877748 -0.14460428 -0.094082154 -0.032840025 0.0024732873 0.05391629 -0.045711134 -0.051340647 -0.08579031 -0.15509686 -0.081297465 -0.12168697 0.36243638 0.054522734 -0.09194792 0.09784381 -0.00598554 -0.24601442 -0.076595776 -0.06819958 0.1653296 0.14228879 -0.09256686 0.007917192 0.025094423 0.083056405 -0.119878456 0.026783355
INS_MethodInvocation_SwitchStatement 0.11211397 -0.022590043 0.0663966 -0.0007337701 -0.040895823 -0.17146945 0.1349453 0.02979563 -0.09985998 -0.04560871 -0.118965566 -0.14334095 -0.10987794 -0.15990509 0.05392263 0.10158617 -0.026444726 0.028167382 -0.14797112 0.101475745 0.1070978 -0.009447717 -0.08366076 0.11680903 -0.14998311 0.15195768 0.35163683 0.092127144 -0.036266815 -0.19767545 0.0067831045 -0.24051161 -0.056471337 0.15182735 -0.07610781 -0.12145989 0.16678108 -0.2519546 -0.044757728 0.112242706 -0.1517706 -0.043036126 0.12507485 -0.2596981 -0.031807728 -0.06439658 0.02205764 -0.097985186 -0.043077454 0.014371297 -0.11384889 -0.041667636 0.13159232 0.12668166 -0.10382706 0.06279961 0.06433405 0.30888206 0.03502744 0.08234734 -0.06791388 -0.04267597 0.17704609 -0.082085945
INS_ArrayAccess_InfixExpression -0.078938484 -0.23439336 -0.19560559 0.07464909 0.024747882 0.10903894 0.006882983 -0.120845474 -0.0034472318 -0.0026716986 0.11737631 -0.17595832 0.043057624 -0.091919735 0.20286973 0.24010703 -0.072845824 0.060582068 -0.15941353 -0.09021573 -0.1740279 -0.055554938 0.28942722 -0.23505686 -0.29693544 0.0013421824 -0.04242057 0.056794584 -0.059289344 -0.1220927 0.07892385 -0.025580287 0.20629694 0.00775125 -0.09240767 -0.20928462 -0.10805227 0.0058323406 0.015859613 0.049984075 0.08465803 -0.009723593 -0.11324044 0.19647834 -0.08562369 0.018249948 0.006687158 -0.009166626 -0.02241177 -0.14574641 0.028018985 -0.017297378 0.10588645 -0.2823254 -0.1770908 -0.011326792 0.09355442 0.086615264 -0.016847644 -0.09073234 0.1288891 -0.1297345 -0.030956736 0.015531496
MOVE_ArrayCreation -0.14702651 -0.16010502 -0.17251523 0.17249295 -0.0064692115 0.12324851 -0.0055857636 -0.09912211 0.12890226 0.09475318 0.11893951 -0.17460485 -0.16459791 0.049335357 -0.12947164 0.32692158 -0.05440558 -0.0033511797 -0.006699431 -0.199516 -0.032561723 -0.17572707 0.24936873 -0.12966791 0.020880466 0.056804936 0.02709985 -0.063352905 -0.012319659 -0.2184454 0.0757597 -0.011802664 0.1641623 0.1473909 0.06941877 -0.023176007 -0.19422404 0.017569069 -0.10458812 0.030830005 -0.017591711 -0.25464672 -0.2188803 0.018533802 -0.00173705 0.097601384 -0.13126224 -0.060167827 0.008634873 -0.035730463 0.05615443 0.17920753 0.06865817 -0.21616514 -0.027899824 -0.21095595 -0.0049604042 0.13344815 -0.022877455 -0.06438744 -0.008605556 -0.1530707 0.036198486 -0.020860523
INS_FieldAccess_EnhancedForStatement 0.02698382 -0.15403245 0.11108534 0.07411238 -0.003961498 0.111017615 0.14170316 -0.008700373 0.03578951 -0.11788473 0.07274435 0.1787725 -0.22018288 -0.1468728 -0.10024798 0.10541457 0.02381412 0.206207 -0.3054404 0.06803074 -0.04547673 -0.06240602 -0.058018066 0.11687065 -0.061285764 -0.06672067 -0.024012415 -0.08463962 -0.06653657 -0.051029228 0.056163967 0.032554183 0.21020977 0.09362418 -0.06768884 -0.14846276 -0.017683344 -0.001958744 -0.20444366 0.09500734 -0.03352628 -0.10359672 -0.070933685 -0.0898397 0.18704419 -0.005589506 0.068782486 0.0182584 0.14436263 0.3132032 -0.0036123267 -0.0062467903 0.09039432 0.13782713 -0.09065878 0.2176732 0.17973855 0.16785894 -0.07238033 -0.1933452 -0.0086986385 -0.10126435 0.018881582 0.28120908
INS_ConditionalExpression_ClassInstanceCreation 0.08673008 -0.048856355 -0.063143566 -0.046238262 -0.20232105 -0.0406772 0.18262212 0.19811639 0.095114104 0.020922752 0.02782239 0.08901706 -0.02647634 -0.03984449 -0.14990167 0.048555255 0.12529929 -0.02396485 -0.043824602 -0.07322423 -0.075695306 -0.068697825 0.1510871 0.0069053583 0.18041062 0.13412504 -0.1376544 -0.10383539 -0.16528127 0.015260057 0.21682267 0.25345302 0.027739143 0.27280316 0.10411758 -0.076285325 0.07105091 -0.10570169 0.11994871 0.14461899 0.08856214 0.005501767 -0.025387581 -0.02823711 0.26841527 0.09619673 0.26238334 0.09059074 -0.09362252 -0.058878306 0.06675257 -0.107426025 -0.18282485 0.04659518 -0.17329426 -0.08632131 -0.05779281 0.16909616 0.05697821 -0.097932115 -0.1115622 0.093635164 0.13478696 -0.22589108
INS_ClassInstanceCreation_EnhancedForStatement -0.098547556 -0.14080086 -0.06670465 0.087371565 -0.031638227 0.1009645 0.0354726 0.12204392 -0.24256088 0.10778065 0.1882889 -0.13429496 0.07859645 -0.13635013 0.21965095 -0.09176332 0.008705619 0.1997994 -0.03182116 -0.13616937 -0.12917382 0.12172066 -0.071240135 0.101409376 -0.021185692 0.2209154 0.24961689 -0.25581408 -0.013019185 -0.15124086 0.12240787 -0.11918516 -0.071791835 0.18746032 0.0034667132 -0.10395995 -0.08481985 -0.084531166 -0.017722044 -0.007295723 0.100438595 -0.013238056 -0.060633976 -0.19288407 0.013508183 -0.08649486 -0.15833366 -0.103081144 0.02554784 0.09947245 -0.04089177 0.05956719 -0.17015724 0.03648458 -0.09633274 0.3062716 -0.06358657 -0.022438107 -0.06455236 0.087646104 -0.18455422 0.08215263 0.10532396 0.11069405
INS_SimpleType_TypeDeclaration 0.065463275 -0.039125986 -0.2122292 0.07165643 -0.026002377 0.03774028 -0.11690533 0.1560582 -0.0529268 -0.07646238 0.1104413 0.22873068 0.292528 0.17902362 -0.13034055 -0.10718169 0.014389383 -0.13967921 -0.058483813 0.2124765 0.033683367 0.230037 -0.099321224 0.058070082 -0.0135018965 -0.016395835 0.20047387 0.091965854 0.024394626 -0.08672441 0.2566744 -0.044120234 -0.007871626 -0.070224635 -0.021937488 0.025862398 -0.03789625 -0.07487439 -0.084347084 -0.07773732 0.08856809 0.21748127 0.29423055 0.044679254 0.080253445 -0.045629 0.0113646705 0.083368525 -0.07129211 0.27096072 0.17624693 0.046716124 0.17159566 -0.029065939 0.08126979 -0.023123676 -0.019020874 -0.13625582 -0.022250066 0.14352088 0.09159399 0.14768863 0.09981374 0.0948246
INS_SimpleName_EnumConstantDeclaration 0.0657318 -0.017377447 0.012396128 0.016035868 -0.014878525 -0.01221715 -0.089064896 0.25024825 0.12984055 -0.07141303 0.04691869 -0.117505044 0.008168722 0.029291885 0.07139754 0.097725235 0.075825796 -0.03876409 -0.1736582 0.014797984 -0.06175207 0.0484346 -0.08778138 0.118648745 0.14220592 0.21889399 0.22167419 -0.09221714 0.0554831 0.0710405 0.16750672 -0.18355651 0.009973706 0.20200348 0.08030483 -0.10055922 -0.058528364 -0.03374212 -0.17404836 -0.18069948 -0.1384989 -0.14845572 0.14656399 -0.116642244 -0.011620711 -0.17484075 -0.03060632 0.02423177 -0.08093563 -0.09748028 0.11597695 0.0053686723 -0.1585677 -0.061635837 -0.13490103 0.249212 -0.10494163 0.16544922 -0.0268527 0.17376243 -0.19722335 0.011735391 0.12578829 -0.33589074
INS_SimpleType_FieldDeclaration -0.059575837 -0.08640003 0.23009022 0.19298111 -0.048371222 -0.07900172 -0.020639395 0.121625796 0.058114223 -0.14102897 -0.15385762 0.07777396 0.020271853 0.053451277 -0.088558376 -0.03498686 0.038011953 -0.061284695 -0.079751074 0.20222822 0.14482108 0.052032866 -0.03365824 -0.1385806 0.059812177 -0.18313625 0.117378175 0.18211798 0.2709144 -0.11163993 0.089481995 0.10169013 -0.1909252 0.08744899 0.02184418 -0.06456159 -0.05057413 0.07380735 -0.10113281 -0.025376642 -0.17177446 -0.0022671933 0.19453378 -0.016451588 0.22580321 0.09779199 0.0825577 -0.06357541 0.15902294 0.08396803 0.17602628 0.03984414 0.04575039 -0.1920888 0.082266994 -0.011230245 0.24789882 -0.045030735 -0.27677628 0.20512271 -0.039192587 -0.04522567 0.14241621 0.038207367
INS_SingleMemberAnnotation_SingleVariableDeclaration 0.05052277 -0.018121803 0.103202514 0.23660822 0.020752441 -0.09283322 -0.049521033 -0.04131485 -0.0010724048 0.07837195 -0.14761679 0.029322762 0.10252299 -0.024647694 -0.12925196 0.09983577 0.058011923 -0.010893559 0.02354174 -0.0320136 0.04459651 -0.048548583 -0.13848463 -0.22166917 0.03965612 0.063667 -0.060797926 0.005536549 0.18232732 -0.045159772 0.01865138 0.029290128 0.06683407 -0.1915061 0.15921384 -0.13340203 -0.06828501 -0.2656561 -0.19108672 -0.1319814 -0.019472726 0.042792324 -0.0643909 0.007899618 -0.11568495 -0.24855135 -0.1690317 -0.24983473 0.16183262 -0.11932088 0.17022479 -0.019466106 0.1222426 -0.16782093 0.10889988 0.07279966 -0.0027138218 -0.080886126 0.15341513 0.083956964 -0.20734972 0.14335607 0.31839988 0.09483646
INS_SimpleName_SwitchStatement 0.16291462 0.12838602 -0.050244045 0.065286785 0.07730276 -0.044144202 0.15287563 0.048259154 0.114051394 0.047413867 -0.10168287 -0.016079165 -0.18715493 -0.015894672 0.10777045 0.20825236 0.11327151 -0.021073526 0.12576637 -0.09308456 0.16516897 -0.11831454 0.042354383 -0.10829612 -0.20543697 0.2298375 0.086623125 -0.039280247 0.055761013 -0.12851532 -0.07200622 0.01702775 0.023950139 0.24351135 -0.08336034 0.10600753 -0.038520496 -0.14353581 -0.03455893 0.13384743 -0.1474119 -0.13795349 0.06086351 -0.24968487 -0.1270141 -0.07173858 -0.112254545 -0.0695504 0.29141316 -0.21604858 0.08437017 0.15627639 -0.22809017 -0.104910366 -0.036210526 0.085377 -0.063311614 0.19686438 0.046301108 0.021249074 -0.08948091 0.08180772 0.081749946 -0.11145281
INS_CastExpression_ParenthesizedExpression -0.09467747 -0.22811767 -0.032767892 0.019974835 -0.00067023403 0.10276899 0.24430442 0.12526833 -0.1558904 -0.11672218 0.22260387 -0.25925714 0.12552798 -0.061049584 0.11666132 0.077304855 -0.06694143 0.03494274 0.04536816 -0.16987556 -0.012373479 -0.0015924618 -0.050997745 0.10597554 0.11975679 0.00061428174 0.3897876 -0.23424974 -0.017977905 -0.10420658 0.103566974 -0.025157051 0.013962591 0.03460082 -0.105077475 -0.083587766 -0.122019865 -0.22899738 -0.09272732 0.09647608 -0.015557868 -0.009007505 0.029458407 -0.16383758 0.038675122 -0.06722664 0.018527566 0.038830843 0.0071575497 -0.07642203 -0.065750025 0.1331408 0.107166 0.04148676 -0.1577274 0.255239 0.19055942 0.10336266 -0.04554748 -0.007694533 -0.034986727 0.10085524 0.13719745 -0.1115887
INS_StringLiteral_StringLiteral -0.05899896 -0.19493072 -0.024448808 0.1683197 0.021978864 0.047740668 -0.10280398 0.048802704 -0.23248836 -0.121386155 0.12287443 -0.087138556 0.14590333 -0.051541343 0.14743155 0.10793518 0.00803499 -0.001651105 -0.34321868 -0.25010535 -0.16327794 -0.06439271 -0.17203094 -0.019778186 0.03390155 0.16010742 0.026276618 -0.029853541 0.10092507 -0.11124909 -0.046020158 -0.044507332 -0.017337373 -0.25216043 -0.024254076 -0.1925555 -0.067636386 -0.08451713 0.043237966 -0.1673272 -0.08620166 0.04508218 0.21187983 -0.18544066 0.06799674 -0.09899046 0.15719844 -0.02565266 -0.21380657 0.1096596 -0.22377875 0.14639379 -0.057219382 0.034503423 -0.113736704 0.09377617 0.016664132 -0.015916875 0.011915739 0.050176956 0.02685393 -0.017236924 0.0049810484 -0.1936139
INS_NullLiteral_ConstructorInvocation 0.3657272 0.011484108 -0.13602626 0.17120469 0.21963736 -0.10513736 0.1777789 0.07107747 0.064862065 -0.14872505 -0.18874167 0.16247144 -0.03447715 -0.027274918 0.01972487 0.16471213 0.12396775 -0.057961512 0.187756 0.028676255 -0.03513148 -0.060486954 0.015873987 0.04559082 -0.23792866 0.112367265 -0.05191816 0.00088297133 -0.09268236 0.0071141366 0.13438095 0.26724032 0.058129165 0.16911675 -0.013111369 -0.0140485335 -0.06285146 0.014327687 0.026819965 0.068511896 -0.09389949 -1.7333193e-06 0.038666215 0.084575 0.041977096 -0.09153602 0.09525691 0.08684937 -0.09426399 0.091195196 0.101038896 -0.15279636 -0.11237456 0.0048670825 0.10293877 0.25998172 0.048518524 -0.1915104 -0.1688316 -0.1479655 -0.06610395 0.1948619 0.043996423 -0.10502981
MOVE_PostfixExpression -0.058893297 -0.16891026 -0.047409415 0.06675614 0.02569883 0.20291436 0.042284857 -0.24839905 -0.08533703 0.067790546 0.08332185 -0.10633934 -0.042631272 -0.018330041 0.08392199 0.39016494 -0.119747184 0.008558959 -0.10601477 -0.12957525 0.05879196 -0.09426408 0.09325382 -0.11804804 -0.20473018 -0.045458946 0.059012294 -0.009749139 -0.10372752 -0.23712197 -0.060325917 -0.12590256 0.11274384 0.057555083 -0.08008836 -0.10020661 -0.15978128 -0.06057113 0.03114774 0.1461937 -0.03890779 -0.016220663 -0.2179716 0.10600153 -0.03750251 -0.0354952 0.03399936 -0.032950923 0.07169554 -0.14643364 0.033932712 -0.07255484 0.15264684 -0.097759455 -0.09727188 -0.060483154 0.23481356 0.20841882 0.038926817 -0.095216475 0.17578584 -0.23009206 -0.1504883 -0.09428723
MOVE_ExpressionStatement -0.025137259 0.026179647 -0.20424998 -0.037169363 0.0041112015 0.1466142 0.0883948 -0.11669024 0.095984034 -0.06346397 -0.112920634 -0.05699797 -0.15801524 0.030470679 0.14292784 0.23500167 0.0076619033 0.11833979 -0.09772689 -0.22743732 -0.042765755 -0.10384917 0.19315355 0.07694596 -0.0069298 0.009425018 -0.2585865 -0.06540027 0.07115204 0.0033068992 -0.228853 -0.15928744 0.08825231 0.03511073 -0.08666348 0.014296211 -0.14500138 -0.09647581 0.16493335 0.1620656 -0.15988772 0.06119577 0.04124187 -0.026947713 -0.08078838 -0.23131374 -0.021018844 -0.052025232 0.044170957 0.05193235 -0.110328116 0.21754096 0.049427964 0.041278344 0.01615834 0.0013856601 0.10783888 -0.054242454 -0.036529645 -0.04662897 -0.009294529 -0.36373276 -0.27938834 0.06347173
MOVE_SimpleType -0.06392066 -0.027538957 -0.18702732 0.1989182 -0.059423063 -0.0042774808 -0.07838054 -0.04562674 -0.0020129986 0.01194483 -0.18226948 0.12765776 -0.067991845 0.20850034 -0.021919293 -0.007914362 0.10447947 0.026298922 -0.11248723 0.1675291 0.111192435 0.17529806 0.25670946 -0.009538268 -0.11533537 0.0792631 -0.07778646 -0.18006502 -0.15829548 -0.12000312 -0.035839073 0.00110514 0.1857992 -0.116218165 0.22859567 0.0725602 0.0027010492 0.020755671 -0.068144575 0.00052196725 0.08044729 -0.1862845 -0.033559885 -0.028546318 0.025957046 -0.058822233 -0.07068141 -0.10895719 -0.072790936 -0.0544236 0.36759755 0.05029003 0.10238567 0.14676145 0.13240969 0.03300459 0.09484933 -0.25868618 -0.014004521 0.20354135 0.23107892 -0.05976438 -0.06602606 0.011787836
INS_ThisExpression_ArrayInitializer -0.27653915 -0.1885232 -0.09302813 0.07800247 0.037245445 0.05677877 0.285795 0.17741342 -0.095601216 -0.059232086 0.11980648 0.025928082 0.030461734 -0.09746197 -0.07522633 0.10905386 -0.21997806 0.035101373 -0.069194555 -0.037878487 -0.112606116 0.031194119 -0.031077238 0.23864812 -0.007898456 0.009912615 -0.030860554 -0.13116111 -0.11258953 -0.073718384 0.13937703 -0.09082984 -0.0060993712 0.24088386 -0.2477787 -0.14141506 -0.11786006 -0.12165949 -0.029869366 0.067262456 0.038129028 0.05144067 -0.16615672 -0.031895645 -0.055573598 -0.17480421 0.06678364 0.07355456 -0.014945464 0.09659475 0.16236499 -0.0022254088 0.13746226 -0.08686235 -0.116739094 0.26325107 0.29872334 0.04064784 -0.010645268 0.050692186 -0.05625899 -0.064252526 0.06134806 -0.092658415
INS_ThisExpression_InfixExpression -0.14906332 -0.22297376 -0.062404517 0.18372783 -0.17734326 0.07447229 -0.0020564427 0.055633757 -0.12695818 0.0661214 -0.18871896 -0.102557436 0.13474032 -0.11138406 0.19664139 0.11667609 -0.03089468 -0.031343658 -0.0694457 0.09427823 0.0023252526 -0.19133462 0.054157037 0.01731278 -0.36644953 0.05399982 0.19490616 -0.05650149 -0.04755125 -0.12935685 0.029903956 -0.079122156 0.08613212 -0.061074924 0.1453887 -0.05934266 0.16866632 -0.03500204 -0.008255777 -0.11173556 0.12774166 0.068288505 -0.059368804 -0.030072028 -0.18374094 0.0858741 0.18632327 -0.010998595 -0.28060535 0.085966714 -0.1483452 -0.08272336 -0.07770306 -0.07897131 0.012438036 -0.11219978 0.033985384 0.05635151 -0.0026520977 0.03947673 0.01859708 -0.12440366 -0.16576146 -0.2687294
INS_FieldAccess_PostfixExpression -0.31457016 -0.14335924 -0.0817897 0.046573706 -0.0051208725 0.15604763 0.18042278 0.16715105 -0.014098144 -0.109266356 0.058204196 -0.007868087 0.0017743253 -0.14889844 0.075913176 0.097622186 -0.081170425 0.13235928 -0.25122014 -0.12529898 -0.058374777 -0.08501336 -0.033317726 -0.04056194 -0.0154989 0.08974062 0.034768604 -0.14545448 -0.07206781 -0.14484175 0.26649356 0.021596037 -0.12272281 0.217068 -0.07318316 -0.2276505 -0.203326 -0.05253 -0.23269056 -0.01495371 -0.22610508 -0.013520023 -0.15650524 -0.09172519 -0.13310567 -0.091458976 0.10987578 0.028357577 0.06086828 -0.036570076 0.03665447 -0.046061378 0.19800663 0.010075863 -0.050258864 0.119886875 0.21988213 -0.04167472 -0.031136515 -0.0618813 -0.13166766 -0.038402334 0.07970359 -0.057630967
INS_MethodInvocation_ArrayInitializer -0.08014365 -0.06853474 -0.05425708 -0.109929204 -0.008170623 0.052643962 -0.13888444 -0.035355814 -0.08459312 0.10192524 -0.1486281 -0.17882653 -0.115988225 0.16621841 0.10541926 0.04557896 -0.16474895 -0.056980282 0.027730871 -0.3100518 -0.037866466 -0.0888391 -0.091438316 -0.041109424 0.038652893 0.10985547 0.34814733 -0.23264381 0.15442587 -0.1075193 0.2317657 -0.13591637 0.0924895 0.15512215 0.10942045 -0.13614671 -0.038353663 0.12978026 -0.09692648 -0.05987409 0.08090492 -0.054015364 -0.050817583 -0.10041027 -0.09443409 -0.04259622 -0.14047082 0.08847417 -0.08329702 -0.009169117 0.067863934 0.1375474 -0.0046195253 -0.2892232 -0.117714435 0.019149175 0.11157762 0.18220356 0.114894874 -0.038063906 -0.06280501 -0.10908104 0.09627388 -0.112880774
INS_MethodInvocation_ConstructorInvocation 0.3276198 0.0174496 -0.1430529 0.10229847 0.14108096 -0.23801905 0.18849918 0.07164569 0.2116225 -0.13521965 -0.035572443 0.18140283 -0.050157107 0.085387915 0.04594435 0.02535917 0.21977185 -0.2598797 0.17809889 0.04540097 -0.079324834 -0.064848475 0.08757344 0.08827758 -0.12765115 0.10564008 -0.03979793 0.0076485127 0.08987251 -0.042745735 0.109003685 0.15433 -0.039661605 0.118810914 0.021408334 0.05795224 -0.015157679 0.07091034 -0.043415934 0.04032723 -0.020870637 -0.059818607 0.124601506 -0.04767034 0.19579196 -0.050094824 -0.038317446 0.083701074 -0.12526907 0.098641336 0.14163512 -0.1655655 -0.12014669 0.09321945 0.10442253 0.26193783 0.12778543 -0.055249307 -0.067630544 -0.043581303 -0.07094018 0.10634578 0.13444172 -0.22117406
DEL_ArrayType 0.039165832 -0.10397567 0.039504554 0.1500457 0.25835088 -0.09708517 0.08971187 -0.18678343 -0.13595034 -0.11938559 -0.0016955235 -0.29088083 0.07046847 -0.04329335 -0.15083463 -0.026671348 0.16749676 -0.14904486 -0.055796478 0.19686003 0.032851648 0.0044134553 0.060499825 -0.017393116 0.0072203996 -0.055511214 -0.08454191 0.081356145 0.01665039 -0.055150636 -0.023228869 -0.17427553 0.063626565 -0.20350301 0.21409014 -0.06033068 -0.05949554 0.18480317 -0.13333008 0.059330676 -0.07386615 -0.20745505 -0.17639284 0.03276692 0.24119362 0.13617614 -0.18135217 -0.10802078 -0.1328882 0.056206055 -0.080825895 0.017147062 0.09048747 0.0446957 0.009785805 0.04724828 0.00507083 0.13609265 0.034836352 -0.24271235 -0.10213999 0.03749053 0.23019639 0.09462149
INS_SimpleName_PrefixExpression -0.05918839 -0.06963266 -0.08534672 0.09697126 0.17792667 0.2529492 -0.06281094 -0.15608867 -0.069261916 0.032712676 0.15374011 -0.012699166 0.06653832 -0.04876466 0.19786923 0.26030388 -0.07689019 0.10971478 0.06389962 -0.049738392 0.063039236 -0.120902024 0.03502046 0.0006720808 -0.18830435 0.056088515 -0.078679204 -0.24099763 -0.13555579 -0.12739523 -0.053595606 0.009285813 0.2249765 -0.016081808 -0.15171795 0.095661126 0.054466236 -0.12055797 0.13063684 0.08726066 0.077581316 0.03358359 -0.15653227 0.042145915 -0.15597051 -0.0069534415 0.20607014 0.11799815 0.22553086 -0.18972878 0.018098418 0.011265317 -0.12619321 -0.13035372 -0.040157355 0.051045213 0.160663 0.26696655 -0.052944787 -0.044780754 0.017304648 0.033794276 -0.17626673 -0.15684474
INS_WhileStatement_Block -0.025888579 0.044179678 -0.20085981 -0.071885824 0.0052796886 0.07283029 0.11051338 -0.30335492 0.024137467 0.14051504 -0.06997557 -0.18012366 0.08595299 0.006995033 0.036227744 -0.025908954 -0.07733151 0.15830366 0.06836894 -0.16852501 0.05880713 -0.19693372 0.021988362 0.021176474 -0.33563295 -0.012665736 -0.11708496 0.12498406 0.010235921 0.00090704224 0.042473596 0.21542059 0.06632095 0.0092056375 -0.15849467 0.08283358 0.17350653 -0.0012469839 -0.0113699585 -0.13209733 0.06515305 0.020479264 -0.030752989 -0.16053125 -0.046527095 -0.09266344 -0.0835137 -0.22528227 0.35137174 -0.06668909 0.053780854 0.24888706 -0.0304479 -0.17448115 0.0067907083 -0.18236457 -0.025516637 0.029799959 -0.0488083 -0.11301962 0.08787984 -0.03819939 0.09755783 -0.025304865
INS_FieldAccess_WhileStatement -0.11702049 -0.21049665 -0.086715244 0.013069395 -0.1132604 0.10999312 0.20252484 0.105609834 -0.19758433 -0.030498518 0.0779475 -0.17501587 -0.03337274 -0.14741522 0.12700476 0.13450007 -0.05294544 0.15131056 0.15186957 -0.12138033 -0.14598157 -0.017225357 -0.038954794 0.27997833 0.027780106 -0.10289949 0.318342 -0.12424447 0.00016480517 -0.021689603 -0.018683445 0.07661634 0.1445705 -0.0026671586 -0.07781644 -0.19147544 -0.22445942 -0.19300777 0.0048720827 -0.04647051 -0.059826028 0.034739245 0.0022973698 -0.12273349 -0.13653241 -0.18904991 0.021952214 -0.21731104 0.023987131 0.050766468 -0.038483936 0.07164184 -0.059511732 -0.11578635 -0.049751487 0.16171353 0.12571992 0.093487054 -0.19246674 -0.030198555 -0.0129219955 -0.068981774 0.1268657 -0.096882164
DEL_SingleMemberAnnotation 0.05239882 -0.17200671 0.32140827 -0.014423488 -0.08211935 -0.037825596 -0.21918656 -0.08774397 -0.27255395 -0.09110133 0.10965917 -0.12157621 0.06103075 0.092944115 -0.012962469 -0.08937368 0.12555313 0.04262268 -0.07499938 -0.052642196 0.11113715 0.022012569 -0.071175255 0.14009164 0.22262418 0.053425588 0.112203375 0.089044705 -0.042481296 0.04318503 0.0002922348 -0.04629542 0.0062419134 -0.21435937 0.13729787 -0.04884768 -0.18304479 -0.093219765 -0.18756822 0.13192663 0.048191056 0.07430225 -0.011270566 -0.003683711 0.051225565 -0.04811058 0.03255384 -0.22912748 0.22727904 -0.18800117 0.13280213 -0.11730833 0.0358707 0.086501725 -0.19499812 0.014057951 -0.17976314 -0.054648116 0.28246188 0.008054964 0.022443915 0.09065727 0.059609406 0.0823072
INS_FieldAccess_SuperConstructorInvocation 0.1713738 0.11729905 0.05316927 0.07123345 0.0063361395 0.04848521 -0.21784697 -0.060616974 0.23522647 -0.19411318 -0.1475625 0.0076309233 -0.031645615 0.033149313 -0.1283542 0.024598721 -0.120264485 -0.11743562 -0.051518958 0.016487276 0.21389845 -0.07076846 -0.076960504 0.049454898 0.07616961 0.004037609 -0.28684804 -0.07717611 0.096464716 -0.052900907 -0.1309117 -0.11033544 -0.116354026 0.10078013 0.012235355 0.13699515 0.17871027 0.27478623 0.09403541 -0.08644722 0.036669217 -0.0925016 -0.10076885 -0.044605095 -0.06947963 -0.012986253 -0.01753411 0.16268583 -0.061394706 -0.048865624 -0.00042170103 -0.20232248 -0.11615594 0.16308747 -0.10980217 0.123739436 -0.018155705 -0.07909156 0.023173857 0.11900597 -0.32113102 0.01796659 -0.17622532 -0.21240552
INS_PostfixExpression_InfixExpression -0.049979143 0.1818392 -0.06296502 0.117002964 0.070139766 -0.095223986 -0.42629948 -0.19951399 0.16329643 0.1328181 -0.20541956 0.14163584 0.13367522 -0.07938149 -0.13595682 0.011966392 0.043535434 -0.092873685 -0.05146395 0.023144457 -0.104201 -0.0019431142 0.06926676 -0.16562745 -0.08822754 0.055351824 -0.14088663 0.21312287 0.01473294 -0.08656039 -0.004541581 -0.010098221 0.0021002637 0.011237392 -0.05072148 0.0003664056 0.0821252 0.14298874 0.05782767 -0.054814473 -0.066851065 -0.024448859 -0.103596985 0.18610458 -0.06858038 0.095687546 -0.0040716683 0.027580177 -0.11212507 0.14391033 -0.14123528 -0.05869543 0.05392072 0.0037967286 0.030089667 -0.23872836 -0.20682639 0.005503605 0.04646539 -0.048594117 0.14848521 -0.29526806 -0.21318874 0.01825619
INS_MethodRef_TagElement -0.18023358 -0.024795044 0.043902945 0.12490554 0.06575935 -0.1416786 0.09857925 0.2542618 0.016998421 -0.23992074 0.18353888 0.052468054 -0.14159155 0.10408869 -0.029309906 0.065748185 0.109670796 0.06255847 -0.19225392 0.014044425 0.26036566 -0.2827496 -0.082455836 0.057176128 -0.025443116 0.24332541 0.30857784 -0.1343652 -0.11955933 -0.06453343 -0.01371713 0.020778932 -0.12490947 -0.0077474522 0.041341115 0.043565903 -0.04336714 0.02343008 -0.028687796 -0.12088546 -0.09846563 -0.054245822 0.013928239 0.024092156 -0.06929791 0.080106966 -0.037249546 -0.1068481 0.013644099 0.04055174 0.101442054 -0.109663524 0.07248433 0.25467196 0.06984054 -0.22258084 -0.031701837 -0.18912311 -0.13310948 -0.048344083 0.022887787 0.030999793 0.024086887 0.18707393
INS_ParenthesizedExpression_InfixExpression 0.027996026 -0.11319841 -0.081571095 0.10789236 -0.08751318 0.043818433 -0.08256294 -0.095922954 -0.02001216 0.053665776 -0.09730821 -0.00042588843 0.08429305 0.0022438574 0.17007321 0.14388712 -0.06582639 -0.023490956 -0.044266354 -0.18263993 -0.10170904 0.01848342 0.065040514 0.04465572 -0.1430382 0.014061842 0.38909703 -0.17241582 -0.086391985 -0.15380602 0.043156892 0.15604466 0.042320028 0.12372047 -0.07887334 -0.13830619 -0.0065389643 0.030930055 0.11430635 -0.11620616 -0.12092494 -0.012505471 -0.16325544 -0.05774816 -0.100690976 -0.0351704 0.16113274 0.060499948 0.082695626 -0.113141164 -0.1658987 -0.1272042 -0.16059339 -0.14307824 -0.14248225 0.0061382717 0.05712291 0.3168268 0.019304063 0.16621402 -0.018413696 -0.18718365 0.027157372 -0.32142574
INS_FieldAccess_MethodInvocation 0.05335416 0.02553163 0.0836127 0.08043998 -0.09129356 0.1870001 0.027925737 -0.036950268 -0.0364171 -0.10683428 -0.018118301 0.10714051 -0.099352434 -0.1712851 -0.17842671 0.035939727 0.09029445 0.1460236 -0.25081754 -0.19630003 -0.0014091381 -0.07981524 0.1707675 0.06243922 -0.09120213 -0.12733518 -0.1966629 -0.120079756 -0.091080345 -0.25216642 0.2096489 0.050872 0.10332753 0.20556328 0.03924501 -0.023847483 -0.07950694 0.19174382 -0.19672658 0.09169347 -0.08875608 -0.017367456 -0.10560659 -0.06493849 -0.15472779 0.06655058 0.24939765 -0.09736501 -0.041601527 -0.09592981 0.11357214 0.0010432297 0.06707357 0.22360034 -0.00091806165 0.14046629 0.08557773 -0.094515204 0.14511381 -0.17793855 0.057568133 -0.12648724 0.037414387 0.13310623
INS_FieldAccess_ArrayAccess -0.07275059 -0.12965547 -0.017675351 0.019545244 -0.110512674 0.21446374 0.07784139 -0.039929137 0.017086707 -0.20107819 0.0026709083 0.04870415 0.00636003 -0.08271896 -0.021763243 0.13805205 -0.007422793 0.1683368 -0.28742197 -0.0062730405 -0.10379712 -0.19092903 0.22694965 0.10281584 -0.05830077 -0.1345417 -0.06108551 -0.110341094 -0.16417398 -0.28223333 0.14653605 0.0073507046 0.08863167 0.34691444 0.07540004 -0.07361811 -0.18411931 0.22152069 -0.11110085 0.07194159 -0.06911802 -0.06896091 -0.22463116 0.11700043 -0.011613893 -0.059805643 0.16279563 -0.102761924 0.056375653 0.043452967 0.11691703 0.008178295 0.04728766 0.14751238 0.04139469 0.13238376 0.03873711 -0.026192961 0.11854062 -0.053549264 0.044776954 -0.050371 -0.121671006 0.034441542
INS_NullLiteral_ClassInstanceCreation 0.0433936 -0.15194373 -0.09755873 0.009045728 -0.028720878 0.011176688 0.023608709 0.17754102 0.07527231 0.009291737 -0.22752778 0.1847345 -0.067102864 -0.07010547 -0.07988765 0.0194927 0.18292786 0.020167274 0.22960913 -0.027605658 -0.02032659 0.1384237 0.1311429 -0.2355499 0.12887152 0.15028772 0.02354812 -0.21840377 -0.036328774 0.06074423 0.13634956 0.08347957 0.07824595 0.17498429 0.18209988 -0.058169167 -0.051269453 -0.07458089 -0.018614959 0.083072744 -0.046037037 -0.15768617 0.07152097 -0.021777015 0.08881349 0.058288716 0.20200045 0.11133444 -0.12700108 -0.14036165 0.037664425 -0.1378794 -0.2580038 -0.024931032 -0.15729621 0.1695061 -0.043182734 -0.09556603 0.10890911 0.12137698 -0.2906116 0.12231116 -0.022027824 -0.16355865
INS_QualifiedName_MethodInvocation -0.2556358 -0.047071926 -0.08592267 -0.084147476 -0.0017151851 0.03271216 -0.015913872 -0.04396946 -8.8768335e-05 0.11391331 0.19369729 0.0794066 -0.19405407 0.053753026 -0.29212406 0.08206587 0.02165531 0.019867351 -0.16343321 -0.15407115 0.06626734 0.0939662 -0.013142368 0.03877732 0.051068544 0.07137707 -0.101638906 -0.21590117 0.011917376 -0.16230081 0.011464984 0.046400025 -0.2542684 -0.07681908 0.002012682 -0.12303562 0.11338363 -0.07468916 0.0411516 0.23653543 0.016411576 -0.07664999 -0.10866422 0.01181272 -0.0216593 -0.051048703 -0.0069035566 0.16326942 -0.07718472 -0.2370962 0.063151784 -0.108640365 0.076297894 0.039571892 0.040698696 0.086064525 0.05829642 -0.046849947 0.21492524 0.05305311 -0.01542697 -0.42763674 -0.05592726 -0.14412528
INS_Modifier_AnnotationTypeMemberDeclaration -0.028016753 -0.3307987 -0.026893571 0.015425011 -0.034146342 0.06203956 0.36797172 0.2687244 -0.21506618 -0.075601086 0.10633398 -0.16437499 0.03519501 -0.09291625 0.1134442 0.04764046 -0.14249474 0.07865536 0.07214887 -0.025714735 0.104828395 0.07040652 -0.12647241 0.123587064 0.046728615 0.014355503 0.12282343 -0.17932262 0.035363447 -0.04694196 0.09693557 -0.008826412 0.009796225 -0.037360743 -0.120159335 -0.118816085 -0.032047223 -0.22782625 -0.06722718 0.017999178 0.15019117 0.010110129 0.120421834 -0.12049084 -0.069974646 -0.15368685 0.0004992504 0.06623407 0.0148993945 0.018214136 -0.014805468 0.15386575 0.0876704 0.09804761 -0.025226729 0.30911675 0.1325404 0.078164004 -0.092539124 0.03954724 0.0063610515 0.081523694 0.25886506 -0.030197512
DEL_TypeParameter -0.09868766 0.07238072 0.1671979 -0.018083025 -0.0309277 0.0788815 -0.045840397 0.18246084 -0.21154879 -0.19068432 0.06056154 -0.001848377 -0.15788233 0.08017227 0.021648152 -0.15850285 0.21331383 -0.06295859 0.034531932 0.120669104 -0.04649288 -0.009230685 0.07459759 -0.10257006 0.017495925 0.0027060446 0.20869607 -0.03545712 -0.0014555532 0.17298715 -0.0016160213 -0.1528506 0.11653786 -0.24116756 0.1877712 -0.06902405 -0.2330937 -0.019894948 -0.063403524 0.003967365 -0.012272123 0.029870946 -0.10913307 -0.04621169 -0.19875546 -0.007977657 -0.14266376 -0.051768016 -0.041994747 -0.19552623 0.21024337 0.07837202 0.044368953 0.001960936 0.008516357 0.08778439 -0.15753613 -0.17016262 -0.008565161 -0.043004617 0.009775669 0.107610606 0.16622311 0.38361198
INS_NullLiteral_VariableDeclarationFragment 0.12493165 -0.15726109 -0.0074083423 0.022106774 0.003636789 -0.08354559 0.17952986 -0.10933698 0.07820826 0.09160397 -0.12194753 -0.10021801 -0.045527473 0.002713188 -0.23175307 0.0693068 0.04169209 -0.013351376 0.14271675 -0.06534964 0.25128683 -0.069946915 0.013494207 -0.1977558 -0.055086512 0.05665393 0.0034458705 -0.13346688 0.051463883 -0.24542508 -0.09917785 0.18000995 0.0064532496 0.14230216 0.082799576 0.16952588 -0.103722066 0.020030346 -0.09140646 0.013912533 0.043900527 0.009214522 -0.03331896 0.11633434 -0.105156854 -0.08126059 0.14426157 0.043134984 0.28730565 0.08926926 -0.11785174 0.048183694 -0.14026055 -0.2305817 -0.1109804 -0.120332345 0.24605685 -0.14959228 -0.23367935 0.083409145 0.14342046 0.10011144 -0.118203916 0.12982805
DEL_VariableDeclarationExpression -0.21798447 -0.04398593 0.069637634 0.03507656 0.11193242 0.105616614 -0.04151278 -0.2014447 -0.038547747 0.17276347 0.07549795 -0.021245131 0.20583326 -0.19192773 -0.14216943 -0.032252308 -0.06527552 0.0919636 0.11610772 -0.121799886 -0.19397628 -0.027050175 0.13772966 -0.11716588 0.01385064 -0.18967053 0.15089837 0.077130236 0.014609197 0.092706434 -0.03595209 -0.023009399 0.15877876 0.01319528 0.023379814 -0.10392145 -0.057465915 -0.072742164 0.03335635 0.05584343 0.053612996 -0.07862831 -0.13135736 0.07290612 0.042344138 0.14183922 -0.24241105 0.050417703 0.12408361 -0.012407037 -0.23087616 0.22099786 0.13720375 -0.06099107 -0.35644394 0.021534402 -0.032563508 0.20213379 -0.15219902 -0.14306986 -0.025995208 0.06695609 0.105486974 0.1376289
INS_ParenthesizedExpression_EnhancedForStatement -0.06332232 -0.061125748 -0.07750893 0.008569741 -0.13680471 -0.24621573 0.06134618 0.2751868 -0.048897743 0.13081703 0.09696731 -0.0079873465 -0.22159463 0.118822135 -0.01497666 -0.076717936 0.12346593 -0.021373762 -0.19051866 -0.11518046 -0.077243894 0.0896273 0.14120094 0.053948738 -0.07951919 -0.02902726 0.23427628 -0.176794 -0.10799665 -0.14201006 -0.076170325 -0.072507866 0.12843037 0.10422092 0.22492886 0.16481544 0.13529353 -0.07258865 0.049351174 -0.047845833 0.11324647 0.1462279 -0.2178175 0.05737771 0.036659665 -0.1358973 0.01698288 -0.19293632 0.02106879 0.018720502 0.1494653 0.13981482 0.12156994 0.09310603 0.2650808 -0.1792093 -0.030129254 0.009826412 -0.032789927 -0.07998239 -0.0749869 0.1128307 0.0018582606 0.14036636
INS_ClassInstanceCreation_ConstructorInvocation 0.27253526 -0.104345925 -0.17348382 0.17639 0.13085434 -0.22327808 0.010833627 0.13478673 0.042904932 -0.18674444 -0.093780324 0.017712206 -0.052606054 0.01701419 -0.06682702 0.03861559 0.16029198 -0.07323009 0.25262755 0.1558018 -0.037743576 0.016878927 0.15295233 -0.114811815 -0.24132855 0.12305907 -0.16194578 -0.05194281 0.09429004 0.080852605 0.21485972 0.17537059 -0.081745304 0.14099705 0.015883805 0.02871336 -0.04360246 -0.08380095 -0.060044378 0.11806042 0.00016659686 0.009376496 0.032062694 0.11150344 0.11307827 -0.094564684 0.083956465 0.016542051 -0.22547936 0.121315956 0.17440583 -0.082648434 -0.0988355 -0.048598 0.12686217 0.17435612 0.15909989 -0.14136964 -0.088099815 -0.10078431 -0.078233 0.10079569 0.10807513 -0.11009853
INS_ExpressionStatement_EnhancedForStatement -0.08560433 -0.19673248 -0.07902285 -0.00028390522 0.11157757 0.14583202 0.25766134 0.19112639 -0.042943973 -0.0868457 0.057957314 -0.15451963 -0.004280192 -0.121715255 0.16197047 0.15917978 -0.10764805 0.069384225 -0.13937591 -0.18048713 -0.003026471 -0.023243055 -0.028540777 0.19719125 0.009157241 0.09315555 0.14426738 -0.17963858 0.041017607 -0.080576815 0.0138060795 -0.11666431 0.0764866 0.07370503 -0.034498516 -0.022325642 -0.13615718 -0.29372087 0.02674669 0.06433521 -0.113780394 -0.023822218 0.17444825 -0.11504751 -0.027923862 -0.22761814 -0.14531042 -0.0706975 0.10059137 0.048105314 -0.023376003 0.17279501 0.14484403 0.005117588 -0.1908365 0.2888122 0.20648721 0.07556248 0.010532606 0.042891666 -0.059204187 -0.087253556 0.08974445 -0.06263408
INS_NullLiteral_ReturnStatement -0.037726883 0.008383552 -0.038992334 0.05854754 -0.19524968 -0.05749293 0.28725347 0.09009737 0.072156504 0.13221619 -0.20770669 -0.022955539 0.008976856 0.06957156 -0.040472455 0.08133389 -0.025893345 0.17008148 0.09025291 0.2697203 0.17257944 0.11382857 0.15860058 0.06767717 -0.20400919 0.1336225 -0.02706722 -0.007290721 0.05326815 -0.11175426 -0.08358703 0.12261998 -0.032752972 -0.053504348 0.045468047 0.08108334 0.0343734 0.019638859 0.13947363 0.16781916 -0.20653005 0.20215435 -0.07184782 0.04867888 -0.30294308 0.03604369 -0.047432702 0.17961901 0.078157894 -0.13150391 0.02878889 -0.09795195 0.10221383 0.22125947 -0.2586122 -0.043711275 0.02648781 0.086464055 0.009666473 0.11316798 0.10704855 0.018872866 -0.15754311 -0.03545388
INS_Modifier_FieldDeclaration 0.12197222 0.009938888 0.13262844 0.051562272 -0.12648597 0.0032722012 -0.029661387 -0.0884815 -0.13653894 -0.033710912 -0.05777619 0.115318485 -0.025753245 0.0047824816 0.10239261 0.05084562 -0.11058594 -0.19624458 0.00052022334 -0.019463452 -0.07745305 -0.20903842 -0.1269065 0.010295819 -0.06725472 -0.25770777 0.094063595 0.20775537 0.28166786 -0.018189104 -0.008994318 0.1110914 -0.21638675 0.11948397 0.008362227 0.120800644 -0.12223178 -0.12782475 -0.08301582 -0.2404202 0.036212303 -0.10523072 0.32792312 0.095609546 0.20201497 0.10798682 -0.031111676 0.09997896 0.15204176 -0.06157661 0.09298208 0.034886364 -0.08952464 0.0919745 0.052860186 0.081327654 0.16857947 0.06029547 0.0025049036 0.15705603 -0.05975034 0.04847433 0.007851062 0.2612064
INS_QualifiedName_SingleMemberAnnotation -0.0866087 -0.13432533 0.15578505 0.028020876 0.089691065 -0.18020016 -0.09103013 0.17335883 -0.14457871 0.024411684 0.078113 -0.22116594 0.29929826 0.09266933 -0.10322621 -0.054487694 -0.0791582 0.06516147 -0.060466055 -0.04495443 0.05575027 -0.029524207 -0.08521832 -0.04111257 0.0898019 0.057879616 -0.03593001 -0.057149407 0.24856713 -0.063568704 0.09077869 0.08660295 -0.18950078 -0.08596099 0.09554017 -0.19209771 -0.008141018 0.010498928 -0.16444246 -0.062296256 0.035672236 0.18603145 0.17952465 -0.15909174 0.032801464 -0.066414475 -0.06888782 -0.13916929 0.12678024 -0.099124685 0.21665794 0.016141215 0.109766915 -0.07055492 0.06379053 0.025709555 -0.08330506 0.006576269 0.072017156 0.17941105 -0.2631637 0.1498604 0.28176278 0.042571016
INS_SimpleName_MemberRef -0.15071826 -0.017968627 -0.07734841 0.08851312 -0.040385876 -0.034030806 0.16993716 0.23051898 -0.014275164 -0.3198644 0.27543014 0.07879436 0.013684707 0.11946846 -0.10121444 -0.06796433 -0.0196701 -0.04286766 -0.18911389 -0.096282035 0.026664028 -0.34164277 -0.0036036 0.11788262 0.06177783 0.2021317 0.11486708 -0.06929881 0.09762904 -0.02960204 -0.0038634508 -0.09198324 -0.21026051 -0.1628875 0.074048534 0.041307885 -0.11946667 -0.053562324 -0.02999808 -0.118870944 0.009530827 -0.12772521 -0.13239521 0.18796074 -0.05201507 -0.1446261 0.026161112 -0.040517464 0.051075842 0.08605152 0.06751231 -0.124591395 -0.06699443 0.27444103 0.1871948 0.066049404 -0.085008204 0.13433003 0.04262706 -0.102633454 0.020365106 -0.08101601 0.014452441 0.06961376
INS_NumberLiteral_Assignment -0.06302782 -0.07527614 -0.03209826 0.097380295 0.015110575 0.16570431 -0.0022431281 -0.24250911 -0.12142292 0.019903013 -0.057016816 -0.013544021 -0.06145995 -0.04420734 0.10034088 0.19719844 -0.07938891 -0.044963982 0.047821056 0.018608565 0.004218101 -0.12263708 0.12179313 -0.001902016 -0.16841823 -0.121228375 0.09257881 -0.021535771 -0.24631001 -0.3196444 0.040480454 0.12799644 0.16243374 0.117167644 -0.08605652 0.039886497 -0.09590854 -0.004802158 0.030862762 0.06742253 -0.17158048 -0.00999687 -0.16743226 0.11596988 -0.08957658 -0.020966513 -0.07014619 -0.014582232 -0.06657525 0.13613574 0.12679626 0.10730722 0.042777047 -0.22631696 -0.0650947 0.072323285 0.45062873 0.069352806 0.028996013 0.054484252 0.070169784 -0.22589165 -0.1268238 0.032097824
INS_ArrayType_SingleVariableDeclaration -0.1948651 -0.08478156 -0.0052353074 0.08949866 0.0010221943 -0.024313184 0.15524802 0.015968917 -0.024187142 0.017558794 -0.22726865 0.23549548 0.015259614 -0.06475782 -0.038026232 0.050089996 0.12549953 0.22931992 0.23031813 0.09902181 0.16858351 -0.09644134 -0.016019484 -0.15248193 -0.11538741 -0.06735232 -0.041752487 0.16651735 0.042146776 0.18033224 0.16791974 0.19481704 0.027497215 -0.11301641 0.08306507 -0.14556873 -0.16338731 0.117652774 0.017509613 -0.034424614 0.054381676 -0.043501947 -0.03754976 0.08706271 0.11455546 0.044798456 -0.1215071 0.09689079 0.02103442 -0.07484991 0.122108005 -0.1392691 0.3431686 -0.22377174 0.12020279 0.0040781386 -0.09614722 -0.09884788 -0.052914046 0.07479811 0.07097712 0.08420446 0.18143812 0.18275686
MOVE_MethodRef -0.026515191 -0.0069187954 -0.056487408 0.118718676 -0.054019976 -0.0452416 0.19710638 0.10016465 0.08175438 -0.12504196 0.15755914 0.05038168 0.040787198 0.12718558 -0.03701377 0.08596108 0.14465967 0.03555517 -0.17190838 0.04287134 -0.0021056389 -0.14656326 0.16970392 -0.08478478 -0.06387253 0.11980334 -0.14505272 -0.09679144 -0.07144161 0.13888204 0.051758733 -0.08305141 -0.11573335 -0.027465845 0.093819946 -0.016530784 -0.22498688 0.11548394 -0.04443258 -0.010282669 -0.05034206 -0.0144272735 -0.32544336 0.037405085 0.04350252 -0.13716334 0.105664924 0.040485904 -0.056614373 -0.11482147 -0.07337503 -0.11190224 -0.108080566 0.46669587 0.100788064 -0.027655078 0.06428891 -0.2482253 0.0061561493 -0.08805791 -0.04039157 0.26277283 0.014695003 0.07747079
INS_QualifiedName_MemberValuePair -0.010999799 -0.086047634 0.25955957 -0.033133492 -0.08081832 -0.049081627 -0.034279503 0.085537046 -0.15978965 0.083775006 0.04074995 -0.06975373 0.019234728 -0.0929117 0.27322477 -0.014809265 0.11635328 -0.005113173 0.12166606 0.24509054 -0.036315866 -0.023623634 -0.015233992 -0.14587943 -0.13137889 0.13660716 -0.043384902 -0.041936416 0.27134284 0.1717289 0.06592442 -0.12438286 -0.06046794 -0.28280172 -0.16478764 0.019473827 -0.0399213 0.12548728 0.10360515 -0.11623458 0.051604643 -0.0128854625 0.11509928 -0.009408123 -0.23151433 0.14853181 0.07461926 0.061742306 0.029823298 0.00031839247 -0.0070383763 0.024361944 0.121799745 0.27976298 0.23321268 0.077124946 -0.046161108 -0.10515163 -0.23905481 -0.07980411 0.037658248 0.026874384 0.1466036 0.005667456
INS_EmptyStatement_SwitchStatement -0.062833585 -0.21887894 0.03712508 0.061425284 -0.13351543 0.05356814 0.29164433 0.16646853 -0.115821525 0.032052238 -0.036570888 -0.1429862 0.09829557 -0.06784848 0.057444517 0.04895736 -0.16349189 0.019953966 -0.009359666 -0.12489255 0.09367663 -0.040159076 0.08190865 0.17726363 -0.05036261 -0.050310574 0.31759885 -0.17172796 -0.10365177 -0.02484438 0.0018530593 0.13707222 0.09825277 0.017992426 -0.05563697 -0.040115435 -0.21080707 -0.30001205 -0.009691362 0.0510264 -0.07068046 -0.06171682 -0.0068560545 -0.16324896 -0.01329221 -0.27264857 0.044888638 0.0016640883 0.22125334 -0.0043918844 0.03919375 0.1365888 0.015075812 0.11642217 -0.06631798 0.2531432 0.06833277 0.10820428 -0.10971011 0.08236759 0.03924096 0.0126983505 0.14310606 -0.1541556
INS_TypeParameter_TypeDeclaration -0.080828674 -0.17348477 0.059848413 0.19533001 0.005795082 0.105017014 -0.056600776 0.036139585 -0.24014848 -0.10864164 0.111442626 -0.089568205 0.13851708 0.010780232 0.0015798372 -0.22226678 0.28339085 0.033293765 0.06663772 0.08476268 -0.08797797 0.12015327 0.08014493 -0.016385734 0.039386343 -0.09363926 0.3477153 0.14315799 0.06882628 0.04157907 -0.052690763 -0.0018344839 -0.11985907 0.07278904 0.046680268 -0.03443411 -0.07531224 0.20154946 -0.026626814 -0.11692858 0.014176874 0.04929238 0.108811565 0.111459844 -0.0072252965 -0.17288776 -0.14494722 -0.06491941 -0.1329132 -0.08731255 0.15683503 0.017157909 0.07294587 -0.022680318 0.12360033 0.17370892 -0.33033594 0.13224305 -0.03113973 0.10500553 -0.12173037 0.026869688 0.20580979 0.02867588
INS_SimpleType_VariableDeclarationStatement -0.021778699 -0.21025258 -0.18641508 0.1711596 -0.13301541 -0.22000638 0.11694415 -0.06307719 0.2213017 0.27771196 -0.13225543 0.052383844 -0.11644072 0.13798596 -0.12885416 -0.07240757 0.10905461 0.16195633 -0.1336824 0.10218852 0.14471099 -0.028734444 -0.040587272 -0.16113317 0.024945319 0.049774688 -0.11842174 -0.3159832 0.0006150643 -0.073631175 -0.09150355 -0.01854653 0.11324388 0.10173489 -0.07038096 0.060488723 -0.06195213 -0.0013888307 0.0009416892 0.21757384 0.010662538 -0.17717712 -0.11943675 -0.03138096 -0.098757416 0.099507466 0.10716058 -0.098467395 0.22317122 -0.11301372 -0.030508857 0.054534476 -0.15082906 -0.06575212 -0.045214582 -0.2003845 0.025855 -0.1435607 -0.0901787 0.080215946 0.08286791 -0.058750037 -0.06489331 0.056024183
INS_Block_SwitchStatement -0.12348984 0.05870943 -0.10511156 0.061869513 0.039425578 0.07783107 0.08143158 -0.020379579 0.025393397 0.09885019 -0.008851034 -0.019772016 -0.22139001 -0.10665777 0.028825251 0.25526062 0.018729065 -0.0015977668 -0.06453773 -0.31926772 -0.0051492974 -0.13252537 0.010754715 -0.017611884 0.045644954 0.2476197 0.124514416 -0.003506416 0.04311274 -0.16843899 -0.03094744 -0.079408705 0.1342497 0.12484264 0.25524744 -0.10563887 -0.048761394 -0.016284596 -0.23742193 -0.0480567 -0.115983516 -0.09617001 0.11739278 -0.25366762 -0.110004835 -0.016169576 -0.04904622 -0.06104067 -0.12019676 -0.10297728 -0.07875884 0.20124012 -0.21568605 -0.19595492 0.0683834 -0.14053553 0.018016132 0.18182908 0.010459098 0.05307641 -0.06835201 0.023055712 0.10386914 -0.22285286
MOVE_ArrayAccess -0.10058735 -0.12966982 -0.13957211 0.15696219 -0.051701266 0.028882856 0.022237627 -0.08867772 -0.006590737 0.018495312 0.107638106 -0.24044052 -0.050625477 -0.056446683 0.0914161 0.30317727 0.011744162 -0.0013403794 -0.13686624 -0.12442526 0.017445358 -0.1263755 0.2172716 -0.085768044 -0.17914136 -0.09663383 -0.030957213 -0.012208811 -0.20948625 -0.28087446 0.04195034 -0.10557883 0.020643827 -0.019396432 -0.21517721 0.05085665 -0.14173014 0.0962514 0.008492209 0.08029577 -0.017973231 -0.19984855 -0.23304066 0.16253142 0.01930527 -0.03140536 -0.06865016 -0.07743715 0.027121717 -0.113424085 0.11779338 -0.010996297 0.15953976 -0.14627652 -0.23412816 0.0080949105 0.017282432 0.21440391 0.04715308 -0.16454801 0.06771389 -0.16266544 -0.05134024 0.02599353
INS_SwitchCase_SwitchStatement -0.029551748 0.014751687 0.014668439 -0.102035776 0.07729031 0.032696202 0.106256366 0.057862412 -0.0322813 0.082740024 -0.16833659 -0.020386029 -0.22673139 -0.14229777 -0.06906265 0.22212437 -0.088654205 -0.04737214 -0.12436123 -0.04884152 0.09896681 -0.3140532 -0.17630652 0.048490837 -0.048832763 0.20488018 0.15995583 -0.027641874 -0.10491973 -0.12369718 -0.032403413 -0.10466886 -0.04400666 0.1329392 0.052744407 -0.061932143 -0.10942979 -0.13806991 -0.12475434 0.17993036 -0.17089388 -0.07699077 0.107061125 -0.35181737 0.0053579104 0.071782194 -0.023828775 -0.02132085 -0.1740104 -0.12020496 0.03938779 0.008859831 -0.11343451 -0.13200104 0.09668318 -0.13447005 -0.1525759 0.19793978 0.0011218368 0.08183164 -0.06833243 0.06541711 0.13789064 -0.20586213
INS_CastExpression_MethodInvocation 0.029662246 -0.12201566 -0.050320283 0.06569043 -0.098865844 -0.10301841 0.07146119 -0.19945118 -0.19518869 0.053391565 -0.13101597 -0.08043008 0.038589098 0.05690428 0.03905617 -0.035659116 0.06387303 -0.18793887 -0.26171997 -0.10961099 -0.13926679 -0.005141282 0.0140243415 0.056329038 0.008316562 -0.023832498 0.21514443 -0.012788687 -0.077475436 0.009360944 -0.09527859 -0.07530734 -0.08999069 0.22113515 -0.07312194 -0.0015443915 -0.015447594 -0.17131092 0.045608994 0.32328627 -0.11929352 0.16069971 -0.43963423 0.027152296 -0.009554578 -0.010109369 -0.13953005 -0.09451055 -0.12490059 -0.071124576 0.11598726 0.07588509 0.18835984 0.16801281 0.06639401 -0.07537057 -0.032822996 -0.09431544 0.031722326 0.01475611 -0.0288918 -0.12677924 -0.16095202 -0.022374883
INS_PostfixExpression_ClassInstanceCreation 0.06349678 -0.20408693 -0.18197311 0.08057112 -0.11992067 0.034715135 -0.024476085 0.30640408 0.027631246 -0.009448791 -0.012253997 0.04554491 0.0041946257 -0.121328205 -0.02447766 0.12023459 0.102409266 0.12984066 0.18795499 -0.19788814 -0.10174858 0.07526837 -0.02308296 -0.021041587 0.0884362 0.03553723 0.0019522642 -0.13990772 -0.06986279 0.05397626 0.36105394 0.17959854 0.022056784 0.21639945 0.057085387 -0.1707592 -0.02501288 -0.2607147 0.01710176 0.10013098 -0.008734893 -0.028545767 0.13106783 -0.08473324 0.05756398 0.00086333754 0.124682836 0.0118066445 -0.23274933 -0.023679001 0.034089617 0.086441115 0.017070556 0.041796193 -0.15415813 0.2640333 0.0082498705 0.08571447 0.00033657954 -0.1626112 -0.014053068 0.13152315 0.174968 -0.10061605
INS_CharacterLiteral_MethodInvocation -0.120460406 -0.26670575 -0.100199856 -0.008932402 0.14275847 -0.15101106 -0.102637485 -0.053172637 0.12185244 0.30568865 -0.12648769 -0.2035293 0.019432914 0.04466373 0.1658424 0.23184235 -0.07595277 -0.2146323 -0.2562071 -0.3084649 0.024922669 -0.10944068 0.082663216 -0.07860921 -0.06379331 0.116382755 -0.05408647 -0.05390657 0.19677508 -0.0385728 -0.0825663 -0.06298047 0.043685157 -0.16577297 -0.111550905 -0.0018077274 0.015492045 -0.12398457 0.14817809 -0.03752675 -0.07831668 0.20607252 -0.01602763 -0.019190157 -0.026981119 -0.124573424 -0.18688327 0.12798236 -0.061599925 -0.043722726 -0.0783292 -0.059524007 -0.004395969 0.046449296 -0.120627284 0.08870821 0.08891429 0.119897544 0.07377493 0.021533111 0.119045906 0.059604704 0.0030565362 -0.046668433
INS_ConditionalExpression_SuperConstructorInvocation 0.13465793 -0.1904298 -0.061736707 0.13324453 -0.018515386 0.04759935 0.34474108 0.13112342 -0.19489136 -0.11207721 0.2142802 -0.06545537 0.19871289 -0.1684704 0.098502904 -0.027834617 -0.041650318 0.03890948 0.14139171 -0.17748806 -0.10115739 0.027521325 -0.025691677 0.04564763 0.12919952 0.115112476 0.07830807 -0.1322387 -0.11226102 0.06863125 0.19612744 0.031118607 0.07282742 0.11797901 0.039389577 -0.081258886 -0.19706066 -0.13309087 -0.03934348 -0.00945922 0.08423494 -0.08662731 0.0504972 -0.060834844 0.11054949 0.0012584443 0.0812951 0.08104343 -0.027423173 -0.0007873833 -0.06532314 0.11380908 0.10734721 0.1750764 -0.13262798 0.24296987 -0.071297914 -0.027266499 -0.07748311 -0.10255243 -0.08902478 0.16338377 0.3088677 -0.08101327
INS_SuperConstructorInvocation_Block 0.20367157 0.101240195 0.051370215 0.18135361 -0.13091941 -0.107508235 -0.058526922 0.090160765 -0.13089734 -0.08638675 0.14275081 0.1143719 -0.06576075 0.075307235 0.12402239 0.025214138 0.017990706 0.029786568 0.2418215 -0.020889163 -0.012052034 0.15207104 -0.0704044 -0.046261452 -0.05080329 0.016231637 -0.012307944 0.24823889 -0.24440256 -0.21067256 0.24893343 -0.017641485 0.00817137 -0.027830007 0.0586514 0.11929706 0.020064792 -0.21237034 0.060099665 -0.12664421 -0.01179027 -0.02365334 0.32659173 0.22721161 0.020055115 -0.041517653 -0.098177396 0.03968605 -0.08981283 0.0204214 0.098898664 0.09182008 0.078601904 0.104385585 0.21466804 0.05084581 -0.14463411 -0.14237627 0.054927893 0.029906766 0.14208874 -0.16795987 0.1478599 0.05585191
INS_ClassInstanceCreation_SuperConstructorInvocation 0.10203618 -0.17128515 -0.14682202 0.22577558 -0.10680219 -0.22499597 0.09393723 0.23356643 0.039330047 0.07340898 -0.1127406 0.077870354 -0.030220008 0.06469702 0.035259455 -0.19168195 0.056457624 0.014170671 0.08204292 0.16579367 -0.22925997 0.12941815 0.16319896 -0.10830743 0.030023914 0.113453716 -0.024457704 -0.097460784 -0.1183237 -0.05665685 0.22371197 -0.0045360574 -0.1554847 0.15107483 0.093168326 -0.013463787 -0.08112501 -0.24274792 0.049037967 -0.0116507765 0.08480478 0.035191495 -0.08790305 0.058269262 -0.023264114 -0.11766352 0.005593918 0.087169476 -0.19449504 -0.10423853 0.29137877 -0.12179064 -0.022536594 0.07804535 0.16382279 0.15038393 -0.09365664 -0.25223807 -0.009121569 -0.059001252 -0.0018371135 -0.040202796 0.09325739 0.02922461
INS_ContinueStatement_IfStatement -0.12083141 -0.19571687 0.036085483 0.0732806 -0.1145275 -0.14552581 0.15947351 -0.109991714 -0.08870035 0.20658426 -0.13727383 -0.079242304 0.010319626 -0.13914537 -0.12619871 -0.027287604 -0.038065344 -0.062820666 -0.08819326 0.12689759 0.03283437 -0.020773325 0.06606244 -0.0048536835 -0.037350863 0.13700132 0.1374775 -0.14735958 -0.16876672 -0.038831636 0.03250018 -0.06805471 0.13031305 0.23237082 0.076645896 -0.02639788 -0.016828226 -0.17977531 0.06217257 0.27426982 -0.09934091 -0.117574506 -0.09667908 -0.0428578 -0.15204912 0.07528239 0.074997656 -0.104106314 -0.092112236 0.016623883 -0.26816747 0.14659779 -0.13897818 0.10283809 -0.2764837 -0.117308035 0.21295694 0.03238473 -0.03865976 -0.021936405 0.068866305 -0.09116063 -0.26536882 0.04104479
INS_VariableDeclarationFragment_FieldDeclaration -0.023214815 -0.1813654 0.2566417 0.010972834 0.0027380914 0.13654478 -0.08007779 -0.0024860154 0.05898956 -0.10897966 -0.11457121 0.04117341 -0.26374042 -0.04963718 0.01557172 0.0071883104 0.07162531 -0.013592872 -0.04803568 0.1654447 0.11570672 -0.08296862 -0.019934015 -0.124165244 0.022470836 -0.13941142 0.23713048 0.10784054 0.2271888 -0.1562147 -0.02357285 0.13739984 -0.11636965 0.07699379 -0.04929136 0.027002059 -0.09267468 0.07390454 -0.022795202 -0.09670807 -0.10799012 -0.15657485 0.31524447 -0.13305649 0.16857174 0.115416445 -0.02237262 -0.037169237 0.14098054 -0.02490231 0.201767 0.088931955 -0.048728295 -0.17316233 0.18270536 0.0121656265 0.06655007 0.0026078525 -0.27500442 0.09557653 -0.090951756 -0.02509318 0.20483208 -0.013856235
INS_SimpleName_ArrayAccess -0.05232259 -0.05873886 -0.12293636 0.097110145 -0.03806028 0.11100357 0.15367694 -0.12423678 0.076908015 0.08439492 0.19834894 -0.07839247 -0.009670075 0.0038295093 0.0358442 0.23607579 -0.031930793 0.060621057 -0.11227854 0.016951 0.0053328704 -0.031542033 0.17138025 -0.11315663 -0.26212987 -0.10984645 -0.18820494 0.05593891 0.007087391 -0.2459272 0.06734073 0.03572162 -0.054263435 0.021976657 -0.23323093 0.091824874 -0.13087223 0.025947327 0.10022624 0.16090794 -0.061981283 -0.1567681 -0.2786936 0.16390108 0.02436792 -0.011218229 -0.0802046 -0.020498076 0.11245213 -0.19598386 0.106501654 0.036273383 0.11479278 -0.23541105 -0.24601246 0.05763538 0.09310736 0.19843942 0.11071358 -0.10983275 -0.03375863 -0.114450276 0.02453899 -0.102276094
MOVE_SynchronizedStatement -0.24212794 -0.041333668 0.20297943 0.21555895 0.047374714 0.16362111 -0.15778746 -0.11366772 -0.13990054 0.17743199 -0.010225342 0.061528955 0.16885102 -0.0770975 0.06254967 -0.08763748 -0.011815836 0.044708326 0.20374891 0.006651604 0.15769705 0.014330602 -0.03636984 0.12977593 -0.18298976 -0.1169882 0.060225256 -0.04716801 -0.13157815 0.04646802 -0.054158196 0.2662776 -0.07154237 0.11461087 -0.0018645227 0.110162996 0.07700651 0.08637552 0.07350434 -0.050892755 0.013553184 -0.03929307 0.07471808 -0.053477317 -0.12978706 -0.080070175 0.04262366 0.076920226 -0.06863365 0.3183795 -0.10482219 0.08263524 -0.0697638 -0.17923734 -0.1628158 0.08329253 0.18715599 -0.07297249 -0.14974254 0.083847895 0.26899424 -0.08255651 -0.05701034 0.10681151
INS_SimpleType_ClassInstanceCreation -0.12789935 -0.237464 -0.11016131 -0.055626504 -0.2231064 -0.047141843 0.060009863 0.1183158 0.059101548 0.039166845 -0.15682207 0.10791872 -0.053685416 -0.07101633 -0.09703794 0.022879394 0.19606997 -0.027498752 -0.09648133 0.13164581 0.03260773 0.047887385 0.23753047 -0.23372781 0.010448093 0.24394865 -0.11578759 -0.09946508 0.06338256 -0.01976412 0.05821312 -0.012860883 0.19050327 0.11801166 0.22402443 0.006739872 -0.057324257 -0.15088205 -0.07480055 0.109383054 0.06535101 -0.13257055 -0.03564877 0.035743304 0.09676116 0.11378609 0.05746287 -0.003461384 -0.17262466 -0.012450186 0.016558249 0.07154625 -0.08130298 -0.12125505 -0.10880658 -0.04957037 -0.1560106 -0.24389353 0.1347228 0.24883276 -0.038163636 -0.22948712 -0.09868046 -0.13920818
INS_Block_EnhancedForStatement -0.09889844 0.013467666 0.014703912 0.012315486 0.052466698 9.650429e-05 -0.04332352 -0.15209025 0.0057027284 0.21248385 -0.03577504 0.05772621 0.031190034 -0.16686434 -0.08320971 0.037276063 0.0017577235 -0.029921923 0.10284096 -0.002053383 -0.10740107 0.03685176 -0.13146085 0.06135502 -0.027077997 -0.0334124 -0.14718999 -0.28545249 -0.07421516 0.059493672 -0.22378072 0.08835529 0.19704664 0.07251815 0.0017626549 0.011304095 0.21086799 -0.072093315 0.121995084 -0.0073672426 -0.04914793 -0.21868367 -0.020251825 -0.171755 -0.11006194 -0.21657392 -0.06933591 -0.27482018 0.23084216 0.18572491 -0.04463137 -0.051543016 -0.074252576 0.05459456 -0.2823305 0.19302644 -0.086821996 -0.042115245 -0.16918407 -0.0788558 -0.21533544 -0.020734249 -0.14296262 0.0059588486
DEL_TagElement -0.08319994 -0.026167823 -0.060876973 -0.05083148 0.045486826 -0.114424944 0.06056679 0.20853695 -0.28105605 -0.14548014 0.18088086 0.04274906 -0.15689147 0.08730784 0.086535215 0.12902535 0.20315544 -0.034683075 0.094155684 -0.1453778 -0.149342 0.112417825 0.15185721 0.033848703 0.039311476 0.08299615 0.24957903 0.07228747 0.013767235 0.22330987 0.06987514 -0.16122186 -0.10322981 -0.18164277 0.035991147 0.123993315 -0.07037444 0.010218464 -0.034372475 -0.15653455 -0.15123077 0.0041721123 -0.13528717 0.054268826 -0.11725081 -0.027779615 0.1210682 -0.08595142 -0.03524817 -0.03621244 -0.02361665 -0.025294773 0.18977988 0.17077535 -0.10202262 -0.026012532 0.10447065 -0.05510466 0.07010881 -0.17326333 -0.20258103 0.17025341 -0.052040692 0.26609632
MOVE_ThisExpression -0.15639402 -0.30276614 -0.075524494 0.107409 -0.14737648 0.1313935 0.3836222 0.29537314 -0.20163395 -0.20766436 0.09269603 -0.19522573 0.0806976 0.008845048 0.11750268 -0.06727673 -0.056032915 0.0014176761 0.014218953 -0.06921167 -0.023611765 -0.0041195564 0.028088072 -0.052815195 0.015015469 -0.038558267 0.20637149 -0.16328524 -0.05718506 -0.019757427 0.021136025 -0.011732765 0.06507331 -0.05653956 0.10061886 -0.033724733 -0.13917221 -0.2009276 -0.055914313 0.025085717 -0.010652757 -0.027936123 -0.013637254 -0.17558815 -0.09633258 -0.111554146 0.021570222 0.051057566 -0.045444615 -0.009878566 -0.0042335824 0.092930876 0.0537851 0.19338056 -0.013032529 0.27949342 0.15291695 0.08917933 -0.0697076 0.07014246 -0.0043285713 -0.0201807 0.20077136 -0.0138815055
INS_ThisExpression_AssertStatement 0.17108259 0.07258318 -0.12914476 0.004040349 -0.16622783 0.032440778 0.13117513 -0.019186832 -0.05887825 -0.116221465 0.16861905 0.1994287 0.030812161 0.15374602 0.004952577 0.11007629 0.13583723 -0.10379785 -0.14814049 0.050749656 0.14927992 -0.005045684 0.07930128 -0.017831841 -0.02271557 0.07091334 0.18204623 0.17507498 -0.18413909 -0.054571856 -0.25951838 -0.054603226 -0.108874924 -0.059914175 -0.24624828 -0.091946006 0.03558881 -0.1308438 0.21015857 -0.19336604 0.045653053 -0.08237753 0.021202646 0.26385835 0.05515426 0.0065069385 0.044308923 0.046971224 0.027615003 0.061376322 0.0040921606 -0.09639843 0.13305216 0.1821175 -0.02380097 0.08767005 0.021435725 0.1579487 -0.0118965255 -0.19521584 0.01495348 0.13529822 0.2745225 0.14212503
INS_QualifiedName_InstanceofExpression -0.17110273 -0.031811427 -0.2145219 -0.020493088 -0.1478406 0.07689002 0.0020208869 -0.22520112 -0.16262607 0.056916002 -0.13291417 0.017285872 -0.20056143 -0.047318857 -0.06978331 0.04196162 0.057122264 -0.008941651 -0.18831296 0.08223124 0.16967092 0.13647193 0.027917828 0.10291958 -0.022892354 0.045512836 -0.09854908 -0.13862024 -0.1837253 -0.08231142 -0.03837261 -0.052824203 0.014289405 0.005433793 -0.22256717 -0.059682183 0.253257 -0.037761267 0.15998207 0.02043663 0.025499951 -0.13043247 -0.3700623 0.06949466 -0.13934878 -0.08493259 -0.018482037 0.018093074 0.16783503 -0.14012511 0.21016787 0.03729365 0.043720435 0.025401173 0.12157263 0.14164212 0.034956254 -0.036363564 0.15089616 0.10722706 -0.21339333 -0.11911602 -0.0917104 -0.0032789216
DEL_CharacterLiteral 3.9475828e-05 -0.09255557 0.048999406 0.17301169 0.008385193 -0.06526506 0.072409645 -0.025018942 -0.18715042 -0.24062364 0.19361955 -0.010025884 0.018494936 -0.10751566 0.018121403 0.118980385 -0.16424122 -0.08736616 -0.23788023 -0.032875728 0.024931382 -0.09373036 -0.05730678 -0.21700919 0.11906027 -0.12102808 0.017672699 0.16127075 0.1891145 0.118289314 -0.16130848 -0.19060832 0.037677888 -0.26867354 -0.0662261 -0.17318211 -0.0046949093 -0.048966046 0.040036734 0.022941638 -0.11495233 0.18291183 0.02254142 0.0626253 -0.045673717 0.01635247 -0.1415803 0.12924223 -0.14694887 -0.027856298 -0.0460985 0.13613155 -0.10720989 -0.041472096 -0.20593637 0.100916065 -0.016868042 0.2924121 0.13146985 0.0017425085 -0.1890026 0.0043721627 0.050742514 -0.14044863
INS_SuperMethodInvocation_ArrayAccess -0.011736347 0.29907542 0.17524841 -0.0075956807 -0.05755402 -0.02162878 -0.30732176 -0.24316116 0.23781061 -0.0021893608 -0.16922231 0.23161034 -0.11451521 -0.0033751912 -0.08940432 -0.098006815 0.15219152 -0.042903427 -0.14135961 0.14948894 -0.017381951 -0.10332231 0.08812473 -0.15258013 0.050685383 -0.10527547 -0.18932295 0.19635676 -0.013355584 -0.065655395 -0.034144808 -0.060756296 -0.0605911 -0.045806527 0.01800885 0.20395659 -0.0048022573 0.24084626 0.094494306 -0.011971379 -0.11111789 -0.03547881 -0.025484202 0.18701111 0.019708697 0.03815563 -0.043781623 -0.06667452 -0.029886443 0.032987088 0.06520569 -0.12238002 0.013347822 -0.039249696 -0.09737477 -0.13983382 -0.077106595 0.11083059 0.1582275 -0.12190972 -0.09479176 -0.12224072 -0.19902897 -0.010722768
