INS_SimpleName_MethodRef 0.049562342 0.004626738 -0.0120364735 0.0136879925 0.025693433 0.08040496 -0.11205093 0.041644126 -0.09481258 -0.024692783 -0.008544873 0.008362377 0.12956202 -0.099209264 0.026283894 -0.029310243 0.027872669 -0.02022668 0.041014507 -0.0024399003 -0.07067109 0.061580237 0.06647548 -0.031471726 -0.04690169 0.0040454003 -0.048458762 0.022737376 -0.03345079 0.047768492 -0.10863058 0.0004128482 0.027884627 0.0028079133 -0.07478981 0.015577252 -0.04480633 0.05711095 0.05688945 -0.013057083 -0.108520344 0.007631935 -0.03401865 0.038791403 -0.038422003 -0.056613866 0.053678174 -0.067990676 0.0008799675 0.081616364 0.02069393 -0.008636606 -0.015123699 -0.067996696 0.00026441543 0.02452618 0.016183164 0.046959158 0.0050709415 -0.040981006 0.114885636 -0.041980345 -0.070434876 0.05418074 0.024370229 -0.06612164 0.053718753 0.04961898 -0.008283105 0.052635618 -0.023271207 -0.0053265467 0.014194876 0.00052737026 0.035215717 0.050096236 0.08166082 -0.012691707 -0.026727488 0.08372572 -0.00730551 -0.08311648 0.004925774 -0.08962019 0.021007258 -0.022532163 0.056240845 0.0243133 -0.02641165 0.071508855 -0.004684279 -0.08584183 0.065390676 0.008487888 -0.0061548366 -0.07783604 0.045014925 -0.0776318 -0.06982315 -0.14017217 0.04033019 0.0064986013 -0.030837081 0.03464596 0.039051674 0.054661658 -0.022827953 0.03923 0.022164881 -0.02091195 0.028611638 0.022735039 0.0008891986 0.02020079 0.042192906 0.019868802 -0.10118635 0.026770106 0.037819147 -0.029354848 -0.016101824 0.05488332 0.09687638 -0.037127644 -0.06182586 -0.07897765 0.042994935 0.01698608 0.025065232 -0.026733613 -0.031292062 -0.051639292 0.062436193 -0.082346655 -0.03851935 -0.07427402 0.007006798 0.06897439 0.12784018 0.043733414 -0.037514783 0.15421349 -0.10304859 0.025018515 0.017695773 -0.07389576 0.024507716 0.06992241 0.08352606 -0.05461328 -0.06384996 0.09835973 -0.029005123 0.03848709 -0.01082135 0.11272052 0.0033881073 -0.11379925 0.00791325 -0.017956378 0.044996306 0.10957621 0.017977007 0.017804325 0.022949137 0.03786495 -0.10382917 -0.03482698 0.056321874 -0.034386422 -0.1597069 0.17513189 0.075978585 0.005233235 0.06998704 -0.017513072 -0.013139643 0.110019065 -0.05095176 -0.05497416 0.017180251 0.0026300403 -0.06374636 -0.088164054 0.047008917 0.018538434 0.052869003 0.009830716 0.0018877442 -0.008988341 0.12131317 -0.011400128 -0.01006146 -0.05022359 0.06566208 0.06436925 -0.017991183 0.12366601 0.03010526 0.044310607 0.017148336 -0.052968603 0.07427617 -0.10587175 -0.06159127 -0.0329526 0.13021657 0.08676747 0.00869411 0.018927017 0.06192862 0.062682845 0.04090824 0.036681056 0.012490524 -0.041461293 -0.086028226 0.0285755 0.087678365 0.042013425 0.04195618 0.0573213 0.040000048 0.122624874 0.08390891 0.034630034 0.05043068 -0.035397604 -0.030807134 -0.00097230787 -0.16351855 -0.025785627 0.041536413 0.036858696 -0.03695572 0.0239428 -0.02166282 -0.07912655 -0.06345932 -0.012685982 -0.032335043 -0.018328752 0.09088591 0.06659587 0.008021942 -0.07782144 -0.031368155 -0.01489823 0.015929298 -0.11794542 -0.033144996 0.034383483 0.066705905 0.08465118 0.111115955 0.05649216 -0.021258656 -0.076001436 0.020033926 0.023517583 -0.022280328 -0.052130885 -0.0065580737 0.067907475 -0.027249143 0.029483806 0.02671452 -0.056716207 -0.0911026 0.02125213 0.022543304 0.026611831 0.050512727 -0.043356016 0.10397202 0.07271116 -0.0030314396 -0.056817647 -0.017467635 -0.027454672 0.020991083 0.0068442356 -0.011534124 -0.038431026 0.064877674 -0.0504174 -0.0047882646 0.042825166 0.06962145 -0.015587977 0.026867736 0.06906633 0.057405252 -0.025472088 -0.07563907 -0.08834372 0.024208851 0.032484617 -0.0969423 -0.045391366
INS_SimpleName_ThrowStatement 0.15189262 -0.13972536 0.005477029 0.06639795 0.08407111 0.06671878 0.011333914 0.012248225 0.03996792 -0.029839542 -0.13410087 -0.06852851 0.09152908 -0.104768544 0.10458008 -0.009529098 0.054729704 -0.013006247 -0.009228493 0.00044830368 -0.046962533 0.04037557 0.05393448 -0.049379792 -0.011511484 -0.059754483 -0.0395408 0.034343056 -0.071187966 0.013512538 0.009566716 0.003918896 0.049914487 -0.116657704 -0.011962388 -0.10860797 -0.10652875 0.013937995 -0.03831229 -0.032631498 0.008301255 -0.06454434 0.07339413 0.026003007 0.062365133 0.0043816296 0.09235817 -0.03917784 0.00044538252 0.0739742 -0.00068026397 -0.022737332 -0.09640516 0.036529053 0.046939015 -0.071290985 0.014501818 -0.02244542 -0.069902495 0.13359508 0.03112898 0.0049772444 0.11533462 0.0931149 -0.047428466 0.004124387 0.0018607358 0.009264616 0.0423657 -0.0435851 -0.020607155 0.07387653 -0.0038982092 -0.070482954 -0.058373246 -0.0023739932 0.015189735 -0.0322913 0.009419195 0.03913892 0.047733057 -0.047560822 -0.004237873 0.029294604 0.071361825 0.04022632 -0.0693272 0.016017346 0.06218122 0.060151782 -0.044283837 -0.11022788 -0.058512658 -0.03476654 0.032543827 0.045890637 0.051049393 -0.053477388 -0.029270742 -0.026295226 0.05903588 0.010465874 0.019600747 -0.06463829 -0.037757296 -0.053945992 -0.011699572 0.020563448 -0.012886919 -0.019451598 0.031870797 -0.04053779 -0.026981007 -0.029704334 0.035123724 0.004708659 -0.007345019 0.051482152 0.05515178 0.059668675 0.01723499 0.022183685 0.08791728 0.020527534 -0.07224648 -0.080313876 -0.050553318 -0.0902038 -0.07516197 0.016105339 -0.06539338 -0.049748678 -0.015204486 0.048841406 0.01792001 0.035242338 -0.049883507 -0.12711762 -0.051216852 -0.016395278 0.06305404 -0.026477458 0.01475563 -0.04840901 -0.052388817 -0.020813558 0.083003215 0.09026856 0.06531396 0.031132497 0.027514143 0.032080106 0.01967989 -0.057083268 -0.013677161 -0.056846198 -0.02445005 -0.0033080266 -0.051218957 0.041131962 0.059544355 0.06731045 0.0007776498 0.040229376 0.014703892 -0.012541542 0.06450369 -0.014713547 -0.09274773 -0.011582656 -0.055791017 -0.0042371824 -0.088999644 0.061306525 0.030563999 -0.02856111 -0.015711756 0.049987853 -0.07308617 0.020582184 0.08082695 0.1342969 -0.089622036 0.06513986 0.0163798 -0.059867125 0.098240845 0.007004494 -0.056305874 -0.074723296 -0.07091707 0.011052204 0.028257528 -0.073091865 0.057472557 -0.10337742 0.049667295 -0.057429466 0.05105538 0.023201786 0.046602346 0.108785324 0.04055965 -0.014926458 -0.036033344 -0.08760465 0.10172407 -0.005923887 0.07865848 -0.13276334 0.051813103 -0.0633311 0.06322339 -0.098833695 0.09830645 -0.036104396 0.0012133995 0.03451357 0.029507937 -0.07357194 -0.0006285827 0.055264056 0.0035955736 -0.018501174 0.02186204 -0.033340286 -0.064474344 0.015684627 0.04038033 -0.062834345 -0.007889723 -0.10606549 0.039842572 0.02954606 0.031290837 -0.035958648 -0.028619291 -0.10476734 0.00017411 0.057161193 0.06319061 -0.05062511 0.06072002 0.0067821364 -0.026698899 0.012997696 -0.085787736 -0.070910744 0.011905418 0.011056431 0.020062257 0.014623117 0.06199783 0.05553065 0.07661928 0.026534952 0.06381699 0.046688184 0.07216234 0.026691338 -0.06508327 -0.08815982 -0.12982164 -0.012790028 0.06294534 -0.022443965 0.007636776 -0.05319802 0.0010880204 -0.042235956 -0.04947052 -0.014750785 0.08704926 0.08966012 0.011251516 -0.020384278 -0.013616764 0.15850984 -0.058508154 0.06534934 0.06324334 -0.039877076 -0.12194735 0.12501438 -0.13957691 -0.010303958 0.01884511 0.009770416 0.005882519 -0.008873373 -0.013868461 0.038960405 0.006367054 -0.010073203 -0.040938247 -0.07576682 0.094635524 0.03173983 0.0086783515 0.06324642
INS_ContinueStatement_SwitchStatement -0.088443175 0.019698253 0.014749801 0.10431661 -0.02544391 -0.16617514 -0.023763027 -0.010246002 0.059512243 0.025143873 0.027225062 -0.056018345 -0.038387522 0.09097991 0.050520323 -0.019548435 0.023232466 -0.0055140825 -0.093122914 0.008785111 -0.016138172 -0.06386855 -0.0044520977 0.013236608 -0.066556804 0.027691798 -0.009202235 -0.022406155 0.10778291 -0.04270036 0.13695914 0.006097277 -0.079598315 0.039957874 -0.057239164 0.00846633 -0.019578474 -0.016755218 -0.012128924 0.0255675 0.060887966 0.04054753 0.019785227 0.059905656 -0.04492994 0.06009314 0.039750304 0.050504427 0.0037940296 -0.07723031 0.043965384 -0.035520222 0.06634151 0.038107555 -0.04700581 -0.067999505 0.04024288 -0.07882153 0.056159254 0.02632722 -0.018747672 -0.0078406315 -0.033971332 -0.046831466 0.12382868 0.050620966 -0.08576832 0.045145635 0.17972544 -0.026813228 0.015100991 -0.017620211 0.065853246 0.02190549 -0.0648973 0.0027251027 -0.069923356 0.09178352 0.101849794 -0.015399135 -0.0340367 0.07916538 -0.030900268 0.04829697 -0.061584897 -0.035213772 0.046748567 -0.007801683 -0.062390294 0.037168264 0.0030886717 -0.038820554 -0.04341249 0.075366184 0.038963232 0.01565756 -0.044430725 0.05899587 -0.030600948 -0.057241265 -0.08248802 -0.031447787 0.039832618 -0.14344937 -0.04037934 0.14289007 -0.020036506 0.009688644 -0.09360957 0.03301548 -0.07461179 -0.031967886 0.045266856 -0.11740894 0.04048372 -0.022950869 -0.064259276 -0.047672622 0.12819871 0.1413685 -0.013312804 -0.035688896 0.025051277 0.054680433 -0.03077646 -0.05666929 -0.054823995 0.046383057 0.021180205 0.048359517 0.01970449 -0.0135324905 -0.049113154 0.01977722 -0.05969218 -0.07637691 0.016770575 0.01131046 0.048999924 -0.00046446445 -0.029631084 0.06534064 -0.05270386 0.023185015 -0.05587256 -0.08250468 -0.05911018 0.029869152 0.007486348 0.015092121 -0.033837892 0.04840437 -0.030663118 0.0037325935 0.008974395 0.18135786 -0.16057932 -0.05238293 -0.038510203 -0.01843178 -0.034927376 0.043036796 -0.054044425 -0.04558293 -0.026693398 0.039900366 -0.052539777 0.027267711 0.06697228 -0.03550142 -0.043037914 -0.008955285 0.030367276 0.035709705 0.027743269 -0.07001782 0.07895543 0.04128211 0.026995186 0.024034366 0.025237953 0.025008444 -0.022416798 -0.102553144 0.027440388 -0.03149007 0.0071380488 0.0544581 0.11157588 0.023176974 0.0020665566 -0.08744651 -0.042774845 -0.07062275 0.0344606 0.043559715 0.018131051 0.011126472 0.034104794 0.0025501987 -0.06746833 -0.046498414 0.062400464 -0.06932787 0.03414276 -0.03466084 0.09479423 -0.02227773 0.057331182 0.004287042 0.052977156 0.07514866 0.042075425 0.03422394 0.1323018 -0.070887126 -0.114711344 -0.08220999 0.057851497 0.051120184 0.022468137 0.040214065 0.10391115 0.028936524 -0.034789834 -0.008501171 0.006900546 0.09414673 0.07211223 0.012746188 0.031938 0.039574713 -0.038488105 0.03363012 0.040403735 -0.058855347 0.06306512 -0.03108483 -0.0017577395 -0.07036849 -0.00811787 -0.005283885 -0.12485489 0.09868269 0.020519493 0.012574312 -0.0670008 -0.015132987 0.0282675 -0.013232642 0.014389058 -0.09887334 0.02686174 -0.16527681 0.093130864 -0.05984794 -0.0018569818 0.0143730035 0.08490758 -0.024346584 0.060478937 -0.044642355 0.0043981154 0.05040887 0.021839112 0.034347236 -0.057898466 0.047269415 0.048949726 -0.04431969 0.07412485 -0.047698002 -0.0007781665 -0.097026154 0.034606855 0.083826855 0.023868445 0.017278299 -0.027592024 -0.036689658 0.043261286 -0.008932968 0.011947701 0.0486649 0.027161656 -0.04012339 0.032433912 0.017197391 -0.003592484 0.01604157 -0.004122269 0.05422259 0.010035378 -0.060716867 -0.073829405 -0.025939973 -0.027957462 -0.14549656 -0.08231384 0.055887967
DEL_SwitchStatement -0.025679803 0.013678376 -0.0069952505 -0.019868277 -0.019213464 -0.0971946 -0.0983435 -0.0589423 0.002326655 0.07268019 0.027015992 -0.032119032 0.05998692 0.07562798 0.1090332 0.062287968 -0.06755851 -0.06328942 -0.0793095 0.0043327534 0.046081923 -0.004399114 -0.08122401 0.0042853304 0.104097314 -0.046534956 -0.099203244 0.18435632 -0.0952305 -0.071939565 0.13539825 0.013611972 -0.07413515 -0.019574204 0.045601245 -0.02504574 -0.11335439 -0.021324515 -0.08084278 -0.015567953 0.061862428 -0.07060844 -0.008354556 0.092039734 -0.054032877 -0.10065925 0.103487715 -0.047288846 -0.10478041 -0.037292983 -0.071674205 -0.08256118 -0.046294585 0.043963443 0.022180453 -0.090877384 -0.01882705 0.022564456 0.007693696 0.02714601 0.090958126 -0.05441751 0.01235133 -0.05029856 0.03047336 0.09482051 -0.0158388 0.0015918048 0.11996454 -0.053746004 0.005764132 -0.027973495 0.052036244 0.024630215 0.008190257 -0.01658512 -0.10744553 0.11105467 0.0750327 0.02914921 -0.02578763 0.0124071585 0.020842789 0.058432188 -0.033265334 0.0040051793 0.05326874 -0.01197364 -0.026842656 -0.014046216 -0.049973037 -0.0052439286 -0.00088097213 0.1318654 0.052907966 0.022294195 -0.029312339 0.062459636 -0.09282514 -0.024078395 0.050029162 -0.019316014 0.027692692 -0.15547237 -0.039849594 0.08958704 -0.045302287 -0.09860886 -0.1484635 0.07164887 -0.13687353 -0.019216273 0.063063435 -0.10799472 0.020360302 0.013090012 0.074515976 -0.09206106 0.09870841 0.08949639 -0.008445713 -0.0048491633 0.048170518 0.17625517 0.024595186 0.010291751 -0.11101195 0.030633278 0.056977645 0.060045723 -0.03890414 -0.0092570605 -0.053997815 -0.061828088 -0.022927834 -0.03009677 -0.010296136 -0.07807747 0.02492319 0.06920704 0.011645181 0.021673609 -0.039226815 0.030050652 -0.002406559 0.038111243 -0.015305895 -0.021612078 0.07894405 0.029723441 -0.07059948 0.031482954 0.081980124 -0.05456588 0.022898586 0.124134615 -0.026014477 -0.04503005 -0.053379524 0.007565365 0.039712694 0.084956355 0.04584038 -0.040301733 0.03386911 0.041308317 0.1007819 -0.043647926 -0.033926744 0.046660233 0.00016120126 0.006554289 -0.096060365 -0.03217557 0.017757118 -0.041699138 -0.009520422 0.059819438 0.005084456 0.0022999784 0.07509572 0.038296726 0.042474102 -0.044511054 0.059369475 -0.055715475 -0.0147833945 0.014831913 -0.034248836 -0.0015265822 -0.02132969 -0.0055403295 -0.095717356 -0.042958364 -0.02811242 0.008072001 -0.016145455 0.008259322 0.02858302 -0.060384817 -0.03296516 0.030837687 -0.019517448 -0.077708386 -0.05015789 -0.002356796 -0.019182624 0.0074918764 -0.0310342 -0.021046659 0.043842833 -0.0121134985 -0.022649284 -0.00025622098 0.08595796 0.04988965 -0.027677182 -0.014754467 0.017814567 -0.08740954 -0.04357501 0.042190973 -0.031502806 -0.02743447 -0.024442486 0.17184539 -0.051250137 -0.06852261 -0.052598104 -0.04079989 -0.051950898 0.001286728 0.024567565 -0.05147036 -0.0017422233 0.05725049 -0.01763477 0.023867743 -0.014669613 -0.022886582 -0.057843678 -0.0019716462 -0.0025204245 0.021608762 0.06947151 -0.001037325 0.09151036 0.0014491336 0.065025166 -0.023575593 -0.012445097 -0.02377326 0.050169144 -0.026180206 0.08778241 -0.09354872 -0.01690642 -0.08376553 0.04397139 -0.011850562 -0.0049536405 -0.027552638 -0.04360092 0.04173634 -0.06286743 -0.034733508 0.009893414 0.020801034 0.024011703 -0.0011214801 -0.027073335 -0.047151886 0.03340502 -0.026085481 -0.0065364884 0.04676785 -0.07172955 0.009011128 -0.032397788 0.054586947 -0.022676049 0.023020327 -0.10232827 -0.06738483 -0.029389067 -0.0028908104 -0.008609846 0.023896407 0.06135209 -0.09234436 -0.02378898 0.046259254 0.10116283 -0.0059282724 0.041559387 -0.06476931 -0.008136217 0.080759116 -0.12937468 -0.041543256
INS_NormalAnnotation_TypeDeclaration -0.025746215 0.06878048 -0.06468635 0.030068254 -0.043700647 -0.025066234 -0.060113095 -0.031566158 0.07150476 -0.08902396 0.03672206 -0.004378943 0.039801296 0.052379973 0.0024551856 -0.011945303 -0.014067792 -0.044561937 0.006327776 -0.053557236 0.05646334 -0.07328851 -0.018605372 0.01932625 -0.0135273775 0.029907743 0.014461439 -0.06182739 0.005945274 -0.08823469 0.025732704 0.001397036 -0.057845395 0.08650265 -0.08225685 0.025251286 0.14424518 -0.049298003 -0.03606369 0.012647783 0.026719516 -0.012991532 -0.015139529 -0.003286014 -0.086378455 0.014150685 0.009494151 -0.0004459395 -0.059258826 -0.039098937 -0.05642697 0.015389434 0.03343259 -0.09291015 0.02283016 -0.042841926 0.014152379 -0.10281877 0.023446452 -0.023871552 0.10584328 0.09117807 0.0043239337 0.0026290298 0.043385614 -0.027586237 -0.012670081 0.03393836 0.0015651643 0.04009617 0.06027244 0.07386287 0.07029576 0.01616919 0.034774568 0.009276827 -0.0606921 0.013221709 0.0848988 0.028189767 -0.06631093 0.08013453 -0.057623323 -0.010982097 -0.055166565 -0.091838636 0.0587284 -0.01827343 0.000114049726 -0.09876482 0.021384748 -0.049734075 0.05696117 0.038252883 -0.10736409 -0.0139884865 -0.06995142 0.021619022 0.0050299675 0.16421366 -0.0067473813 0.0039627105 -0.021931285 -0.11845906 -0.041497454 0.13369939 -0.049972557 -0.108516686 -0.030304907 0.037053335 0.01618256 0.04179909 0.118046135 -0.1348319 -0.04162807 -0.03399109 0.041672643 -0.037558604 0.05927001 0.065383546 -0.007774088 -0.07177683 -0.0031014571 0.02560033 0.099098735 -0.022375885 -0.04353704 0.023416068 0.0052278163 -0.07935441 0.051484004 0.07814878 0.05381881 0.022022795 -0.035191607 -0.009165045 0.017772859 0.006608297 -0.046867866 0.114583895 0.042149056 -0.012978781 -0.031356756 -0.059219543 0.04291834 0.074627616 -0.008572037 0.011941009 0.013093417 -0.0855083 -0.030014914 -0.0057590515 -0.099496126 -0.035482414 -0.035962924 -0.007917133 -0.15869643 0.033989828 0.048154928 -0.019850159 -0.08830318 -0.03459758 -0.0397994 -0.11780519 0.02538061 0.0032770403 -0.09648851 -0.04780719 0.005123358 -0.07971884 -0.08871364 0.04748585 0.012781269 -0.1625218 0.08561018 -0.00413329 -0.022007458 -0.025201704 -0.08682099 0.06488342 0.0870026 0.00087193906 0.03698037 -0.038359754 0.020242766 0.08361512 0.06795045 0.02375987 0.038045876 0.026434448 -0.011351797 0.09922281 -5.4998276e-05 0.04130268 -0.016544979 -0.010938509 0.011486677 -0.07979298 0.04746965 -0.06532173 -0.04092258 -0.041074477 -0.0058168434 0.037799984 0.024982028 0.020910595 -0.07932967 -0.07728352 -0.0018128756 -0.15877192 -0.03235858 -0.012668646 0.03387954 -0.07118129 0.10187448 -0.05053817 -0.041420184 -0.055868015 -0.05229721 0.012480826 -0.04615408 0.005444943 -0.007982928 -0.06881602 -0.05057132 0.10229642 0.05514986 0.106961295 0.022437302 0.096948 0.07339821 0.09619383 -0.057852052 -0.02831334 0.006564918 -0.018826982 -0.0018887852 -0.046906345 -0.010195936 -0.06771646 -0.0072670053 0.021607356 -0.046190485 -0.10482675 0.12660596 -0.0008484378 0.028027067 -0.03877446 -0.024404664 0.035121374 0.02022858 -0.028881166 -0.12015467 -0.06298176 -0.07481516 -0.051063433 -0.042751085 0.11573459 0.002467134 -0.037909374 0.12560323 0.06436198 -0.00026991547 -0.054436266 -0.056037825 0.083729126 -0.05369955 0.001098237 -0.011843859 0.016997939 0.03689943 -0.0069018593 -0.028833983 -0.028648043 -0.045136325 -0.0064873146 -0.068720914 0.02848313 0.039511625 -0.11608295 -0.0051309415 -0.012067446 0.062398925 0.07852007 -0.015754908 -0.024476906 0.016451517 0.028862486 -0.005683539 -0.051062386 0.02275976 -0.013238854 -0.045037948 0.0056762747 0.12090293 -0.06792061 -0.12419989 -0.040330473 -0.06509861 -0.01680821
MOVE_CompilationUnit 0.0991542 0.028102716 -0.089178994 0.095551744 0.019677099 0.004294085 -0.0821643 -0.10780418 0.0036530024 -0.019082582 0.017402232 0.02852338 0.12726317 -0.062962756 -0.12668923 -0.073421516 0.10612895 -0.10681291 -0.013480531 -0.009285446 0.029552719 0.016186425 0.011506923 0.050076608 -0.020218031 0.0979484 0.004124876 -0.07676338 -0.0020847798 0.009598217 -0.026909892 -0.012306936 0.120388135 -0.07594634 -0.045012284 0.06376786 0.0434722 -0.14057998 -0.04819321 -0.045748428 0.01829003 -0.05074999 0.01904324 -0.040820256 0.000739618 0.091418944 0.08875732 0.00047513458 0.058621954 -0.05028366 0.059024666 0.048377756 0.037841074 -0.033829805 0.030945735 0.008058327 -0.040444568 -0.011312012 0.036791835 -0.056618158 0.07935386 0.046287417 0.046822175 -0.10459225 0.05186453 -0.044611115 0.023215078 0.08913274 0.005008356 0.09993446 -0.03867958 -0.03318138 -0.009317881 -0.005679793 0.034105346 -0.053324398 0.096857026 0.04703025 0.02150702 0.023066426 0.020348454 0.014732039 -0.043981582 -0.006150405 -0.019431964 0.02153145 0.097713016 -0.0042154547 -0.061417773 -0.057583857 0.027491778 -0.07166813 0.07505305 -0.07912167 -0.033538368 -0.008808498 -0.03950994 -0.0029063579 0.018619245 -0.013254498 0.02477976 -0.04940041 0.034977224 0.0055426806 -0.019917298 0.046958115 -0.05545146 -0.106836274 -0.049345367 -0.026127273 0.013493337 0.021721883 0.020638777 -0.080067724 0.001233977 -0.0054644104 -0.04095621 -0.060757335 0.03916532 0.056043845 0.07428301 -0.082596526 -0.039063945 -0.023878144 0.0637586 -0.074911796 -0.000622005 0.00044603096 0.13024919 -0.09764506 0.006404144 0.038002867 0.033396382 -0.011828945 0.016021132 0.031653628 0.07503065 0.1117403 0.07844694 0.16509505 0.035204586 -0.0011934406 -0.044243697 0.04851465 -0.027979678 -0.011681233 0.002557119 -0.039575 -0.010522269 -0.08734297 -0.050149452 0.12871313 -0.10860237 -0.023140676 0.018806135 0.0708989 -0.07309582 -0.035292406 0.09881942 -0.010220435 -0.061066065 -0.07684002 -0.07679834 0.029020587 0.04040804 0.021479864 -0.10722072 -0.024310037 -0.048983686 -0.07870609 -0.105405 0.10933307 0.05681114 -0.05761245 -0.05661332 -0.006988674 0.0024149928 0.12851253 -0.027063755 0.00049102714 0.12946565 0.047430255 0.043017622 -0.08677714 0.033567768 0.06600601 0.10499301 0.11085763 0.060858894 0.0055674296 0.115220584 0.103266545 0.0333864 0.054135576 -0.024732752 0.015337145 0.0406191 0.05842587 -0.0241587 0.007017476 -0.009520354 0.04729216 -0.024754325 0.1001538 0.02737302 0.028928293 0.030497754 -0.032726366 -0.022526044 -0.0496995 -0.070175454 -0.029143937 -0.012820215 0.0021044577 0.049935434 0.013796921 0.093470894 -0.10539576 0.019723937 0.028896725 -0.091733076 -0.016774949 -0.07567411 0.027470795 0.047107995 0.0024368544 0.030481597 0.04145908 0.027568607 0.12598035 0.005133105 0.069953956 -0.047455885 -0.0032812345 -0.06535425 -0.045158908 0.005526392 -0.09039345 -0.028464744 0.012507722 0.05059272 -0.0064023123 0.08522416 -0.014548435 0.0132073555 -0.006009156 0.02364327 0.0036492075 0.012432233 0.014676847 0.014704628 0.015571972 -0.07950586 0.043002076 0.010420901 -0.026665743 0.0044716285 0.056802403 0.04515785 0.06365501 0.02168935 0.056599382 0.05242594 0.019034168 -0.055351906 0.13039145 -0.07687058 -0.036475856 -0.06995476 0.08523646 0.043299254 -0.009859241 0.012867547 -0.011938751 0.073478304 0.011128477 -0.064993426 -0.022294128 0.074406676 -0.0730993 -0.0061248424 0.0041589444 0.0496843 -0.007211658 0.009968538 -0.064123414 -0.019132053 0.007929069 0.056751683 -0.056413222 0.040260054 -0.03724127 -0.037901796 0.071394145 0.12268874 0.10144657 -0.008549044 0.028379222 0.058915135 -0.05664902
INS_QualifiedName_ThrowStatement 0.021253984 0.024344584 0.023767862 -0.05749435 -0.008791501 0.05902203 0.01838969 -0.05232018 -0.07808678 -0.00019984427 0.008758323 0.014201637 -0.056805335 0.07607171 -0.05101255 0.021254357 0.03203405 -0.006645192 0.03667237 -0.064099126 0.026131097 -0.017028797 -0.044057578 -0.051717777 -0.012910208 0.012164595 0.0033272586 -0.044501677 0.08474778 0.009574455 -0.005791909 0.032627635 -0.028622359 0.023090718 0.030286692 0.052658103 0.011979493 -0.054689523 -0.093703985 0.019466098 0.13768472 -0.012348691 -0.016321888 0.0049028895 0.009943786 0.0041600657 0.010678158 0.0406831 -0.011805008 -0.1060088 0.026490444 -0.0004357189 0.046726372 -0.00909698 -0.009590626 -0.015176591 -0.06290377 -0.05612291 0.061300408 -0.0362997 0.04880527 0.05614462 0.0071424707 -0.09694039 -0.058285035 -0.019394495 -0.025715444 0.00094381894 -0.0026141824 -0.007812594 -0.045379605 -0.02031774 0.04287736 0.06451048 5.8949146e-05 -0.08843851 -0.008661018 0.07746516 -0.04746795 -0.012867308 0.054869737 -0.053116202 0.018743543 0.038537834 -0.081738584 0.0058428706 0.024937239 0.06621742 -0.0053734467 -0.05210932 0.07805117 -0.073379956 0.009481731 0.0013955338 -0.03755041 0.0084247915 -0.027546383 0.008457015 -0.058430057 -0.0017743944 -0.035412893 0.010362712 -0.014083752 -0.0525929 -0.03258655 -0.022099847 -0.058389004 -0.045268036 -0.07673255 0.02373498 0.02858229 -0.012939726 0.033822037 -0.017139673 0.027598148 -0.030910313 -0.075121894 -0.037159234 0.1146508 0.017134536 0.04022688 -0.07858644 -0.025843501 0.019087108 0.029854594 -0.048538618 -0.08052524 -0.025053907 0.026874477 -0.06912551 0.03156478 -0.0011889506 0.09374933 0.0034131564 -0.061844077 -0.08432468 -0.002304755 0.08669544 0.1016947 0.13168019 -0.05071114 0.03132691 -0.07088849 0.11736879 -0.044739854 -0.063080385 -0.08628043 0.038275097 0.056457963 0.026715696 0.06995112 0.09150655 -0.105550796 -0.032175936 0.004990659 0.021964438 -0.20223828 0.04709896 0.03037065 -0.017438328 -0.081041604 0.016782684 -0.031972963 -0.11252771 0.013792267 0.1059066 -0.05114413 -0.08282387 0.030472588 -0.062017683 0.03185033 0.092133306 0.0634599 -0.05760595 0.03911511 -0.09708708 -0.011541509 -0.01029221 -0.018494347 0.05424052 0.04685598 0.06403188 0.04919212 -0.12068496 0.048015147 0.0627926 0.0502238 0.031963773 0.049332496 0.017893424 -0.004552071 -0.0564478 -0.045101322 -0.12899378 0.016160611 0.066039905 0.118547775 0.029227005 0.02602187 0.0053371405 -0.06638557 -0.023540074 -0.06186724 -0.11301784 -0.015020432 0.0010486637 0.062354404 -0.030401986 0.003974487 -0.012380345 0.09470406 0.059320185 0.024477646 0.008865842 0.06052403 -0.10532141 -0.052878894 -0.036328472 -0.021754077 0.07123539 -0.07046607 0.079202384 0.090983935 0.073640324 -0.004444729 0.016030397 0.04165366 0.03998683 0.06566668 0.094668314 -0.032819048 0.098685466 0.04109529 -0.009885438 0.05991058 -0.049159247 0.004888886 -0.030109223 0.014675385 -0.12960735 0.005843512 -0.04453538 0.03303684 0.08111779 0.009734616 -0.06332874 -0.11761957 -0.012919148 -0.0021301117 0.011109228 0.020326281 -0.09629276 -0.12336801 -0.07575518 0.036360733 0.019228758 0.036877085 0.15279274 0.081425756 0.08501094 0.08070268 -0.057188783 -0.058075957 0.12796496 -0.00073790795 0.10120701 -0.102154315 0.059733678 0.029023249 0.05828677 0.10598871 -0.12842882 -0.014141233 -0.009259822 -0.029518554 0.11493906 0.0008572544 -0.00028677497 0.023290072 -0.03946178 0.010225415 0.04410087 0.07408727 0.047247835 0.005883121 -0.01128667 0.03864886 0.10055468 -0.05466473 -0.014609301 0.07930033 0.0023410367 0.062882945 -0.12540217 -0.07585323 0.01654308 0.080074005 0.018715901 0.02799421 0.008418857
INS_Block_IfStatement -0.031020053 0.04722667 0.07918355 0.086758584 -0.07681627 -0.01910905 0.09143516 0.06077253 0.044217147 -0.012486792 0.10951641 -0.016933959 0.031855386 -0.005458332 -0.013707325 0.091698684 -0.07521281 0.017329141 0.011890629 0.035689756 0.02542742 0.020888539 0.01869339 0.01212428 0.0077136187 -0.09757875 -0.025140543 0.100562625 0.09798506 0.08918395 -0.010555418 0.090501584 0.036082406 0.0158491 0.038609777 -0.06217234 0.009494673 0.06147233 0.11963738 0.004028655 -0.07309088 0.033921167 0.050885946 -0.07806227 0.120719284 -0.06265064 -0.09235034 -0.0033595716 0.02791373 0.07528621 0.06014437 -0.05129276 -0.051757675 0.01180911 -0.007200367 0.069949575 -0.015729476 0.08490579 -0.037360154 0.035728842 0.013327698 -0.056750342 0.042023752 0.06673508 -0.072487645 -0.001631404 -0.032508243 -0.053461686 -0.08890584 0.0043859654 0.0013545745 -0.013117293 -0.0275925 -0.07519165 -0.052651633 -0.015331457 0.0034558696 -0.03820204 0.006150459 0.021029316 -0.038288593 -0.010400812 -0.041822374 -0.069697894 0.04219096 -0.031658627 -0.008055866 0.007291479 0.019646348 0.04061456 -0.14900994 0.08517205 -0.097010486 0.04812285 0.01758645 0.034782395 0.062067673 0.054540932 -0.0065665278 -0.036330003 0.046623334 -0.018468332 0.029120099 0.018070256 0.10683842 -0.036772892 -0.034971524 0.100465894 0.07828276 -0.07092294 -0.0010941463 0.040482435 -0.046330452 0.081271686 0.0037725857 0.01887481 -0.027203117 0.07311655 -0.020928716 -0.094888106 -0.035261717 0.036719676 -0.06343358 0.009148578 -0.030662958 0.032331597 -0.057049308 0.029716678 -0.053542998 0.018819155 0.026949922 -0.02618156 -0.048644274 0.045071024 -0.035186473 -0.06354314 0.11247394 0.06921585 0.00065441255 -0.052844994 0.019475926 0.036108993 0.032690935 -0.015530461 -0.011954559 -0.03512123 0.074002616 0.030169243 -0.12513335 -0.03543885 -0.00082062965 0.021453267 0.11037459 0.055129945 0.09188715 0.014529776 -0.06809756 0.0055585564 0.015788235 -0.01653731 -0.036551196 0.08804905 -0.049223665 -0.063256614 -0.066786565 -0.082400806 0.079507336 0.107704945 0.02465917 -0.042771664 0.024266792 -0.03745323 -0.065712325 0.015959725 -0.006477376 -0.023095734 0.06086572 -0.003952373 0.09633016 0.029849896 -0.099210374 -0.017876415 -0.112970226 0.068365626 -0.062423654 -0.07199941 -0.022425348 0.029064985 -0.040017597 -0.007747835 0.063549906 -0.029888524 -0.067123905 -0.103330076 0.05366445 0.028952453 0.1230992 -0.05936679 0.022851117 0.04942077 0.05553746 0.07959831 0.031159354 0.0003502274 0.03766281 -0.017487708 0.06408972 -0.061754405 0.008853814 0.07875447 0.0630368 0.068042986 0.057597272 0.03409545 -0.021820795 -0.0051241973 -0.05993687 -0.014151853 0.030640632 -0.0026868184 0.036517564 0.02428769 -0.019708145 0.09041627 0.035658132 0.012872378 -0.03480608 0.032803897 0.027193952 0.13639048 0.023474857 -0.027206128 0.029167661 0.114461675 -0.011152625 -0.035942417 0.048746835 0.10652371 -0.04336116 -0.027269928 -0.09165029 0.024443287 -0.0969223 0.1536144 -0.024846556 0.023703234 -0.0001227501 0.017169254 0.0966436 -0.04512446 0.041014593 -0.03880084 0.016882893 -0.15540637 0.043794155 -0.08922565 0.03277366 -0.022466606 -0.06997282 -0.01938053 -0.03172053 -0.059393257 0.0008150482 0.09228689 0.051409345 0.00027542983 -0.05695135 -0.010084955 0.061771646 -0.010690509 0.031226767 0.05839924 0.033200573 0.006299944 -0.027421875 0.13078195 0.025516653 -0.07530969 -0.040334906 0.08063297 0.15599312 -0.037501503 0.015022459 -0.009749682 -0.005100789 -0.0966316 -0.06578876 -0.079680316 0.01106064 0.135345 0.033752825 0.027518166 -0.0057672844 -0.011772147 -0.008058579 -0.037416242 0.10867627 0.0009808345 0.014095005 0.10468331
INS_StringLiteral_ParenthesizedExpression -0.07566412 -0.024713747 -0.06274195 -0.0063261604 0.016163448 0.0026632247 -0.053606268 -0.021236653 0.025727663 0.092028484 -0.06831998 -0.15613055 -0.02220524 -0.047914166 -0.032933027 -0.044695254 -0.06798137 -0.027242577 -0.024562823 0.037194736 -0.0034120742 -0.010204132 -0.0119638005 -0.035792444 -0.05480313 0.013050085 0.112688206 -0.00059462304 -0.024752436 -0.036578316 0.014449652 -0.009236224 0.010836176 -0.1046361 0.024031175 -0.08118436 -0.02533533 0.042777173 0.012706733 -0.053445484 -0.042880755 0.061264604 -0.0051451363 -0.026732907 -0.029360954 0.011630539 0.052764453 0.02445843 -0.093384765 0.057851568 0.030069005 -0.08127527 0.014018757 0.04256143 0.054556757 -0.032444295 -0.054809183 0.0053145606 0.01332011 0.024640398 -0.07819491 -0.12503693 -0.020113634 -0.035139482 0.0660748 0.0078471 -0.0903227 0.02472083 0.11396737 -0.06500866 -0.07714986 0.014007817 -0.07617895 -0.063628346 -0.046331353 0.09221338 0.014637242 0.071460165 -0.02665006 -0.0114003625 -0.015179137 -0.030337427 -0.0011193324 -0.01690085 0.07727131 0.08485555 0.05085781 0.010341711 -0.015998535 0.06891218 -0.01387257 0.04314109 -0.014718024 0.027210515 0.056281853 -0.000207846 0.049073413 0.050102036 0.08748248 -0.06857056 0.038056504 -0.0477779 0.016351352 -0.0047292816 -0.040268835 -0.0009848394 0.09032013 -0.055709854 0.0032320244 -0.018380392 -0.02394603 -0.05926019 -0.10896035 -0.0069438205 0.07522649 0.059432857 0.02454531 0.040094167 -0.071356334 0.0033435777 0.043332644 0.019715969 0.03128064 0.05529039 -0.031981867 0.07346224 0.07150779 -0.022816563 -0.058072813 0.1259545 0.0061772955 -0.0010116937 -0.11721983 0.013633454 0.03255422 0.020777807 -0.037347525 0.00072627526 -0.013786594 -0.13982083 0.023629662 0.009705111 0.0027639912 0.010281658 0.049388982 0.0082473755 -0.0074165775 -0.036309715 -0.0010144572 0.07874644 -0.086321495 -0.057837714 0.03605936 0.07320094 0.0570837 -0.027723901 0.07576655 0.022582144 -0.06631146 0.032328468 0.15955153 0.00816511 -0.096165925 0.021092784 -0.054797206 -0.061854996 0.045132082 0.10950257 0.06469712 0.026635995 -0.0766131 -0.029610192 -0.07362039 0.071627 -0.01575598 0.007295436 0.07009023 0.006417929 0.02511115 -0.0065964176 -0.05155674 0.015574934 -0.0014119834 0.034633353 -0.07289187 0.02432763 -0.06116216 0.0909979 -0.027033389 -0.010680227 0.08656501 -0.038020857 -0.0062882914 0.028393714 -0.015446538 0.1145451 -0.016899288 0.0721835 -0.04061023 0.027182965 -0.07692414 -0.030721974 0.013911132 0.02491231 -0.07489999 0.028933287 0.012987445 0.095333025 0.04188231 0.12784222 -0.09262434 0.000749759 0.024451151 -0.023964345 -0.031760424 -0.0035549859 -0.007028352 -0.0863508 -0.01893436 -0.056785326 0.08862948 -0.01895256 0.022300832 -0.021369198 0.04434791 0.019227773 -0.042857066 -0.03322061 -0.041779332 -0.02518543 0.017834678 -0.10277454 0.11303716 0.028658634 -0.034179855 0.12014532 -0.027051885 0.054875672 0.019946836 -0.045788758 -0.0088583045 0.048488498 -0.1356307 0.05877008 -0.004810946 0.045285366 -0.028762335 0.053948026 -0.0034988946 0.024626685 0.05064443 -0.12556477 0.036518324 0.010174915 0.054442704 0.00022826594 -0.112792276 -0.07696236 0.11437806 -0.027362086 -0.06759044 -0.041339807 0.07889262 0.09864217 -0.03618528 -0.09011248 0.12860444 -0.006872258 0.040595658 -0.056190997 -0.08453612 0.123615235 -0.07169177 0.049454518 0.08103568 -0.10725678 0.08966251 0.015779998 0.05215018 0.025080476 -0.06633083 -0.032391097 -0.15834275 -0.120988786 -0.018602766 0.047237027 0.023664732 -0.07345693 0.06267263 0.021877939 -0.09418779 0.013285664 -0.05226597 0.09067245 0.05665517 0.0564081 -0.039541397 0.035360694 0.011109109 0.0113519365
INS_SimpleName_TagElement 0.02412654 -0.00014169399 -0.0057999976 0.017736947 0.009426443 0.10107112 -0.04547318 0.0824249 -0.074928604 0.010303514 0.008545175 0.03636732 0.06905331 -0.009942098 -0.012967789 -0.07770205 0.11038976 -0.007097606 -0.005734523 -0.10983154 -0.062654264 0.012685904 0.038457133 -0.005406574 -0.043638006 -0.0073312237 -0.012884959 -0.05162661 -0.014765432 0.0040436224 -0.07349947 0.009853501 -0.028751459 0.021515483 -0.0055233752 -0.043661326 0.012129923 0.046544757 0.016312404 -0.0015230661 -0.12507062 0.021712994 -0.028930696 -0.0100913495 -0.020355588 -0.00236211 0.04232348 -0.0763355 0.030516263 0.12560622 0.015892081 0.036853846 0.023334477 -0.13820271 0.009022407 -0.0153044555 0.088404685 0.044943154 -0.007170255 -0.064269334 0.03763833 0.007186199 -0.1091763 0.06564633 -0.009882986 -0.07678516 0.022098798 0.044389505 -0.03511033 0.16885364 -0.01530058 0.015121249 0.030946802 0.030949567 0.037696045 0.0057082027 0.11565503 0.02168108 -0.06624303 0.003982565 0.072372116 -0.038920738 0.0006176344 -0.085648365 0.046070356 -0.032832686 0.07734912 0.056333225 0.034646314 0.0648166 0.002464666 -0.066730715 0.07350439 -0.017541766 -0.14272465 -0.08898589 -0.041630425 -0.0049445517 -0.04864641 -0.08817503 -0.003467536 -0.068705976 -0.07280052 0.113662384 0.06027509 -0.053138033 0.0017994858 0.041903798 0.17322384 -0.038936548 0.08662222 0.01743719 -0.046309147 0.10324479 -0.028249834 0.03998935 -0.08585734 0.07651782 -0.051066544 -0.027656771 -0.013202537 0.12164381 -0.005767667 -0.107128516 -0.02644205 -0.025303345 0.0594322 0.0037901031 -0.024842506 0.008726258 0.041939948 -0.044036098 0.0054348176 -0.16569208 -0.0002152445 -0.12149225 0.0448883 0.12207032 0.06658089 0.012331189 -0.06888756 0.112269096 -0.09248833 0.05003595 0.039248582 -0.09838435 0.036991294 0.011530189 0.09226025 -0.052003466 -0.07530662 0.06253309 -0.13419087 0.04455038 0.00035386946 0.0002118509 0.04661577 -0.042234585 0.01963627 -0.01462208 -0.06917164 0.033597164 -0.027052373 0.028200325 0.0025053525 0.043935943 -0.13093378 0.03440876 0.10500439 -0.08213615 -0.14814565 0.085992575 0.11926294 0.068395756 0.04201183 -0.016913146 -0.0764908 0.089666516 0.023295479 0.0041947635 -0.008662473 -0.013443658 -0.015025777 -0.07787795 0.004227787 0.0758575 0.034604497 -0.011383203 -0.006208171 0.07247209 0.074541844 0.0068602334 0.010604685 0.03954514 0.06975261 0.08260713 -0.053458236 0.08980794 0.021631017 0.030441577 -0.045472834 -0.09310045 0.071719356 0.008284555 -0.011020583 -0.023381947 0.050066542 0.06471111 0.06142687 -0.013218774 0.08898122 0.082647294 0.0041216924 0.03898253 0.05017789 -0.054825615 -0.08318624 -0.049122814 0.061341736 0.04991493 0.03477024 0.016267141 0.04245228 0.03526114 -0.0049593826 0.084058926 0.044189468 -0.008106354 0.009781864 0.03935707 -0.1009145 -0.0033853473 0.0151815135 0.0084317485 -0.029755589 0.045336466 -0.007669056 -0.047195174 -0.058414813 -0.011757165 0.01794367 -0.033340894 0.02772595 0.023917422 0.024871398 -0.052326474 -0.033300452 -0.036355175 0.04632597 -0.14367677 -0.06539353 0.012267577 0.052848656 0.046382226 0.039721653 -0.036537103 0.0031776149 -0.014594105 -0.031022917 0.029068701 -0.010533084 -0.034977008 0.039791703 0.013217528 0.0066226013 0.08672784 -0.04316432 -0.08933582 0.008606122 0.022310259 0.016107146 0.003062171 0.03394553 -0.059149005 0.06297786 0.045896623 -0.03113329 -0.05985844 0.030041471 -0.050675046 0.019945566 0.033203598 0.043727834 -0.028594643 0.047130823 -0.0070752157 0.027664147 0.038349353 -0.014318206 -0.006437359 -0.017836085 0.085306115 0.082278214 -0.07175484 -0.04258232 -0.100572795 0.028340267 0.041984316 -0.031868406 -0.014268521
INS_NullLiteral_ConstructorInvocation -0.029846055 -0.036210403 0.022875544 0.0155985495 -0.05822518 -0.101427555 0.05779317 0.07429002 0.03861893 -0.029215587 0.12156108 0.039075397 0.06373 -0.011146365 0.08767847 0.011948033 0.08703586 -0.038040992 0.042707432 0.043676663 -0.06287852 -0.014731738 0.11036786 0.039961465 -0.008945201 0.03194664 0.00622703 -0.0060085724 0.05306243 0.009463798 -0.005292076 0.012080908 -0.08492426 -0.015552426 0.027582446 -0.062064394 -0.054511946 -0.026216693 0.045155313 0.042768683 0.08697563 0.07234627 0.03707583 -0.03163967 0.07802889 0.118556686 -0.054663282 0.05297125 -0.0035332493 -0.022754151 0.0037936494 0.09549159 -0.05248292 -0.018260214 -0.013193181 -0.0104175545 0.06431449 -0.1057515 0.017248537 -0.10146552 0.026620252 0.04256891 -0.0578506 -0.048887156 -0.020580528 -0.0065264567 0.08462617 -0.03439202 0.06175398 -0.0323252 -0.0001500315 -0.004946513 -0.037255228 0.028201759 -0.03718365 -0.11472804 -0.0022584412 0.04721718 -0.16450472 -0.07359501 0.10497428 0.033516765 0.051373944 -0.08162153 0.027218528 0.042909555 -0.098109335 0.052085385 0.10267606 0.06474225 0.017093688 -0.0614397 -0.09216729 0.05368774 -0.0016434315 -0.0062690233 -0.03487606 -0.026799375 -0.061965153 -0.12724961 -0.037012115 -0.020819798 0.020776656 0.11599306 0.07620617 -0.028070001 0.018857095 0.11531197 0.0991733 0.06946131 0.063390665 0.0060655987 -0.07538545 0.037857022 0.0069607184 -0.045190524 -0.03953992 0.072166055 0.04744609 -0.012480572 0.14692342 0.02433866 -0.050482526 0.020922923 -0.024467112 -0.05298406 0.059260935 -0.09132215 -0.061138052 0.053386774 -0.14461637 0.04824098 0.052145906 -0.072906345 -0.027665481 0.00908235 -0.05105252 0.01816301 0.007230599 -0.002438459 -0.14486845 -0.041864548 0.047116898 0.044465147 -0.02991692 -0.059641685 0.008257119 -0.00045821106 0.0069048307 0.09776773 -0.05047117 -0.09773501 0.011599707 -0.007613714 -0.046022806 0.0437955 0.12594374 0.051373243 -0.030230604 -0.03281102 -0.08987349 0.011688998 0.05316936 0.09838113 -0.05478363 0.024721924 0.0042359796 0.009562578 0.017205462 -0.039737735 -0.026656883 -0.01165375 0.09702093 0.115020655 0.061645754 -0.029059915 -0.06152893 -0.10919569 -0.020114588 -0.028138204 0.01735834 0.016954523 -0.00087861146 -0.09153619 0.07071668 -0.044952348 0.033754252 -0.048506085 0.047963314 0.05958932 -0.038442656 -0.112289086 -0.11582534 -0.08675797 0.04767016 0.021002438 -0.14243425 -0.0056193545 -0.014545291 -0.0692232 0.07917364 -0.046437602 0.07732299 0.0034045451 0.034634568 -0.015443232 0.053870667 0.0027958327 0.0099691935 -0.07877599 0.043906923 0.10202809 -0.030883925 0.031150747 0.024777735 0.02820152 -0.060169417 0.015747348 0.08959111 -0.0028323086 0.05321666 0.06966618 0.021038529 -0.022654165 -0.018996265 -0.028067874 0.012019024 -0.00014553065 0.011878245 -0.16686939 -0.060819868 -0.008669916 -0.07625463 0.05247339 0.013709952 0.055680245 -0.028937122 -0.023710698 0.01466978 0.030481787 0.018326158 0.1163161 -0.0060990676 -0.0614815 -0.019119747 -0.029636052 0.04290238 0.0015313611 -0.04176421 -0.03417278 -0.04217188 0.13017854 0.009740879 -0.040483158 -0.105565295 -0.01567039 0.050016068 -0.008792062 -0.010536184 -0.017933274 -0.028780675 -0.019239333 -0.02044977 -0.09686255 0.022601504 -0.024363896 0.036240425 0.006450005 0.0065529593 -0.031175317 0.016596284 0.015501122 -0.018467745 -0.047933288 0.11964883 -0.09018744 0.07114598 -0.040360447 -0.03330912 0.036110144 0.010941586 -0.012600578 0.02110478 -0.029578406 -0.056031186 0.025250986 0.037426215 0.018238794 -0.07960451 -0.025754636 -0.08760569 -0.011104352 -0.021367513 -0.029025361 -0.06270542 0.012137736 0.007611743 -0.048082393 -0.08949929 0.018596245
INS_InfixExpression_ArrayCreation -0.07650217 0.07323689 0.07833017 0.021537926 0.0038910024 -0.072704546 0.11567885 -0.05163894 0.065728165 -0.0014480889 0.11653057 -0.003429578 -0.16466446 0.17930706 0.0022961155 -0.006541414 0.08106768 0.0297034 -0.066509 -0.04378592 -0.022975476 -0.049217217 -0.08148293 -0.01005995 -0.030520756 -0.104532465 0.017510215 -0.028658593 -0.05894656 -0.036661766 0.027721526 -0.002524504 -0.16673876 0.00011992542 -0.05261107 0.039058898 0.029824112 -0.04909967 -0.025729872 -0.028285187 0.09516661 0.12649038 -0.036209 0.01883759 -0.015016983 0.042994697 0.012814487 0.021564668 0.00969964 -0.11828758 -0.05735221 0.05261929 0.031241363 -0.010338446 -0.091184765 -0.054819193 -0.057255577 -0.15272786 0.09446721 -0.030672247 -0.019218292 0.047406 -0.063470274 -0.043026034 -0.017263656 0.07658337 -0.0734306 0.022710336 -0.046860524 -0.025814667 0.10575057 -0.05759479 0.04402654 0.026346145 -0.0072060726 0.0070219836 -0.061431646 0.059511576 0.003757442 0.0047535356 0.017452978 0.0020880846 -0.02606998 0.063811034 -0.040165663 0.033887736 -0.0033545343 0.02984322 0.019472428 0.0045931763 -6.706948e-05 0.07774529 -0.016286626 0.019359194 -0.04509185 -0.014113164 -0.030265395 0.0015392717 0.10025329 0.0611181 -0.040998522 0.061898928 -0.014564934 -0.019691894 -0.00827058 0.011591246 0.040577948 -0.016698612 0.0038324748 0.05574629 -0.010817317 -0.06173103 -0.023915505 -0.09937492 -0.025347931 0.022318697 0.03249308 0.008880391 -0.088720374 0.005846919 -0.035999022 -0.0103599345 -0.06373539 0.013124044 0.027444791 0.013426116 -0.03616916 0.037404735 0.10294132 -0.093361676 -0.030143678 -0.064959675 0.055012044 0.022632005 -0.08330904 0.027801635 0.04517434 0.018707603 0.08000585 -0.044310953 -0.023209594 0.028553274 -0.062141895 0.1061944 0.04966121 0.0010827439 -0.046501786 -0.0018327296 0.01154479 -0.0075575397 0.025429789 0.04275155 0.022591146 -0.053166054 0.021823315 -0.040703695 -0.10420049 -0.012766967 -0.009257221 -0.02841475 -0.03285976 -0.003812977 0.08189148 0.015113979 0.047041174 0.15702865 0.022630773 -0.06414206 0.14149113 -0.07020175 -0.077256784 0.16275497 0.11507553 -0.071499184 0.075885884 -0.0014050828 0.037324 -0.013867089 -0.08505215 -0.030374542 0.010135234 0.037826467 0.12058992 -0.0481982 0.052332368 0.10627316 0.06273232 0.016294224 0.0046490603 0.018096019 0.029053224 -0.08201676 0.032460537 -0.104701966 -0.09255141 0.033575818 0.043666024 0.0250343 0.040930953 -0.071419425 -0.0504147 -0.075907946 0.0014769373 0.0147272255 -0.0579318 0.008324351 -0.0008678936 -0.035873193 -0.09754082 0.028681012 0.12311838 0.09001795 0.006836315 -0.04963778 -0.022328742 -0.033226386 -0.047009353 -0.025798632 -0.028178124 0.03655325 0.08279004 0.040610027 0.04013775 -0.043100853 -0.06712126 -0.018451108 -0.010526981 -0.040340204 3.729246e-05 0.032557607 0.052999165 0.011898432 -0.01274089 -0.009120243 0.018906722 -0.045982443 -0.02265447 0.02357031 0.016589288 -0.008146885 -0.040201478 -0.00811336 -0.04979632 -0.010044986 0.053511098 0.052452702 -0.05250767 0.04234328 -0.024204712 0.08995028 -0.008047213 -0.04078119 -0.07070089 0.027764155 -0.05192408 -0.047098447 0.030905593 0.17721409 -0.02498983 0.088053726 0.01969599 -0.0884967 -0.056378778 0.06393078 0.02454853 -0.010967191 -0.03191573 -0.035591584 0.031982783 0.11007607 0.03237134 -0.012922737 -0.0402683 -0.05343191 -0.07723905 0.10886243 0.012501362 0.034010112 -0.03966781 -0.0060703508 0.019338628 0.06879592 0.14803363 0.02329874 0.06604003 0.019104581 0.05854985 0.0019667505 -0.01082025 -0.030511107 -0.0166674 -0.058558866 -0.03375596 0.027193213 -0.03606373 0.12890051 0.01690487 0.005099697 -0.035523023 0.08654778
INS_Block_SynchronizedStatement 0.067722134 -0.002021567 0.06519151 -0.15466827 0.044337094 0.139122 0.05201271 0.048138328 0.026679298 -0.009874726 -0.057324994 -0.02005787 0.008518686 -0.07681215 -0.031936146 -0.031222127 0.019827364 -0.026054058 0.08814229 -0.0004287716 0.026005693 -0.082515106 -0.030027488 0.0485281 0.020272607 -0.008060608 0.041533597 -0.008627722 0.122865744 -0.09101168 0.11649765 0.056429043 0.056333248 -0.07779609 0.09968672 -0.0023228973 -0.050940063 0.08981174 -0.011997115 0.018967887 -0.05933147 -0.030943116 -0.08262705 -0.014298672 0.15662943 0.034059063 -0.12868866 0.017482448 0.05266814 0.09525188 0.0128970845 -0.059341997 0.03951166 0.020507462 -0.077217564 0.05802901 0.08517445 0.14195696 -0.04418643 -0.0061460487 -0.075096235 -0.005816447 0.0480761 0.13224547 -0.10109247 -0.047654375 0.007911999 -0.017997576 -0.06328254 -0.047014736 -0.090996206 0.026268726 0.039959125 0.008979876 0.01759744 -0.01692735 -0.025518626 0.01696674 -0.04759689 0.021390148 -0.072803065 -0.0067999153 0.018810414 0.02378201 0.0024413639 0.0123675885 0.015045011 0.00927832 -0.053776488 0.00868656 -0.019817546 -0.041139353 -0.123732656 0.045754496 -0.009972624 0.080788046 0.044591986 0.028169855 -0.073942006 0.023950972 0.020657515 0.013948822 0.012499604 0.03682103 0.021932712 -0.1610214 0.029588774 0.068623275 0.04893831 -0.033400614 0.08564816 -0.047033522 -0.025600657 0.08921996 -0.0024047815 0.022630937 -0.007118365 0.021441028 0.034610745 -0.048649233 0.0026850991 0.022075167 -0.032902118 -0.036907412 -0.006693585 -0.05802621 0.0019059442 -0.00096081675 -0.08635761 0.08185796 -0.005581629 -0.06517886 -0.027936216 -0.0066156737 -0.052837968 -0.053600308 -0.030057453 -0.0022873871 -0.01912227 -0.06596017 -0.005320138 -0.033364654 0.09396483 -0.020937884 -0.04050222 0.0054515884 -0.0015915055 0.0039994307 -0.06739069 0.042510554 0.040441513 -0.10617224 -0.018929752 0.009739495 0.033478558 -0.07442069 0.06633671 0.043301165 0.022405062 -0.057952017 -0.05212753 0.021035416 0.08324656 -0.061269164 -0.0451715 -0.093161725 0.08604317 0.081886575 -0.08897404 0.019243458 0.10438882 -0.07289502 -0.044954695 0.055632696 -0.030927967 0.016041784 -0.10066831 0.034390613 0.03256415 0.030778158 -0.1035731 0.0013418287 -0.036802508 0.01556977 -0.0076071383 -0.016493555 -0.051018827 -0.06780638 -0.005250732 -0.007293096 -0.12671183 -0.038020905 -0.020186651 -0.09076014 0.034527127 -0.089163676 0.010161527 -0.06897705 0.046042077 -0.0028198725 0.006157239 0.11837581 0.093926966 -0.022517119 0.023959856 -0.047329515 0.05001249 -0.1303625 0.06740901 -0.0025544036 0.07900935 0.04089211 0.024084402 0.026728272 0.05697405 -0.01897658 -0.0007948982 0.006652974 0.002872794 -0.011755354 0.001123424 -0.053172994 -0.05284268 -0.022584898 -0.026634077 0.0649198 -0.028080562 0.07169021 0.09786931 0.056406308 0.056298997 0.06107803 -0.031361196 0.0474935 0.07802281 -0.0067274245 -0.0019821052 0.0030242058 -0.0222694 -0.010506408 -0.00499355 0.0003920236 -0.0026210966 0.081274584 -0.09787035 0.018944763 -0.07099145 -0.073401384 0.11094115 0.0010992998 -0.022588074 -0.007602022 -0.06111988 -0.17435654 0.026033053 -0.0046076924 0.042371687 -0.0082843015 0.0146503225 -0.021767732 0.058542937 -0.029033981 -0.08258306 -0.029362615 0.11921472 0.0104087405 -0.09216742 0.035967126 0.045831945 -0.02084008 0.0054467814 -0.047642477 0.048919883 0.045296878 -0.09743241 0.036297765 0.0024884467 0.01882059 -0.0950438 0.03235659 0.1042849 -0.02834452 0.04678567 0.03612106 0.004799562 0.012607919 -0.0006800954 0.023103151 -0.10038651 0.073561266 0.08049105 0.06504987 0.0781321 -0.041078784 -0.08151328 -0.029595606 0.10643904 -0.050820824 -0.020677462 0.07248191
MOVE_SingleVariableDeclaration 0.011312428 -0.06564383 0.09173907 0.04588445 -0.059571847 0.015975807 0.030250605 0.08871543 -0.12682681 -0.034573514 -0.019556362 0.10253396 0.0066960608 0.09214434 0.08110008 0.04864067 0.021901816 -0.014488182 0.0060449163 -0.030503113 0.041055776 0.066083655 0.040463537 -0.14198768 -0.069500916 -0.054121885 0.012849984 -0.029799614 -0.087232254 0.08186376 -0.11747112 0.022043446 -0.102062754 -0.08901087 0.033095274 -0.0067435964 0.018342035 0.11800109 0.10914584 -0.036527373 0.0059656817 0.068572745 0.019163352 -0.044612058 0.07650111 -0.029256519 0.09490397 -0.12167021 -0.027067203 -0.016997965 0.05514307 0.049129974 0.008456633 -0.00079088676 0.0131251225 -0.07563062 0.017419437 -0.030283188 -0.016599117 0.022096025 -0.014269476 0.018193608 -0.06515709 0.024433764 -0.018906223 0.032784708 -0.006413282 0.020504016 -0.014084197 -0.023786293 0.019842118 -0.01563605 -0.022587385 0.014155055 -0.04343704 -0.04275991 -0.0016357633 -0.09486626 0.042992882 0.013341112 0.039373405 -0.074939996 0.034672797 0.009025686 0.058799546 -0.007917908 0.027584754 -0.028154904 0.0428627 -0.0063048955 -0.055528983 -0.05401419 0.02817642 -0.07723421 0.041897673 0.011081994 0.060406145 -0.038490158 0.0006782473 -0.18222436 0.0077158166 0.067965545 0.0069503915 0.13980296 0.026925256 -0.08020334 -0.046806592 0.053832226 0.0801304 -0.053073112 0.07010329 -0.026702901 0.014505626 0.090274796 -0.052908394 0.06489843 -0.0359415 0.084048145 -0.01451039 0.022465244 -0.01415273 0.012560885 -0.070731625 -0.017241798 -0.01596627 0.097341985 0.018880822 0.024455536 -0.22042264 0.10372871 0.07639789 -0.009290986 0.086367324 0.026277242 -0.06794366 0.03735102 0.052170318 0.058605514 -0.05293349 -0.10108006 -0.06204163 -0.029559473 -0.012775087 -0.00076931657 -0.05514761 0.051940456 0.08836193 -0.022885371 -0.082204476 -0.031382654 0.0025244197 0.016818177 0.049739897 -0.0090072295 -0.036219183 -0.14906739 0.080581844 0.034935407 -0.004149611 0.07209059 0.008726977 -0.022068921 -0.030125106 0.11895975 -0.004007729 -0.055436064 0.063941196 -0.009401716 -0.0050262925 -0.07338441 0.086239226 -0.04491252 0.08309585 0.1187413 0.036448967 -0.018718569 -0.007380037 -0.084395625 -0.079745516 0.13802697 0.0003147294 -0.04768431 -0.023816237 0.0047220504 -0.049365837 0.036202144 -0.074549526 0.03522365 0.11645802 0.00094677566 0.0041396846 -0.010576184 0.04283593 0.122248404 0.051048685 -0.032642826 -0.012231744 0.0030326527 -0.0003141327 0.07347319 -0.033510413 -0.008846065 0.024658458 -0.045596402 0.09303486 -0.0058831377 -0.04309034 0.044116944 0.057986695 -0.078576535 0.059430405 0.02559214 0.03550602 -0.039457135 0.027100394 0.022810115 0.09032099 -0.050134465 0.050022926 -0.0014554294 0.01647211 0.06442437 -0.014947695 -0.006891588 0.0107526155 -0.0864051 -0.024141911 0.034538798 0.016585246 -0.0068479497 0.074073605 -0.05285729 -0.02280949 0.049045995 -0.09755037 0.0615361 -0.052144967 -0.10551806 0.06872522 0.037451793 0.09111397 -0.0140671525 -0.0047184643 -0.08387373 -0.025924616 0.04004905 -0.0035253866 -0.08127286 0.004998223 0.025854426 0.093664974 0.0003127751 0.05538889 -0.04629733 0.072920956 0.09041022 0.07995255 0.06564213 -0.02125541 0.039273933 -0.05298369 -0.00687811 0.08791802 -0.0028170045 0.0176443 -0.0039713923 0.085183874 -0.033556703 0.03729199 0.0041981908 -0.027938213 0.022043154 -0.03266914 -0.019599847 0.08140592 0.044625483 0.043943923 -0.05776302 0.016996535 -0.05463113 0.052769687 0.017810756 0.06015841 0.08083255 0.07986871 -0.044827964 -0.025568094 -0.020339482 0.019159973 0.021562446 0.038266864 0.023637934 -0.026938096 0.004566619 -0.051152166 -0.0676682 -0.09949268 -0.074431695 -0.0311244 -0.058354948
INS_ParenthesizedExpression_VariableDeclarationFragment -0.03864025 0.0029777105 0.08514293 0.06369891 0.0019192423 -0.081870556 0.056453336 -0.04962048 0.078200124 0.04184162 0.054165762 0.01130456 -0.17156938 0.009284464 0.048757944 -0.024699328 0.024121938 0.10763273 0.044016726 -0.028685346 -0.011945407 0.052560575 -0.062292043 0.0024153837 0.023416465 -0.09730985 -0.046862062 0.0033785838 -0.013987667 0.07815096 -0.013747611 -0.016218893 -0.070702754 -0.014734152 -0.04262597 -0.08216896 -0.0011006664 -0.03970294 -0.08926749 -0.026398266 0.09059569 0.040802438 -0.03206231 -0.00039839657 0.03280465 0.051847797 -0.049370535 0.03921998 0.0026356585 0.06065244 -0.009690021 0.026928637 -0.05306545 0.08540894 0.056782298 0.018426146 -0.062264502 -0.053969085 -0.106701285 0.06276063 -0.13777852 0.055090964 0.04735775 -0.020091882 -0.09477233 0.007167493 -0.030956661 0.0098513095 -0.080527276 -0.14360051 0.12376357 -0.043645907 -0.020133253 -0.06635415 0.024151044 -0.032371324 0.049886424 -0.010975085 0.009469208 0.053951804 0.018499196 0.03183468 -0.027504856 0.06182364 -0.03461537 0.028031727 -0.072450355 0.011056116 0.05175892 0.016364139 -0.008420663 0.13227387 -0.100888304 -0.09602639 0.043694004 -0.0017520539 0.045262866 0.014453592 0.100606866 0.047219925 -0.024387155 -0.0050775376 -0.019596554 -0.0036607385 -0.014215138 -0.04806346 0.008302934 -0.03341561 0.055602774 0.06790995 0.010876669 -0.006748506 0.019207243 -0.11014636 0.009060578 -0.12944147 0.057038687 0.087542996 -0.021951504 -0.09040782 0.013254295 0.04734532 -0.031522784 -0.03518899 -0.031595282 -0.03970361 -0.024792202 -0.0009336607 0.22653817 -0.20126109 -0.029986922 0.023889234 -0.004988751 -0.028739767 -0.023603473 0.014370087 0.0038800554 -0.0026721347 0.050905544 -0.04092442 0.008737316 0.042742223 0.020997185 -0.0052817594 -0.02761097 -0.019746318 -0.07672245 0.09214094 -0.019430395 -0.022657773 0.08288002 0.004983698 0.037654873 -0.0060058185 -0.0002734866 0.065981075 -0.07601253 -0.068705246 -0.010044009 -0.022895265 0.010577192 0.0012315551 -0.0077822367 -0.030141126 0.0021063313 0.03596161 0.043838937 0.006869889 0.13719079 -0.05961201 -0.023701234 0.08934752 -0.028803531 -0.05533016 0.0073101167 -0.006845975 0.060494445 0.033247877 -0.024846382 0.007773962 0.055996023 0.0998207 0.013614456 -0.06966661 0.009186818 -0.020798603 0.079843305 -0.008797619 -0.0071880207 -0.0733313 -0.036203183 -0.13964875 -0.06847746 -0.08823399 0.018652 -0.024982957 0.053964026 -0.010621857 0.030663509 0.07606756 -0.04374411 -0.056285683 -0.05267321 -0.014639067 0.005864985 -0.02757885 0.053529534 0.06486611 -0.06987835 0.06635777 0.011651423 0.09048159 -0.0010269572 -0.009684297 -0.051497746 -0.027758295 -0.0052956585 -0.050105035 -0.09896686 0.06422663 0.03886283 -0.006244457 0.11512169 0.018191554 -0.07410799 -0.061826322 -0.08967878 -0.0119368965 -0.028044797 0.019683061 0.023457801 0.03853496 0.019264577 -0.026771579 0.07574116 -0.10528347 0.030844042 0.09818225 -0.029345037 -0.015822314 -0.086555324 -0.03181477 -0.07692233 0.089198776 -0.010838705 -0.024566377 -0.09231005 0.066061 -0.029604174 0.06352474 -0.07188444 -0.06110405 -0.04308728 -0.04597097 -0.004774761 -0.012229951 -0.0003623197 0.018146114 0.0007283792 0.011191258 0.07372746 -0.02183302 -0.09082387 0.09122727 0.06941985 0.05416734 -0.14893006 -0.026480101 -0.021638403 0.004113731 0.08729613 -0.041298524 -0.004985189 -0.082223035 -0.07437747 0.057941034 -0.009778343 0.010461893 -0.060386576 0.03176346 -0.039957155 0.046546362 0.13941598 0.006993257 -0.022814523 0.02127765 -0.065515265 0.02081036 0.010991058 0.05985741 0.020885285 -0.063197434 0.014106045 -0.032425046 -0.052167617 0.009237592 -0.037537213 -0.02222737 -0.09568124 0.08633769
INS_PostfixExpression_ClassInstanceCreation -0.0014956065 -0.088487096 0.04448197 0.0010035464 0.03125714 -0.044836722 0.13471323 0.045287937 0.031240014 0.017711146 0.049861282 0.030884344 -0.095629945 0.036481723 0.024471749 -0.024280708 0.091192394 0.0040430725 0.07194138 -0.06970152 -0.024735324 -0.09029918 -0.111089155 0.057209093 0.05277389 -0.060438942 -0.043324057 0.039063748 0.0028435783 -0.10558106 0.057205204 0.027605658 0.0062360363 -0.052434236 -0.0020861463 -0.059584193 0.020458823 -0.02887194 0.0066302437 0.021062072 0.12625319 0.024602477 0.02470401 -0.0148322 0.02624504 0.12594076 -0.13385503 0.056773365 0.008728374 -0.0044648363 -0.046979792 -0.036384363 0.014004958 0.05549898 0.105179906 -0.027625991 0.050071005 -0.029060004 0.03971397 -0.009662505 -0.06340689 0.080659956 -0.048630986 -0.1274116 0.0021804678 -0.03083218 -0.0379515 0.04802775 0.019820664 -0.05481148 0.0012827496 0.012829397 0.031146755 0.009633006 0.017454535 -0.06296566 -0.05927024 0.09967989 -0.110000096 0.016383212 0.001192229 -0.047866233 0.002638408 0.07009388 0.02603602 0.09161402 0.015786016 0.08015045 0.03585674 0.006910874 0.00045090658 -0.067680866 -0.06851704 0.0067175776 0.0091502685 -0.050423767 -0.009394954 0.053651102 -0.008010799 0.009736037 -0.016561022 0.0064890306 -0.008156027 0.016353432 -0.0060505513 -0.017044935 0.052070364 0.009753695 -0.04401813 0.06292727 -0.019918682 -0.08670281 -0.010234393 -0.039890666 -0.03499783 -0.015431998 -0.024868965 -0.048971247 -0.032863572 -0.06843825 0.00081481284 -0.043746937 0.022641433 0.04572918 0.047652252 -0.07638803 -0.086736254 -0.07786685 0.07260068 -0.010915419 -0.08587522 0.030725 0.04676716 -0.012055947 -0.010565699 0.0059119947 0.03267476 0.058328517 0.07395049 0.029387321 -0.113970034 -0.019671403 -0.021557325 0.014134164 -0.07114421 -0.0693917 -0.035578884 0.02602738 0.0111612715 0.11638335 0.008098945 -0.043103404 -0.062779225 -0.055747956 0.0073845484 -0.017444156 -0.038302343 0.05761281 -0.026679797 -0.015341588 -0.059234716 -0.0586004 0.019977842 -0.027753728 0.024700282 0.06642083 -0.015141297 -0.028919727 0.12695085 -0.11072712 -0.10263743 0.17748179 0.06715039 -0.012312908 0.09726579 -0.05295527 0.0013619197 -0.044985224 -0.082863 -0.017949456 0.06663712 0.07306472 0.11522393 -0.1541067 0.062212765 -0.04573014 0.08887617 -0.03854252 0.044209544 0.08253504 0.058521435 -0.13916188 -0.042526457 -0.13274744 0.014234848 0.07334318 0.04482032 0.037802406 0.07580045 -0.018402552 -0.06942406 -0.037650563 0.07189964 -0.048764363 0.009688492 -0.01908998 0.096311055 -0.019772355 -0.05905491 -0.03444962 0.06368527 0.13965698 -0.0040606167 0.024294926 -0.03816899 -0.13215978 -0.059537753 -0.06846429 0.033373527 0.04612198 -0.00969402 0.05225831 0.05842967 0.026962072 -0.02549715 0.007682671 0.004897744 0.042124435 0.03305646 -0.053549215 -0.016899614 0.057289656 0.017352073 0.014633177 0.14390984 -0.05670962 0.031042758 0.0059989756 0.018763654 -0.070289955 0.0075999927 -0.024030846 -0.04219397 0.13557313 -0.064946026 0.04160901 -0.10137472 -0.021404624 -0.054438867 0.0059746746 -0.015573691 -0.08480251 -0.087060526 -0.10040951 -0.029587042 0.0012722617 0.004678749 0.14419575 0.114569634 -0.06836021 0.027048176 -0.093621604 -0.0015811089 0.033816077 0.04768046 0.005993608 -0.017065406 0.012717278 0.013169737 0.0510724 0.016035268 -0.054001134 -0.011939174 -0.049612176 -0.006715617 -0.050236955 0.049168102 -0.056727756 -0.086590596 0.041884203 -0.05950984 0.0052064224 0.066107295 0.0216749 -0.054358605 0.07613581 0.032131817 -0.016272232 -0.05480551 -0.020967444 0.051754728 -0.052633848 0.0026366336 -0.007201981 -0.043952506 0.056567132 0.031121962 -0.034690294 -0.03957199 0.0076737874
MOVE_MemberRef 0.054833192 0.08200266 -0.010545514 -0.1150905 0.005416549 0.0065248287 -0.14208695 0.043054596 0.10054436 -0.03260831 -0.03311016 0.05377323 0.037442222 0.011122987 0.02884685 0.046328813 -0.018991288 -0.006346178 -0.0072557405 0.015911685 0.069746576 -0.037159752 -0.030034553 0.08695522 0.09693416 -0.029088562 -0.027777383 0.0019410619 -0.015338984 -0.0645565 0.05868027 -0.047727756 0.00085435336 -0.0395702 0.005681997 0.1023139 0.048694983 0.002899318 -0.068106376 -0.039649043 -0.005782671 0.03516972 -0.035185236 0.0048666587 0.05839141 0.0037347975 0.009512908 -0.082721345 0.0069681588 -0.050402496 -0.027641008 0.060237505 0.07256197 -0.08121498 0.028839855 0.033357497 0.019309448 -0.037515957 0.05148922 -0.09352074 0.012834789 0.08262042 -0.026495855 0.049799163 0.03137762 -0.017411377 0.070551485 0.05430381 0.03621314 0.11198729 -0.04063432 0.04368493 -0.02633876 0.102366 -0.04621398 0.06953355 -0.054875385 -0.020139407 0.005380059 0.017575739 -0.085759036 -0.056913298 -0.07416063 0.030387152 0.038344838 -0.10029738 -0.018279899 -0.048920505 -0.03469609 0.06318031 0.013881434 0.029021049 -0.046010293 0.07626415 -0.043890942 -0.006544327 -0.049993206 0.09539199 0.06393174 -0.027034579 0.041334167 -0.063117206 0.054615986 -0.085168466 -0.010322746 -0.009912403 0.029704615 -0.11323272 0.06982383 0.04497339 -0.044628575 -0.020597382 0.04352504 0.053203855 0.09420963 0.0034992883 0.004145301 0.008796225 0.013144109 -0.0010857789 -0.029798616 -0.021573566 -0.08355035 -0.03352999 -0.049723037 -0.0062477947 -0.00912038 0.17000468 0.027962087 -0.049708437 -0.12986165 -0.04158216 0.0049680714 -0.029481612 -0.092628315 -0.0004904176 -0.0033481554 0.02668841 0.059809063 -0.027457317 -0.004044438 0.033588123 -0.09523073 0.010909234 0.06806215 0.13110635 0.028891426 -0.062281612 0.022076564 0.012282943 -0.058111977 0.03804487 0.081554204 0.07490672 -0.010403727 -0.03446302 -0.040071566 0.043276668 -0.015245679 -0.04767705 -0.059441797 0.041219756 0.0742152 -0.024355574 0.03192561 -0.051032335 0.108822726 0.012637277 -0.0035795807 0.06779149 0.12705597 -0.057880007 -0.029021341 -0.020537527 -0.09823283 -0.0047506993 -0.11315915 0.12409395 0.046686735 0.081995964 -0.0036586933 -0.07580588 0.017108662 0.057964746 -0.009653956 0.014893773 -0.014273154 -0.00055135996 -0.025743928 -0.05693481 -0.062143072 0.09368421 -0.09565899 -0.09454542 0.03449812 0.047585394 0.01837323 0.08569742 0.0900542 -0.10957618 0.005521942 0.03431923 0.08981 -0.047536545 -0.07389584 -0.050789703 0.02993545 0.06622165 -0.093136236 -0.017026609 0.04262833 0.044479 0.011173538 -0.06118181 0.007689806 -0.019209431 -0.1318864 0.06102471 -0.05977389 -0.00847915 -0.0033061064 0.064148076 -0.07317004 -0.02656188 -0.0055227 0.17499755 -0.104518995 -0.08412296 -0.066288345 0.045096334 -0.021529697 -0.09291012 0.024453837 2.6591415e-05 -0.1016765 -0.06254056 -0.017592028 -0.0055213044 0.01348077 -0.029908435 -0.083265655 0.06846786 -0.021230156 -0.037246216 0.049941905 0.023284795 0.04633574 0.03277204 0.021746997 -0.04530624 -0.003205906 -0.062113628 0.07594408 -0.0756041 -0.100902185 -0.056684636 -0.024936035 0.0053912182 0.042120833 0.040499274 -0.02284397 -0.024048407 0.008095075 0.03314218 -0.030891703 0.00879142 -0.022050388 0.013143688 0.09035182 0.057691894 0.050378762 -0.06472555 -0.09323995 -0.048561443 -0.012761982 0.06308146 -0.07782104 -0.053325884 -0.0885508 0.008195698 0.07141134 -0.011640726 0.056078576 -0.028987918 0.1279184 0.034893513 0.06547816 0.14335579 -0.002486331 -0.0051103327 -0.061648134 0.020452594 -0.03306426 0.111674204 0.043108597 0.027971439 -0.0056565194 -0.03951742 -0.011338377 -0.032234762
INS_ParameterizedType_CastExpression -0.033580042 -0.059077892 0.00074731826 -0.034395684 0.020998282 -0.014173261 0.035587367 -0.059069917 -0.016210042 -0.042162266 0.045485776 0.0061759674 0.026144689 -0.05060231 -0.0093281455 0.0040602926 0.0054470375 0.022246001 -0.06439087 -0.018614644 0.0013347979 0.020611724 0.04003936 -0.034424257 0.07978798 0.05738007 -0.05508068 0.013757769 -0.02804781 0.037039116 0.07230294 0.018978158 0.022954235 0.093244486 -0.05483748 -0.010854422 0.031674094 0.094686426 0.013676172 0.009407228 0.010046415 -0.038383845 0.034412302 -0.01941174 -0.051362023 -0.06297811 0.015588723 -0.023040362 -0.01141458 -0.033085648 0.046471234 -0.043841716 -0.026216062 0.003958813 -0.0019097305 0.04519446 0.017166767 -0.039276037 0.027562164 0.083796 0.040748287 -0.073718004 -0.061505955 -0.025832193 -0.008409428 -0.029910877 -0.03897265 0.00682763 -0.014533604 0.009764038 0.041974843 0.06527129 0.048647277 -0.08432517 -0.0029474036 -0.025585037 -0.0071916073 -0.027054247 0.04727946 -0.0065575894 0.026412284 -0.048981402 -0.047111675 -0.052079707 0.027991865 0.010819105 -0.023311768 -0.028363215 -0.009682885 -0.03381408 -0.052755307 -0.009473451 0.02769597 0.039090447 -0.010805802 -0.0029869084 0.0013482352 -0.06360283 -0.099676274 -0.03823691 0.031601917 0.048204735 0.013140931 0.0100689605 0.023125812 -0.032002494 -0.0015731564 -0.011002054 -0.006728313 -0.046810873 0.0145006245 0.023455812 0.008926252 -0.028939566 -0.019279003 0.01799392 -0.065330476 -0.004745924 -0.041293476 -0.03260911 0.017339576 -0.015631204 0.023597803 -0.067708686 -0.05168995 -0.037945636 0.0012078239 -0.08752164 -0.05183811 -0.0063263415 0.014760525 -0.008282476 -0.03634964 -0.015133512 0.024776189 -0.02969929 0.022782529 -0.054582402 0.075005904 0.06473558 0.021732928 0.09830901 -0.05047455 0.0026382122 0.051479228 0.047222584 -0.047198083 -0.029042158 -0.0031551807 -0.0068026744 0.0069900984 0.02772224 0.07124221 0.020313676 0.08195162 -0.010152025 0.036448777 -0.0093840975 0.06978885 -0.04746527 0.041228104 0.06893677 -0.0065630903 0.0015984279 0.045940816 -0.0094919065 -0.06389226 0.030173967 -0.06283027 0.09719124 0.0021263033 -0.035521414 -0.009503258 -0.046369664 -0.02557627 0.03204279 0.048047826 0.011730157 0.033608936 0.06761577 0.043088425 -0.0145035125 -0.08112645 0.04616491 -0.019320933 -0.11403024 0.04066176 -0.050965175 -0.019922389 -0.037442435 0.015948562 0.037272964 0.06666455 0.073549956 -0.013536611 -0.055472337 0.002157096 -0.020004522 0.08466478 0.036953446 -0.04678262 0.078471065 0.00640992 -0.08685872 -0.0060616247 -0.07122136 0.047914922 0.015179721 -0.05968942 0.009747852 -0.046502847 -0.007314359 -0.016323222 -0.02400635 -0.04173297 -0.024394028 0.036245834 -0.019666733 0.02358411 -0.03616161 0.005923663 -0.020271888 -0.028408151 -0.0021380538 0.013139565 0.020886552 -0.021174552 -0.07742974 -0.05919903 0.014927945 -0.021653952 -0.06191916 0.04650182 -0.03582391 0.04312711 -0.0032793826 -0.047104806 -0.043397266 0.031358704 0.07566865 -0.016997587 -0.028162343 0.03922718 -0.037837997 -0.053007223 0.029903254 0.08311108 0.074555226 0.017425738 0.006044158 -0.052468207 0.07634087 0.042019058 0.11124596 0.023377758 0.0066742366 0.03428065 -0.05432696 -0.014963555 0.06846221 -0.06777607 0.013644182 0.0022604812 -0.094358794 0.0026826863 0.11010107 -0.17869338 0.019407041 -0.040406626 0.013334037 0.18866363 -0.13874334 0.19473913 -0.17034164 -0.030703995 0.1369264 -0.073164925 0.14454672 -0.09795942 0.031595502 -0.009499203 -0.0027330946 0.1719204 0.058214687 -0.018996246 -0.11011649 0.021227289 0.04151847 -0.029883362 0.11827805 0.07292611 0.061865844 0.05273525 0.04259561 -0.08301392 -0.19010076 -0.19466333 -0.057164695 -0.35311383 -0.017669978
INS_SimpleType_ClassInstanceCreation -0.014128562 -0.06516153 0.04210707 0.1049069 -0.005964596 -0.047337502 0.0072690067 -0.02794972 0.052952386 -0.042350907 0.019749634 0.029515577 -0.07950062 -0.010554689 -0.0137476185 0.03609553 -0.08999268 0.039911978 0.042283956 0.030905606 0.014962595 0.12519564 -0.060753614 -0.14086449 0.015895119 -0.106981106 -0.014874533 0.060059868 -0.034164056 -0.06375853 -0.0881782 0.055714343 0.07901343 0.027512211 0.00089663157 -0.008828356 0.11450898 0.06969839 0.021338306 0.008724326 0.0067385994 0.0012289659 -0.03635465 -0.02207194 -0.05373599 -0.025026236 -0.02881905 -0.037457373 -0.052402373 0.06614915 -0.034643583 -0.10013103 0.0075591556 0.045357786 0.051755603 -0.06711708 0.052342754 0.014544986 0.0152160255 0.08919155 -0.120475955 -0.11070843 -0.026152378 -0.072965465 -0.047536537 -0.07966342 -0.05701849 0.0051628985 0.017349796 -0.0045846864 -0.0306581 0.12769854 -0.020073129 -0.1358088 -0.03170974 -0.039717805 0.030735837 -0.02440568 -0.007145372 -0.030933615 0.0993421 -0.067441024 0.06429366 -0.042001504 0.08877597 0.040943537 -0.048712876 0.09490138 0.045770906 0.08517139 -0.0036411283 -0.031803027 -0.029524505 -0.097762056 -0.0321802 0.031306926 0.10081001 -0.022967678 -0.0060739103 0.029051699 0.016745683 0.022957778 -0.07722094 -0.0074851774 0.09782267 -0.0520538 0.056415208 0.070093624 0.010058446 -0.0812815 0.022751518 -0.033990648 -0.041263055 0.03919459 0.0047913464 0.02373709 -0.051304605 -0.025497407 -0.07783382 -0.04629555 -0.029788902 0.015388012 0.028021978 -0.07184957 -0.06708546 -0.004133381 -0.0664855 -0.15637553 -0.021044675 -0.0064138193 0.028079733 0.019057771 -0.0008129574 0.04601906 0.08915725 0.051386483 0.011528951 -0.078440435 -0.026156448 -0.03601258 0.08020722 0.018040089 -0.04273777 -0.0012552772 -0.06824673 0.012701508 0.04877836 0.027168911 0.0033665374 0.0040777926 0.028242068 -0.03467986 0.042839997 -0.10968442 0.004180362 -0.01228396 -0.038943775 0.01691018 -0.07885266 0.06359968 0.06737113 -0.038541645 -0.08686646 0.06660233 -0.0041670534 0.038917657 0.009978223 0.07801334 0.06844526 -0.06423791 -0.10890819 0.15627003 -0.009406211 -0.012307692 0.15003231 -0.0113855945 0.015314205 -0.05719874 -0.09624383 -0.12648743 0.034360398 0.039906196 -0.052181657 -0.03738919 0.03606815 -0.09350973 0.048830412 0.0019989132 -0.03626382 -0.07167055 0.091258176 -0.03634183 0.04605915 0.011080531 -0.025853762 -0.020781677 0.07275651 -0.036729556 0.033194143 0.09575801 -0.05653108 0.03267018 0.039674666 -0.036401253 0.018635212 -0.04983445 0.09515755 -0.0034660085 -0.12933931 -0.07973091 -0.070659034 0.049177732 -0.06809746 -0.0689364 -0.085213915 -0.07178143 -0.044619866 -0.060537376 0.025836907 -0.013637699 0.12752981 -0.01582305 0.06338094 0.0020746079 -0.032291684 -0.06695502 -0.014336495 -0.0019806607 -0.093366034 -0.024373516 0.005364914 -0.06346595 0.11433281 -0.013558627 -0.020359414 0.0076731155 -0.013732301 -0.041270662 0.064496286 0.027140385 0.08119457 -0.024340289 -0.049338255 0.05343542 -0.07026029 0.07559314 -0.02598137 -8.922684e-05 -0.030136753 0.0300647 0.043359417 -0.010210512 0.032134164 0.054028198 0.0075350944 -0.008753177 0.0027171618 0.0031030243 0.0040222425 -0.031081561 -0.04362833 -0.13032424 0.027470231 0.00040582698 0.016103009 -0.08814052 0.05620136 -0.04055903 -0.010903809 -0.021298038 -0.058367543 0.006562731 -0.014646368 -0.00097387854 -0.052184865 -0.11627498 -0.027363114 0.03909763 0.047578424 0.032334134 -0.11780567 -0.024955373 0.013829606 0.01957694 -0.0942012 0.11233921 0.0024139613 -0.053876065 -0.01669068 0.03901007 0.014420633 -0.045445595 0.024416894 0.11942221 0.01144232 -0.023288155 -0.113838844 0.0283543 -0.097861215 0.011104534
INS_SimpleName_ConstructorInvocation -0.048356235 -0.05683317 0.06342317 0.0067811618 -0.029319983 -0.12968613 0.12751207 0.05416145 0.025542498 -0.079971224 0.083815336 0.003231134 0.024446376 -0.007015489 0.09799852 -0.028492318 0.097679235 -0.014779306 0.051340293 0.027883662 -0.086002074 0.011292568 0.05384608 -0.0014474593 -0.008387315 0.02639092 0.0057861693 -0.045623492 0.0014921863 -0.049182247 0.053434156 0.012942484 -0.14176771 -0.015380794 -0.04144278 -0.12118939 -0.054458797 -0.026468856 0.0608441 0.01089768 0.07851636 0.08519727 0.019670086 -0.012894321 0.08028217 0.14284115 -0.03417353 0.07270256 0.0018368074 0.022424836 -0.04331511 0.054682314 -0.07693654 0.005046633 -0.0038398423 -0.0063861283 0.052029118 -0.10163012 -0.02438403 -0.0917327 -0.010303331 0.041787755 -0.07893403 -0.024442965 -0.010596455 0.042202424 0.04948217 0.006299623 0.054988746 -0.033308133 0.023798186 -0.020049052 -0.053796265 0.028778443 0.014561987 -0.05551982 0.024709094 0.06127682 -0.18119492 -0.051907636 0.06960202 0.049874622 0.057960123 -0.0870196 0.013337123 0.11846471 -0.0753594 0.08384237 0.16985959 0.06506005 -0.010673883 -0.0717645 -0.10557313 -0.0033402836 -0.029636862 -0.0017477692 -0.016425112 -0.027998777 -0.036399703 -0.032503407 -0.049460944 -0.02019764 0.009085229 0.114907645 0.04816566 -0.050016366 0.018315393 0.14493775 0.085682 0.10171148 0.10043251 0.0069668223 -0.07796054 -0.039049022 -0.035026044 -0.007042933 -0.043014493 0.08821163 0.013397903 -0.0052961423 0.16911882 0.028647162 -0.025018174 -0.0025954708 0.016050193 -0.038043525 0.072357655 -0.04612338 -0.059671115 0.076578096 -0.056256182 0.05540404 0.035655 -0.06747552 -0.048698224 0.036352575 -0.0048772465 -0.020741686 -0.049473274 0.024594177 -0.0913863 -0.060751293 0.07419015 0.038405374 -0.056483615 -0.09926346 0.010660952 -0.005796136 0.0070011006 0.074979715 -0.034588635 -0.06873056 0.023964405 -0.060175937 -0.040639233 -0.032832123 0.09847625 0.05167384 -0.020410575 0.0032839922 -0.054255813 -0.024190774 0.0911442 0.09213131 -0.05940979 0.037154406 -0.025867678 0.043184455 0.031105012 -0.010069284 -0.06074146 0.021008017 0.08261608 0.10254232 0.06954762 -0.025024053 -0.041423313 -0.07158535 -0.07991973 -0.024138696 0.026445335 0.0661564 0.019291515 -0.10971314 0.090990625 -0.026841613 0.05780311 -0.01931873 -0.024920616 0.053204913 -0.039602555 -0.08967215 -0.08362597 -0.085153416 0.04948097 0.023808913 -0.15259305 -0.033480007 0.010644746 -0.054841913 0.06104496 -0.05727402 0.06520928 0.047502834 -0.009352251 -0.030090643 0.024761016 -0.051971164 0.053050146 -0.09074569 0.0327371 0.11795578 -0.015508328 0.015183611 0.039169498 0.022216294 0.0131662125 0.0076908097 0.063085556 -0.01395586 0.07638379 0.053011432 -0.0020749145 -0.039311897 -0.0353173 -0.030265786 -0.029482769 -0.028648779 0.051969174 -0.11362217 -0.02428928 0.01172429 -0.086159214 -0.025302133 0.031342942 0.027681831 0.018638102 -0.03270459 -0.043431595 0.032112423 0.032354657 0.07870532 -0.03126024 -0.06566938 -0.02857288 -0.011084676 -0.0029854227 0.018302193 -0.054943983 -0.028489128 -0.029611059 0.095181696 -0.053797364 -0.04742062 -0.080925524 0.012720006 0.05326237 0.033909917 0.0004902476 -0.017041383 -0.048228048 -0.0056175618 -0.01588983 -0.0992672 -0.018557219 -0.04622829 0.07275354 -0.006892898 0.0031065051 -0.032089923 -0.05287187 0.025706476 -0.030419815 -0.0406917 0.050096855 -0.09518652 0.053792227 0.027043043 -0.0668725 0.0052109743 0.018292673 -0.0066827843 0.014085922 -0.0056772605 -0.07263716 0.051516064 0.036411904 -0.029792715 -0.08106549 -0.072770566 -0.0769139 -0.06409435 -0.007890236 -0.026886608 -0.03399989 0.04189836 0.0009505372 -0.041624036 -0.073724486 0.0067097577
INS_MethodInvocation_Assignment -0.09999364 -0.06653407 -0.05302872 0.13901605 0.039476067 -0.099761456 0.0125852665 -0.0039559454 0.093725964 -0.097579084 0.061790343 -0.03587617 0.06820153 -0.037603572 0.103532456 0.05391535 0.07676129 -0.023781504 0.008046161 0.097937025 -0.034442894 -0.010124826 0.15580763 0.060243916 0.0154794995 0.08805155 -0.036187723 -0.0445804 -0.07023759 0.064431325 0.004200048 -0.040315438 -0.004742023 0.076741405 -0.026507666 0.08612796 -0.0011402812 0.035346393 0.028108925 0.010703391 -0.036171444 -0.009702465 -0.04033693 -0.05248216 0.027241 -0.01403863 0.09872058 0.018357176 -0.016186005 -0.054950107 -0.015650827 -0.05803086 -0.039958835 0.011498975 0.03936214 -0.027882334 0.056636833 -0.006577275 0.03142971 -0.064653546 -0.026042227 0.037215732 0.013990897 -0.0063344208 0.035267316 0.050537158 0.038710613 -0.08876097 0.06154025 -0.035948493 -0.032570273 -0.011399627 -0.116987094 0.030597525 0.0010283464 0.055009667 0.09061165 0.0026624277 0.0024667573 -0.072368726 0.1157546 0.024732852 0.044879388 -0.02909183 0.06872656 0.15753724 -0.17353621 0.026407734 0.12394248 0.01599273 -0.031505268 0.027054133 -0.051170077 0.058173865 -0.006897153 0.03643526 0.014376619 -0.14077345 0.022540843 0.0055324314 0.010779013 0.005705036 0.06131957 0.05194223 0.059225526 -0.081962176 -0.037336253 0.029804332 0.035768796 -0.06807948 -0.02867949 0.079532176 -0.12830952 0.04072604 0.0851458 0.025487434 0.04037803 0.029234786 -0.038260773 -0.0053458842 0.056220822 0.011577722 -0.0060372343 -0.04464689 -0.006563904 -0.028152945 0.11633873 -0.015171337 0.0047445805 0.09198911 -0.09031452 -0.016932035 -0.11127803 0.022367105 0.033504732 -0.00019146889 -0.028169237 -0.17288157 -0.060418624 -0.029546997 0.002338026 0.04656868 0.06744012 -0.06710083 0.0806762 0.007844076 0.029761748 -0.009915339 0.046340626 -0.0534762 0.05003294 -0.0020123823 0.05673543 -0.07805178 0.06973063 0.08076407 -0.060213163 -0.08805852 0.07468506 0.0547019 0.02855374 0.07349552 0.024869649 -0.032560103 -0.020114671 0.08875451 0.07241287 -0.057719722 -0.0750294 0.10047659 0.031710923 0.0058279843 -0.011108263 0.023387851 -0.023886595 -0.08083035 -0.0010884713 0.011596499 -0.008940212 -0.008401926 0.055737104 0.045420773 0.017840613 0.026483811 0.07222565 0.07335363 -0.019524518 0.12450193 -0.07601369 0.05922619 0.048458215 -0.024729745 -0.034144416 -0.09289085 -0.04881565 -0.042599764 0.007937456 -0.06825967 0.034022972 -0.063932516 0.046694968 -0.012865452 -0.0042709867 0.020640088 0.038518358 -0.036729332 -0.06599809 -0.06182189 0.040294852 -0.034569416 -0.05086997 -0.09696211 0.061048113 -0.019193351 -0.015839322 -0.013364683 -0.038772907 0.050574947 -0.03547974 -0.08773596 0.062432326 -0.013201846 -0.023154804 0.02293749 0.07337851 -0.0033006668 -0.039516818 -0.027983528 0.01824373 -0.016171321 -0.011085322 -0.08638389 -0.022827689 0.004442473 0.039927356 0.030425979 0.018954238 -0.04068257 0.03497404 0.013560202 -0.046255194 -0.028569339 0.03728361 -0.0034788311 -0.042382505 -0.043531258 0.028502552 0.029231757 -0.022616295 0.05635777 0.047776323 0.09566383 0.060332272 0.11218549 0.011673744 0.0461768 0.036592882 0.012132407 -0.004322723 -0.013379059 0.014068288 -0.07969192 -0.090920195 0.06962262 -0.028207604 0.010907516 0.025493195 0.030535236 0.06405932 0.03952795 0.021869829 -0.06092378 0.07535991 -0.04305212 -0.07528661 0.11498297 -0.03178243 0.1563095 -0.040597733 0.036517702 0.025854498 -0.10540979 -0.06972681 0.12664919 -0.02031356 -0.04667168 -0.014141855 0.07069626 -0.01532029 -0.12765105 0.014185357 -0.041316703 0.004639433 0.03812365 0.049269482 0.054099172 -0.01374209 0.04649092 0.01922484 0.07712006
INS_CharacterLiteral_ArrayInitializer -0.06740032 0.028117301 0.03622574 -0.008501194 -0.050507404 -0.006217938 0.06514223 0.0128498785 0.02289557 0.014631857 0.0384845 -0.027353479 -0.030637385 0.05357651 -0.015022349 -0.028327 0.070386186 0.007994983 0.0057570017 0.006128179 -0.01915761 -0.07369955 -0.02494909 0.006941843 0.06282014 0.0032272062 0.015665896 0.009993491 0.027388467 -0.06971419 -0.000106074345 0.03764266 -0.07852838 -0.018669613 0.0078564435 -0.013163957 0.0067691044 -0.12024994 -0.06590115 0.0042902096 0.14603694 0.08387574 0.027535247 0.009198273 -0.010967695 0.04518494 -0.006265323 0.025137972 -0.01834416 -0.07541193 0.014197924 0.058136027 0.014143583 0.046907347 -0.003983283 -0.0038569951 -0.0727923 -0.090274535 0.063378476 -0.011156028 0.019125795 0.048496306 -0.040821064 -0.09616736 0.014704299 0.017293544 -0.026627943 -0.0065129516 0.024326565 -0.034280952 0.026718901 -0.017229456 -0.034952126 0.013003418 -0.022212207 -0.04425819 -0.027829017 0.079772644 -0.019260839 -0.020860907 0.03322918 0.03458158 -0.00100377 0.02008191 0.002501552 0.07200427 0.022080123 0.061192546 0.0051274844 -0.016595537 -0.017165158 0.020975644 -0.051133025 0.033880647 -0.0012084303 0.0008196049 0.027090453 0.041154303 0.027126988 0.024631234 -0.065411925 -0.004477113 0.014822864 -0.11627337 -0.03570148 0.08166143 0.03522977 -0.06942342 -0.004169618 0.03671112 0.0022000782 -0.05185287 0.034324046 -0.060049284 -0.0015072305 -0.038466018 -0.030687543 -0.01943127 0.078763045 -0.013272044 0.02797477 -0.070075 0.026994921 0.0692214 -0.013135359 -0.046676856 -0.0508121 -0.045561075 0.085633755 -0.09707989 -0.10939857 0.026658887 0.09147354 -0.020578869 -0.005182734 -0.07882103 0.026633533 0.06383888 0.16871883 0.07716962 -0.066431284 0.09562769 -0.09542778 0.07746337 0.013135312 -0.08813717 -0.054016817 0.09713771 0.08697217 0.048199195 -0.01393423 0.08256929 -0.041902125 -0.05285564 0.0007728277 0.08971204 -0.11479329 -0.02949939 0.061108395 -0.032800082 -0.011226705 0.021503642 -0.03976721 -0.05466032 0.039813768 0.13887034 -0.058203675 -0.01812051 0.086119406 -0.14309134 -0.14064741 0.19697179 0.054958623 -0.029242534 0.068242334 -0.042508498 0.039490588 -0.013942335 -0.062285606 -0.061699487 0.105016895 0.06185827 0.093596816 -0.11396288 0.093041256 0.043541927 0.06184368 0.014908168 0.011986354 0.071102165 0.072814465 -0.090846494 -0.07861068 -0.120397575 0.008971015 0.07348111 0.09453186 0.045688853 0.06714788 -0.0111179445 -0.02295083 -0.059382793 0.021643698 -0.04448416 -0.0495747 -0.06440958 0.08789645 0.006120369 -0.0192412 -0.046688125 0.09331875 0.09977503 0.011172743 -0.03290689 0.007345682 -0.118858635 -0.15034875 -0.018775512 0.017381145 -0.010579606 0.012576034 0.04858962 0.045045488 0.007575546 -0.019028978 0.048935685 0.047604218 0.037864696 0.060145155 0.012453651 -0.070441544 0.047343347 -0.016531965 0.0395015 0.070622936 -0.018626671 0.0064994683 0.00076836604 0.03412832 -0.11657573 -0.03942871 -0.013805827 -0.067543216 0.1083153 0.006317471 -0.0145998895 -0.10224984 0.026638739 -0.015660238 -0.010309462 0.039177373 -0.09921877 -0.08116921 -0.026305094 -0.06493931 0.029729834 -0.0016704843 0.1580884 0.099771954 -0.0018501845 0.051997527 -0.11049495 -0.06671972 0.090881534 0.024615252 0.061343525 0.0035255249 -0.01991636 0.010356104 0.045102917 0.052565016 -0.013333794 -0.0045510577 0.008932756 -0.022464596 0.032085527 0.041240927 0.011715622 0.018901546 0.039975513 0.02365219 0.0054099513 0.117165625 0.04869047 0.020904006 0.005012311 0.054290976 0.117237754 -0.026477449 0.014482572 0.04402397 -0.014533775 0.024468532 -0.06947254 -0.07274742 0.026059357 0.015656983 -0.016219014 -0.122268535 0.032754317
MOVE_ParameterizedType -0.049927123 -0.030903598 0.035843547 -0.0052797985 -0.043505087 0.017161492 0.08418518 -0.010011084 -0.028592011 -0.009572517 0.06707532 -0.0857516 -0.07314369 -0.040754072 0.037603196 -0.033996016 0.045441963 0.096758306 -0.060623333 -0.0593971 -0.03984818 -0.022460233 0.07063978 -0.056154657 -0.070278294 0.020181496 0.037679423 -0.03382665 -0.059076563 0.08566992 -0.11979206 0.027619006 -0.007169996 -0.026778175 -0.04599026 0.010136464 0.09534541 0.11378586 0.106584 0.06501639 -0.07158407 -0.026201265 -0.04683265 -0.07740699 0.019016383 -0.059539765 0.0008016469 -0.04988335 -0.013752794 0.008669846 0.037809346 -0.032585707 0.11816547 -0.0025402114 -0.071671925 0.030768996 0.01944425 -0.065533035 -0.020611756 0.0010072272 0.001583154 -0.050293576 -0.067645915 0.0034562082 -0.02222851 -0.0049645565 0.017731972 -0.015887845 -0.039234065 -0.00047297246 -0.07353015 0.025376407 -0.01181897 -0.062605344 -0.035260897 0.040150438 0.0045259898 -0.14110518 0.0040540793 -0.024686335 0.07354847 -0.06312351 0.04427305 -0.042479306 0.025957787 -0.032144953 -0.061489753 -0.023459053 0.033899657 -0.051140223 -0.08590828 0.0061762254 -0.04395322 -0.048095208 0.005770017 0.04273695 0.05334881 -0.1382793 0.013182219 -0.093900144 -0.0104541695 0.070263654 0.031199222 0.12976377 0.0071440022 -0.115264565 -0.013670455 -0.00021148642 0.088052005 -0.09813971 0.030745625 0.05306738 0.05947882 0.12957266 -0.031627472 0.0444231 -0.060867403 0.062525615 -0.05271394 -0.03348006 0.037933443 0.019595038 0.036438424 -0.10809098 -0.07776195 0.056242518 0.07464691 0.007058932 -0.13761382 -0.004889086 0.091305755 0.031274106 0.045265928 0.06921258 -0.027342476 -0.0066165114 0.013956574 -0.017183237 -0.036629237 -0.028720902 0.02232464 0.04483234 0.015175098 0.012401741 0.0013976826 0.025219519 0.018723598 -0.010155173 -0.06272285 -0.06571757 0.013312476 -0.00044568197 0.03128362 0.035598595 0.025831707 -0.026310803 0.043565385 0.010244232 0.08772389 -0.030246176 0.090582006 0.011521609 -0.04917596 0.037860982 -0.08458517 -0.034018993 -0.058459975 -0.006148583 -0.035145253 0.06489698 0.01935488 -0.07965682 0.0658134 0.010995688 -0.04919536 0.099710725 0.13407135 -0.0539849 0.0025112443 0.08687086 0.041915588 -0.021536214 -0.08114597 0.01787305 -0.029213851 -0.004548752 0.023390895 -0.0042122407 0.083789565 -0.014929618 -0.06942003 0.04590212 0.05941289 0.08364077 -0.022448504 -0.011232471 -0.010280017 0.00215807 0.017248916 0.058813777 -0.04736 0.013128197 0.022335602 -0.05313742 0.014895815 -0.03386959 -0.0282844 0.020419829 0.039952785 0.033387475 -0.04975016 0.053376086 0.02095651 -0.028111573 -0.05337675 0.027657563 0.10236407 0.018896606 -0.004086904 0.0045015155 0.01649043 -0.025225917 -0.025365582 -0.010635052 -0.01629341 -0.060617886 0.014482559 -0.025440313 0.03601863 -0.007997486 0.05730063 -0.040671527 0.049302228 -0.012598751 -0.027302941 0.011124174 -0.027938124 -0.0624089 0.016094549 0.09912286 0.055784214 -0.0035390875 -0.031686272 -0.11174761 0.008108905 0.03030725 0.08086585 0.043629408 0.02954241 0.060329713 -0.036313146 0.02085863 0.009446632 -0.01784431 -0.008133769 0.13597845 0.034251057 -0.023287544 -0.026954101 0.034794174 -0.115272984 0.025556674 0.033273987 -0.051159848 0.0102013815 0.071356796 -0.053483687 0.0024526324 -0.008247045 -0.022500833 0.093141 -0.08513361 0.07155084 -0.1575486 0.04594634 0.08711546 -0.010525682 0.12540221 -0.015571698 -0.0383548 -0.00319787 -0.020327425 0.1623782 0.0717247 0.006498457 -0.13995694 0.016264295 0.073735945 -0.027538171 0.08650423 0.07692995 0.0631258 -0.011665971 -0.024502084 -0.114556596 -0.069311105 -0.14614463 -0.124154076 -0.20706798 0.04148275
INS_SimpleType_VariableDeclarationStatement -0.042743403 -0.04676181 0.021938995 0.0908392 -0.01999373 -0.13892968 0.047351748 -0.011098433 0.052388106 -0.098419234 0.011889445 0.032810237 -0.06982966 -0.007254336 0.054676004 0.043019667 0.065046355 0.0629781 0.016648196 0.003803239 -0.10154144 0.091283835 -0.030550089 -0.04702012 -0.013676935 -0.12516208 -0.04660104 -0.0018273089 -0.1359324 0.043472122 -0.15567134 -0.013643963 0.08711915 0.012090868 -0.021267412 -0.02869873 0.03587213 0.029152712 0.08731249 -0.030424349 -0.10688603 0.021142062 -0.07169368 -0.043664414 0.1207073 -0.025482342 -0.037201248 -0.006509308 0.018750913 0.096767105 -0.03176268 -0.021344796 -0.07711602 -0.053527135 0.03644813 -0.0070484476 -0.010382179 -0.0011883089 -0.05629144 0.017696586 -0.17734933 -0.049974907 0.0534419 0.1074597 -0.09877589 -0.031696167 0.0335428 0.050589226 -0.007928571 -0.050243244 0.10279781 0.023587624 -0.08519087 -0.03925305 -0.018462224 -0.023595622 0.10167243 -0.10641875 0.036008056 -0.0011787245 0.07240776 -0.057892494 0.039436415 -0.08932068 -0.03559208 -0.0003428233 -0.11523704 -0.009197947 0.054448318 0.040140614 -0.008120166 0.07358963 -0.037304413 -0.04951031 -0.017847618 0.042125024 0.12061352 -0.035125896 0.07991151 -0.031693738 0.042664044 0.0041222223 -0.024419064 0.10224718 0.050376672 -0.11256388 -0.056845963 0.095520094 0.14110722 0.023693388 0.011249512 0.017355574 -0.014736267 0.012825978 0.043108415 -0.043655995 0.08382103 0.020655192 -0.095763214 -0.060780473 -0.065852866 0.0061779744 0.036083817 -0.12421925 -0.037379738 -0.044164095 0.048567332 0.011065629 -0.036473516 0.029697988 0.07507098 -0.010614553 0.035905067 0.025545673 -0.005250336 0.028818294 0.06267427 -0.017191593 -0.010571151 -0.049546648 -0.005147252 0.00662386 0.043100685 -0.021805901 -0.05053871 0.029660333 0.028625676 0.007984041 -0.068303265 -0.082619235 0.03366218 -0.05561241 0.051999975 -0.016967457 -0.060153 -0.06978874 -0.037479345 -0.013046794 -0.03355479 0.0059471843 0.027681766 0.018994851 -0.04892879 0.036498494 -0.07001829 -0.01585896 0.028406559 0.011826276 0.10009023 -0.039023224 0.12421165 0.017265998 -0.038942877 0.0290538 0.0049003353 0.014094016 -0.018939894 3.992128e-06 0.0003836772 -0.037886444 -0.04142686 0.042838328 -0.00088625087 -0.09157117 -0.017084192 -0.036776662 -0.048926525 0.026958179 0.054781415 -0.058959123 0.0060233427 -0.031627327 0.046788182 -0.0013688647 0.0037522544 -0.039922018 -0.049171895 -0.011808385 0.085037746 0.066057615 -0.016457634 -0.06475347 -0.0059906435 -0.019564914 0.04539615 0.033793945 0.123538464 0.05277928 -0.04879287 -0.048710193 0.06415627 0.06978553 0.071087524 -0.07299444 0.00013083835 -0.1449163 -0.0952872 0.036309548 -0.045215398 0.06796039 -0.011946635 0.042952616 0.11665088 0.05365455 -0.06848377 -0.16538417 -0.058009375 0.02233755 -0.006508442 0.07485407 0.062245082 -0.03914511 0.04410591 -0.020490471 0.04723857 -0.08148839 0.014657547 -0.030643124 -0.010313582 0.09863938 0.03131239 -0.06936853 -0.027925652 0.038268935 -0.0553682 -0.028547525 -0.12844944 0.0037053418 0.012560281 0.023915468 0.0045113266 0.024199057 0.019691903 -0.033519443 0.018329319 -7.3933974e-05 0.03217011 -0.03986461 -0.07111624 -0.00942546 -0.007563826 0.025731476 0.039552923 -0.006839449 0.08343219 -0.06684168 -0.032173965 -0.054423966 -0.0037888796 0.028221654 0.012234636 0.04423406 -0.09137184 0.0078018997 -0.05728754 0.021058096 0.024178648 0.0011237205 -0.02444573 0.042631693 0.040225975 0.014945232 0.10788172 0.08315404 0.03889267 0.020897135 -0.05614502 -0.10235408 0.017265074 0.05693256 0.071179576 -0.04317548 0.066033006 -0.05614099 -0.024827305 0.03271764 -0.1533787 0.026607491 0.06551354 0.017484436
INS_TryStatement_Block 0.09795772 0.054931838 0.071435966 0.0388776 -0.01569954 -8.3802486e-05 0.0135306865 -0.029311685 0.1008749 -0.04523134 -0.05874788 -0.020873131 -0.07943219 0.009689877 0.11967851 -0.018177986 0.03739298 -0.08322632 0.047004417 0.09943447 -0.0442044 0.07546546 0.12567739 0.003337689 -0.033572953 0.030304573 -0.022031767 -0.020075101 0.08587458 -0.0877866 0.08980941 0.039852478 0.09975799 -0.046138685 0.03732248 -0.024892054 -0.031610202 -0.062423304 0.02784686 0.027954297 -0.091030985 0.057572577 0.015279581 -0.013125737 0.0685281 -0.0025436485 0.029393049 0.0011207499 0.0999897 -0.013768473 0.026233517 -0.021712009 -0.035628475 0.041528285 -0.03813154 0.044176918 0.02627796 -0.03756265 -0.08858841 -0.034861397 0.039238513 0.04926034 0.03906505 0.097269185 -0.08009097 -0.039653763 -0.016516663 -0.029923249 0.027683139 -0.023858756 0.020315763 -0.030267151 0.007896497 -0.033530097 0.048675943 -0.06539682 -0.00064113823 -0.014796513 0.058809347 0.029460305 -0.007326383 0.032779764 0.0063914447 0.043584708 -0.074244544 0.035421047 -0.026602259 0.068694405 -0.07089582 0.061106622 -0.115051575 -0.13562138 -0.04571926 -0.008893344 0.08910198 -0.02060691 0.012557194 -0.051410455 -0.03318836 0.012137323 0.019740116 -0.0049766097 0.04409082 -0.01692005 0.11473225 -0.017605696 -0.033919334 -0.009948362 0.1030826 0.026147956 0.07742587 -0.020075003 0.023705538 0.03113761 0.028042171 0.04241773 -0.040893395 0.031797085 -0.0359667 -0.020319656 0.021816846 -0.05573268 -0.030239899 0.004993225 0.010430348 -0.0064503145 -0.013761362 -0.041525807 -0.14448708 0.047447935 0.13388616 -0.08313001 0.12026548 0.011321755 -0.0098041035 -0.0116312 -0.0034596042 -0.07269371 -0.061383642 0.006611735 0.020871274 -0.07375411 0.09591754 0.0079425685 -0.121688664 -0.0032125758 0.104622155 0.015386133 -0.08429553 -0.0686297 0.024990303 -0.099695005 -0.06818794 -0.07974505 -0.12695503 -0.10833248 0.01576234 0.021991365 -0.032690138 0.024880808 -0.08272115 -0.0026461997 0.047600012 0.0243163 -0.13131064 -0.050568733 0.07680619 0.11075723 -0.05892212 -0.07033679 0.08207507 -0.06823507 -0.030711295 -0.023034753 0.057651147 -0.0030917334 -0.07947961 0.047087654 0.04453113 -0.025861751 -0.046588562 0.06252639 0.00028329858 0.012123034 -0.0036338535 -0.0544806 0.033720948 0.025017712 0.06690665 -0.03986724 -0.0066437353 -0.019253261 0.047354113 -0.036242757 0.032619473 -0.005966087 0.010363756 -0.06762821 -0.009452181 0.08637339 -0.02154043 0.09418733 0.026634024 -0.04105135 0.03470463 -0.011899558 0.03450496 -0.059620272 -0.024871238 -0.13555683 0.07307168 -0.042111866 0.10685137 -0.034195967 0.06771958 -0.025411956 0.015908068 0.059619296 0.02185285 -0.04371353 0.04288937 -0.005267874 0.011188952 0.003055908 -0.007902113 -0.05835191 -0.02468523 0.11622108 0.014094957 0.066278614 -0.010000103 0.0014233422 -0.06399962 0.03895611 0.03348931 -0.039909627 -0.015073099 -0.06610607 -0.011921329 0.0039655976 0.100648314 -0.021631757 0.038050026 0.05363602 -0.0958335 0.0018815364 -0.06678837 -0.009314663 0.03867906 -0.0028225847 -0.057548407 -0.012873112 -0.04758171 -0.15320241 -0.025744176 -0.027646687 0.17516054 0.007804806 0.08736331 -0.021993386 0.046545945 -0.03460036 -0.06361478 -0.022209931 0.01945167 -0.13018416 0.06901045 -0.06936251 -0.07909819 0.040209122 -0.07134346 -0.006372833 -0.004647518 0.048962347 0.031813573 -0.016803762 0.01752377 0.021007242 0.12068581 -0.09738183 0.086846985 -0.012390676 0.04184818 0.09306899 -0.008019721 -0.07553671 -0.030891476 -0.055028513 -0.003553289 0.044910662 0.07121999 0.10844393 0.018243019 -0.07861367 -0.040906776 0.015979078 0.0077017145 0.025386667 0.09435061 0.060176864
INS_SimpleType_MethodDeclaration 0.103014335 -0.0074705672 0.0381287 0.060519107 0.048257355 0.12005915 -0.12472533 0.022101847 -0.044089504 -0.1060293 -0.09787907 0.035529178 0.038556725 -0.113773696 0.039107505 -0.09233168 -0.04816945 -0.13403614 0.099297404 0.09657924 -0.030377418 0.041897614 0.038349245 0.01153359 -0.0513299 -0.021124944 0.026816612 0.015569876 -0.06856427 -0.055850748 0.07749212 -0.0077936025 -0.010018474 0.020274237 -0.11729058 -0.004932852 -0.01650691 -0.033686303 0.02103134 -0.024074152 -0.047438715 0.076989174 0.040894866 -0.037282016 -0.040888306 -0.018138401 -0.046467755 0.021807065 0.057066336 -0.07399398 -0.048125893 0.13197488 0.14883238 0.009000749 -0.06444883 -0.055550806 0.110580765 0.024175711 -0.014352634 0.12167623 -0.007396626 0.086181045 0.017802501 0.04456311 0.028644111 -0.060980894 -0.04216792 -0.004740875 0.022745043 -0.047510855 -0.020947326 -0.017536014 -0.006888042 0.02445012 -0.04956077 0.0356572 0.05904699 -0.054884586 -0.032049272 0.09414843 -0.069579974 -0.003702605 0.0567335 -0.027297279 -0.055052344 -0.13141462 0.031910863 0.029823132 -0.08787666 0.10384834 0.030992439 -0.06866611 0.017390879 -0.06630171 -0.10566617 -0.0071052006 0.027182324 -0.036721658 -0.04246214 -0.0038377098 0.05753849 0.010896389 -0.043117125 0.09742979 0.06989593 0.055970456 -0.025298808 0.0777243 -0.050276715 -0.014913457 0.023436079 -0.09167972 -0.020633955 0.07594912 -0.038727906 -0.02035904 -0.053255357 -0.06236939 0.0024539581 0.058889676 0.008411145 -0.016262101 -0.052477956 -0.007182856 -0.019421386 0.041830678 0.02005028 -0.009632275 -0.092995755 0.13819177 0.027197879 0.042296365 0.06914925 0.10518899 0.06539444 0.11863104 -0.008336749 0.13371287 0.00018982752 0.103956096 -0.011996051 -0.030045105 0.05413176 -0.011608697 0.036416717 -0.043077376 0.09785868 0.025430912 0.0017457558 -0.0016318271 0.053768463 -0.0056151394 -0.077630974 -0.016008632 -0.04791092 -0.050846193 0.12450292 0.008005548 -0.08354584 -0.007940173 -0.11166495 -0.027651858 0.047066823 0.04581208 -0.024782304 -0.05663286 -0.032559387 -0.041285362 0.008275884 0.010117769 -0.063933015 0.04751359 0.022009997 0.005106154 0.023596264 -0.043151576 -0.06388744 0.010650768 -0.07317853 0.008767983 -0.03877343 -0.0015008823 0.033258412 -0.029241646 -0.07557736 -0.010510492 0.009139883 0.07554867 0.06197329 -0.033644732 -0.17090032 -0.014634322 0.043695986 0.1481059 0.038440883 -0.036001537 -0.01078219 0.02870163 -0.18276109 -0.021690458 0.0369521 0.044630345 0.13124791 0.033884693 0.009354885 0.07701516 0.011731825 -0.0035061948 -0.009554255 0.038231637 0.06680791 -0.07684338 -0.014156755 -0.014436075 0.03662839 0.009680821 -0.02074454 0.049859814 -0.0008191379 0.037377886 -0.011957303 0.07689879 0.007990466 0.033770926 -0.04845397 -0.1076329 0.020135753 0.067821376 -0.03582859 -0.050657377 -0.01602126 0.014445572 0.024202365 6.649248e-05 -0.032473415 0.02748501 -0.0075430498 -0.058483366 -0.045798946 0.059731454 0.09034451 -0.026986757 0.0216453 0.008778931 -0.019407239 -0.100620106 -0.11212825 -0.019268028 -0.046052042 0.08165413 -0.0371798 -0.002200129 -0.053684745 -0.026004702 -0.010345709 -0.014298114 0.026411207 0.0456823 0.12737332 -0.022880374 0.05054679 -0.05313329 0.002255613 -0.02573292 0.09355547 -0.030228695 -0.030879416 0.0053069727 0.008786829 -0.046092547 0.033719502 -0.015126841 0.033408355 0.00026752468 0.08581836 -0.029497065 0.041989908 0.01982552 0.038061343 -0.05130474 0.01574234 0.008534456 -0.0072425464 0.08642761 0.035040427 0.0032318963 0.1396388 -0.03932561 0.040731527 0.029276498 0.0523344 0.07504988 0.04320739 -0.020663451 -0.010163726 0.008811024 0.034020074 -0.02950972 0.06288102 -0.028557966
INS_MarkerAnnotation_VariableDeclarationStatement -0.081046395 0.02452404 0.053717095 -0.056192577 -0.028392999 -0.034988794 0.08004033 -0.018481402 0.013778135 0.006744269 0.027269736 0.013692838 -0.09284981 0.14820671 0.044168755 0.040660776 0.035598677 -0.037110735 -0.0222502 -0.04211922 -0.006899847 -0.042840026 -0.048758406 0.00011483935 -0.011059654 -0.034111198 -0.028668195 -0.0061304313 -0.006071528 -0.06730562 0.029943503 0.029545296 0.017200828 0.0027999424 0.018978635 -0.027576815 0.04371192 -0.070555106 -0.05834337 -0.0049307994 0.12571953 0.010525721 -0.0055278786 0.0035717627 0.0010416388 0.03177006 -0.026132984 0.028969942 0.026746877 -0.12042685 0.00772425 -0.011709554 0.01619317 -0.018600252 0.008076553 -0.028561993 -0.049112782 -0.092507266 0.081564344 -0.047656458 0.02479302 0.05725134 -0.033485282 -0.085402824 -0.0174508 0.016390901 -0.051786754 -0.005838174 0.035788402 -0.028928671 0.039098572 0.010374495 0.02475416 0.025227638 -0.039739136 0.0019817036 -0.034944683 0.049559936 -0.025795734 -0.02074536 0.05248021 -0.0410928 -0.0165824 0.028525129 0.00931746 0.012049684 0.043184076 0.034728546 -0.019801008 -0.035584044 -0.0016641764 -0.04624015 -0.0064784414 0.017456489 0.0093449345 -0.0106186075 0.005974169 0.017150054 -0.050511762 0.008825404 -0.014252337 -0.013711513 -0.014393728 -0.078597836 -0.051285572 -0.009214619 -0.066237375 -0.05996156 -0.036189858 0.036784954 0.0019766728 -0.030655866 0.08062471 -0.032103784 0.0076515866 -0.005655494 -0.030435931 -0.017092552 0.06823036 -0.011733786 0.01754573 -0.082482025 0.0053426614 0.016246682 0.023886358 0.0015088468 -0.061803076 -0.044816293 0.062728964 -0.060114425 -0.047732733 -0.0032349906 0.046112295 0.009335155 -0.030780384 -0.116423614 0.023920022 0.050924722 0.12981467 0.08112011 -0.04411262 0.06258334 -0.08962179 0.088027924 -0.0093793655 -0.058436252 -0.050314046 0.078694336 0.05789288 0.056362323 0.05152381 0.05252955 -0.046023022 -0.055451315 0.07064866 0.012903104 -0.115597725 0.04437295 -0.041596033 -0.04903666 -0.054508448 0.043821163 -0.039342806 -0.117156625 0.025402837 0.1485355 -0.056290407 -0.08243973 0.05775179 -0.008763132 0.01997767 0.06899357 0.047077496 -0.014740219 0.06571801 -0.06493651 0.04022428 -0.016085207 -0.027050598 0.043261643 0.08226331 0.09046359 0.07614508 -0.13738829 0.032322533 0.061963327 0.08283745 -0.008736563 0.019457238 0.028364247 -0.063591115 -0.077638924 -0.039856743 -0.13243107 0.032779787 0.063309744 0.08664393 0.015952045 0.051641867 -0.015827708 -0.10338989 -0.0070377197 0.004803982 -0.09485373 -0.07252097 -0.021028848 0.088294245 0.0026926682 -0.021123149 -0.02012787 0.13690561 0.087095015 0.021850541 -0.01533453 0.0047694705 -0.15207824 -0.10073113 0.048140414 -0.041632924 0.055145774 -0.044042777 0.09237241 0.06875531 0.045431413 -0.0239063 0.0450515 -0.018301299 0.0027130896 0.037362933 0.020613914 -0.04357987 0.049237892 0.055100355 0.028201276 0.104388304 -0.08181934 0.027316036 -0.035956606 0.007749453 -0.09841022 -0.015405063 -0.072162755 -0.0137143815 0.06356149 0.029747693 -0.036633037 -0.14317319 -0.0030055293 0.0038797553 0.007196574 0.013413457 -0.10702135 -0.07444854 -0.09589387 0.033213295 0.045549504 0.003454806 0.12038884 0.0994171 0.07088824 0.015445346 -0.04467189 -0.10403107 0.116758145 0.07041028 0.04099822 -0.12928356 0.002764341 0.0658465 0.09196448 0.12192547 -0.11722174 -0.0025620437 -0.04396752 -0.050822172 0.12772107 0.0353768 0.0398152 -0.054912027 0.015897118 0.075344674 0.047358453 0.104896635 0.08673277 0.0406047 -0.013661767 0.10485678 0.11944731 -0.06216985 0.011972964 0.05644298 0.006216306 0.06136235 -0.09564202 -0.11027057 0.015151952 0.044176355 0.031260945 -0.05551036 -0.010095793
