INS_SimpleType_TypeParameter 0.5141268 0.5066908 -0.8994091 0.03283095 -0.48373792 0.041113425 0.072646454 1.2263225 0.26108345 0.6410376 1.1406535 0.62921315 0.14113285 0.9357925 -0.05890366 0.7893711 0.32131508 -0.86744744 0.28010353 -0.91576713 -0.6754567 0.002306495 0.9619633 -0.46757305 -0.56171787 -0.44970798 0.618043 1.1313418 -0.3897134 -0.13634291 -1.1991723 0.12404342 -0.59288555 -0.536196 -0.010861956 0.9078455 0.026235804 -1.0549362 1.4453725 -1.654152 -0.80787516 -0.97198576 -0.35376352 -0.21754125 -0.10837419 -0.10053412 -0.1808294 0.20071104 0.276647 -0.060524702 -0.7976548 -1.0011803 -0.9072623 -0.17278947 -0.7790612 -0.19039454 -0.9919407 -0.2834144 -0.18474105 0.3743426 0.44259036 0.5870317 0.8950438 -0.7782868 -0.2087098 1.0767998 -0.051273677 0.020867398 0.07215188 -0.9188138 1.2986565 0.6594072 0.31577438 -0.6404871 0.5618987 -0.5935351 0.08970302 -1.2318485 0.11212228 0.35455617 0.26011026 1.0061362 0.54466724 -0.121084526 -0.053754225 -0.8071463 1.4323986 0.88639325 -0.2290602 -0.9157724 -0.7635761 -0.55051106 -0.12474625 0.5954263 0.3180413 -0.5071691 -0.96467376 -0.402606 -1.0366682 -0.10076663 -0.51441324 0.6104181 0.19369678 1.0987009 -1.0192848 0.75731057 0.09791695 0.27275372 0.0074288426 -0.008119597 -1.4806441 -1.0639312 -0.21066457 -0.33614352 0.15922217 -0.65887547 0.31001988 0.32100692 -0.27544835 0.13396068 0.65600055 0.47548965 -0.7010787 1.2267978 -0.7160337 -0.94500244 0.41579753 -0.6360613 -0.28513232 -1.0102619 0.49613306 0.15607879 1.1470557 0.039643638 0.34181485 0.4443017 1.0778058 0.08781603 1.0182778 0.8244029 -0.6916866 -0.7014315 -1.2650737 -1.1945466 0.022414189 -1.0059825 0.5313225 -1.1513702 0.72142947 0.23315102 -0.0706674 -0.44794354 0.5417248 0.2634987 0.47845164 -0.6551044 1.0356957 0.08964018 1.1563672 0.6844227 0.36404482 -0.6047031 0.3152524 0.9358284 0.4366961 0.30424836 0.9021193 1.0800792 0.11441576 0.18868303 1.2120339 0.7435699 -0.23530915 -0.7393951 0.50832367 0.69253564 -0.28973934 0.23911119 -0.08180236 0.264864 -0.23256958 -1.2082679 0.20362152 -0.38628533 0.88328093 0.8229936 0.53697884 -0.18955575 0.9224816 -0.6934527 0.62292045 0.27216646 -1.2430152 -1.0578883 0.62489825 0.3597446 0.34211278 -1.4062897 0.016786471 -0.17097925 0.9706927 -0.7489208 -0.8464006 -0.8786358 0.48142597 -0.38532007 1.0428426 0.14503942 0.20580055 -0.19402698 -0.6664681 0.2411934 -0.18336977 -0.8017977 -0.4323499 1.0915805 0.3274845 -0.20266697 -0.30689824 -0.57877743 0.20791937 -0.68052685 0.15642968 -0.44189715 -1.1038984 1.1257948 -1.195077 -1.3749998 -0.38997474 -0.81221366 1.1022173 -0.49092415 -0.05277087 -0.7661122 -0.24836713 0.05669417 0.5261715 0.16090775 0.3707643 -0.6539711 -0.055727307 1.101646 0.98634243 1.1890578 -0.64491427 -0.65387934 0.20816886 -0.89729875 -0.9438718 -0.2506426 0.7882311 -0.5851833 0.11261225 -0.4163852 0.012423953 0.30091074 0.43618926 -0.41639823 -0.30388984 -0.6183861 -0.52944857 0.20997466 0.19121408 -0.72184145 0.5473213 -0.9603179 0.25861317 -0.03407639 0.8375889 1.35274 0.40081576 0.5279845 0.8478928 -0.9793215 0.2423352 -0.16028841 -1.0014186 0.30292308 -0.836021 -0.7966168 0.31514397 0.16965711 -0.98933655 -1.2952645 -0.80944616 -1.3325316 -1.1479071 0.37976933 0.4498841 -0.7267331 -0.2389589 -0.02739205 0.028322265 -0.04491471 -0.7125222 1.0918522 0.47191808 0.7226593 -0.23101029 0.096158765
DEL_ParameterizedType 0.0 -0.0 0.0 0.0 0.0 0.0 0.0 -0.0 -0.0 0.0 -0.0 0.0 -0.0 0.0 0.0 0.0 0.0 0.0 0.0 -0.0 0.0 0.0 -0.0 0.0 0.0 0.0 0.0 0.0 0.0 0.0 -0.0 -0.0 0.0 0.0 -0.0 -0.0 0.0 -0.0 -0.0 -0.0 -0.0 0.0 -0.0 0.0 0.0 -0.0 0.0 -0.0 0.0 -0.0 -0.0 -0.0 -0.0 -0.0 -0.0 0.0 0.0 0.0 0.0 0.0 0.0 0.0 0.0 0.0 0.0 0.0 0.0 0.0 0.0 0.0 0.0 0.0 -0.0 0.0 0.0 0.0 0.0 0.0 -0.0 0.0 -0.0 0.0 -0.0 -0.0 0.0 0.0 -0.0 0.0 -0.0 0.0 0.0 -0.0 -0.0 0.0 0.0 -0.0 -0.0 -0.0 0.0 -0.0 0.0 0.0 0.0 0.0 -0.0 0.0 -0.0 0.0 -0.0 0.0 0.0 0.0 0.0 -0.0 -0.0 -0.0 0.0 0.0 0.0 0.0 -0.0 -0.0 -0.0 -0.0 0.0 0.0 -0.0 0.0 0.0 0.0 -0.0 0.0 -0.0 0.0 -0.0 -0.0 -0.0 -0.0 0.0 -0.0 0.0 0.0 0.0 -0.0 0.0 -0.0 -0.0 -0.0 -0.0 -0.0 0.0 0.0 0.0 0.0 -0.0 0.0 -0.0 -0.0 -0.0 0.0 0.0 -0.0 -0.0 -0.0 0.0 -0.0 -0.0 -0.0 0.0 -0.0 0.0 -0.0 -0.0 -0.0 0.0 -0.0 -0.0 0.0 -0.0 -0.0 0.0 0.0 0.0 -0.0 -0.0 -0.0 0.0 -0.0 0.0 -0.0 0.0 -0.0 -0.0 0.0 0.0 -0.0 -0.0 0.0 -0.0 -0.0 0.0 0.0 -0.0 0.0 -0.0 0.0 0.0 0.0 0.0 0.0 -0.0 -0.0 0.0 0.0 0.0 -0.0 0.0 -0.0 -0.0 -0.0 -0.0 -0.0 0.0 -0.0 0.0 -0.0 -0.0 -0.0 0.0 0.0 -0.0 -0.0 -0.0 0.0 0.0 -0.0 -0.0 -0.0 -0.0 0.0 0.0 -0.0 -0.0 0.0 -0.0 -0.0 0.0 -0.0 -0.0 0.0 -0.0 0.0 0.0 0.0 0.0 -0.0 -0.0 0.0 -0.0 0.0 0.0 0.0 0.0 -0.0 -0.0 -0.0 0.0 -0.0 -0.0 0.0 0.0 0.0 -0.0 0.0 0.0 -0.0 -0.0 -0.0 0.0 0.0 0.0 -0.0 -0.0 0.0 -0.0 -0.0 -0.0 0.0 -0.0 0.0 -0.0 0.0 -0.0 -0.0 -0.0 0.0 0.0 0.0 -0.0 -0.0
INS_FieldAccess_ArrayAccess 1.4883274 -0.13397248 0.39340654 -0.85423845 0.6116413 -0.83409685 -0.9857516 0.59048414 -0.09366353 0.6617755 0.07611362 -0.3087514 -0.2973612 -0.6981945 -0.16827585 1.1884009 -0.22463211 0.34710094 0.40770876 0.5500989 0.710548 0.4963714 -0.09831835 -0.7482435 0.62840587 -0.29441276 -1.0936351 -0.011634149 0.57727104 -0.27011433 -0.4606904 -0.9009359 -0.16957717 0.52320635 -0.9194646 0.0047857855 -0.81545 0.7801128 0.24151017 -0.32006186 0.3621776 0.094740845 0.1574638 -0.086300425 1.0338329 0.35913694 -0.5655085 -0.26626632 0.04850023 -0.11684087 -0.35617715 1.1554534 -1.1470051 -1.103887 0.48533592 0.0072270096 -0.37847954 1.0757751 -0.4448034 -0.19698082 0.0060381466 -0.07061143 0.2337958 -0.5513055 0.032706704 -0.30644757 0.9664135 0.9944287 0.485971 -0.064686455 -0.73952913 -0.26524663 -1.2488487 -0.037286866 -0.09846114 -0.8376728 0.3026282 0.93430805 -0.27847055 -0.46680287 -0.036330674 -0.41191512 -0.81779945 0.7289232 0.6665657 0.31708333 -0.13656704 0.29871705 0.20045461 0.5927099 1.0134622 0.1509352 0.42928988 -0.39688677 0.51529294 -0.6371258 -1.190916 0.12358098 -0.98942745 -0.25345084 0.63331914 -0.31722185 0.38845855 -1.5792261 0.80439943 -0.2017377 0.61629087 -0.41976705 -0.0025572449 -0.0937238 0.6167852 -0.78016555 0.68427503 -0.22533724 -0.3580866 -0.9605293 -0.9178174 0.20361397 -0.025756715 -0.24783173 0.36805052 -0.00960527 -1.0990498 -0.06040265 -0.72599185 0.08463364 -0.043765184 0.021110425 0.45115086 0.40738502 -0.6834582 -0.066344805 -1.5321288 0.7616446 1.1441396 1.0825891 0.033286747 0.43151864 -0.7088737 -0.46025816 0.22019611 -0.95740587 -0.29162326 -0.0429594 0.17137113 0.46751964 -0.31239468 0.64401275 -0.84037334 0.57802397 -0.8986417 -0.5914334 -1.5147182 0.5055107 -0.1823863 0.7883353 1.4816095 -2.1672368 -0.105443485 -1.0991911 -0.3462803 0.46233618 0.10092841 -0.43908188 -0.61113006 -0.3384612 0.16834603 0.81350666 0.36343023 0.9277761 -0.5000575 -0.20396636 0.4291109 -0.13040268 0.20825826 -0.25212473 -0.31727707 -0.16328335 0.18503338 1.0237755 0.7109101 0.23940307 -0.001001435 0.5229127 -1.2491767 -1.6915554 0.1278727 0.0510015 -0.56210804 0.47278836 -0.5589245 0.5064629 -0.98358905 -0.04071316 0.3449731 -0.55658287 -0.8822088 -0.18721087 0.37778184 0.12868576 -0.26251006 0.4301928 -1.450673 -0.2621063 -0.5081578 0.10774648 1.1714041 1.7839355 0.40303844 -0.22073025 -0.8166319 -0.1960538 0.7963695 -0.62803745 0.25384316 -0.37787205 0.45223358 0.20643422 -0.34015715 0.7865064 -0.8788136 0.99675554 -0.34696582 0.8401214 0.54022217 -1.1863163 -0.22656642 -0.4558246 0.6918544 0.6805389 0.30155864 0.47567704 0.22443224 -0.028180113 0.9208249 0.1105933 0.2249637 1.0052801 0.4593261 -1.0682049 -1.1231945 -0.50460255 0.5226695 -0.27329805 0.3068899 0.33523962 0.5088997 -0.067197904 -0.60994744 0.7410568 -0.15228301 -0.17232838 -0.72285956 0.05861712 -0.2209105 0.554151 -0.21418583 -0.47759393 -0.35514468 0.28326884 1.5127194 0.5066666 -0.35824013 -0.70490235 0.81012595 1.2453697 0.13639817 -0.32028788 0.37621096 -0.91924703 0.60801053 1.2027599 0.08111065 0.2118988 0.5732712 0.5574479 -0.64253426 -0.813512 -0.52006924 -0.79997694 -0.39633885 1.4175118 0.59916306 -0.0976945 0.56516266 0.16881372 -0.16759974 0.15977421 1.0647112 0.05514143 0.51816106 0.20329791 0.38913983 -0.115513824 -0.56964225 -1.1718664 -0.62519807 -0.43837675 0.16076438 -0.0968141
INS_SimpleType_EnumDeclaration 0.0 0.0 -0.0 0.0 -0.0 0.0 0.0 0.0 0.0 -0.0 -0.0 0.0 0.0 0.0 0.0 -0.0 -0.0 -0.0 0.0 -0.0 -0.0 0.0 -0.0 -0.0 -0.0 -0.0 -0.0 0.0 0.0 0.0 0.0 -0.0 0.0 -0.0 -0.0 -0.0 0.0 -0.0 0.0 -0.0 0.0 -0.0 0.0 0.0 -0.0 0.0 -0.0 0.0 0.0 0.0 0.0 0.0 0.0 0.0 0.0 0.0 0.0 0.0 -0.0 -0.0 -0.0 0.0 -0.0 -0.0 -0.0 -0.0 0.0 -0.0 0.0 -0.0 0.0 -0.0 -0.0 -0.0 -0.0 0.0 -0.0 -0.0 -0.0 -0.0 -0.0 -0.0 -0.0 -0.0 0.0 0.0 -0.0 -0.0 0.0 -0.0 -0.0 -0.0 -0.0 0.0 -0.0 -0.0 -0.0 -0.0 -0.0 -0.0 -0.0 0.0 0.0 0.0 -0.0 -0.0 -0.0 0.0 -0.0 0.0 0.0 0.0 0.0 -0.0 0.0 -0.0 -0.0 0.0 0.0 -0.0 0.0 0.0 -0.0 0.0 -0.0 0.0 -0.0 -0.0 0.0 -0.0 -0.0 -0.0 0.0 0.0 0.0 -0.0 0.0 0.0 0.0 0.0 0.0 -0.0 -0.0 0.0 -0.0 0.0 0.0 0.0 -0.0 -0.0 -0.0 -0.0 0.0 0.0 -0.0 -0.0 -0.0 0.0 -0.0 -0.0 0.0 0.0 0.0 -0.0 0.0 0.0 -0.0 -0.0 0.0 0.0 0.0 0.0 -0.0 -0.0 0.0 -0.0 -0.0 0.0 0.0 0.0 -0.0 0.0 -0.0 0.0 -0.0 -0.0 -0.0 -0.0 0.0 -0.0 0.0 0.0 0.0 -0.0 -0.0 -0.0 0.0 0.0 -0.0 -0.0 0.0 -0.0 -0.0 0.0 -0.0 0.0 -0.0 -0.0 0.0 -0.0 0.0 0.0 0.0 -0.0 0.0 -0.0 -0.0 0.0 0.0 0.0 0.0 0.0 -0.0 0.0 0.0 -0.0 -0.0 0.0 0.0 -0.0 -0.0 0.0 0.0 -0.0 0.0 0.0 0.0 -0.0 -0.0 0.0 0.0 -0.0 0.0 -0.0 -0.0 0.0 0.0 0.0 0.0 0.0 -0.0 -0.0 -0.0 0.0 0.0 -0.0 0.0 -0.0 -0.0 0.0 0.0 0.0 0.0 0.0 -0.0 0.0 -0.0 -0.0 -0.0 -0.0 -0.0 0.0 0.0 -0.0 0.0 -0.0 -0.0 -0.0 0.0 0.0 -0.0 0.0 0.0 -0.0 0.0 -0.0 0.0 0.0 0.0 0.0 -0.0 -0.0 0.0 0.0 0.0 0.0 -0.0 0.0 -0.0 -0.0
INS_SimpleName_ArrayInitializer 0.18310021 -0.17325915 -0.44315147 0.81911427 0.19669397 -0.2921742 0.48366904 -0.22631317 0.43073583 -0.93931055 1.1667798 0.5138052 0.3309139 1.1517746 -0.07327275 0.95027566 0.40912306 0.46908215 0.6071498 0.15865768 -0.007848287 1.1891581 0.6510321 0.32142597 -0.0703529 0.2202321 -0.43581218 1.4619408 -0.032945234 0.16073756 0.33911186 0.2036793 0.17262806 -0.4338176 -0.32419723 0.87534285 0.41572583 -0.96189386 0.35415626 -0.53537697 0.55831933 0.89696556 0.67359155 0.047656078 -0.6579337 0.65327024 -0.3343554 0.34738553 0.3589394 0.9809271 0.80701995 1.1282785 -0.07821872 0.6224771 -0.6167454 1.4347022 1.3129933 -0.40109828 0.40372005 -0.7018946 -0.2434497 -0.88812846 -1.4335209 -0.8764679 -0.47701597 -0.8316388 0.9152595 -0.13008872 0.3769558 1.3842337 0.3299895 0.40735063 -0.25238946 -0.69787437 0.81655407 0.89781135 -0.29550663 -0.24436772 -0.32355133 -0.27387214 -0.3908529 -0.432861 0.2337747 -0.21792546 -0.16412915 0.38843176 0.8192394 -0.8851698 0.28145748 -0.5635803 0.08889118 0.3392557 -0.27157506 -0.5129403 0.90944976 -0.55750406 -0.52496207 -0.42587087 0.9548197 0.03394704 0.8963855 -0.66304904 0.49378845 0.8898452 -0.6286917 -0.5892925 -0.2805631 -0.7894152 0.4560767 0.082422055 -0.00055369665 -0.71416193 0.24073088 -0.59040403 -0.24977358 0.15152538 -0.23042315 -0.3813486 -0.240452 -0.4740984 -0.3149471 -0.38934714 0.057197373 0.2839415 -0.8918013 -0.414683 -0.026307944 0.4759322 -0.18986697 -0.010085513 -0.74240255 -0.43780476 -0.5130516 0.75728184 -0.14648132 -0.52726555 0.5188838 -0.32961142 0.082601674 -0.87683725 -0.0048750974 -0.42791757 -0.068792 0.53622293 -0.42101845 0.26833296 -0.84164965 -0.9563059 -0.03572619 -0.08387861 0.042390842 -1.0415287 -0.76364255 -0.5674654 -0.28464487 0.013676835 -0.15722232 0.08586454 -0.34925628 -0.06204631 1.086007 -0.49572438 -0.42159066 -1.2929271 0.2812123 0.08630122 -1.083582 0.5347872 0.119007014 -0.13611288 0.42264867 0.84436154 -0.43699443 0.09756738 -0.54409397 -0.3355075 0.090866804 -0.58439076 0.457916 -0.15336157 -1.0050406 0.42315724 0.021227228 0.8788012 0.3128526 0.058837254 -0.9601096 -0.6121913 -0.003184231 -1.3537254 0.12817444 -0.55010486 -0.14121418 0.020480074 0.38596332 0.023644261 0.11683986 0.11494538 -1.4778082 0.6836952 -0.0018988649 0.24414562 0.07982558 0.6477555 -0.096738406 0.018196346 -0.2756186 0.4130754 0.52249616 -0.1303805 0.013066433 -0.15927729 0.15489118 -0.46895728 -0.035778098 -0.0010278199 -0.04660527 -0.9454754 1.2809924 -0.17907922 -0.08942446 0.9121213 0.48498118 -0.40112394 -0.1306335 1.143908 -0.54516166 -1.1235582 0.8070562 -0.17025818 -0.12533951 -0.10545004 1.0229213 0.050523873 0.69230026 0.5464508 -0.8553177 0.3953074 0.486975 0.18218076 0.8282077 0.48722753 0.98775715 0.57764995 -0.527566 -0.31265876 0.34337002 0.43237263 -0.28212407 -0.35089436 1.1804693 -0.66243505 0.09607968 -0.25849107 -1.2221963 0.023608752 -0.177826 -0.42160207 0.42136952 0.13574092 0.6846631 0.49599528 1.0279572 -0.34670353 0.078751035 0.6758067 -0.6628565 0.42757335 -0.030295925 0.20800123 0.39402354 -0.91974384 1.0220777 0.845005 -1.0140802 -0.54231757 -1.0591826 -0.15763141 0.5046538 -0.008362651 0.14779234 -0.24056402 0.92256606 0.37470657 -0.5732388 -0.16047636 -0.3064142 0.45567903 0.6442211 0.20867757 -0.8660966 -0.6741031 -0.08478011 -0.6877274 0.18356697 0.27282935 0.28722075 -0.6481549 0.4470317 1.1340669
INS_ArrayAccess_PrefixExpression -0.28952017 -0.6076651 0.09338173 1.2502104 0.5712795 -1.1898634 -1.9518977 -1.6622932 1.1633049 -1.4477032 0.6960959 0.89472026 0.819223 0.39917755 -0.028775102 0.40671468 -1.8257363 -0.34235576 0.07752337 1.6157057 -1.7031747 0.76524144 1.2677852 0.6891632 -2.2839603 -0.338738 0.740329 0.20611095 1.4091345 -1.5328727 -0.40427783 -1.1128039 -0.26407975 0.59996384 -1.0599045 0.43294537 -0.83129627 0.0070592393 -0.47766754 -0.67830354 -0.46466428 0.8627024 -0.9056889 -1.5129985 0.091744065 -1.089844 1.1665013 0.4424573 0.018160265 -1.4373609 -1.1707557 -0.014767201 -0.2202965 0.04681599 -0.11102399 -0.95737654 0.10399357 -0.4171507 -0.314474 0.47645184 0.66383123 -1.8498482 0.83369344 -1.7574079 0.39972854 -1.1525278 -1.4571334 1.8340844 -0.3443487 -0.21752113 1.0584933 -0.8622694 0.15885645 0.31100366 0.8300186 -1.7016194 0.60257345 -0.29366842 -1.1595069 0.89160043 0.7863577 -2.3084574 0.6157478 -1.0274293 0.1728486 -1.5805916 -1.0469377 0.0364857 1.6883273 0.321404 1.6322902 -1.3083227 1.5361613 -0.4457038 -0.48388937 1.2190213 -0.039022803 1.4940068 -0.28913742 0.093854524 -0.6420008 1.3018066 -1.3972625 0.33283606 0.41428927 -0.79144514 -1.4909359 -0.07488573 2.016317 -0.79653066 0.0035712915 0.37468818 1.1084942 -0.54145104 1.7775724 0.15709707 -0.939301 1.3812441 0.8951761 0.37369895 2.0850763 -0.6228057 1.5583558 0.07156747 -2.4244306 -1.9771934 1.2648948 -0.87561715 1.7127559 0.07093829 0.4764732 -0.93588865 1.1896552 1.6243178 0.9995322 2.3282297 -0.48116365 0.39839566 -0.1662784 1.2692071 -0.87273365 -0.10907353 0.2850203 -0.28427267 1.0168095 0.693537 -0.048229262 -0.18907878 0.41479132 -0.09053369 0.90974665 -0.78114724 -0.21691278 1.1528376 0.6804492 1.8838221 -0.0094359275 -1.5371369 0.2626562 1.3690536 -1.5988488 -1.0799809 0.85630596 -0.25649804 0.27553326 -0.90774155 2.3132696 -1.1387691 0.46582997 -0.91575414 1.8018458 0.7560999 0.041772902 -0.24229345 -0.13210742 -0.21955588 1.4175533 -0.40851402 1.0931146 -0.6126303 0.64352715 -1.194056 -0.2963029 -0.99931616 1.6363097 0.80881584 1.0997736 0.8473282 -1.4046865 -0.5533991 0.29510233 0.9715399 0.5055386 -0.5543141 0.33695135 -0.4052119 -0.81241286 -0.61101824 -0.30279887 1.9431112 0.65542835 1.5112721 0.6989096 1.4522992 0.48955694 -0.7049784 1.9210643 1.8984381 1.6745144 -0.6643798 -1.283008 2.2233121 -0.36569235 -0.43269017 -0.8507903 -0.7842282 0.07113353 1.2565471 1.4242021 0.28997737 -0.7952695 -1.2508134 -0.34030867 -1.2130327 0.2978031 -0.48665765 0.3090496 -0.211166 1.5955561 -1.1278708 -1.4499415 0.92875695 1.028094 0.6467757 0.31589234 1.381967 0.27114213 0.86083776 -0.24639109 1.2749765 -2.3993366 0.009618899 0.7439307 -0.8760618 0.12577902 1.0305521 -1.1099235 0.78055215 1.2946026 1.6606462 1.8363265 0.78143275 1.2273207 -0.53436923 2.1400645 1.4206767 -0.5000311 -0.7624904 0.70224154 -0.08600301 -0.9230109 -0.037279133 0.25211594 1.0187842 1.6324834 0.3625393 -1.1412171 -0.20895252 -0.15019988 -0.12028475 1.8975673 -0.5554792 -0.6268995 1.2319399 0.8382762 1.0382624 0.95032275 0.904494 -1.0270197 1.5905875 -1.0223454 0.1492842 -1.2147875 0.7071998 -1.8765513 0.30333018 1.7220179 -2.3055196 0.7805296 -0.33050004 0.038380142 1.535527 1.0149885 -1.1275686 0.8731988 0.66883093 -0.9830505 -0.20909652 0.18339919 -1.4504492
INS_ThisExpression_FieldAccess -1.098422 0.23844284 -0.1325135 -0.8004468 -1.2819715 -0.15232423 -0.014327176 0.23996645 0.59826994 1.1398549 0.52845544 -0.6893096 -0.84760195 -0.8415664 0.21269888 0.6863429 -0.31643102 0.4967811 -1.0499926 -0.4327847 -0.76909655 -0.6982193 0.7546541 0.90793496 0.15563732 -1.6563653 -0.5387855 -1.0257747 0.5660846 0.42166486 -0.29882893 0.09258869 -0.5298509 -0.72885776 -1.1540477 0.56032693 -0.6999815 -0.8984483 -0.82403094 0.33905098 -0.1463423 -0.13326155 -0.7800058 -0.7648084 1.2957087 0.13857487 0.5300557 -0.39914632 1.0176617 -0.9362605 0.64803314 1.5617151 0.093600474 1.1624995 0.1236517 0.3482146 -0.9415451 -0.3011845 1.1294849 0.28727725 -0.10206238 0.27527323 -0.9565361 0.72087204 -0.95303065 -0.87932605 -0.24445568 -0.9493657 -0.058635063 -0.06939165 -1.1430911 -0.60066026 0.36673668 -1.8162338 -0.037233956 0.7996958 -0.27176443 0.20437498 0.0030356077 -0.9322459 -0.1601053 1.0581219 -0.8009148 0.58301574 0.3127999 -0.12777966 -0.5101249 -0.055910837 1.1388781 0.12627438 0.8030214 0.12488913 0.030073805 0.6387082 1.0726078 0.72825694 -1.7212284 0.7600023 -1.0238875 0.2583121 -0.34512392 -0.28297397 0.5301467 0.42388412 1.4221703 -0.104647525 1.4786745 -1.1221304 0.91948694 0.28411075 -0.081127934 -0.1287592 0.14535496 -1.1495647 0.18337522 -0.031896498 0.058171406 0.15623286 -1.5438981 0.22356555 0.3784746 -0.6877636 -2.0178654 1.8057042 0.23553997 0.049368564 0.3087901 -0.68960255 1.0902272 0.035870563 1.0298178 -0.28543875 -1.3204108 -0.5993186 -1.135145 0.606224 1.1599312 0.9509273 0.13762112 -0.22717272 0.7533977 0.8487347 0.3354318 0.23803332 -0.3404373 1.0106761 -0.5094165 -0.37791166 -0.5735926 -0.26133093 -0.38101092 -0.5404425 0.13806012 -0.10586458 0.24112643 -0.48290545 0.52506393 -1.3642797 0.6486933 0.7301235 0.049252827 -0.5730961 -0.1979871 -2.3040977 -1.4808235 -0.67366785 -0.9651926 -0.96713066 0.6579388 0.03963741 -0.66519225 -0.1384842 -0.27579054 0.14070734 -0.4316889 0.0151302945 0.18209076 -0.06531713 0.029096985 -0.52680075 -0.47996387 -0.97120345 0.4339397 -0.08471735 -0.93826026 -0.854474 0.83670735 -0.45007798 -0.36376435 -1.0942885 -1.3763657 0.20098272 -0.1456576 1.5261049 -1.1557312 0.13521348 -1.2613298 -0.23086135 1.1245043 0.93887466 -1.2059623 -0.1631787 -0.0750738 -0.22051537 -0.16484296 -0.8134071 0.2737297 -0.3504081 0.5880105 -0.90130764 -0.55203265 0.9213172 0.5431286 -1.1468022 0.69577783 0.35260296 0.6300784 2.047155 -0.98269284 -0.71104264 0.18228017 -0.79355216 0.5084744 -1.5942134 -0.4812652 -0.7868062 0.32456923 0.6572229 0.29198998 -0.43952942 -1.0775119 -0.7965222 0.27860117 0.7355092 0.4598292 -1.5956961 1.7303069 1.183017 0.42451218 0.19706057 -0.83026314 -0.13826771 0.42532066 0.33865252 -0.47131225 1.4558513 -0.5093549 -0.13960087 -0.9831199 0.86106515 -0.49455845 -0.49534142 -0.34600282 -0.6212831 0.31992564 0.07370884 0.6186312 0.5974154 0.21933287 -0.6073762 -1.324679 -0.74821967 0.2776377 -1.0480181 -0.8219388 0.07334024 -0.9470386 -0.8284781 0.10767976 0.18874449 0.8710902 0.88389236 -0.8571385 0.5623881 -1.2424823 0.9305671 0.07646234 -0.79347557 -1.2736073 0.1940603 0.5484863 -0.24992418 -0.0053600594 -0.836958 -0.30386907 -0.02207942 1.7022125 -1.4853207 -0.70277596 -0.35249496 -0.8456403 -0.89486426 -0.6913636 -0.21546425 -0.5839123 0.44447902 1.2721071 0.022779621 0.52460235 0.051262394
INS_ExpressionStatement_ForStatement 0.0 0.0 -0.0 -0.0 0.0 0.0 0.0 0.0 0.0 -0.0 0.0 0.0 -0.0 -0.0 -0.0 0.0 -0.0 -0.0 -0.0 -0.0 0.0 0.0 -0.0 -0.0 -0.0 -0.0 -0.0 0.0 0.0 0.0 -0.0 0.0 -0.0 0.0 -0.0 0.0 0.0 -0.0 0.0 0.0 0.0 0.0 -0.0 -0.0 -0.0 0.0 -0.0 -0.0 0.0 -0.0 0.0 -0.0 -0.0 -0.0 -0.0 -0.0 0.0 -0.0 -0.0 0.0 -0.0 -0.0 -0.0 -0.0 -0.0 0.0 -0.0 -0.0 0.0 -0.0 -0.0 0.0 0.0 0.0 0.0 -0.0 0.0 0.0 0.0 -0.0 0.0 -0.0 0.0 0.0 0.0 -0.0 0.0 0.0 0.0 -0.0 0.0 -0.0 -0.0 -0.0 0.0 -0.0 0.0 0.0 -0.0 -0.0 -0.0 -0.0 -0.0 -0.0 -0.0 -0.0 -0.0 -0.0 0.0 -0.0 -0.0 0.0 -0.0 0.0 -0.0 0.0 0.0 0.0 -0.0 0.0 -0.0 0.0 0.0 0.0 0.0 -0.0 -0.0 0.0 0.0 -0.0 -0.0 0.0 0.0 0.0 -0.0 0.0 0.0 -0.0 0.0 -0.0 0.0 0.0 -0.0 -0.0 0.0 -0.0 -0.0 -0.0 0.0 -0.0 0.0 -0.0 -0.0 0.0 -0.0 -0.0 0.0 0.0 -0.0 0.0 -0.0 0.0 -0.0 0.0 0.0 0.0 0.0 0.0 -0.0 -0.0 -0.0 0.0 0.0 -0.0 -0.0 -0.0 0.0 0.0 -0.0 0.0 0.0 0.0 -0.0 0.0 -0.0 0.0 0.0 -0.0 0.0 0.0 -0.0 0.0 0.0 -0.0 0.0 -0.0 -0.0 -0.0 0.0 0.0 -0.0 -0.0 -0.0 -0.0 -0.0 0.0 0.0 -0.0 0.0 0.0 -0.0 0.0 0.0 -0.0 -0.0 0.0 0.0 -0.0 -0.0 -0.0 -0.0 0.0 -0.0 0.0 -0.0 -0.0 -0.0 0.0 -0.0 -0.0 -0.0 0.0 -0.0 -0.0 0.0 -0.0 0.0 0.0 -0.0 0.0 -0.0 -0.0 -0.0 0.0 -0.0 -0.0 0.0 -0.0 0.0 -0.0 0.0 0.0 -0.0 -0.0 -0.0 0.0 -0.0 0.0 0.0 0.0 -0.0 0.0 -0.0 -0.0 0.0 0.0 -0.0 0.0 -0.0 0.0 0.0 0.0 -0.0 -0.0 -0.0 -0.0 0.0 0.0 -0.0 -0.0 -0.0 -0.0 -0.0 0.0 0.0 -0.0 -0.0 -0.0 0.0 0.0 -0.0 -0.0 0.0 -0.0 -0.0 -0.0 -0.0 -0.0 -0.0 0.0
INS_MethodInvocation_EnhancedForStatement -0.34140798 0.32186317 0.17752105 -0.8098033 -1.1110288 -0.64586586 -0.09652064 -0.23755845 0.7412127 -0.11827423 -0.2505824 -0.3750579 -0.08160819 -0.5938002 1.1315441 -0.20808418 -0.076064005 0.19918293 -0.43126085 0.38274118 -0.3284248 0.88256305 -0.038803335 -0.92992103 0.3035903 -0.011360747 0.31641528 -0.4239008 -0.107501544 0.5041492 0.044852313 -0.26726738 0.15830468 0.29943568 0.5507414 -0.29427606 0.79770154 -0.1811271 -0.37930298 -0.2346607 -0.5749256 0.7448794 -0.6069127 0.56413096 0.47313425 0.55679387 -0.61374253 -0.61885077 0.48247117 0.15584585 0.1905771 0.25562528 0.5407431 1.241317 -0.1866391 1.0068854 -0.7158887 -0.6019824 -0.30302292 -0.20777322 -0.16752228 0.31253487 -0.06713284 0.74829036 0.41579652 0.27673304 -0.1977102 0.78175986 -1.4249926 -0.10907896 -0.8159059 0.10856342 -0.26590917 -0.9280193 -0.618356 0.044627875 -0.26140246 0.22625485 -0.61934084 0.77502275 0.5328779 0.27909046 0.20467514 0.25188306 -0.19885321 -0.071475476 -0.5773184 0.13596834 0.54692 -0.8153978 -0.6018676 -1.0988548 0.05644302 -0.6626069 0.8622891 1.4840958 0.11587776 0.32789913 -0.45592973 0.5977034 -0.4740327 -0.002591859 1.0705984 -0.038102817 0.110940434 -0.63528526 1.0685356 0.52591276 -0.5496291 0.61244804 -0.27801654 0.72784615 0.054473132 0.07730879 0.05768584 0.64273036 0.48128787 -0.82547 -0.08771626 0.4008718 -0.8764008 0.20661408 0.5595038 0.45250738 0.060584173 0.19693911 -0.17085025 0.63659185 0.14206873 -0.015785398 0.23294535 0.12618877 -0.6028057 -0.09646245 -0.47716874 -0.25067297 -0.22002403 -0.69013846 -0.5775103 -0.16407529 -0.36628246 1.1423261 -0.29289085 -0.19989668 -0.21184893 -0.2881013 -0.5289609 -0.005540257 0.09801744 -0.5609618 -0.2662907 -0.41347873 0.034706026 0.17046694 1.0907208 -0.4750067 0.0026896817 -0.11424709 0.58185494 -0.04302788 -0.01605087 0.48949072 0.061179187 0.8805528 1.3764248 0.5485351 0.31403634 0.85654515 0.68235373 0.9653157 0.16485329 0.63988423 1.111521 0.091611676 -0.50176936 -0.2049082 -0.05218844 0.32847783 -0.23911819 -0.08007868 -0.41889325 0.43854567 0.45321554 0.37702012 -0.40674475 -0.51833946 -0.39057994 0.20089817 0.39321044 -0.045392685 -1.0879593 -0.20648913 -0.17335668 0.019736243 -0.24768041 0.21383092 0.7725816 -0.007794206 1.2836679 0.3675602 -0.24741226 -0.8576563 0.29402134 -0.2216734 0.79452163 0.83345044 0.6061599 0.28793755 0.4899844 1.0184729 1.0101267 0.022826165 0.29143035 -0.46590397 0.6235181 -0.58026814 1.075544 0.021181485 0.78455746 0.36455572 0.67277884 0.5295229 0.015996158 0.46100357 -0.14991054 0.5021969 0.12976031 0.21163833 0.67077494 0.031165054 -0.9780191 -0.717916 -0.6394682 -0.019324716 -1.1632627 1.2179291 0.98132885 -0.45154244 0.25767946 0.7933385 0.54564416 -0.35012537 0.6615061 -0.24393977 -0.51153344 -0.17873952 0.8352165 -0.4882929 -0.5502298 -0.10811284 -0.2440722 0.7823607 -0.29364696 0.43724403 -0.5349281 -0.2503895 -0.66491354 -0.20200256 0.04721843 0.4323005 -0.27808088 -0.34947038 0.4427867 -0.42723373 -0.29483604 -0.06370776 0.16174087 0.3049996 0.6781509 0.5637331 -0.44234008 -0.6046797 -0.22689596 0.475792 -0.26551175 0.51235265 0.43586448 0.091654755 -0.27746776 0.35860065 -0.35658202 0.38107055 0.573381 -0.7810725 -1.0985446 -1.259569 -0.68622327 0.0154833635 0.4422205 -0.26079604 -0.352375 0.37396774 -0.60501313 -0.8311183 0.5643717 0.36526445 0.8153211 0.42696208 -0.020960256 -0.9229522
INS_SwitchCase_SwitchStatement -0.11793418 0.005564871 0.48236653 0.5618184 0.13811058 0.17624907 0.20414145 0.38875538 -0.34831235 0.041904267 0.02155848 -0.42722136 -0.24942254 -0.57305956 -0.24749671 0.27234602 -0.08302309 -0.1828613 0.49393925 0.06020342 -0.16167775 -0.6029233 0.13894273 0.2552428 0.34102196 -0.14834547 -0.23926146 -0.7447948 0.20392525 0.5647643 0.3835006 0.40395522 -0.3692732 -0.4087327 0.28293273 0.18691394 -0.23392738 0.2646955 0.6072906 -0.21054612 0.69382197 0.35729158 -0.107087925 0.16046692 0.15118422 0.18359642 0.04410058 -0.031720378 0.42223945 0.17403808 0.29642162 0.7840795 -0.68917686 0.05011111 -0.5510129 0.7586463 -0.44406328 0.3241421 0.44906402 -0.12823544 -0.24658766 0.30156854 -0.1797624 -0.008988982 -0.28600594 0.45500788 -0.82759845 0.39219233 0.015264128 0.07583788 -0.004677441 -0.7633812 0.24592394 -0.33090448 -0.04343086 -0.4890352 -0.35703942 0.18901937 0.5339152 -0.5730853 0.4763137 -0.085527316 -0.42255366 0.5063337 -0.106360525 0.15054733 -0.7957894 -0.3394893 -0.10734913 -0.32330123 -0.022772245 -0.33382747 0.025479339 0.4851281 -0.022282522 0.21710747 -0.07250376 0.7404307 -0.33029023 0.44772947 -0.1438361 0.27101427 0.13586663 -0.79379433 0.042775564 0.4135673 0.36498964 -0.48602837 -0.18918699 -0.24676628 0.2913563 -0.061302483 0.2838 0.22718444 0.79685426 -0.54026 0.5820693 0.094738536 0.23426533 -0.5266387 0.06241987 -0.31856278 -0.83710915 0.35187614 -0.535791 -0.45870462 -0.024466375 -0.05858187 0.23757425 0.13176896 -0.008473177 0.12626922 -0.14585973 -0.33373293 0.22919701 0.20700827 0.058394477 -0.27946422 0.14566919 0.2873126 0.3325256 0.48256713 0.021511126 0.050142523 -0.019831985 -0.33171463 0.14821254 -0.4100267 -0.15793392 0.1616359 -0.30861095 0.06063037 -0.5093101 -0.17616475 0.45949 0.11853706 -0.46105996 0.40889606 0.69599736 0.051880203 0.111416206 0.010669397 -0.5229815 0.2671982 0.24781887 -0.24876514 -0.5406968 0.36537045 0.119797334 0.20923392 -0.53698605 0.35471746 0.49346864 -0.05255193 0.7026227 0.19747892 0.09167911 -0.376837 0.9978643 0.3243085 0.24137591 -0.030868798 -0.12709853 -0.21101268 -0.39485428 -0.051569577 -0.07873455 0.48482347 -0.21583797 0.47198448 -0.3200812 0.441515 0.17842464 -0.5316979 0.20178926 -0.25638023 -0.43163472 0.6457349 0.46492675 -0.32786044 0.22634663 -0.37399623 -0.26311073 -0.08732618 0.36500734 0.65120196 -0.76440847 0.3118138 -0.16950586 0.37409398 0.20863436 -0.23558788 -0.39299208 -0.37343863 -0.06054895 -0.16512422 0.27238956 -0.10306806 0.14158936 -0.4463211 0.015011532 -0.40243968 -0.21126322 0.32129562 -0.031850725 -0.4281436 0.6969448 -0.2232556 -0.4307922 -0.48158982 -0.2615104 0.08923331 0.2874734 -0.031459358 0.6268075 -0.20295593 -0.4276378 -0.6740582 0.6679397 0.4982351 0.20032288 -0.656644 0.31616378 0.09607014 -0.15287077 0.2758926 -0.020352427 -0.2612217 0.27863938 -0.37062165 -0.119606726 0.0074849455 0.12671971 0.12420757 0.10482584 -0.0044118874 0.2335976 0.5393903 -0.6160549 -0.06520368 0.13712484 -0.19576924 0.019692902 0.22529887 -0.1449507 0.51139957 -0.0491876 0.23615354 -0.51406395 -0.42402485 0.44512957 -0.5488784 -0.11195047 0.27019823 0.6986918 -0.0329509 0.15980469 -0.10910813 0.1845889 -0.5144101 0.04839083 -0.3541364 0.4349074 -0.30980346 -0.36831203 -0.2972333 0.29516616 -0.22644882 0.38914675 0.40088224 -0.16209966 -0.11636971 0.585422 0.23404461 -0.42330283 0.0537318 -0.14957617 -0.048148114 0.10051709 -0.3901724
INS_ReturnStatement_SwitchStatement 0.0 -0.0 -0.0 0.0 0.0 0.0 0.0 -0.0 0.0 0.0 0.0 0.0 0.0 0.0 0.0 0.0 -0.0 0.0 0.0 0.0 0.0 0.0 -0.0 -0.0 0.0 -0.0 -0.0 0.0 0.0 0.0 0.0 0.0 0.0 -0.0 -0.0 0.0 -0.0 -0.0 -0.0 -0.0 0.0 -0.0 0.0 0.0 -0.0 0.0 0.0 -0.0 -0.0 -0.0 -0.0 0.0 0.0 0.0 -0.0 -0.0 -0.0 -0.0 0.0 -0.0 0.0 -0.0 0.0 0.0 0.0 -0.0 -0.0 -0.0 -0.0 -0.0 -0.0 -0.0 -0.0 0.0 0.0 0.0 -0.0 0.0 0.0 0.0 0.0 0.0 0.0 -0.0 0.0 0.0 0.0 0.0 0.0 0.0 -0.0 -0.0 0.0 -0.0 0.0 -0.0 -0.0 0.0 -0.0 0.0 0.0 0.0 -0.0 -0.0 -0.0 0.0 0.0 -0.0 0.0 0.0 -0.0 -0.0 0.0 0.0 0.0 -0.0 -0.0 -0.0 0.0 -0.0 -0.0 0.0 0.0 -0.0 -0.0 0.0 0.0 0.0 0.0 -0.0 -0.0 0.0 -0.0 -0.0 -0.0 -0.0 0.0 0.0 -0.0 -0.0 -0.0 -0.0 0.0 0.0 0.0 -0.0 -0.0 -0.0 0.0 0.0 0.0 0.0 -0.0 0.0 0.0 0.0 -0.0 0.0 -0.0 -0.0 0.0 -0.0 -0.0 0.0 0.0 0.0 0.0 0.0 -0.0 -0.0 0.0 0.0 -0.0 -0.0 0.0 0.0 0.0 -0.0 0.0 -0.0 0.0 -0.0 0.0 -0.0 0.0 -0.0 -0.0 -0.0 -0.0 -0.0 -0.0 -0.0 0.0 0.0 0.0 -0.0 -0.0 -0.0 -0.0 0.0 -0.0 -0.0 0.0 0.0 0.0 0.0 -0.0 -0.0 0.0 -0.0 -0.0 0.0 -0.0 0.0 -0.0 0.0 0.0 -0.0 -0.0 -0.0 0.0 -0.0 0.0 -0.0 -0.0 -0.0 -0.0 0.0 0.0 0.0 0.0 -0.0 -0.0 0.0 0.0 -0.0 0.0 0.0 0.0 0.0 0.0 0.0 0.0 0.0 0.0 0.0 0.0 0.0 0.0 0.0 -0.0 -0.0 0.0 0.0 -0.0 0.0 0.0 0.0 -0.0 0.0 0.0 0.0 -0.0 -0.0 -0.0 0.0 0.0 -0.0 0.0 -0.0 0.0 0.0 0.0 -0.0 0.0 0.0 -0.0 0.0 0.0 0.0 -0.0 0.0 -0.0 -0.0 0.0 -0.0 0.0 0.0 -0.0 0.0 -0.0 -0.0 0.0 -0.0 0.0 -0.0 0.0 -0.0 0.0 -0.0
MOVE_ArrayAccess 0.35996717 -0.25335145 -0.95757014 0.21124706 0.8634425 -0.32165095 -0.87950677 -0.23123206 0.00033615422 0.0887359 -0.0031498312 0.018982936 0.008132683 -0.2022515 -0.06982848 -0.5670838 -0.09239135 -0.3616357 0.22241388 0.14795615 0.6445772 0.043894026 -0.13889393 0.100509055 -0.15460111 0.01953859 0.062318835 0.2450812 0.26069984 0.65270805 -0.0024905156 0.15860532 -0.06223932 0.6161458 -0.12029634 -0.81668806 -0.49712095 0.05969982 0.9111269 0.009046336 -0.7615639 0.048245985 0.11203768 0.5091913 0.06342836 0.14484803 0.55566055 0.029879078 -0.17297317 -0.85592735 -0.27680814 0.08559674 -1.3033568 0.6981643 0.3621101 0.16632015 1.0311294 -0.07117733 -0.013257466 -0.34007096 0.13828233 -0.5681441 -0.34598747 -1.1907877 0.15316421 0.032775592 0.12339706 0.2856232 -0.73277164 -0.3670052 -0.27961838 -0.149139 -0.20818147 0.03276409 -0.025169814 -0.08706259 0.3279942 -1.0251524 0.116071925 -0.2778869 0.16812772 -0.5807946 -0.09683991 0.7295097 0.2020357 -0.18131542 -0.14663894 -0.12829252 -0.04609422 -0.13984016 -0.0086908825 -1.1214436 -0.13173826 0.056830533 -0.37606353 -0.05353588 0.061373174 0.042565465 -0.0060525867 0.015043491 0.16254644 0.29987863 -0.021374222 -0.4233549 0.61742586 -0.056903057 -0.10561959 -0.047879476 0.17872663 0.14968571 -0.3899366 -0.15834895 0.30774435 -0.058688395 0.16745166 -0.5589149 0.056455098 0.3144339 -0.21603554 -0.12494097 -0.047826853 -0.22770163 0.090010375 -0.010599772 0.3308283 -0.07413131 0.16529377 -0.20697767 0.3536443 -0.6218854 -0.30113435 -0.22133112 -0.102973215 0.6660685 -0.40826765 0.660064 -0.12125496 0.033686392 -0.3722699 0.045915082 -0.056034647 -0.43323353 0.42834193 -1.0338496 0.09402282 0.24907374 -0.06269627 0.25026533 -0.110769644 -0.15506749 0.050627787 0.748502 -0.49014065 0.022842914 -0.4803347 0.4708665 0.18121277 -0.2609482 -0.2051572 0.33383957 -0.14088087 -0.21566421 -0.41516128 0.15651794 -0.033652794 0.28579894 1.4184508 0.004485695 -0.65172756 -0.06425969 0.6509542 0.1159155 -0.092354394 0.012154687 -0.32860592 -0.06849078 0.3245621 -0.10689174 -0.9866774 -0.08841166 -0.29732484 -0.0068139173 0.18280171 -0.53991246 0.046981405 -0.159021 0.12173973 0.16772936 -0.051968735 0.10395191 -0.03235577 0.58977455 -0.6111302 -0.40104955 -0.27931213 -0.14842288 -0.2037345 0.15372255 0.13953564 0.57013744 0.050662316 -0.012258953 0.2953013 -0.09997431 -0.013030651 0.06635914 0.19481657 1.1700879 -0.069104195 0.014214759 0.078573935 -0.16852206 -0.28032634 -0.36294204 0.0008785504 0.02727606 0.028365796 0.46808952 0.02017463 -0.2507294 -0.31947035 0.072951585 -1.1207858 -0.18810318 0.16137055 0.023481382 -0.1851091 -0.22791725 -0.16468668 -0.09841181 -0.49560624 -0.26887658 0.12174653 0.5036633 0.5614602 0.5565238 -0.048894834 0.9893292 0.15234685 0.9724692 0.0649359 0.5631084 -0.94593316 0.11886424 -0.08849979 -0.55696434 -0.0006788698 -0.12361061 -0.40793157 -0.16899712 -0.19448668 0.5090342 -0.08189138 0.067246705 0.041482627 -0.047856987 0.8935794 -0.052045625 0.83008236 -0.5156984 -0.0084778005 -0.06134107 -0.8186921 -0.18646063 -0.006208846 0.99332786 -0.44499058 -0.008528634 0.018920751 0.020103946 -0.084540844 -0.011797171 -0.20109178 -0.01624766 -0.01634364 0.14686999 0.12302388 0.63949096 0.54037523 0.20972212 0.03288342 -0.004856164 1.0672028 0.9560149 0.103355736 -0.51357967 -1.0334426 -0.4989482 0.29473436 0.006228635 -0.4813312 -0.057448532 0.082716204 -0.017884737 0.08649652 -0.032470297 -0.07606559 -1.036125 0.1236965 -0.013394554
INS_BooleanLiteral_ReturnStatement -0.0 0.0 -0.0 -0.0 -0.0 -0.0 0.0 -0.0 -0.0 -0.0 -0.0 0.0 -0.0 -0.0 0.0 -0.0 -0.0 0.0 0.0 -0.0 0.0 -0.0 -0.0 0.0 -0.0 0.0 0.0 -0.0 0.0 0.0 -0.0 -0.0 -0.0 0.0 0.0 0.0 0.0 0.0 0.0 -0.0 -0.0 0.0 -0.0 -0.0 -0.0 -0.0 -0.0 0.0 0.0 -0.0 0.0 0.0 0.0 -0.0 -0.0 0.0 -0.0 0.0 0.0 -0.0 0.0 0.0 0.0 -0.0 -0.0 0.0 0.0 0.0 0.0 -0.0 0.0 -0.0 -0.0 0.0 -0.0 0.0 -0.0 0.0 -0.0 -0.0 0.0 -0.0 0.0 -0.0 0.0 0.0 0.0 0.0 0.0 0.0 0.0 0.0 0.0 0.0 -0.0 -0.0 -0.0 -0.0 -0.0 -0.0 0.0 0.0 0.0 -0.0 -0.0 -0.0 0.0 0.0 0.0 0.0 0.0 0.0 -0.0 0.0 0.0 -0.0 0.0 0.0 0.0 0.0 -0.0 -0.0 -0.0 -0.0 -0.0 0.0 -0.0 0.0 0.0 0.0 0.0 0.0 0.0 -0.0 -0.0 0.0 0.0 -0.0 0.0 -0.0 -0.0 0.0 -0.0 0.0 0.0 0.0 -0.0 -0.0 0.0 0.0 0.0 -0.0 -0.0 -0.0 0.0 0.0 0.0 0.0 -0.0 -0.0 0.0 -0.0 0.0 -0.0 0.0 0.0 0.0 0.0 0.0 -0.0 -0.0 0.0 0.0 -0.0 -0.0 -0.0 0.0 0.0 0.0 0.0 -0.0 -0.0 0.0 -0.0 -0.0 -0.0 -0.0 0.0 0.0 0.0 -0.0 -0.0 -0.0 -0.0 0.0 -0.0 -0.0 0.0 -0.0 0.0 -0.0 0.0 -0.0 -0.0 -0.0 -0.0 -0.0 -0.0 0.0 -0.0 0.0 -0.0 0.0 0.0 -0.0 -0.0 0.0 0.0 -0.0 -0.0 0.0 0.0 -0.0 -0.0 0.0 0.0 -0.0 -0.0 -0.0 0.0 -0.0 -0.0 -0.0 -0.0 0.0 0.0 0.0 -0.0 -0.0 -0.0 0.0 -0.0 0.0 0.0 0.0 -0.0 0.0 -0.0 0.0 -0.0 0.0 -0.0 0.0 0.0 -0.0 -0.0 -0.0 0.0 0.0 0.0 -0.0 0.0 0.0 0.0 -0.0 -0.0 -0.0 -0.0 -0.0 0.0 -0.0 -0.0 -0.0 -0.0 -0.0 0.0 -0.0 -0.0 -0.0 0.0 -0.0 0.0 0.0 -0.0 -0.0 -0.0 0.0 -0.0 0.0 -0.0 0.0 0.0 0.0 0.0 0.0 0.0 -0.0 0.0 0.0 -0.0
INS_CharacterLiteral_MethodInvocation 0.0 -0.0 0.0 0.0 0.0 -0.0 -0.0 0.0 -0.0 -0.0 0.0 0.0 -0.0 -0.0 0.0 -0.0 -0.0 -0.0 0.0 0.0 -0.0 -0.0 0.0 -0.0 -0.0 0.0 0.0 0.0 0.0 -0.0 0.0 0.0 -0.0 -0.0 0.0 0.0 -0.0 -0.0 -0.0 0.0 -0.0 0.0 -0.0 -0.0 0.0 0.0 0.0 0.0 0.0 -0.0 -0.0 0.0 -0.0 0.0 0.0 0.0 0.0 -0.0 0.0 0.0 -0.0 -0.0 -0.0 -0.0 -0.0 0.0 0.0 -0.0 -0.0 -0.0 -0.0 0.0 -0.0 0.0 -0.0 0.0 0.0 0.0 -0.0 0.0 0.0 0.0 0.0 -0.0 -0.0 0.0 0.0 -0.0 -0.0 0.0 -0.0 0.0 -0.0 0.0 -0.0 0.0 -0.0 0.0 0.0 -0.0 0.0 0.0 0.0 -0.0 -0.0 0.0 -0.0 -0.0 0.0 0.0 0.0 -0.0 0.0 -0.0 -0.0 0.0 0.0 -0.0 -0.0 0.0 0.0 -0.0 0.0 0.0 0.0 0.0 -0.0 0.0 0.0 -0.0 0.0 0.0 -0.0 0.0 0.0 -0.0 0.0 -0.0 0.0 0.0 0.0 -0.0 -0.0 -0.0 0.0 0.0 -0.0 0.0 0.0 -0.0 -0.0 -0.0 0.0 -0.0 0.0 -0.0 -0.0 0.0 -0.0 0.0 -0.0 0.0 0.0 -0.0 0.0 -0.0 0.0 0.0 -0.0 0.0 0.0 0.0 0.0 0.0 -0.0 -0.0 0.0 0.0 -0.0 0.0 0.0 -0.0 -0.0 -0.0 0.0 -0.0 0.0 -0.0 -0.0 -0.0 -0.0 0.0 0.0 -0.0 0.0 0.0 -0.0 0.0 -0.0 0.0 0.0 -0.0 -0.0 -0.0 0.0 0.0 0.0 0.0 -0.0 -0.0 0.0 0.0 -0.0 0.0 -0.0 0.0 -0.0 0.0 -0.0 0.0 -0.0 -0.0 -0.0 0.0 -0.0 -0.0 0.0 -0.0 0.0 -0.0 0.0 -0.0 0.0 0.0 0.0 -0.0 0.0 -0.0 -0.0 0.0 0.0 0.0 -0.0 -0.0 -0.0 0.0 -0.0 -0.0 0.0 0.0 -0.0 -0.0 0.0 0.0 0.0 0.0 0.0 0.0 0.0 -0.0 0.0 0.0 0.0 -0.0 0.0 -0.0 -0.0 -0.0 0.0 -0.0 0.0 0.0 0.0 -0.0 0.0 0.0 -0.0 -0.0 0.0 -0.0 0.0 -0.0 -0.0 -0.0 -0.0 -0.0 -0.0 -0.0 -0.0 0.0 0.0 0.0 0.0 0.0 0.0 -0.0 0.0 0.0 -0.0 -0.0
INS_ArrayAccess_EnhancedForStatement 0.8566025 0.48276383 -0.57667416 0.32822844 -0.99900174 -0.71338534 0.63895154 0.7497529 1.9859548 -0.44571185 -0.6468568 2.2703276 -1.2146214 -0.28995666 2.0466223 0.8602463 0.4478516 -2.4790795 -1.1495712 2.577242 1.0749927 1.5183849 0.8763808 0.5282784 -2.1187184 0.063714996 -1.0568887 -0.17700054 -0.7599509 1.1108047 -0.49667764 -0.7020078 1.6976023 -0.7987032 0.71209496 0.46918723 -0.38767803 0.13569245 -0.036838897 0.32968903 -0.84374255 -1.4507976 0.8216437 0.96898854 -0.8874035 1.1192445 -1.0150368 -1.2197311 -0.1250337 0.58594334 1.2863027 0.65058774 0.44474217 0.99251455 1.1228489 0.20117456 0.7209817 -1.3296425 1.7309296 -0.6501799 1.2575574 -0.43317008 -0.41235605 -0.23169258 -1.6091983 2.347753 -0.14338791 0.63500863 -0.22732665 -0.7667247 1.4992646 -0.8046777 0.7101034 -1.7532328 0.16484702 1.3447003 -0.6640429 1.2004894 0.118353836 -1.2793301 -1.5581731 0.56094235 0.4616149 -2.0642269 -1.2283278 -0.7483745 0.5627193 0.9526217 -0.11128333 -1.9337425 0.56855005 -0.4134619 0.8912141 0.92465496 -0.75222325 -0.5203427 -1.4035136 0.7141612 -0.22966841 0.8194394 0.9087998 -1.2844349 0.82826996 -0.10632244 -1.1309679 0.6491761 -0.37225953 -0.5367336 -1.289394 -0.30569956 -1.2069274 1.3919945 1.2852881 0.64348453 -0.51012444 0.49836177 -1.4484345 -0.9425167 -0.94705033 -1.1846157 0.6690533 -0.16557868 -0.22805154 1.9181104 1.617374 -0.52685803 0.99313694 1.5218883 -1.4983082 -1.7816061 -1.0681263 0.33793807 0.33656737 -0.6566302 1.0945116 0.7755593 1.3928075 -1.1485028 1.0517175 -1.1351814 -1.4383465 -0.18538111 1.3646321 0.038838975 0.46069422 -0.89925206 -0.7256047 -2.1961968 0.59498847 -0.08214813 1.1455098 -1.2909765 -0.092241414 -0.8826371 -0.12665196 0.679462 -0.36530516 0.21055904 -0.82819337 0.040242188 1.1531748 -0.14846615 -2.1212733 0.24955429 1.7528535 0.08179588 0.8681777 -0.37036377 -0.8942804 1.7887008 0.9171112 0.8477995 -0.9628968 -1.5856241 0.114839934 0.57980156 0.7238407 -0.91687924 -0.3247365 -1.0391781 -1.1129297 0.8620057 1.0939325 -1.0242202 -1.1580236 -0.97584665 -0.13339357 0.46205077 0.10118034 0.62923783 -0.7746172 -0.55184937 1.1535742 1.9278985 -0.8158099 -1.1081628 0.8492543 1.0789311 0.056102622 -0.5664521 0.9059436 -0.45035243 -1.6188927 0.9930391 -1.9731499 0.15077825 0.27868587 -0.17940131 1.9962264 -1.7157328 -1.061647 0.28743884 -0.6422969 -0.8074092 0.52879274 -2.295182 -0.099778086 0.03937851 -0.5352676 -0.5305612 -0.648093 -0.5713108 -0.52814025 -1.9668406 0.42126718 -1.7693741 -0.65417594 -0.46475062 -0.72298527 0.87887424 1.2547251 -0.5337429 0.7482091 0.16920091 -0.08071049 -1.6546127 -0.2623739 1.36984 -2.6072524 0.23504359 -1.6612751 0.03297724 1.3921775 0.29311424 -0.052826963 -0.006811548 -0.64421535 -1.9149321 0.06922005 -0.19769327 0.27178916 0.6711123 1.3764187 0.95230824 0.60718066 1.581057 0.7864806 -0.80053294 -1.38912 -0.79003197 1.8053722 -1.1549566 -0.6906738 -0.8377069 0.525276 -0.7753974 -0.35759187 1.2353814 0.03530162 0.31042388 -0.13948782 1.1956217 0.67373186 1.2115993 1.7714466 -1.433401 0.597844 0.09373353 0.48988524 -0.89540964 -0.4311724 0.77711755 -0.5229075 -0.7385208 -0.69405675 0.7187182 -0.87272257 -1.0902843 -0.4952407 0.4598076 -1.6971339 0.8626595 -0.6925624 1.4720584 -1.419246 -0.7066903 0.9611881 -0.17048812 -1.4664345 0.37332767
INS_NumberLiteral_ConstructorInvocation -0.117449224 -0.6360947 0.18692343 -0.7663871 0.4514859 0.43238595 -0.632271 -0.6976296 0.3488004 -1.2263998 -0.72427523 -0.15707666 0.0883174 -0.10778003 -0.24393068 0.7882174 0.66195434 -0.26421887 -0.59833854 -0.3771979 -1.1556891 -0.8405747 0.20143309 -0.13749781 -0.80344623 0.21322463 0.61393934 -0.05306905 0.11577828 -0.10839792 -0.3084502 0.69441885 0.1556297 -0.50511783 -1.2812421 0.78907907 0.3736228 1.3613873 0.2498606 -0.3059691 -0.8068164 -0.8969558 -0.28386024 -0.038774226 0.76385623 1.2116666 0.6643631 0.1909604 0.2246347 -1.0178059 0.44822577 -0.28310752 0.6254418 0.37402198 0.6654966 0.87162167 -0.9606222 0.21354243 0.16937818 -1.2661897 -1.0639263 0.5088724 0.8042278 -0.07471047 -1.2677628 0.85741436 -0.4795515 0.32427534 0.60021687 -0.24470122 -0.94534624 -0.6296395 -0.13035277 0.23424518 -0.6646634 0.0775477 0.46849072 -0.87531346 -0.50746197 0.13737391 0.23286119 1.4697763 1.1281863 0.22960578 0.17926255 -0.6501754 -0.09532581 -0.4363118 0.1192654 -0.8603052 -0.2013846 -0.6472631 0.8889099 0.4907889 -0.844507 -0.8972554 -0.4445155 -0.08337312 -0.33908698 1.0846524 0.95055884 0.24664757 -0.4963214 1.1890291 0.2296477 -0.72432274 -0.8418541 -0.352187 -0.87805617 0.41503766 0.5800682 0.51412034 -0.095827706 -0.80459106 0.82393086 -0.36296678 -0.90392965 -0.89387476 0.12742375 1.253936 0.18126239 0.6065671 0.2569788 0.9584205 0.312821 0.84748566 1.206072 1.0101197 1.1647112 0.04703136 0.26095995 0.21244468 -0.09782775 0.31507048 -1.1705638 0.34718353 -0.01266445 -0.47212303 0.3185168 -0.20853968 0.45896727 -1.713898 0.10243542 0.48582846 0.6302192 -1.5110956 -0.4063799 -0.35605806 0.39401215 0.16033925 0.18560985 0.14263539 1.0454392 0.33584526 0.13099374 -0.31858033 -0.011949001 -1.004903 0.7983118 -1.6048942 -1.2464443 -0.49384513 -0.46125332 0.93190986 -0.85584736 -0.53981274 -0.7174513 1.0821908 0.020379141 1.4979923 0.49705142 0.76517105 1.179505 -0.8250386 -0.51096666 -0.87261146 -0.8649999 -0.822841 -1.0199119 -0.08876165 0.80869734 -0.29693517 0.41915336 1.117196 -0.37690434 -0.9947056 -0.89926904 -0.472752 0.64738756 0.5992292 -0.43655926 -0.6472589 -0.71570104 0.6237771 -0.7582946 -1.0921901 -0.31198615 0.14501305 0.6276958 1.0061724 -1.4219533 1.0624124 -0.15860891 0.21595955 1.6628869 0.37593904 1.5665979 -0.31846243 -0.20416036 -1.3262941 0.3201005 -0.07197555 -0.71835613 -0.20784022 -0.44184425 -0.38391024 0.84820426 -0.48723567 0.30820298 0.114332624 -0.5287025 -0.6967283 0.53136003 -0.99649936 1.2445655 -0.68850344 -0.74366426 0.08303117 -0.0069825365 -0.8760448 1.1390592 -0.83274704 0.7431453 0.10923684 -0.035157233 -0.75976187 -0.44395298 -0.60952455 0.039381407 -1.192282 0.55284476 0.3851785 -0.17378262 0.8422056 0.35233855 -0.78987604 0.96094525 -0.9065521 -0.14853325 0.12693703 -0.10486009 -0.6309159 -1.2952031 -0.4775508 -0.57201046 -1.9919492 -0.67941743 -0.76213926 0.18305133 0.3544502 -0.38396546 -0.34163636 -0.34005374 -1.2370547 -0.5296117 1.2682434 0.7115274 -0.66361016 -0.19611853 -0.18913439 0.11403956 -0.31597885 -0.42302662 0.5387112 0.91799426 0.3863275 1.0250245 -0.80837685 -0.5393828 0.11749618 -0.35827136 -0.5844652 -1.3510634 -0.37873814 -0.9291673 0.25771835 -1.0427765 -0.40852934 -0.8193936 0.76658374 0.82813853 0.5515907 0.31439605 -1.0457848 -0.5742095 0.23389143 0.282976 0.0013061668 0.034829527 -0.5755139
INS_SimpleName_EnhancedForStatement 0.5671379 -0.3501918 -0.91976887 0.19475882 -0.4975235 0.54485285 -0.07674673 -0.2522687 -0.30015337 -0.7916782 0.104506224 -0.7530268 -0.32825246 -0.33039418 -0.05624762 0.05299669 0.60145855 -0.9582594 -0.57568735 0.5913198 0.6147026 0.7425328 -0.43755352 0.7889491 0.1921988 0.084470406 0.8119062 0.48129606 -0.17871647 -0.30609325 0.13850097 0.14001459 0.016110154 -0.09807496 -0.34985945 -0.47217607 1.0715688 -0.43288875 0.36654 -0.30647182 0.7757589 -0.62988824 -0.5931845 -0.69007224 0.4882963 0.5144692 1.1206379 0.3400227 0.26915124 0.095121145 0.11075821 -0.12079605 -1.3078762 -0.2719865 0.022424087 0.36527765 0.184531 0.5025978 -0.18886381 0.18976396 0.5743117 -0.7290452 0.60060525 -0.15376227 0.2975922 -0.27278998 0.2732705 -0.391536 -0.98025054 0.3804354 -0.06625648 -0.4384763 -0.26602572 0.28499353 0.9413314 -0.30249688 0.21791905 -0.618022 0.045186564 -0.4584548 -0.33219478 0.24448414 -0.7607383 0.05033574 -0.5070812 -0.98469067 0.12573317 0.1030176 0.2384448 -0.34317413 -0.38072848 -0.7887221 -0.4974504 0.3669513 0.8359873 0.34471455 -0.48914045 0.5619106 0.21670923 0.1949829 -0.17636748 -0.36262795 -0.22323811 0.79600656 0.8236959 1.1628951 1.0974377 0.4439696 -0.86703527 -0.53929305 -0.92451155 0.35599273 -0.52217996 -0.30848795 0.26636022 -0.95968133 0.7521731 0.0011877524 -0.56771225 0.93835133 -0.41350183 -0.6629517 -0.35160014 0.60894424 -0.36784944 0.43599087 0.20013525 0.54475844 0.64951056 -0.73909444 0.35563436 0.64530545 0.5807947 -0.19866416 0.5328327 1.0999593 0.21869858 -0.47493428 -0.34024087 0.705264 -0.8813936 -0.8823574 0.2518632 -0.15511264 0.36212018 -0.78868264 -0.56050736 0.4912879 0.052379858 1.0208764 -0.027329676 0.5317105 0.38790897 0.0773413 0.3166139 -0.61345714 -1.0952924 -0.01314024 -0.67015064 -0.43478176 -0.3348187 0.6588113 -0.56448597 0.39608803 1.1246946 -0.43321642 -0.77130705 -0.46881273 0.15430504 -0.8353967 -0.16421339 0.63856 0.040603448 -0.0022419037 -0.5769403 -0.692727 0.11443345 0.20299022 0.61887544 1.1878504 0.42369068 0.21213286 0.6535372 1.1802434 -0.35617003 0.23353082 -0.36130136 0.843496 0.22856356 -0.23817205 -0.75326943 -0.2711916 -0.42347178 -0.17620589 -0.24218296 -1.2235732 1.0120417 -1.2473699 -0.07212425 0.015381245 0.3105062 -1.0244226 -0.14343302 0.68743306 -0.35965768 0.73352295 0.99408287 -0.27785143 -0.826387 0.7580573 -0.11021851 -0.015215904 -0.25905505 -0.44248328 0.4167071 -1.0622175 -0.037618414 0.51207787 -0.0616924 0.81662714 -0.078891754 0.07336247 -0.2056911 0.43744415 0.26318485 -0.45489722 0.45554364 0.2045248 0.76653177 -0.928168 0.11138307 0.7829108 -0.28929338 -0.62922484 0.42455348 -1.1004771 0.5627637 -0.4665699 0.7373337 -1.2175599 -0.44441217 -0.05427882 0.760201 0.5971589 0.26223302 -0.7800991 0.80912673 -0.1855852 0.42751703 0.2230774 0.14879353 -0.6973823 -0.051553894 0.76277965 0.07834326 -0.5965136 -0.35256314 0.1357718 0.73434925 -0.24440055 -0.67994606 -0.97814816 -0.30098504 -0.12975965 0.10175163 -0.23411971 -0.17664866 0.2821022 -0.27890936 -0.6433575 -0.5928696 0.013428974 -0.4659226 -0.3403865 0.32009068 -0.707852 -0.823077 1.086506 0.082614616 0.5186904 -0.45181274 -0.74045306 0.4390997 0.21159358 -0.33601764 0.09768326 0.75461906 0.44228244 0.8663574 -0.32123062 -0.77587587 -0.621137 -0.11527978 -0.9841886 0.5299672 -0.44167522 -0.62750524 -0.73593116 -0.68185246 0.70772386
INS_ArrayAccess_SwitchStatement 2.1742613 -0.30826735 0.43797407 -0.57536733 0.07741254 1.4870303 -0.82904935 -0.89623797 -0.5504273 -1.292647 0.94282764 1.2606908 1.3888664 0.4168536 -0.62243164 2.2286348 -0.9789732 -1.8504695 -0.9922062 1.4191906 0.2931958 -0.08883239 -0.49975976 -0.27247962 0.6498101 -1.3278275 0.032441355 -1.4090307 -0.47161403 -1.6041368 0.20906621 0.26415738 0.015258989 -1.3757766 -0.5628532 0.06977371 0.9879613 -0.8206298 0.8860985 0.26785767 -0.8798534 0.7519697 0.8655353 0.3191126 -0.007837527 0.36778182 -0.01742582 -0.56695527 1.8391407 1.339661 -0.25898406 0.16926715 -0.24409872 1.6563549 0.21562316 1.5571496 -0.43276423 -0.44522667 0.5226864 0.07634706 -0.17733127 -0.22031863 0.79590166 -1.1232897 -1.0436947 -0.21926725 1.273199 -0.23548044 -1.7528234 -0.71681714 0.4878662 1.0881054 -0.7109554 -0.7976472 0.6224087 0.9677573 -1.4686311 0.6241757 -2.1049137 -0.29763252 0.9597616 1.7127289 0.30396676 0.8829075 0.86051303 -1.250447 0.35808992 1.6613984 -0.17938334 1.2423954 -1.9038893 -0.73155624 -0.1654298 0.7745733 0.2280676 0.74214834 0.0064294906 -0.26833332 0.1339232 0.37239707 -1.4495479 0.6472038 -1.5402073 -1.1747104 1.2481258 0.104703516 0.072427094 -0.793905 -0.8338088 1.8197874 0.14094938 0.30687004 -0.87091684 0.41257447 0.9544143 0.26076993 -0.7754131 0.5085145 0.23895857 -1.4963762 0.47618765 1.2162695 -0.6171137 2.237697 0.66646814 -0.16378553 -0.7712838 0.70100075 0.97546375 0.5998487 1.4649822 -1.2351369 -0.73866826 1.3251407 -1.107773 1.1993647 -0.8472041 0.034117658 -0.66215855 1.2361277 1.0577644 -0.29005218 -1.4917612 -1.0763832 0.09963692 -0.6589562 -0.4128855 -0.7519681 -1.826937 -0.35381132 -2.2851856 -0.8983761 1.2296898 0.70885634 0.07572906 0.5192608 -0.5635745 1.3158106 -0.6431932 0.09580675 0.494738 -0.16259138 1.2497023 -0.69748086 1.1858823 -1.5066944 0.053239524 -1.176145 -0.23584184 -0.19621642 -0.8205614 0.10871141 1.1668339 -1.213473 0.18315943 0.23357478 -0.0900317 -0.5170123 -0.75144774 0.3256883 0.9527207 -0.70773786 -0.67968196 0.9015684 0.6371967 0.06434988 1.5415176 1.3765894 -0.2182319 -1.1927214 -1.6028608 1.4431975 0.7986048 -1.0195607 -0.84520316 -0.747477 0.3340798 0.2488304 -1.1264515 0.52448356 -0.8616749 0.66697735 -1.1425114 0.27966458 -0.44949466 1.8543422 1.2045724 1.1702116 -0.7734402 1.5495976 -0.4078679 0.92684436 -1.8203552 -0.6254009 -0.6969204 1.3013117 0.6554914 -0.28378025 -0.45674163 -1.3119019 1.4829476 -0.71073025 -0.07620976 0.23563385 0.20410848 -0.6581283 1.6447955 -0.32232943 -0.72284126 -0.004432647 0.2754895 0.74296564 0.11295239 -0.12889335 0.53539294 -0.36028448 0.007248648 -0.58393335 -0.036240093 1.6120074 -0.5510442 1.4279861 -1.2248977 -0.22308508 1.5526748 -0.6825446 -0.08479351 -0.8175912 -0.72175115 -1.6136762 1.3949417 0.9060504 0.6490593 0.94775414 0.5525408 0.7091007 1.1968675 1.0484364 -0.7015282 1.1745071 0.7821103 -0.76700723 0.49872205 0.24420649 -1.4673324 -1.1494325 -0.7156153 1.1083623 1.4028085 -0.15192422 0.55477947 -0.36036497 1.1777742 0.13813788 1.1931283 1.0888423 -1.4287304 0.31148732 0.544212 0.54010403 0.7180322 -0.34065026 -0.09608259 -1.3158705 -1.6399573 -0.8963329 0.49108982 0.4973708 -0.43583855 1.7077694 -0.6287426 -0.6918074 0.20022376 -0.3868675 -1.4964548 -0.14734375 -0.53127044 -0.72898835 -0.2979241 -0.7186509
INS_LambdaExpression_ReturnStatement -0.0 -0.0 0.0 -0.0 0.0 -0.0 -0.0 0.0 -0.0 0.0 0.0 -0.0 0.0 0.0 0.0 0.0 0.0 -0.0 0.0 -0.0 -0.0 0.0 0.0 0.0 0.0 0.0 0.0 0.0 0.0 0.0 -0.0 -0.0 -0.0 0.0 0.0 0.0 0.0 0.0 -0.0 -0.0 -0.0 -0.0 -0.0 -0.0 0.0 -0.0 -0.0 -0.0 -0.0 -0.0 -0.0 0.0 0.0 0.0 -0.0 -0.0 -0.0 -0.0 -0.0 -0.0 0.0 -0.0 0.0 0.0 0.0 -0.0 0.0 -0.0 0.0 0.0 -0.0 -0.0 0.0 0.0 -0.0 -0.0 -0.0 -0.0 -0.0 0.0 -0.0 -0.0 -0.0 0.0 -0.0 -0.0 -0.0 0.0 0.0 0.0 -0.0 -0.0 0.0 -0.0 -0.0 -0.0 -0.0 -0.0 0.0 -0.0 0.0 0.0 0.0 -0.0 -0.0 -0.0 -0.0 -0.0 -0.0 -0.0 0.0 -0.0 -0.0 -0.0 -0.0 -0.0 0.0 -0.0 0.0 0.0 0.0 0.0 0.0 0.0 0.0 -0.0 0.0 -0.0 0.0 0.0 0.0 -0.0 0.0 0.0 -0.0 0.0 0.0 -0.0 -0.0 -0.0 0.0 0.0 -0.0 -0.0 -0.0 0.0 -0.0 0.0 -0.0 -0.0 -0.0 -0.0 0.0 0.0 0.0 -0.0 0.0 -0.0 0.0 -0.0 -0.0 0.0 -0.0 0.0 0.0 0.0 -0.0 0.0 -0.0 -0.0 -0.0 0.0 -0.0 -0.0 -0.0 0.0 0.0 0.0 0.0 0.0 -0.0 -0.0 -0.0 0.0 -0.0 0.0 -0.0 -0.0 -0.0 0.0 0.0 -0.0 -0.0 -0.0 0.0 -0.0 -0.0 -0.0 0.0 0.0 -0.0 0.0 0.0 -0.0 -0.0 0.0 0.0 -0.0 -0.0 -0.0 0.0 0.0 -0.0 -0.0 -0.0 0.0 0.0 -0.0 -0.0 -0.0 -0.0 0.0 -0.0 0.0 0.0 0.0 0.0 0.0 0.0 -0.0 0.0 -0.0 0.0 -0.0 0.0 0.0 -0.0 -0.0 0.0 -0.0 -0.0 -0.0 0.0 0.0 -0.0 0.0 -0.0 0.0 0.0 0.0 0.0 0.0 0.0 0.0 -0.0 0.0 -0.0 -0.0 0.0 -0.0 0.0 0.0 0.0 0.0 0.0 -0.0 0.0 -0.0 -0.0 -0.0 0.0 -0.0 -0.0 -0.0 0.0 -0.0 0.0 0.0 0.0 -0.0 0.0 0.0 0.0 0.0 -0.0 0.0 0.0 -0.0 0.0 0.0 -0.0 -0.0 0.0 -0.0 -0.0 -0.0 -0.0 -0.0 -0.0 -0.0
INS_MarkerAnnotation_EnumConstantDeclaration 1.0566351 0.20237972 -0.44563138 1.797804 -1.1282613 -0.4262488 1.1648101 -1.3695184 -0.4299377 -0.21566398 0.7286409 1.1065735 0.68775034 -0.2229285 0.7925199 0.54096526 0.19426802 -0.15137726 0.6916289 -1.4736129 1.248668 -1.2197382 1.6005841 0.60548663 -0.6402385 0.52013403 -0.3300478 -1.2697717 0.47423974 -1.011218 0.6354354 -0.27208015 0.06334801 0.95617044 1.0131756 0.094013356 -0.65217227 -0.89438266 0.6404449 0.52726257 0.93475527 0.9915659 0.50996816 0.08369838 0.5643938 -0.5984126 -0.6343384 -0.26635805 -0.76543385 0.67511225 0.92792124 1.2198043 -1.3899419 1.864347 -0.13520809 0.92100686 -0.20260471 -0.7435322 -0.8661449 -0.18802287 -0.15478924 0.7458422 0.15455855 -0.41737193 -0.37333623 1.3165529 -0.3793782 0.005574991 -0.49095416 0.8995976 -0.73744935 -0.308148 0.1448215 0.654808 -0.45899028 -0.97702897 0.026063398 -1.2621576 -0.5172882 0.3940998 -0.013032917 -0.27683365 0.1144851 0.502953 -0.86955017 0.3771923 0.73687536 -0.08273955 0.1374494 1.0190964 -0.09655313 0.0014458837 1.2899601 -0.08552995 0.10539652 0.7124129 -0.6770434 0.6491178 -1.3643539 0.7783011 -1.0952189 0.3262113 1.1581309 -0.56997454 0.80976385 -0.6411884 -0.6234332 -0.3403364 0.25101867 -0.5267761 0.36384597 1.9273084 0.99424005 -0.15923263 0.12614296 0.5445779 -0.08091737 0.79984456 0.33633164 -0.8016577 -0.9964138 -0.63571936 0.69225717 1.5360163 -1.1372222 0.62224454 -0.60755616 0.9424955 1.1577852 -0.31640038 -0.46558955 0.7566523 -0.4743635 -1.3568767 -0.82769877 0.6754098 0.29841158 -1.4085207 0.16663776 0.22942488 0.9096386 -0.6351652 -0.3576574 -0.42383134 0.15231742 -0.017825011 -1.3485117 0.5320819 0.791386 -0.07368679 -0.039927617 -0.0036865019 -0.47870937 -0.30489403 -0.5643987 -0.0700866 0.50901425 0.77582526 0.8892703 -1.2838793 0.18201843 0.46800524 1.100827 -0.3036912 1.322528 0.1773958 0.74385047 -0.28176615 -0.46056697 -0.5973801 -1.315281 0.8595843 0.8429265 0.37673157 0.7670856 -0.19501235 0.8748681 -1.3017439 -0.059832506 0.9926467 -1.5748614 0.7889362 0.69058144 -0.314864 -0.8832096 -0.009037562 -0.08958982 0.660297 -1.1469016 -0.8858031 0.18825297 0.5892558 0.32992166 0.19144778 -0.5157051 0.99179685 0.37580758 -0.398843 0.8723082 -0.30273336 0.33854523 0.44913903 -0.26862454 -0.9762529 -1.1673119 0.90228206 0.07420981 -0.31155804 0.955351 -1.4891505 -0.31279388 -0.65611607 1.3680042 -0.16578713 0.538568 -0.7556936 -1.6331537 0.71271515 -0.8757925 -0.33886024 1.2441738 -0.105146885 0.6211505 -1.449523 -0.17021775 -0.7698928 1.1959796 0.023040755 0.24682608 -0.2119149 0.60125506 0.070220426 0.026885342 0.9532744 0.29171127 -0.41097325 0.81763333 -0.28352037 -1.1551816 -0.13556314 1.1761451 -0.7903175 0.9575338 -0.9342364 -0.19445421 0.651964 0.54765415 0.3828534 0.22613727 1.4245877 -0.98226076 -1.251639 0.48612797 0.47128755 0.3166896 -1.7159978 -1.1624165 -0.8087996 -0.67270076 0.978688 -1.6811178 -0.35108042 1.0148997 -1.361673 -1.9081894 1.0037787 0.37371352 0.31973407 0.26395306 -0.07979245 -0.13019526 0.42347813 -0.627817 0.3237004 1.1521116 1.3516456 0.71176636 0.9768653 0.24461699 -0.0045919497 1.5170767 -0.3297599 -1.0871748 0.7967425 -0.7134588 -0.77804226 -0.048799764 1.0997605 1.1454101 0.17823164 0.9407375 -0.027382985 -1.1283871 0.33276978 -0.6577136 0.29503563 0.8509749 0.57371366 -0.43978903 1.7371882
INS_WhileStatement_LabeledStatement 0.0 0.0 0.0 0.0 -0.0 0.0 0.0 -0.0 -0.0 -0.0 -0.0 0.0 0.0 0.0 -0.0 -0.0 -0.0 -0.0 0.0 -0.0 0.0 -0.0 -0.0 -0.0 0.0 0.0 0.0 -0.0 0.0 0.0 -0.0 -0.0 0.0 -0.0 0.0 0.0 -0.0 -0.0 -0.0 -0.0 -0.0 0.0 0.0 -0.0 -0.0 0.0 -0.0 0.0 0.0 -0.0 0.0 0.0 -0.0 0.0 0.0 -0.0 -0.0 -0.0 0.0 -0.0 0.0 -0.0 0.0 -0.0 -0.0 0.0 0.0 -0.0 -0.0 0.0 -0.0 0.0 -0.0 0.0 -0.0 0.0 -0.0 -0.0 0.0 -0.0 0.0 -0.0 -0.0 -0.0 -0.0 -0.0 0.0 0.0 0.0 -0.0 -0.0 -0.0 -0.0 -0.0 -0.0 0.0 0.0 0.0 -0.0 -0.0 -0.0 -0.0 0.0 -0.0 0.0 0.0 -0.0 0.0 -0.0 0.0 -0.0 0.0 0.0 -0.0 0.0 -0.0 0.0 0.0 -0.0 -0.0 0.0 0.0 0.0 0.0 0.0 -0.0 -0.0 0.0 0.0 -0.0 0.0 0.0 -0.0 0.0 -0.0 -0.0 0.0 -0.0 0.0 0.0 -0.0 -0.0 0.0 0.0 -0.0 0.0 -0.0 -0.0 -0.0 -0.0 -0.0 -0.0 -0.0 -0.0 0.0 -0.0 -0.0 0.0 -0.0 0.0 0.0 -0.0 0.0 0.0 -0.0 0.0 -0.0 -0.0 -0.0 0.0 -0.0 0.0 -0.0 -0.0 -0.0 0.0 -0.0 0.0 -0.0 0.0 -0.0 -0.0 0.0 0.0 -0.0 0.0 0.0 0.0 -0.0 0.0 0.0 -0.0 0.0 -0.0 0.0 -0.0 -0.0 0.0 0.0 0.0 0.0 0.0 0.0 0.0 0.0 0.0 -0.0 -0.0 0.0 0.0 -0.0 0.0 -0.0 0.0 0.0 -0.0 0.0 0.0 -0.0 0.0 -0.0 -0.0 0.0 0.0 -0.0 -0.0 0.0 -0.0 0.0 -0.0 0.0 0.0 0.0 0.0 -0.0 0.0 0.0 -0.0 0.0 0.0 -0.0 0.0 -0.0 -0.0 -0.0 0.0 0.0 0.0 -0.0 0.0 -0.0 -0.0 -0.0 0.0 -0.0 -0.0 -0.0 -0.0 -0.0 -0.0 -0.0 -0.0 0.0 0.0 0.0 -0.0 0.0 -0.0 0.0 -0.0 0.0 0.0 0.0 0.0 0.0 -0.0 -0.0 0.0 0.0 -0.0 0.0 0.0 0.0 0.0 -0.0 -0.0 0.0 -0.0 0.0 -0.0 -0.0 -0.0 -0.0 0.0 0.0 -0.0 -0.0 0.0 0.0 0.0
MOVE_Javadoc -0.0 -0.0 0.0 -0.0 -0.0 0.0 -0.0 -0.0 0.0 0.0 0.0 0.0 0.0 0.0 -0.0 0.0 0.0 0.0 0.0 0.0 0.0 -0.0 -0.0 0.0 0.0 -0.0 -0.0 -0.0 0.0 0.0 0.0 -0.0 -0.0 0.0 -0.0 -0.0 0.0 -0.0 -0.0 0.0 -0.0 -0.0 0.0 -0.0 -0.0 -0.0 0.0 0.0 0.0 -0.0 0.0 0.0 -0.0 0.0 0.0 0.0 0.0 -0.0 -0.0 0.0 -0.0 0.0 -0.0 -0.0 0.0 -0.0 0.0 -0.0 0.0 -0.0 -0.0 -0.0 0.0 -0.0 0.0 0.0 -0.0 -0.0 -0.0 0.0 -0.0 -0.0 -0.0 -0.0 -0.0 0.0 0.0 -0.0 0.0 -0.0 -0.0 -0.0 -0.0 0.0 -0.0 0.0 -0.0 -0.0 -0.0 0.0 -0.0 -0.0 -0.0 0.0 0.0 -0.0 -0.0 -0.0 0.0 -0.0 0.0 -0.0 0.0 0.0 0.0 -0.0 0.0 -0.0 -0.0 0.0 -0.0 0.0 -0.0 -0.0 -0.0 0.0 0.0 -0.0 -0.0 -0.0 0.0 0.0 0.0 -0.0 0.0 0.0 0.0 0.0 -0.0 0.0 0.0 -0.0 -0.0 -0.0 0.0 -0.0 -0.0 0.0 -0.0 0.0 0.0 -0.0 -0.0 0.0 -0.0 -0.0 -0.0 0.0 -0.0 -0.0 -0.0 -0.0 0.0 -0.0 -0.0 0.0 0.0 0.0 -0.0 0.0 0.0 0.0 0.0 0.0 0.0 -0.0 -0.0 -0.0 0.0 0.0 -0.0 0.0 0.0 0.0 0.0 -0.0 -0.0 -0.0 0.0 -0.0 0.0 -0.0 0.0 0.0 -0.0 -0.0 0.0 -0.0 0.0 -0.0 -0.0 0.0 -0.0 -0.0 0.0 -0.0 -0.0 0.0 -0.0 0.0 -0.0 -0.0 -0.0 0.0 0.0 -0.0 0.0 0.0 0.0 -0.0 0.0 -0.0 -0.0 -0.0 0.0 -0.0 0.0 -0.0 0.0 0.0 -0.0 -0.0 0.0 -0.0 -0.0 0.0 -0.0 -0.0 0.0 -0.0 0.0 -0.0 -0.0 -0.0 0.0 -0.0 -0.0 -0.0 0.0 0.0 0.0 0.0 0.0 -0.0 -0.0 -0.0 0.0 -0.0 -0.0 -0.0 -0.0 0.0 -0.0 -0.0 0.0 -0.0 -0.0 -0.0 0.0 0.0 -0.0 0.0 -0.0 0.0 0.0 0.0 0.0 -0.0 -0.0 0.0 0.0 0.0 -0.0 0.0 -0.0 -0.0 0.0 -0.0 0.0 0.0 0.0 -0.0 0.0 -0.0 -0.0 -0.0 -0.0 0.0 0.0 0.0
INS_VariableDeclarationFragment_LambdaExpression -0.39012778 -1.6913447 1.8825579 -0.79990005 0.044868525 0.13512522 -0.24480283 0.6939247 -1.0348363 1.2024198 1.3841807 1.1745846 0.17929062 -0.0877677 -0.49943775 0.17891726 -0.66691023 0.82889205 -0.45411602 0.113585375 -2.05253 -1.442307 -0.66427106 1.2022629 -0.315686 -1.5025514 1.4653953 -0.3083857 -1.1289271 1.4295292 -0.4751652 -0.40309814 1.354412 -0.4468252 0.8256147 -1.2081232 0.40912473 0.6530156 0.1848722 0.35877842 -0.14161998 0.8870197 -1.1370918 0.7856474 -0.67257696 -1.0885373 -1.473339 -0.9840791 -0.099489674 1.106599 0.7037394 0.84930736 0.9090634 -0.82580775 -0.57190686 -0.33277863 -0.64990824 -1.5043259 0.10195668 1.0476758 0.11656767 -0.17675677 0.058174398 -0.3885877 0.38241854 -0.45227998 0.87607324 0.5790612 0.4672205 -0.96855134 -2.0974016 0.2256398 1.4695174 -0.3684827 1.617878 -0.38223308 2.0726428 -0.7090854 0.82485044 -0.9235433 -1.6670692 -0.11183808 -0.29759598 0.76917726 -1.2364837 0.15441316 2.5027003 0.19040163 -1.9801424 1.0222425 -2.1223662 -0.09062876 -1.0801033 -0.58020175 -0.15559857 0.5943779 -0.42059186 0.22294143 -0.67050344 0.43010682 0.7295949 0.61340284 0.7047248 0.32970345 -0.24432795 0.18616043 -0.27082643 0.16041128 -0.32090768 1.1673884 -0.17887972 -0.42957234 -0.47149763 -1.7222676 -0.16981603 -0.8603967 1.1359752 -1.1761959 -0.46465072 -0.13388374 -0.116656534 -1.0898567 -0.74747026 1.592282 0.7616259 -1.1612396 1.3509948 0.37026495 0.8147389 -0.49969593 -0.41820946 -0.65078294 0.35805663 -0.5211883 0.3461424 1.9081306 1.3424419 -2.0704978 -0.886359 -1.2709538 -1.3231434 1.5226243 -0.79230726 0.9468207 -0.20918623 1.7124134 -1.4043943 -1.4562259 -1.7487265 0.17598377 -1.0668733 -0.7080144 -0.3834213 -1.2439941 -1.0404668 -0.43284172 -0.6684615 -0.72710705 0.1658096 0.41747794 0.7913424 0.8529961 -0.11878789 -1.3400806 -0.23043942 1.2990773 1.173581 0.28507546 0.7619503 1.4102052 1.2350221 -0.56343234 -0.57999545 0.7493811 0.6242796 -1.3658656 -1.1969298 -1.1922517 0.4728705 -0.16603571 1.0412252 -0.95126885 1.4276661 0.7113666 -0.11178019 -0.74082005 -1.354269 1.2723808 -0.35464892 1.5443552 0.29799587 0.29632038 -0.47351757 -0.6683526 -1.7589898 0.8197919 -0.8855885 -0.84395844 0.05481968 1.2448717 1.5480382 -1.0455058 0.15167454 -1.6324742 -0.6651691 -0.007760574 1.7366529 0.40606382 0.7669408 0.88209456 0.16691469 1.3542092 -0.6505788 1.3014017 0.15315093 -1.1067969 0.25530148 -1.3337629 -0.7426227 -1.2646247 -0.38680035 0.748217 0.81363803 -0.5081886 1.6357433 -0.17148392 -1.7525476 -1.1361693 0.11855612 0.5199187 0.780585 -0.679874 1.1893334 -0.1635924 0.17569536 -1.3442394 -0.04736397 -0.560126 -0.6632423 0.14918719 0.76456666 -1.3862015 -1.0080563 0.5126547 -0.90205866 -1.4182427 -0.30706835 -0.30940878 -1.426609 -0.87703174 -1.334897 -0.41367602 -0.7470748 -1.8469518 -0.5173879 -0.3004877 -1.8170608 -0.20816194 0.83828485 -0.2015269 -1.1001322 1.0493782 -0.76843685 -0.51166886 -0.55516964 -1.0512456 0.5119657 -1.6343081 0.8126741 1.2134047 0.47132665 0.9315264 1.0183386 0.38351092 -1.4174722 -0.95414937 -1.4137976 -0.9933235 -1.3118428 0.9019345 1.0177523 -0.20529528 0.021971032 -0.5866129 0.3556964 -0.060991935 0.21544838 -0.114407204 -1.0879381 1.5404907 -1.0828409 0.53026545 1.0979677 -1.2909521 -0.71573085 -0.06302008 -0.17438428 -0.6892606 -1.0089653 -1.1025326
INS_SimpleName:_VariableDeclarationFragment 0.0 0.0 -0.0 -0.0 0.0 0.0 0.0 -0.0 0.0 -0.0 0.0 -0.0 -0.0 -0.0 -0.0 0.0 -0.0 0.0 0.0 0.0 -0.0 0.0 0.0 -0.0 -0.0 0.0 0.0 -0.0 0.0 0.0 -0.0 0.0 -0.0 0.0 0.0 -0.0 -0.0 0.0 -0.0 -0.0 0.0 0.0 -0.0 -0.0 0.0 -0.0 0.0 -0.0 0.0 -0.0 0.0 -0.0 -0.0 0.0 -0.0 -0.0 -0.0 0.0 -0.0 0.0 -0.0 0.0 0.0 -0.0 -0.0 -0.0 0.0 0.0 0.0 -0.0 0.0 -0.0 0.0 0.0 -0.0 0.0 -0.0 -0.0 0.0 0.0 0.0 -0.0 0.0 -0.0 0.0 0.0 -0.0 -0.0 0.0 -0.0 0.0 -0.0 0.0 -0.0 0.0 0.0 0.0 -0.0 0.0 0.0 0.0 0.0 -0.0 -0.0 0.0 -0.0 -0.0 0.0 -0.0 -0.0 0.0 0.0 0.0 -0.0 -0.0 0.0 -0.0 -0.0 0.0 0.0 -0.0 0.0 -0.0 0.0 0.0 0.0 0.0 -0.0 0.0 -0.0 0.0 0.0 0.0 -0.0 0.0 -0.0 -0.0 -0.0 0.0 0.0 0.0 -0.0 -0.0 -0.0 -0.0 0.0 -0.0 0.0 -0.0 -0.0 -0.0 -0.0 -0.0 -0.0 0.0 0.0 -0.0 0.0 0.0 -0.0 -0.0 -0.0 0.0 -0.0 0.0 -0.0 0.0 0.0 0.0 0.0 -0.0 -0.0 -0.0 0.0 0.0 -0.0 0.0 -0.0 -0.0 -0.0 -0.0 0.0 -0.0 -0.0 -0.0 -0.0 0.0 0.0 -0.0 0.0 -0.0 0.0 -0.0 0.0 -0.0 0.0 0.0 -0.0 -0.0 -0.0 0.0 0.0 0.0 -0.0 -0.0 -0.0 0.0 0.0 -0.0 0.0 -0.0 0.0 -0.0 0.0 -0.0 -0.0 0.0 0.0 -0.0 0.0 -0.0 0.0 -0.0 -0.0 -0.0 0.0 -0.0 0.0 0.0 -0.0 -0.0 0.0 -0.0 -0.0 -0.0 -0.0 0.0 0.0 0.0 0.0 -0.0 -0.0 -0.0 0.0 -0.0 -0.0 -0.0 0.0 -0.0 -0.0 0.0 -0.0 0.0 -0.0 0.0 -0.0 -0.0 0.0 0.0 0.0 0.0 0.0 0.0 0.0 -0.0 -0.0 -0.0 -0.0 -0.0 0.0 -0.0 -0.0 -0.0 0.0 0.0 -0.0 -0.0 0.0 0.0 0.0 0.0 0.0 -0.0 -0.0 0.0 -0.0 0.0 0.0 -0.0 -0.0 -0.0 -0.0 0.0 0.0 -0.0 -0.0 0.0 -0.0 -0.0 0.0
INS_SimpleType_InstanceofExpression 0.37971815 -0.1582592 -0.2203288 0.6903623 0.8037181 0.087363355 1.0013986 -0.6076682 -0.8506656 -0.33274436 0.70266086 0.33360118 -0.31409967 -1.1001662 -0.3302353 -1.3314358 0.10219722 0.094312325 1.3975205 0.6220902 0.27951637 1.0097895 -0.70240605 -0.25783926 -1.2343745 -0.60973704 0.5974921 -0.7098157 0.37943935 0.060654517 0.048179045 -0.07952199 1.0194808 -0.6283122 -0.2694587 -1.6675353 -0.33645108 0.07568006 -0.308722 0.16733962 0.9538395 0.058069743 -0.448882 0.003182209 0.6631471 -0.77406424 -0.7829971 1.2348502 -0.14729424 0.69287187 -0.38541648 -0.056376606 -0.21541287 0.31141657 1.2846069 -1.4018911 -0.8470843 1.2417252 -0.19343577 0.4124914 1.160471 0.91249573 0.6328615 -0.46186194 0.5574831 -0.0440102 0.4565669 0.5968358 0.6931179 -0.26595268 0.7691172 -0.79468685 -1.0067109 0.081715204 1.5620058 2.105309 -1.5218067 0.2628029 0.5008087 0.67614233 0.25888738 -1.1057974 -0.4577114 -1.1306324 0.16143823 0.37778994 0.44979632 -0.15200244 -1.0320749 -0.32274812 -0.9419156 -0.23078863 -0.9816222 0.28124225 0.81164074 1.3674995 -1.0003732 -0.75039816 1.3094659 -1.1204301 -0.3654232 1.2027789 0.4679762 0.33402738 -1.6611049 -0.0073702135 -0.60595566 1.1916729 0.3185922 0.24163742 0.45966864 0.07369843 0.8268911 -0.6197768 1.4888217 -0.86466795 0.1969433 0.8047969 0.7066195 -1.8850483 -0.18437397 0.08179318 0.8525861 0.568512 -0.325815 -0.02528328 0.57803494 0.14313559 -0.61936504 -1.2728947 -1.0386953 -0.54027885 0.9911093 -0.17615512 0.6222707 -0.1075117 0.23846504 0.8491525 -0.33717257 -0.14335427 -0.4046389 -0.028825507 -0.8383876 -0.44767165 -0.019556507 0.25173602 -0.12463829 0.450943 1.0586658 0.5276354 0.81477857 -0.38059095 -0.98971087 -1.1946981 0.1694707 -1.0517318 0.40891755 1.2204123 -0.30424416 -0.609482 1.5376189 -0.64972216 0.8062503 -1.4027956 -0.7698049 -0.25151983 -0.24045703 -0.915197 -1.4484098 1.2390049 0.52122855 0.36914483 -0.0480728 -0.8425263 0.03739258 1.1751236 -0.14756711 1.5781211 -1.2087947 0.21323323 0.5394941 0.47401118 -0.08254972 -1.185454 -1.1865522 0.47889262 0.1451165 -0.34512872 1.227522 0.24829534 -0.85665077 -0.9057649 0.14867695 0.91913134 -1.1995251 0.57474715 0.44904414 0.09389123 -0.30171475 0.04853396 -0.36201975 -0.22409354 -0.8939898 -0.7275386 -0.09891053 -0.5718844 0.021887347 0.780589 -0.12973124 -0.20631441 1.3221885 0.03919912 1.1864417 -0.1692184 -1.0150424 0.8734721 0.9391761 -1.7222408 0.6981661 -0.4345538 1.578524 -1.17714 0.3162499 0.35715717 -0.8839786 -1.2199507 0.09632616 -1.032685 -0.30081454 -1.1704129 -0.40606052 0.15873772 -0.7076702 0.5695342 -0.3161771 -0.7659428 0.6912224 -0.78884214 1.0495551 -0.5364785 -0.6711543 -0.36830992 -1.4478139 0.023465142 -0.2291349 0.46766046 -0.51332676 1.563916 0.24059476 0.43713534 1.3666067 -0.23056541 -1.394935 0.8042206 0.24861099 0.8085441 0.13322698 -0.4888587 1.2341348 0.56936127 0.5268057 -1.0215806 -1.1102754 0.122358 -0.6514758 0.8065899 -0.024548026 0.5864613 0.14196014 -0.4029205 0.036786858 0.8112658 -0.5790142 -0.41249138 -0.062070977 0.8678577 1.0657257 -0.26294023 -0.11536539 -0.6302271 0.2755419 0.13328005 0.069032915 -1.3850408 -0.12535974 0.5377359 -0.78741425 -0.5275848 0.16819249 -0.46189472 -1.0071033 -0.650006 -1.3006821 -1.9293399 -0.68026286 1.1491135 0.7973016 -1.0110351 -1.1348637 -0.42742842
INS_BooleanLiteral_Assignment 1.0849669 0.28162885 0.7557458 -0.794035 0.06765408 -0.45225638 -0.07251171 0.29561183 0.26728338 0.31994975 0.29778528 -0.30076036 -0.20602894 -0.6307719 0.57673955 0.11875104 0.18317677 0.8277164 1.0235323 0.30002484 0.07219634 -0.23764826 0.25765422 0.96272516 -0.5320174 0.5228439 0.52637917 -0.9596893 0.472827 0.5354558 0.2991144 -0.035223782 0.730639 0.12919167 0.18480761 -0.14489265 0.78860563 -0.24672256 0.054894224 -0.5712907 -0.3506908 -0.10878642 -0.3728836 0.9412975 -0.33774886 -0.28248963 -1.2402678 -0.31118774 0.5421896 -0.677639 0.32044634 -0.19883277 0.48930123 -0.03631911 -0.5944172 -0.40023383 1.0247364 -0.22397378 -0.23832057 -0.33684525 0.65480566 0.12382765 0.10780195 1.043526 0.106449485 0.5013058 0.29873687 -0.6950422 -0.6867216 -0.3663287 -0.46155974 -1.106554 -0.5581196 -0.49635905 1.2743772 1.1781614 -0.11181837 0.6504794 -0.8250908 0.6245533 -0.012100204 -0.10073443 -0.65723693 -0.004314714 -0.31478113 0.005576376 -0.45306692 -0.76210475 -0.044511035 0.43275744 -0.24110903 0.3223588 -0.91344297 -0.5575911 0.35788998 0.3790687 0.6734049 0.025086604 -0.82716036 -0.037792847 -0.65895945 0.3936357 -0.039030146 -0.4174088 0.75422895 -0.6446021 0.9154472 -0.36948025 0.55216664 -0.11691832 0.45009378 -0.5010229 0.65979546 -0.30742687 -0.5543903 0.21650256 0.108171225 0.04115199 0.3422377 0.56409585 -0.22349787 1.2033136 -1.168759 1.4222271 -0.7870327 -1.0277284 0.66004604 1.3679532 0.22865702 -0.15133344 0.95856833 0.08428822 -0.10404123 0.14245185 0.48283035 0.3684464 0.04108645 -0.48772112 0.66807115 0.48183218 0.27110493 -0.37846383 1.1403985 1.0346061 0.5036922 -0.13942118 0.44440755 -1.269042 -0.5886121 0.4040608 -0.5216772 0.5202929 0.30104512 -0.027399605 -0.8132979 -0.14499755 -0.5688395 -0.45018572 -0.88273394 -0.37625483 0.55383396 -0.780763 -0.76174897 -0.7508139 -0.15359828 -0.61445314 0.02022538 -0.5894747 -0.09803808 0.31636813 -0.08058881 -0.15414834 0.37085178 -0.15709364 0.2760377 -0.1294039 -0.5493622 0.84158754 0.59384316 0.16064875 0.32441214 0.7407048 0.73667866 0.2542074 0.2788984 -1.0189623 -0.07617407 0.73400074 0.05986418 0.30301046 -0.122322746 0.44221982 0.35006884 -0.9717056 -0.64795154 0.80808157 -0.12845601 -0.50122094 -0.20130458 -0.72460055 -0.35633206 -0.05423017 -0.50702935 0.5156938 -0.22360818 1.1965532 -0.8661255 0.4466791 -0.281923 -0.66416776 -0.036212705 -0.82640386 0.001774651 0.37357637 -1.2667289 -0.71913004 0.14249462 -0.44425923 -1.0441589 0.9962923 -0.38357562 0.85919785 -1.0551093 0.43440583 -0.24880722 -0.2682818 0.50313556 0.9903109 0.69188374 1.0839989 0.703201 -0.37941155 -0.11185693 -0.20314464 0.887989 0.6562129 0.26373628 -0.5443076 0.02242355 -0.6819073 -0.70428836 -0.29074425 0.39128414 -0.86723006 -0.11716064 0.050132446 -0.31580138 0.5787272 -0.47469512 0.080096535 0.49546027 0.15981296 0.1106835 0.18069954 -0.8444764 0.7075801 0.9895142 0.25285664 0.5860005 0.15192631 0.40613505 0.0076161446 0.07879586 -0.15227865 -0.37259302 1.2507873 -0.37443826 -0.25206897 0.11256097 0.32875338 0.14737469 -0.0826021 0.89677006 0.22070979 0.37303272 -0.16718316 0.6016976 0.0062924023 -0.12922595 0.70911044 -0.04266214 -0.77871644 -0.54704237 0.31652328 -0.046906773 -0.7272897 0.41021708 -1.0781335 0.04693609 0.6259744 0.22757345 0.47279063 -0.5096855 0.66088057 -0.35284618 0.4688765 0.10985455 -0.47785693 -0.5082724 0.18790606
INS_PrefixExpression_VariableDeclarationFragment 0.13957033 0.1255186 -0.21608268 0.9655339 -0.28808978 1.0664077 -0.6640815 -0.22311766 -0.5238809 -0.44485363 0.6375372 0.9731687 -0.45657817 0.9082747 0.19716819 0.030806853 -0.16641755 -0.4655391 0.9034104 -0.66653126 0.746816 0.166678 -0.3734884 0.74263704 -0.11976626 -1.1531551 0.06636694 -0.2690656 0.14060214 0.20423043 0.102894366 -0.7447637 0.3355478 0.8753942 0.2923073 0.23125057 0.16285008 1.3049152 0.21778208 -0.30543807 0.10617298 0.33601838 -0.2149342 0.26728916 0.088178195 -0.27659935 1.2475075 0.20018135 -0.94110835 -0.101581424 -0.016749933 0.12059456 0.12934189 0.24638787 0.7020024 -0.08577503 -1.4543427 -0.30921274 0.6575749 1.01641 0.14628729 -0.62876 1.1060162 -0.013680394 -1.0544003 0.25634816 -0.3458911 0.11013916 0.39539635 0.70571387 0.3877392 0.475024 -0.46250045 -0.17881535 0.6429445 0.41685137 -0.0420062 -0.4203097 -0.8362617 -0.09378804 0.06464799 0.026089428 0.16323484 0.5273295 -1.1183808 -0.13938627 0.42434797 -0.42887875 0.23797335 0.19874313 0.53964865 -0.96451914 0.2589427 0.111621514 0.18565656 0.8456967 0.07148422 -0.5749972 0.10429048 0.43153498 -0.8890859 -0.9789707 0.21511532 -0.04415744 0.16097622 0.13826469 -0.70123106 0.6949861 0.38066906 0.81727254 -0.8580438 0.5487868 -0.57987034 0.31597126 -0.1460782 -0.42254344 0.5295095 0.7162806 0.4957296 -0.5481738 -0.46485686 1.4728951 -0.6860679 -0.8309797 -0.5443091 -0.8734626 0.7712589 0.72055197 0.17262314 -0.075573616 0.1500746 0.23348396 1.2457008 0.679704 0.41943982 0.9647081 0.07500474 0.62234414 -0.2310468 0.93463856 -0.047394227 -0.34409222 0.08667623 0.3013415 -1.1351348 -0.6723175 -1.1506453 -0.08723252 0.4585132 -0.7393361 -1.1511312 0.31104895 0.7061753 -1.2056382 -0.9207733 -0.71564424 -0.3092988 -0.795758 -0.92951334 -0.663037 0.87484187 0.3466926 0.4420808 -0.009440697 0.4177514 0.036224373 -0.6417946 0.20504363 0.3897636 -0.50346303 -0.3418891 -1.0971059 0.68346685 0.20253094 -0.28553444 -0.53389156 0.18090628 1.441819 -0.512183 0.2804688 -1.1256994 -0.59777594 -1.1518446 -0.5755186 -0.009120499 -0.16273388 0.628135 0.6781375 1.1329676 -0.29203138 0.40582186 0.5721453 -0.9778366 -0.55584586 0.68334556 -0.116555996 0.7715622 0.9926152 0.3259008 -0.17773114 0.6205675 0.13645217 -1.124187 0.1020372 0.8167014 0.8724442 -0.9227102 -0.17962135 0.13041928 0.105176345 0.1971633 -0.21390222 0.34733635 -0.988049 0.341039 0.270612 -0.12320055 -0.7637489 0.18189155 -0.09138681 0.02390881 0.030687574 0.24651726 0.11262957 -0.1713031 0.6374771 0.10768779 0.9625289 0.33242524 -0.6243999 -1.2838959 1.4259028 -0.15088326 0.22291161 0.062286183 -0.21774602 -0.73334503 0.5041567 -0.27661708 0.043612663 0.34339824 -0.90162325 0.07947336 -0.9194133 0.81736994 -1.0400687 -0.6067217 0.99424034 0.22331677 0.85463977 0.86874354 0.28190753 -0.3529789 -1.4508125 -0.27532133 -0.2339449 0.43114597 -0.7035646 0.56055737 0.43591875 0.039416015 -0.52412367 0.8243296 -1.2800093 -0.23015754 -1.0620905 -0.66179144 -0.7646344 0.86368716 -0.20545551 -1.1279047 0.666054 -0.6623847 0.0038878806 -0.13556427 -0.62554365 0.19311906 0.25919956 -0.06635716 -0.6432458 1.4993201 -1.2218119 -1.2201114 0.0067710066 -0.97539604 1.145331 -0.81527334 -0.9039344 -0.42816028 -0.86985785 0.87965196 0.2156371 -0.50700724 -1.2836751 0.38315 0.27448085 -0.18863954 0.9198991 -0.5746574 0.2373416
INS_ClassInstanceCreation_ClassInstanceCreation -0.7066415 0.27982938 0.66165483 -0.0029813645 -0.30728212 -0.3960235 0.18040234 0.747924 0.42658964 0.6874808 0.034667306 -0.049354255 0.55805093 0.5281636 -0.52347964 0.442658 -0.3158266 -0.46918073 0.66824204 -0.016349277 0.7822228 0.710798 0.100864135 -0.5686093 0.35402387 -0.411196 -0.3191434 0.4418774 -0.4734081 -0.123582676 1.0954593 0.99467534 -0.95796263 -0.29205412 -0.3391399 -0.50443864 0.82207537 -0.7304875 -0.4421028 -0.4146853 -0.4526789 0.16299073 0.43478876 -0.19070598 -0.055475637 0.50080526 -0.60840106 0.94941854 0.8014789 -0.42811805 -0.4746806 1.0698717 -0.036160126 -0.06867173 0.35969174 -0.5846957 -0.8037699 0.58032876 -0.4374514 0.04777499 0.5722453 0.39496097 0.40450537 -0.8573771 -1.1061952 0.35068154 0.44914082 0.05280587 0.9125981 0.124157116 0.3575826 0.23113348 0.9118554 0.72221166 -0.51299924 -0.15733263 0.8377541 -0.30505484 -1.0527014 -0.38475865 0.9211034 0.45587987 -1.0891525 0.096736446 0.11626206 -0.4881217 0.71414423 -0.15709136 0.43710354 0.514772 -0.9279275 -0.7065372 -0.42655188 -0.18479326 -0.18832363 0.443142 -0.3946743 0.5202562 -0.39287823 -0.3637517 -0.77666616 -0.5888009 -0.16962032 0.5466269 -0.17113362 -0.42581737 -0.87436754 0.29224506 0.27366567 -0.2824085 -0.13646549 0.13229679 -0.50094163 -0.3584099 0.021736063 0.5913878 -0.68351 -0.3159768 0.075647056 -0.92789024 -0.5344483 -0.3154135 0.2147329 0.8594677 0.6527535 0.45258376 0.530984 -0.7925057 0.501556 0.214986 0.20865709 -1.0436238 -0.4490091 -0.2712389 0.6916144 0.5964205 -0.5179756 0.49357796 0.56293494 -0.32532352 1.0231442 0.26646572 -0.21332897 -0.6090126 -0.8280844 0.013114976 -0.7336685 0.76110697 0.7354448 -0.5712171 -0.24178159 0.23877764 0.20871432 0.39639586 -0.07962999 0.89744735 -0.4378383 -0.0464904 0.77487594 0.6963994 -0.20537591 -0.36529994 -0.8174705 -1.0571921 0.8659449 0.11341416 -0.13192514 -0.9828159 -0.5812039 -0.29237112 0.29958078 0.2655432 0.0017376568 -0.01115611 0.110090345 -0.04136989 0.40248933 0.8803589 0.37062588 0.3232565 -0.7455984 -0.04602034 -0.33439925 -0.5866041 0.6228871 -0.26173222 -0.48208165 0.5639773 0.17273156 -0.40780938 1.1098198 -0.47760862 0.24843064 -0.09144746 0.49239346 0.37688747 0.0014303493 0.26322198 0.06160798 0.6549477 0.61441725 -0.24998666 -1.0236038 -0.6378569 0.21680677 0.107461624 -0.6489605 -0.08875214 -0.09278935 0.03314445 0.3951333 -0.46936283 -0.18397933 0.053168535 0.09482132 0.07896471 0.39266264 -0.73362017 0.0034892678 0.26549706 0.04847841 0.065810345 -0.6745516 -0.28644305 0.44411004 -1.2755414 -0.13792047 0.7064614 -0.18597408 -0.8858609 0.20159571 -0.27591556 -0.26461667 0.052160062 0.8996377 -0.7281343 0.03779271 0.7858791 0.5381157 -0.120285384 -0.7615623 -1.0555197 -0.22834335 0.5760372 -0.43605998 0.26762637 -0.1555961 0.5131049 -0.18151821 0.13028516 -0.8412534 0.70151484 -0.6198046 -0.5457661 -0.029005848 0.24825987 0.26700222 -0.20649943 0.67583954 0.029141173 0.1519684 0.16001984 0.23360714 0.015886715 0.7214267 0.6272495 0.46948493 0.44006664 0.6155041 -0.679711 -0.6441195 0.11774648 0.96767163 -1.1999575 0.032720026 -0.6615368 -0.20715687 0.27027926 -0.1595714 -0.06946998 -0.9512419 0.88270444 -0.81354177 0.26413637 0.3582102 0.84216285 0.78153825 -0.34959856 0.57176125 -0.72243655 -0.42579213 0.07684295 0.7494545 -0.8917973 0.9214704 -0.14491785 0.74105054 0.5135391 -0.6483615 -0.072451495
INS_CastExpression_ReturnStatement -0.3864454 0.40837947 -0.66974753 -0.50132227 -0.39517933 -0.13557093 -0.19433533 0.08035722 0.24123201 0.45038673 -0.20607959 -0.46799004 0.20935991 0.028522275 0.40431255 0.26590604 -0.15256494 -0.44782797 0.07875201 -0.04330594 -0.47045636 0.789501 0.4352112 -0.20801495 0.08399898 -0.31003714 -0.01280898 0.5744204 0.178867 0.45385543 0.3654914 0.26758626 -0.95524913 0.7246505 -0.010081908 0.10671439 -0.1309754 0.75991744 -0.38356715 -1.0081682 0.053849373 0.5839199 1.1666348 -0.12832388 0.5498377 0.14364845 -0.052054945 -0.21747582 -0.093381874 0.93921816 -0.11403583 -0.52421844 0.5896352 0.12642916 0.1462205 0.8741215 -0.1816853 -0.24218142 0.2546263 -1.2869147 0.1680643 0.0892653 -0.1093437 0.36877784 0.80022216 -1.0058818 1.106239 0.14449576 -0.7894899 0.2769474 0.5260091 -0.010312515 0.4201727 -0.23425107 -0.8278658 0.06273335 0.3062992 0.25685388 0.24873637 -0.18315056 0.00053757825 0.3392309 -0.37590736 -0.6199639 0.69421005 0.090489954 0.43954605 -0.30367288 -0.8023722 0.48634532 -0.54228604 -0.09630029 -0.077233575 0.27870265 0.23888537 -0.2075241 -0.5470677 0.2626114 -0.8313661 0.8830606 0.81114143 -0.57598716 0.26179233 0.46567068 -0.7351321 0.3587189 0.8788753 0.07458451 0.055631977 0.63771725 -0.24664724 -0.67978644 -0.39360142 0.5719926 -0.4887081 0.43013635 -0.628055 -0.12672855 0.9264876 -0.90700287 0.5071313 -0.22411455 0.47623485 -0.26841477 -0.75006837 -0.32012355 -0.41915777 0.6158837 -0.8999873 -0.8839703 0.022707595 0.5108712 0.8934146 0.90152085 -0.32113343 0.79149866 0.22315072 0.32058525 0.30938303 0.30034873 -0.040472277 -1.387303 -0.6740739 0.3744081 0.71344906 -0.45855278 -0.747955 -0.4509736 -0.4999608 -0.06649757 0.16214348 -0.11360039 -0.82205385 0.0612712 -0.59034026 0.21156368 -0.26220697 -0.57547176 -0.47668153 0.13053688 0.40960643 0.49478823 -0.7933314 0.12826662 -0.9027657 0.17382428 0.31942022 -0.6127617 0.23162344 0.12950839 1.0795451 0.010897766 -0.65804887 0.13222602 -0.37318745 -0.22150469 -0.9883493 0.80107427 -0.9075578 0.46367005 -1.2152771 0.07845261 -0.16730689 -0.29248136 -0.33508825 0.75940806 0.20243625 0.80390996 0.7786254 -0.44302824 0.048490655 0.8037348 -0.09326816 -0.38140076 -0.7513357 -0.29464012 0.7354543 -0.4627938 0.1792733 -0.06538964 0.13056391 -0.61150193 0.501324 0.6514036 0.4239716 0.67968833 -0.7614685 0.64758146 0.19782276 -0.43365064 -0.121583514 -0.09144378 0.4522005 0.5441103 0.13672785 -0.17400058 -0.08150571 -0.026622731 -0.042684834 -0.15170252 -0.3989599 0.35749853 -0.38847613 0.49786612 0.23060293 -0.47850236 -0.6289363 -0.9912768 0.44977733 0.2531839 -0.07835924 -0.2591801 0.66953367 -0.5845291 0.04499231 -0.17296743 0.96912 -0.066630475 -0.77819043 0.27066442 -0.23349093 0.58126676 -0.37611753 -0.29338527 -0.24576925 0.27155748 0.33761954 0.811306 0.5674297 0.13904916 -0.9581212 0.646731 0.13368809 0.4879027 -0.22360997 0.5391011 -0.6175498 0.19287528 0.6186861 0.3064054 0.24795161 1.0398318 -0.7622471 0.18098387 -0.1095073 -0.24572217 0.57624924 -0.73263294 -1.16638 0.4433919 -0.23919736 0.13661596 -0.5352247 0.24872091 0.9546684 -0.25292596 -0.17357871 -0.13511315 -0.0835661 0.541625 -0.44537663 -0.048002716 -1.5059965 -0.208286 0.2738472 0.45015916 -0.47225538 -0.3871983 -0.43245763 0.2137353 -0.09385697 0.11374035 0.6441203 -0.16586834 0.42845815 0.2292838 -0.0796993 0.7975843 0.7953889 -0.13852352
MOVE_Assignment -0.01325016 0.3878278 -0.058351897 0.23836635 0.45294562 0.14798859 -0.028049044 -0.044361915 0.11946662 -0.059175737 -0.27632028 0.36363187 0.043253046 -0.19056067 0.21488726 0.14798456 -0.08559655 0.044498634 -0.44067994 -0.059371397 -0.39964128 0.47090024 0.42282888 0.14437342 0.46538624 0.16455428 0.14434755 0.3258792 0.0027365172 0.048717927 -0.44736528 -0.16869509 0.0051238593 -0.19655572 0.034122895 0.15319633 -0.147557 -0.55382186 0.13686872 -0.12329654 -0.19050711 -0.16017339 -0.16669549 -0.2027762 0.02492695 -0.27036735 -0.19665433 0.33035457 0.30403835 -0.3368229 -0.15319313 0.052547175 -0.22203 0.08933862 -0.20514344 0.28848788 -0.014915728 -0.19149633 0.15917467 0.2196857 -0.18807982 0.23214759 0.18462794 -0.25127828 -0.005102962 -0.11632826 0.23980677 0.1520467 -0.24542056 0.08122266 0.09690784 0.15314686 -0.036279295 0.05599976 0.58669704 0.26847118 0.021381347 0.24186206 0.24750155 -0.58468765 0.012486922 -0.13373414 0.03369839 0.13892555 -0.14334889 0.008178121 0.17345095 -0.1912354 0.057206184 -0.04279277 0.17462558 0.053338338 0.056200106 -0.080903016 -0.27959555 0.038865954 -0.010195868 0.365038 0.041256994 0.28167877 0.1935096 -0.048965883 0.15856828 -0.05099195 -0.0049573556 -0.15155505 0.09730731 0.46571478 0.2781577 0.52219313 -0.107842 -0.022077475 -0.07474905 0.023544542 0.36525306 -0.055380978 0.29321998 0.29631904 -0.2784026 -0.74186504 0.36774683 -0.04259834 0.34014422 -0.28385866 0.22427373 0.10963374 0.17770718 0.04630727 0.18373731 0.15066218 -0.29334065 0.09193005 -0.02423744 -0.21540546 0.21429516 -0.055476643 -0.44255275 -0.15339677 -0.047854174 0.008019194 -0.27846694 -0.023516292 0.4789032 0.017806757 -0.1128074 -0.44757828 -0.113797076 -0.29414144 -0.0154307205 0.0131344795 -0.248691 -0.17295709 -0.12208883 0.1343043 0.1247935 -0.27289885 -0.111222826 0.39446262 -0.108126186 -0.023070212 -0.21604878 -0.22256394 0.27814212 -0.03700561 0.3987481 -0.09859816 0.38553682 -0.25036985 0.09869833 -0.09052039 0.22519995 0.12522401 0.068106085 0.057481345 0.2245716 0.14744212 -0.02809661 -0.121254295 -0.60156745 -0.31315988 0.465882 -0.103919715 -0.03559501 -0.13914928 -0.097400494 -0.048858512 0.2637254 -0.14925282 0.15369233 -0.32767367 -0.1037506 0.09827512 -0.04175075 0.3288123 0.3468238 -0.9914107 -0.5742529 0.04764738 0.009673249 0.003178366 -0.10771821 0.25369132 0.097593546 0.060980693 0.021617556 0.004910962 -0.400603 0.34373784 0.20883785 0.41255438 -0.23898745 -0.3345807 -0.054648854 -0.04416822 -0.11052705 0.28850454 0.3976039 0.122808516 -0.031974215 -0.119951315 -0.002927269 0.30234712 0.095815554 0.061642345 -0.116964824 0.07648959 -0.07421224 0.2623272 0.38710037 -0.006154164 0.03872834 0.12287665 -0.15967596 0.070707746 -0.115132205 -0.35955945 0.39072335 0.13551319 0.20015138 0.53787977 0.10779886 0.7746913 0.41373262 0.08132593 0.016155697 -0.02521462 -0.17401518 0.49635047 -0.26691195 0.123990424 0.09213254 -0.052210316 0.10888089 0.60712564 0.12111296 0.01811729 0.1982019 0.027628453 -0.3180452 -0.10979722 -0.18154414 -0.11522666 -0.5298516 0.3275711 0.18531601 0.13307245 -0.09831463 0.40013075 0.24156727 0.16721147 0.021833012 -0.4243871 -0.57448447 -0.0745942 -0.32972795 -0.13036045 0.18415949 -0.10284406 -0.17328793 -0.3728354 -0.10930626 -0.30627528 -0.08027524 0.1730866 0.049026556 -0.09580444 0.631927 0.014893869 -0.11742557 0.0063254647 -0.028108472 -0.05587415 -0.020079363 -0.032106824 0.05480312 0.21610068 -0.07417119 0.006278583 0.2750286 0.06947428
INS_SwitchStatement_SwitchStatement -0.5243047 -0.56970066 0.88832563 0.5650268 0.29071796 -0.40292895 -0.5350708 0.49654627 0.40643075 0.13336827 1.2049664 0.49221933 -0.0034320117 -0.22088663 1.159508 -0.361846 -0.07059158 0.85335004 -0.21059823 -0.24905731 1.1460543 -0.048192155 0.5019209 0.41365743 -0.24962594 -0.18014413 0.8247835 -0.7582057 -0.41451102 0.74040866 0.8493172 0.73869634 0.0055341655 0.06834811 -0.19312763 -0.08090851 -0.04590141 -0.7199926 0.04161029 -0.39539015 -0.4699014 0.017742978 -0.3116464 -0.8498466 0.5374284 -0.28582758 0.8510022 0.30058667 0.58351654 0.80541134 0.39433512 0.85553336 0.55451787 -0.95713854 0.57798517 0.9044922 -0.612888 0.75259936 0.6916268 -1.050859 -0.36800104 -0.8234164 0.16649137 0.09805298 -0.52264845 -0.016560499 -0.08438865 -0.59727 0.4211923 -0.042962287 -0.46898815 -0.48649225 -0.15774505 -0.0577154 -1.0499451 0.60567147 -0.2620812 0.85336155 0.9776478 0.1169638 0.22801393 -0.3174751 -0.47431135 -0.12291029 -0.20426846 -0.5115124 1.0683806 -0.09656372 -0.03200658 -0.92404443 0.1517786 0.66284215 0.23453817 0.3475689 -0.17397341 0.6096996 -0.7880629 0.7985495 -0.4955195 -0.016051093 0.2574558 -0.81469256 0.5508983 -1.4084057 0.4850224 -0.03701763 -0.5761769 0.0067737186 0.24616645 0.96859145 -0.38429254 -0.6390037 0.3148776 -0.49758244 -0.05155292 0.97625107 -0.52513915 -0.5513908 1.0744328 -0.3541884 0.18929014 -0.35679016 -0.94854176 -0.75365585 0.15303189 -0.35440496 -0.57246536 -1.1458255 0.17182314 0.61058927 0.07080537 0.22668232 1.196718 -1.3066438 -0.7562054 0.9056688 0.4434187 0.68064487 0.6978431 0.14315745 -0.61836493 0.3314429 -0.47648594 -0.29534432 0.5154027 -0.67168504 0.69863176 0.7551784 0.6545188 0.028017445 0.176905 0.9114635 -0.7896277 -0.032307517 0.91405827 -0.059072424 0.28101507 -0.9654196 0.3695676 0.24381721 -1.2065799 -0.45711562 -0.86575943 -0.25407237 1.013589 -0.5371431 0.19558288 -0.13883093 0.25883818 0.266047 -0.0919889 0.06574781 0.4082498 -0.6913024 -0.6046821 -0.6710577 -0.8698333 -1.1537514 -0.69762623 0.98539877 0.19725892 -0.05854454 -0.5554125 -0.86329997 0.16458721 -0.99074787 -0.09571995 0.28926343 -1.6330389 0.66372496 -0.22968665 0.5719382 -1.0464578 0.28915069 -0.020288153 -0.5741509 0.64831644 0.43133128 -0.595418 1.0660316 0.12269326 1.0984488 0.24919716 0.29768807 0.18900737 -0.440345 0.7365202 -1.1835327 -1.3079567 -0.5966631 -0.12898687 0.6194792 -0.36612576 0.74404055 -0.8529525 -0.40961987 0.66356546 -1.1648757 0.014022964 -0.21254264 0.14255345 -0.2334369 -0.11621245 0.7899797 0.72812134 -0.50423 0.27173224 1.218573 0.12818898 -1.0176266 -0.03440495 0.57459617 0.352544 -0.99094397 0.47463447 -0.119110204 -1.3338506 0.5539277 0.488183 1.7349461 -0.3026826 -0.1504939 0.77644175 -0.50945306 0.18547232 -0.8653209 0.2698956 -0.23577967 0.11194394 0.5162418 -0.48315394 0.6127527 0.73980945 -0.85341096 -0.7180024 0.583508 0.90190625 0.79062325 0.9399517 0.14083506 -0.4015218 0.5279551 0.7655755 -0.16633798 -0.37270892 -0.033470526 0.014977332 0.37507463 -0.830759 -0.060910054 -0.38568276 0.20365848 1.3107218 0.368338 0.26312032 0.24395965 1.3241209 0.08694735 0.14025481 0.06691122 -0.5813623 0.07302261 -1.2433218 0.41175207 -0.52422917 0.5958661 -0.43874726 0.6487154 0.88194895 -0.41399825 0.83836293 -0.35065237 0.7428897 -0.779354 0.4025013 -0.11928749 0.34064817 0.46500558 -0.47428146 -0.04284934
DEL_Block 0.0 -0.0 0.0 0.0 -0.0 0.0 -0.0 0.0 -0.0 -0.0 -0.0 -0.0 0.0 -0.0 -0.0 -0.0 -0.0 0.0 -0.0 -0.0 -0.0 -0.0 0.0 -0.0 0.0 0.0 -0.0 -0.0 -0.0 -0.0 -0.0 -0.0 -0.0 -0.0 -0.0 0.0 -0.0 -0.0 0.0 0.0 0.0 0.0 -0.0 -0.0 0.0 -0.0 0.0 -0.0 -0.0 -0.0 0.0 0.0 0.0 0.0 0.0 -0.0 -0.0 0.0 -0.0 -0.0 -0.0 0.0 -0.0 0.0 -0.0 0.0 0.0 -0.0 0.0 -0.0 -0.0 0.0 -0.0 0.0 0.0 -0.0 0.0 0.0 0.0 0.0 0.0 -0.0 0.0 0.0 0.0 0.0 0.0 -0.0 0.0 -0.0 -0.0 -0.0 -0.0 -0.0 -0.0 0.0 -0.0 -0.0 -0.0 0.0 0.0 -0.0 0.0 -0.0 -0.0 0.0 0.0 -0.0 -0.0 0.0 -0.0 -0.0 0.0 0.0 0.0 0.0 -0.0 -0.0 -0.0 -0.0 0.0 0.0 0.0 -0.0 -0.0 0.0 -0.0 -0.0 -0.0 -0.0 -0.0 0.0 0.0 0.0 0.0 -0.0 0.0 -0.0 -0.0 -0.0 -0.0 0.0 -0.0 0.0 0.0 0.0 -0.0 -0.0 -0.0 -0.0 -0.0 0.0 0.0 0.0 -0.0 0.0 0.0 0.0 -0.0 -0.0 0.0 0.0 0.0 -0.0 0.0 -0.0 0.0 0.0 -0.0 0.0 -0.0 0.0 0.0 0.0 0.0 0.0 0.0 0.0 -0.0 0.0 -0.0 -0.0 -0.0 0.0 -0.0 0.0 0.0 0.0 0.0 -0.0 0.0 -0.0 -0.0 -0.0 -0.0 -0.0 -0.0 0.0 -0.0 0.0 -0.0 0.0 0.0 0.0 0.0 0.0 0.0 -0.0 -0.0 0.0 0.0 -0.0 -0.0 -0.0 0.0 0.0 -0.0 -0.0 0.0 0.0 0.0 0.0 -0.0 -0.0 -0.0 -0.0 -0.0 0.0 -0.0 0.0 0.0 0.0 0.0 0.0 0.0 0.0 -0.0 -0.0 -0.0 0.0 0.0 0.0 -0.0 -0.0 0.0 0.0 -0.0 0.0 -0.0 -0.0 0.0 0.0 0.0 -0.0 -0.0 -0.0 -0.0 0.0 0.0 0.0 0.0 -0.0 -0.0 -0.0 -0.0 -0.0 -0.0 -0.0 -0.0 -0.0 -0.0 0.0 0.0 0.0 0.0 -0.0 -0.0 0.0 0.0 0.0 -0.0 -0.0 -0.0 -0.0 0.0 -0.0 -0.0 0.0 -0.0 -0.0 -0.0 -0.0 -0.0 0.0 -0.0 -0.0 0.0 -0.0 -0.0 -0.0
INS_NullLiteral_SuperMethodInvocation 0.9916195 0.23785464 1.2235444 -1.0163404 1.5703764 -0.54955804 -0.09249591 1.5589864 0.9537888 0.101402804 1.5018748 0.06927649 -0.9775676 0.50862896 -0.5732779 0.4203748 -0.60576767 1.26327 -0.45905256 1.1875426 -1.3625826 0.40417343 -0.6741048 0.5968789 -0.24266437 0.3326112 1.1253078 0.86370337 0.5545578 0.16621055 -1.2797527 1.3889731 -0.0867259 0.14478472 -1.9470636 1.5033435 -2.3964417 0.46024486 0.64524466 -0.48372933 -1.783901 -0.045553006 1.6996295 0.46480158 2.2119179 -0.6785074 -0.01708267 1.104422 0.4268133 1.002614 0.4343553 0.7820402 -0.80497134 0.11996799 -0.7483316 -1.1685154 -0.67847615 1.550587 1.4156862 1.106071 0.38550606 0.8856565 -1.1756295 -0.6393972 -0.68348813 2.7111282 2.328759 1.1752111 0.64186496 -0.373652 -0.55109197 1.0428953 0.89540845 -0.46410808 0.8929286 -0.6406196 -1.681023 0.19305909 1.6577344 0.24923839 0.24631456 0.84302026 -0.48299873 -1.1639066 0.27284625 0.50345993 -0.85686004 2.0585682 0.98996884 -1.2692891 -1.0049152 -1.111425 0.14594975 -0.0043385667 0.9454558 0.22209291 -0.36914426 -0.61337507 -0.9289137 0.31723708 -0.8673889 -0.47689795 0.4977955 -1.8717182 0.014128499 -0.2802355 -1.2874495 0.32446405 0.25804386 -0.6847858 -1.6035647 -0.9691769 1.5326506 -0.6975593 -1.3331194 0.4834631 -1.6059299 -0.40808353 0.16380602 0.47400638 0.88161904 0.89271384 -0.5113784 -0.94305116 -1.4650924 -1.2960472 -0.6617947 0.21737945 1.5035901 0.54841673 0.18337113 0.96113354 0.6498959 0.13151884 -1.3539631 0.45958638 2.2429447 0.45111004 1.2185807 -0.4828743 -0.52066225 0.27589518 0.52560043 -1.3755697 1.1747315 0.4286002 -0.06515316 -0.34192696 1.4219643 -1.1550324 -0.22964765 -0.082083724 -0.029255452 0.1278682 -0.9736893 0.8947437 -0.7643143 -0.6826618 -0.11814116 -2.0942485 -0.4680946 1.2647444 -0.31729096 0.38060024 0.9750368 0.83793527 0.33291343 -1.033642 -1.2170295 -1.9602696 1.0011275 -1.1985402 1.9428006 1.3766397 0.67778563 -2.7056842 0.5351428 1.8051759 -0.22622095 -2.1464176 0.7217837 0.6481903 2.2655795 0.33926 -0.82358897 1.1016656 1.1309687 0.7966043 2.0765688 -0.5276588 0.2686139 -0.37617528 -0.10646858 -0.3723358 -2.1553667 0.33426416 -1.3862561 0.4493277 0.04237347 0.33967513 1.6362808 1.7773968 -0.63751704 -1.2460936 0.45793444 -1.141954 1.6187317 -0.65004283 0.53002393 0.40607646 0.6161892 -1.7355084 -2.338733 0.96976656 1.4274484 -0.7856596 -0.26812288 -0.8290408 0.7294538 -0.98617256 0.17333369 -0.06701338 -1.659909 -0.23865387 -0.11703953 0.62155926 -0.12839527 -0.19251002 0.47850633 0.5789987 0.8468116 -1.5625668 0.1706613 -0.36563346 0.3838018 -0.43664813 1.450897 0.44542372 -0.6155201 -1.1939481 1.4711281 -0.53734654 1.319042 1.7970021 -0.54526067 -0.9958689 -0.88384455 -0.9614888 1.3388537 -0.06581238 -1.1093886 0.30323014 0.5011944 1.3070441 -0.057649184 -0.5113018 -0.5775539 0.35407683 0.47933802 0.36678496 1.5134836 -0.22401662 1.5453782 -1.6655844 -0.68395627 -1.4979799 0.6700591 -1.4057282 -1.5526696 -0.2997591 2.2809782 -1.0935916 -1.454139 -0.6509787 0.40626156 0.9464027 1.3476095 1.7649767 -1.5514164 -0.46617135 -0.9357321 1.1835136 -0.7951549 0.8743707 0.28661254 -0.2854942 -0.9593287 -0.16840138 -0.63801694 -1.5192419 -1.2102329 1.0536647 -1.0630748 0.68314767 1.599638 -0.17190818 0.5208302 1.026093 -0.27026677 0.83121705
INS_SuperMethodInvocation_Assignment 1.2501901 -0.7186768 0.012064782 -0.61788446 0.60664874 -0.7022303 2.0842717 0.6649597 1.2685285 2.117282 0.29655325 -0.27009547 -0.6701694 -0.24371395 -0.36550838 0.71774364 -0.035353027 -0.46183005 -2.031346 -0.36728373 0.6868717 0.98934656 -0.7898254 0.95546025 -1.6767443 0.29036674 1.1647011 1.0201467 -0.3874976 1.0383612 0.14741123 1.4707756 0.39042488 -0.9252218 1.4365954 0.34674203 -0.10058682 0.7350289 -0.61498827 0.7841522 1.0618712 0.7688315 -1.2764925 -1.8857393 0.74932605 -1.6277344 -0.84051555 -0.59954417 -0.75307035 0.9529269 1.3386352 0.56648123 -1.1736902 -0.29467928 -0.0038264808 1.1532698 0.0059850602 -0.6132785 1.4972427 -0.17437474 -0.81343347 0.4492952 -0.4722986 0.06385151 -0.14928785 -0.29540384 0.44112378 -0.06038796 -1.2272961 0.11095029 0.9040277 -1.4794953 0.5482296 -0.30836138 -0.08112174 -0.59715325 0.47351557 -1.1711603 -0.5797946 0.6976851 1.6291169 -1.1714276 -1.8048978 1.1589375 1.6865051 -1.0506155 0.055828243 0.3591354 0.28957182 0.19924775 -0.06581866 0.6049428 -0.9380721 1.415131 0.23895678 0.12911987 0.5847882 -1.3047042 -2.0383348 0.89113 -1.1915774 -0.14405884 -0.27428132 -1.1357777 1.2044901 -0.46767893 -0.053645086 -1.5576185 0.7906597 1.879963 2.7327378 1.6897631 0.16083513 -0.13239248 -0.50082695 -0.99071175 0.1327676 -0.4976867 0.80284286 -1.8207444 1.263311 -0.27655536 -0.55567646 -0.28274515 0.21374024 -1.4756641 -1.2970965 1.127004 -0.43906027 0.1936755 1.1153835 0.35221598 0.23587376 0.25350767 -0.07150364 -0.6923817 1.1707841 -0.36677027 1.2652917 0.3079048 -1.1048044 -0.0018770568 -1.0285968 -0.032081995 0.44747347 -0.833862 -1.6734588 0.91140705 -0.24966855 0.92551714 1.1319573 -1.1776751 -0.055296794 -1.1765031 -0.55657935 -0.38248008 -0.8021075 -0.3079485 -0.013077369 1.5811007 1.1608318 -0.22601783 0.7332357 0.4452748 -0.45183346 -1.4495727 0.4787785 -0.7795029 0.24776325 -1.0296545 1.3375762 -1.8015707 -0.4280793 -0.54544264 0.4722345 -0.57377565 -0.4155184 -0.472926 0.55577284 1.1623878 0.45881212 -0.24866481 1.2096887 -0.38427365 -0.18939221 0.4694267 0.03196997 -1.839617 -0.20534927 0.90477425 1.0435654 -1.4840341 -1.221916 0.26936284 1.2734759 1.2232412 0.9599561 -0.21647112 -1.9082386 -0.54068816 -0.9258762 0.1560978 0.46325013 -0.17800839 0.0283218 -0.5107678 0.7246659 -1.1369865 -0.96307415 -0.43228784 -1.5187497 -0.20833285 -0.87029374 0.22940077 -0.52569604 0.59764063 0.34753835 0.9452653 -0.15849271 -0.6825865 -0.86804426 1.3205858 0.7105289 1.4393057 -0.04508828 0.090089045 0.060821977 -0.14319655 1.1096916 -1.1402531 0.75801474 -0.8736478 0.5223081 0.5486896 0.349209 0.61600554 1.3092006 1.9435155 -0.56914645 -1.5353836 -1.2458248 -0.6512106 -0.06914868 0.46815583 -1.5487038 -0.89283454 0.10174849 0.53874207 -0.903005 -0.46987772 -0.36204472 -0.4102129 1.0079325 -1.2728126 0.35817528 -0.2257168 0.5666026 -0.18158053 0.63185245 1.7863643 -0.6364652 -0.28022495 -1.7488495 0.8152422 0.10679517 0.65465397 0.12546898 -1.9236574 -1.3493003 -0.21447383 0.79044324 0.6948266 -1.2333554 -0.8583492 -0.332585 0.8030746 -0.3498756 1.0147849 -0.6383927 1.3271738 0.78630054 0.29997575 -0.21448761 -0.29360855 -1.261455 1.0496916 0.07768483 0.44411117 1.0586592 0.07067668 -1.0691397 -0.38814223 0.8758684 -0.08695427 -0.2771151 0.38273564 1.3754247 0.06709819 -0.61167574 -1.5877832
INS_MethodInvocation_SuperMethodInvocation -0.0 -0.0 -0.0 -0.0 -0.0 -0.0 0.0 -0.0 0.0 -0.0 0.0 0.0 0.0 0.0 0.0 0.0 -0.0 0.0 0.0 0.0 -0.0 -0.0 -0.0 0.0 0.0 0.0 0.0 -0.0 0.0 -0.0 -0.0 0.0 -0.0 0.0 -0.0 -0.0 -0.0 -0.0 -0.0 0.0 0.0 0.0 -0.0 -0.0 -0.0 -0.0 -0.0 0.0 -0.0 0.0 -0.0 -0.0 -0.0 0.0 0.0 -0.0 -0.0 -0.0 -0.0 0.0 0.0 0.0 -0.0 0.0 -0.0 -0.0 0.0 -0.0 -0.0 0.0 -0.0 0.0 -0.0 -0.0 0.0 0.0 -0.0 -0.0 0.0 -0.0 -0.0 0.0 -0.0 -0.0 -0.0 -0.0 -0.0 0.0 -0.0 -0.0 -0.0 -0.0 0.0 -0.0 0.0 0.0 0.0 -0.0 -0.0 -0.0 0.0 0.0 0.0 0.0 0.0 -0.0 0.0 -0.0 -0.0 0.0 0.0 -0.0 -0.0 0.0 0.0 -0.0 -0.0 -0.0 -0.0 -0.0 0.0 0.0 0.0 -0.0 0.0 -0.0 -0.0 -0.0 -0.0 -0.0 -0.0 0.0 -0.0 0.0 0.0 0.0 0.0 0.0 0.0 -0.0 0.0 0.0 0.0 -0.0 -0.0 0.0 0.0 0.0 -0.0 -0.0 -0.0 0.0 -0.0 0.0 -0.0 0.0 0.0 -0.0 -0.0 -0.0 0.0 -0.0 0.0 -0.0 0.0 0.0 -0.0 0.0 0.0 0.0 -0.0 0.0 0.0 -0.0 0.0 -0.0 -0.0 -0.0 0.0 0.0 0.0 -0.0 0.0 -0.0 0.0 -0.0 -0.0 -0.0 0.0 0.0 0.0 0.0 -0.0 0.0 0.0 -0.0 -0.0 -0.0 -0.0 -0.0 -0.0 0.0 -0.0 0.0 -0.0 -0.0 -0.0 0.0 0.0 -0.0 -0.0 0.0 0.0 -0.0 -0.0 -0.0 -0.0 -0.0 0.0 0.0 0.0 0.0 -0.0 -0.0 -0.0 -0.0 0.0 0.0 -0.0 0.0 -0.0 -0.0 0.0 -0.0 0.0 -0.0 -0.0 -0.0 0.0 -0.0 -0.0 -0.0 0.0 -0.0 -0.0 -0.0 -0.0 0.0 -0.0 -0.0 -0.0 0.0 0.0 -0.0 0.0 0.0 0.0 0.0 0.0 -0.0 0.0 0.0 0.0 0.0 0.0 0.0 0.0 -0.0 -0.0 0.0 -0.0 0.0 -0.0 0.0 -0.0 -0.0 -0.0 -0.0 0.0 -0.0 -0.0 0.0 -0.0 0.0 0.0 0.0 -0.0 -0.0 0.0 -0.0 -0.0 0.0 0.0 -0.0 0.0 -0.0 0.0 0.0 -0.0 -0.0
INS_Block_EnhancedForStatement -0.0 -0.0 -0.0 -0.0 0.0 -0.0 0.0 -0.0 -0.0 -0.0 -0.0 -0.0 -0.0 -0.0 0.0 0.0 -0.0 -0.0 -0.0 0.0 0.0 0.0 0.0 -0.0 -0.0 0.0 0.0 0.0 0.0 0.0 0.0 -0.0 -0.0 0.0 -0.0 -0.0 -0.0 -0.0 0.0 0.0 0.0 0.0 -0.0 -0.0 0.0 0.0 0.0 0.0 -0.0 -0.0 0.0 -0.0 0.0 0.0 0.0 0.0 -0.0 -0.0 -0.0 0.0 0.0 0.0 0.0 0.0 -0.0 0.0 0.0 0.0 0.0 -0.0 0.0 0.0 -0.0 -0.0 0.0 -0.0 0.0 0.0 0.0 -0.0 -0.0 0.0 0.0 -0.0 0.0 0.0 -0.0 -0.0 0.0 -0.0 -0.0 -0.0 -0.0 0.0 -0.0 -0.0 0.0 0.0 -0.0 0.0 -0.0 -0.0 0.0 -0.0 -0.0 -0.0 -0.0 0.0 -0.0 -0.0 0.0 0.0 -0.0 0.0 -0.0 -0.0 0.0 0.0 0.0 -0.0 -0.0 0.0 -0.0 0.0 0.0 -0.0 -0.0 -0.0 0.0 -0.0 0.0 -0.0 -0.0 -0.0 -0.0 0.0 -0.0 -0.0 0.0 0.0 0.0 0.0 0.0 0.0 0.0 0.0 0.0 -0.0 0.0 0.0 0.0 -0.0 0.0 -0.0 0.0 -0.0 0.0 -0.0 -0.0 -0.0 0.0 0.0 -0.0 -0.0 0.0 -0.0 0.0 -0.0 0.0 -0.0 -0.0 0.0 -0.0 0.0 0.0 -0.0 0.0 -0.0 0.0 0.0 0.0 -0.0 -0.0 -0.0 -0.0 0.0 0.0 0.0 -0.0 0.0 0.0 0.0 -0.0 0.0 -0.0 -0.0 0.0 -0.0 -0.0 -0.0 -0.0 -0.0 -0.0 -0.0 -0.0 0.0 -0.0 0.0 0.0 -0.0 -0.0 0.0 -0.0 -0.0 -0.0 0.0 0.0 -0.0 0.0 0.0 0.0 -0.0 -0.0 0.0 -0.0 0.0 0.0 0.0 -0.0 -0.0 -0.0 -0.0 0.0 0.0 -0.0 -0.0 -0.0 0.0 -0.0 -0.0 0.0 0.0 0.0 -0.0 -0.0 0.0 0.0 -0.0 0.0 0.0 0.0 0.0 0.0 0.0 -0.0 -0.0 -0.0 -0.0 -0.0 0.0 -0.0 0.0 0.0 -0.0 -0.0 -0.0 0.0 0.0 0.0 -0.0 -0.0 -0.0 -0.0 0.0 0.0 0.0 -0.0 0.0 0.0 0.0 0.0 -0.0 0.0 0.0 0.0 -0.0 -0.0 -0.0 0.0 -0.0 -0.0 0.0 0.0 0.0 -0.0 0.0 0.0 0.0 -0.0 -0.0
INS_ConditionalExpression_IfStatement 2.1318796 -0.8140287 -0.7442767 -0.14130883 -1.1434133 -0.2636355 0.7909132 -0.5901591 0.06615714 -0.025424428 0.27152452 -0.55035186 0.10023531 -2.3052747 -0.71151006 0.78709865 1.4568157 -0.067276396 1.8981168 1.1106997 -1.0755785 0.0066573992 0.008468701 0.5079739 -0.9882857 1.0055054 1.252153 -0.012180128 0.5357543 0.9153885 0.21560477 -0.13368762 -0.33746776 0.3082696 -1.4301391 -1.3016118 -1.4957235 0.79040116 -1.3124139 1.0768738 0.54298455 0.90169 0.87767816 -0.3067981 0.7552127 0.53321475 -0.40725163 -1.3473321 0.9034083 -1.0590373 -0.1955719 0.5079386 -1.5111932 -1.7193121 0.19703995 -0.49515742 0.06249342 1.6566749 1.2405921 0.052734967 0.4868393 2.0797963 0.54287547 1.2793645 0.31066486 0.3798442 -1.2526728 -0.9460408 0.70940113 0.63203335 0.19218595 -0.42257333 -1.5966128 0.6353244 1.2438035 1.275952 -0.93712157 -1.3713225 1.1029084 0.72079456 0.56923217 1.0484968 -0.85672575 -1.8569018 0.42641792 -0.6356872 -0.38098618 0.9924269 0.46105075 -1.5458877 1.6128927 0.87570816 -0.9731526 -0.9530585 2.1048594 0.37939787 -1.2399412 1.5358139 0.0706845 -1.7636914 1.2645577 -0.2826976 0.2101097 -1.2753698 0.8752032 -0.90573967 -0.028021801 -0.5360639 -1.0227225 -0.20240441 -0.831117 0.8760912 -1.2786039 -0.52436596 1.6231622 -0.12314817 0.6117929 0.17867689 0.42026544 -1.1595572 0.68941677 -1.7568607 -2.0429733 -1.4191165 -0.615163 0.53635144 0.031261165 0.091913395 -1.3006759 -0.64195883 -2.0796542 -1.5771978 0.39596128 -0.80739516 -0.6787356 1.5243059 0.035604034 0.15287489 0.6500992 -0.5108527 -0.9752172 -2.08108 -2.2583961 -1.2965734 -0.69105726 -0.60467577 -0.3540978 -0.8037549 -0.8161807 -0.18614249 -0.2053509 -1.2424055 -0.51506734 -0.5435628 -1.1168851 -0.43293217 0.5187829 0.6585899 -0.12190894 0.84998685 0.35807663 -0.14877938 0.3008765 -0.9112805 -1.1932961 -1.5219086 1.8919406 -0.6180468 0.66582566 0.7959056 -0.2317089 -0.47446564 1.4095616 -0.52850145 2.46768 0.697677 1.0628988 -0.61052656 -1.6802475 0.71483344 0.15985419 -0.84641355 0.62419814 1.258969 0.9782947 0.7271646 -0.66595083 1.1708095 -0.13107108 2.3603656 1.3579876 -1.115394 1.1538956 1.1433563 0.6563696 -0.79000646 1.2009465 0.4594885 0.80818915 -0.35519513 -0.84740925 -1.0202057 -0.9081722 -1.3768463 1.7151705 -1.3200846 0.9832835 0.96159726 -0.56789374 -1.0199183 -0.47310668 -1.8152106 1.0328044 -1.2098757 -0.17302959 -0.61863875 1.1733471 0.27405953 -0.515719 -0.38050997 0.2077801 1.9873501 0.32473907 -0.8927953 -1.119208 -0.47116736 -0.44046694 1.689565 0.7435885 1.4190019 -1.1976846 1.1305078 1.0781823 -0.17283925 0.2588634 -0.5977714 1.3335035 -0.56972456 -1.0912086 2.1477547 -0.12748742 -0.7059769 1.0156844 -1.0418112 -0.15366875 1.0247083 0.99976003 -0.017723514 0.059052985 -1.8267262 -1.1309488 1.2944161 -1.8066556 0.53382015 1.4437072 -1.0337323 -0.6137507 -0.9068481 -0.5591318 0.2620624 -0.34040734 0.25522202 -1.180708 -2.3042529 -1.5043964 0.7978942 0.2014968 0.037826356 1.0928655 -0.80953276 -0.34134066 -0.8701805 -0.4957565 1.0033627 0.77631223 -0.018279918 -1.0058041 -0.6943292 -1.1016501 0.23976 0.1478837 -0.97819644 -0.7616213 -0.8100706 0.44467658 1.153114 0.44083902 -1.1783118 -1.1058038 1.55587 -0.8546773 -1.325313 0.65142506 0.6321563 0.47592536 0.504595 -1.6462578 -0.815922 -1.8941361 -1.1209193
INS_ParenthesizedExpression_Assignment -0.0 -0.0 0.0 0.0 0.0 -0.0 0.0 0.0 -0.0 0.0 0.0 -0.0 0.0 0.0 0.0 -0.0 -0.0 -0.0 0.0 0.0 -0.0 -0.0 0.0 -0.0 -0.0 -0.0 -0.0 -0.0 -0.0 0.0 0.0 0.0 -0.0 0.0 -0.0 -0.0 -0.0 0.0 -0.0 0.0 0.0 -0.0 -0.0 0.0 0.0 0.0 -0.0 0.0 0.0 -0.0 0.0 0.0 -0.0 0.0 -0.0 0.0 -0.0 -0.0 0.0 -0.0 0.0 -0.0 0.0 -0.0 -0.0 0.0 -0.0 0.0 0.0 -0.0 -0.0 0.0 -0.0 0.0 0.0 -0.0 -0.0 0.0 0.0 -0.0 -0.0 -0.0 0.0 0.0 -0.0 -0.0 -0.0 0.0 0.0 0.0 -0.0 -0.0 0.0 -0.0 0.0 -0.0 0.0 -0.0 0.0 -0.0 0.0 0.0 0.0 0.0 -0.0 -0.0 -0.0 -0.0 -0.0 -0.0 0.0 -0.0 -0.0 0.0 -0.0 -0.0 -0.0 0.0 -0.0 -0.0 0.0 0.0 -0.0 0.0 -0.0 -0.0 -0.0 -0.0 -0.0 0.0 0.0 -0.0 0.0 0.0 -0.0 0.0 0.0 -0.0 0.0 0.0 -0.0 0.0 0.0 -0.0 -0.0 0.0 0.0 0.0 -0.0 -0.0 0.0 0.0 0.0 -0.0 -0.0 0.0 -0.0 -0.0 0.0 -0.0 -0.0 -0.0 -0.0 -0.0 -0.0 -0.0 -0.0 0.0 -0.0 0.0 -0.0 0.0 -0.0 -0.0 -0.0 0.0 0.0 0.0 -0.0 0.0 -0.0 0.0 0.0 0.0 -0.0 -0.0 0.0 -0.0 0.0 0.0 0.0 -0.0 -0.0 0.0 0.0 0.0 0.0 0.0 -0.0 -0.0 -0.0 -0.0 0.0 0.0 0.0 -0.0 -0.0 -0.0 -0.0 0.0 0.0 0.0 0.0 0.0 -0.0 -0.0 0.0 0.0 0.0 -0.0 -0.0 -0.0 -0.0 -0.0 0.0 -0.0 -0.0 -0.0 -0.0 -0.0 -0.0 -0.0 0.0 0.0 -0.0 0.0 0.0 0.0 0.0 -0.0 -0.0 0.0 -0.0 0.0 -0.0 0.0 0.0 -0.0 -0.0 0.0 -0.0 0.0 -0.0 0.0 0.0 0.0 0.0 -0.0 0.0 -0.0 0.0 0.0 0.0 -0.0 -0.0 0.0 -0.0 -0.0 -0.0 -0.0 0.0 0.0 0.0 0.0 0.0 0.0 0.0 0.0 0.0 -0.0 -0.0 -0.0 0.0 0.0 -0.0 0.0 0.0 0.0 -0.0 0.0 -0.0 0.0 0.0 0.0 -0.0 -0.0 -0.0 0.0 -0.0 -0.0
