INS_PrefixExpression_ArrayInitializer 0.4685159 0.81000185 -0.9387398 1.1419659 0.5593552 0.4347986 0.46050504 -0.63085395 1.6598655 0.286288 0.5903018 -0.90575224 0.6262082 -0.5215481 -0.46078417 1.8535835 -0.6220648 0.99047905 -1.212901 -0.84401757 -0.08421146 -0.054695282 -0.056775477 -1.6549629 -0.61286366 0.28419298 1.1906852 -1.0648425 -0.42556897 -0.21612269 -0.7050469 1.1172411 -0.8982055 -0.37362295 -0.075745754 1.4168061 0.980769 0.445455 -0.4850884 -0.72788006 -1.0111268 1.81803 -1.7796506 -1.0236588 1.0948696 -1.7874254 -0.6281539 -0.9178557 1.4874872 -1.1320333 0.680568 -0.37731433 0.48493463 1.7557213 0.4060867 0.92254645 -0.8293285 -0.5253932 0.68598086 0.35854328 -2.092285 -1.4143926 -0.12826028 -0.86928695 -1.6379977 -1.0708278 1.6561259 0.060106955 0.21648069 -0.24832316 -0.033391774 -1.4261694 0.20600864 1.2280024 0.075483896 1.0168735 2.0884895 -0.76503104 -0.13245611 0.64092094 -0.8376771 -0.6766665 -0.49074623 -1.0622119 -1.7634189 -1.5524924 -1.7702285 0.59303737 -0.41163716 -0.32630402 0.5156485 1.5597594 -1.0627983 0.8858305 0.9307143 0.38356376 1.275915 0.5033346 1.491746 0.7623843 0.067069486 1.1512895 0.04533751 -0.03407754 -0.35308194 -0.692763 1.0066328 -0.26430497 1.0027677 -0.068079256 -0.808429 -1.4437021 -1.8758932 0.5407566 0.5657191 0.32178298 0.28268123 -0.48370758 0.11041692 -1.391686 0.04463645 -0.20888792 -0.514189 -0.74167717 0.26078907 1.447283 1.1717521 0.12616083 0.5861566 1.0572089 -1.7198443 0.46544272 -0.9276511 1.265602 2.0842245 -0.2164387 -1.2380179 -1.4431641 0.6621017 -0.42732576 -1.2206949 -0.47896415 0.8721996 -0.116056845 -2.3953469 1.0932202 -1.0830292 -0.27021667 1.4136763 -0.7537164 -0.26668563 -1.2031951 0.9339214 0.6555153 0.5516068 0.13931507 0.48223966 -0.49619946 0.12386831 0.2947003 0.17366932 1.346149 0.1414706 -1.7226983 -0.37977466 0.7080591 1.2726839 -0.85831946 1.2346966 1.1898378 -0.2576741 0.9424878 -1.0313739 -0.28423297 -0.117178656 1.1681409 -0.79538435 0.6791914 1.6055372 -1.0608032 -0.097895764 0.040562805 0.2663607 -0.09521744 -0.9237163 -0.18476078 0.21251464 -1.6982561 0.45008126 0.6502832 -1.1790926 -0.70406115 -0.47561723 0.088193946 0.20375893 0.49436718 1.70306 -1.7495356 -0.3478587 -1.7000456 -0.636098 -0.9706332 -0.91341066 -0.4370487 0.25629985 0.24248411 -0.34262747 -0.48026088 0.011043713 0.09787382 1.0916795 -0.99739975 0.29773825 -0.6221901 0.91759837 -0.6034092 -0.088729486 1.0283225 -0.24307993 -0.21820068 0.796454 -0.21001503 0.15099223 -1.1942014 0.030282326 0.80259824 0.19864558 -0.9768579 0.3172301 -0.5136456 0.98732936 -0.18276037 -1.1691072 0.31113216 -0.1607148 -0.8320151 0.89280474 -1.1572391 0.0086106835 -0.5427405 0.27308458 0.8092072 -2.1688986 0.23560524 0.73741794 -1.0570525 -0.38661066 0.015582298 -0.81024146 0.37076083 1.0380199 0.21811959 0.74794495 -0.66821116 2.0534105 0.24039747 0.27292278 -0.50083226 -0.2696914 0.18035816 -0.18533328 -0.14105333 0.7864223 0.0039939964 0.31112465 0.44979128 0.5204407 -0.16252266 -0.6680549 -0.7249795 0.0017209544 0.48367903 0.370125 -1.1874491 0.29464063 -0.0061489134 -0.05884791 -0.49799943 -1.130347 1.0352775 0.40372854 0.61750954 1.5036268 0.41983053 -1.1558908 -1.2449617 0.54721653 0.44351324 -0.55782056 0.838742 -0.48707294 -0.5001165 -1.2566139 -0.6694866 0.5180625 0.09676026 -0.09512108 0.27172327 0.5358102 1.613253
INS_Assignment_ExpressionStatement 0.24662204 -0.5913263 -0.044279706 -0.19412017 -0.6770272 -0.47108495 0.12518217 -0.5489356 0.79736453 -0.09640467 -0.57663447 -0.22459005 0.006266537 0.44554666 -0.43323347 -0.5950481 0.59939164 -0.6843215 0.60983855 -0.3967394 0.04994905 0.061898794 0.726942 0.75740606 0.5597094 -0.30765885 0.4146727 0.1946141 0.23227365 0.52896476 0.5092102 -0.40304407 -0.49236688 -0.7034697 -0.24139158 -0.7613806 -0.2802191 -0.73652476 -0.35779104 -0.07106618 0.3094369 -0.6300043 -0.7852675 -0.79114985 0.9363789 0.43342182 0.49471572 0.72645956 -0.65759236 -0.6799451 0.82844263 0.60478795 0.35400182 0.840285 -0.24503697 -0.5230268 0.29792365 0.012368021 0.19361907 0.7340113 0.6310684 -0.6076964 0.20551638 0.6164722 0.22200273 -0.06552305 -0.5249781 0.1996577 0.512953 0.5790411 -0.4543351 -0.77873796 -0.6423175 0.18383259 -0.24059486 -0.02665279 0.8136944 0.010553075 0.3271314 0.7819891 0.8186832 -0.7452166 -0.6722907 0.08942144 -0.085284576 -0.75171804 0.8705044 -0.6189693 0.07674711 0.44289955 0.21611539 -0.8517407 -0.08327249 -0.8039593 0.34791976 0.43774807 0.41424885 -0.3648917 -0.4169474 -0.20503716 0.06958785 -1.1126167 -0.71542567 -0.03087935 -0.4928474 0.87796515 -0.42216414 0.6941858 0.5988366 0.5609172 -0.7395422 0.76142436 -0.3920612 -0.32951504 -0.27830648 0.6978366 -0.3559702 -0.5602464 -0.11381858 0.8145052 -0.121527374 -0.06955608 -1.036772 -0.07073746 0.4759963 -0.062326774 0.03970084 0.043230444 0.22823313 0.53942865 -0.012041727 0.09055101 0.12823848 0.37210348 -0.28968814 -0.6032261 -0.7007885 -0.627997 -0.581526 0.7477743 0.7892959 0.7025979 -0.103960976 -0.7310582 -0.9000765 0.23898058 0.3594735 0.38029778 0.21666767 -0.4766098 -0.761729 0.7833977 0.6888448 -0.16928615 0.22070323 0.007975973 -0.50817364 0.61170435 -0.21008898 -0.39773878 0.8076716 -0.8691988 0.21709189 1.1809441 0.005208943 -0.48816457 -0.3391202 -0.32421482 0.18980472 -0.48753798 -0.37458843 -0.14808428 0.20254363 0.0777178 -0.83960533 -0.48940808 0.37350035 -0.9957802 0.88975835 -0.3861913 -0.8400488 0.1447936 -0.6116543 -0.30488533 0.4473617 0.72386265 0.93491095 -0.10144034 0.70500815 -0.03779961 0.44192213 0.2576715 -0.53597224 0.0201137 -0.18671672 -0.7964594 0.76394564 0.81849265 -0.70950365 0.16449735 0.7298184 0.11867595 0.15312347 -0.5333151 -0.5754886 0.33169547 0.23056872 -0.7476497 0.73872405 0.5758898 0.21144556 0.2947204 -0.3043817 -0.46804988 0.19651225 0.0179282 -0.333103 0.6328916 -0.54426956 -0.13281131 -0.5466532 -0.097126 -0.15495518 0.79716504 -0.75461394 -0.53833354 0.81689084 0.22769843 -0.8193098 0.32862744 0.44068822 -0.5276411 -0.29287818 0.3695898 0.53335613 -0.75720334 -0.7212805 0.38375747 0.058607664 0.9274894 -0.20243397 0.48841733 -0.007158909 -0.07170634 -0.2849381 0.37030327 0.42025387 -0.014806784 0.6658769 -0.29424906 -0.5320764 1.1021032 0.45121208 0.4459382 -0.8391419 0.78610075 0.8226348 0.66582733 0.086964354 -0.27053404 -0.9497276 0.95608294 0.43374592 0.109483674 0.070075445 1.0716759 -0.5449467 0.07496861 0.547207 0.37499475 -0.48501903 0.2918021 0.35265014 0.044866804 0.35703632 -0.050599698 -0.6063596 0.43622854 -0.24287623 0.45961002 -0.38682657 -0.89819646 -0.19150364 -0.8129992 -0.6016062 0.1618532 -0.71662486 0.75989723 -0.010169053 -0.037977688 -0.025719324 0.033282198 -0.1432908 0.6585164 0.544566 -0.05181717 0.31213853 -0.10272522 -0.27543667 0.17399901
INS_QualifiedName_EnhancedForStatement 1.0718404 -0.7390815 0.8566123 0.5190576 -0.75049186 0.86342543 1.2838775 -0.021166105 -0.058332462 -0.4747402 0.16798759 0.28164032 0.14255513 0.16811934 0.21023117 -0.15083848 1.5287454 0.31856325 -0.44935966 1.2234637 -0.020557785 1.3849887 -0.99070644 0.071203016 -0.78185207 0.35452682 -1.157601 -0.56104577 0.8708631 0.4235036 -0.030512337 -0.10906825 -1.3582969 -0.2570844 1.1244453 -1.2969273 0.2604291 -0.35528243 0.7341673 0.22202402 0.0587923 -0.5555709 1.1063738 1.2077208 0.4655772 0.956162 -1.0445656 0.18868859 -0.38317165 0.5198512 -0.67083186 -0.36078587 0.89062154 0.058731645 -0.46558404 -0.25934505 -0.94190764 0.28916314 0.28946045 -0.20363529 1.2218509 0.36228308 0.47442356 -0.6446739 -0.08644616 -1.5038438 -0.38920525 1.6107602 0.5715167 -1.2568439 -0.48861834 -0.18232623 0.19707063 -0.43199846 -1.3430729 -1.0324883 -0.7353613 -0.21945821 0.8510003 -0.7201574 0.28730923 -0.17821163 -0.32800698 0.75894904 0.16822065 0.3343436 0.16367885 -0.46067435 0.39207426 0.5217268 0.94608396 0.8520472 0.51441395 0.36138758 0.5468199 -1.2553706 -0.33631495 -0.7205622 0.34811187 0.15034883 -0.48479337 0.5490954 0.346221 -1.4244758 0.13826446 -1.555577 1.0396689 -0.8049521 0.8455138 -1.3664418 -0.88671225 0.6388134 -1.0215492 0.3034522 -0.79023737 0.3974649 0.13191539 0.62578726 -1.4570314 -0.22322369 -0.85731405 -0.8763305 1.2731392 0.73060614 0.7371991 -0.774322 0.9280874 -0.26611713 0.94442225 -1.0808573 0.5172546 0.67864215 -0.85747796 -0.6577304 -0.94582355 -0.7692862 -0.9068072 0.19443735 -0.26119682 -0.63393325 -1.5551351 0.3919929 -0.17728928 1.7938055 0.97759116 0.69802594 0.7200164 0.3723589 -1.037438 0.5473704 -0.80687857 -0.92925715 -0.21057501 1.2211938 0.7600132 0.28845814 -0.41314507 0.07374726 0.3591412 -0.49995422 0.33114144 0.36854312 0.46231765 -0.07412482 -1.4640782 0.21702872 0.90389746 -0.6090431 -0.607752 0.96213657 -0.48731673 0.4492722 0.32561678 0.49185136 -0.36063826 0.44290423 0.7530734 0.6703292 -0.7790061 -0.5254668 0.34136388 1.0862095 -1.1582152 0.52975714 1.3784895 -0.58853275 -0.0034640569 -1.2446295 0.89542186 -0.1870274 1.6187962 -0.8095191 0.31121838 1.8204529 0.105691835 -1.5135161 0.802138 0.63171834 -1.1690063 -0.9230547 0.13279612 1.3645258 -0.50192004 -0.078483164 0.99869287 -0.6480085 -1.5032716 0.20999843 -0.711644 0.41200313 -0.5843404 -0.4595484 -0.17261724 -0.10646608 -0.8536096 1.6933573 0.018230943 0.35405865 0.23309454 0.65930414 -0.84380436 -1.0293828 0.77029276 1.3331591 -0.61109513 0.20225342 -0.63527554 0.17697096 1.0688014 1.1674778 -1.26682 -0.17483528 0.003769052 -0.85675603 0.21108122 0.74068207 -0.28259176 0.4527358 1.1263078 1.240315 -0.99393654 0.46472922 0.99345744 -0.22948615 0.62265104 -0.23870766 0.80814916 1.2829571 0.12171636 -0.7234446 -0.6248755 0.8326937 0.60424036 -0.06984232 1.128727 0.87638056 0.32769933 0.07978725 1.007495 0.49457574 -0.57787126 -0.8853626 0.36954063 -0.22020456 -0.017145788 -1.2637627 0.2962618 1.0462399 0.50240284 0.15177993 -1.1580362 -1.4807286 1.0641139 0.9782669 0.6046859 0.9615143 0.8290199 -0.23358786 -0.076192886 -0.5290417 0.4776104 0.8507935 -0.9110384 1.6094152 -0.068162434 0.29183322 0.012087336 -0.9977704 -0.35525012 1.0324125 -0.6442292 -0.45912394 -0.66405326 0.44017085 0.57532775 -0.095915355 0.18804969 1.3749393 0.3703331 0.42258123
INS_ConditionalExpression_ClassInstanceCreation -0.81690437 0.38669783 -0.26054308 -0.7405417 0.14574371 0.76846087 0.83119947 0.9063339 -0.99560726 1.4520254 0.4188411 -0.4924232 0.37877238 0.81353253 1.0496411 -0.47075036 0.81893027 -0.7560128 0.09575811 0.6816993 -0.79872876 0.7772492 0.47600925 -0.50933135 -0.8460078 -0.57184285 -0.54047936 0.30592653 -0.9716919 -0.6249941 -0.53639156 1.4342678 -0.33244705 0.8947456 -0.3972818 0.50925833 -0.61167645 0.23169462 0.36124778 0.0033855417 0.41637462 0.7088616 -0.19637251 -0.9210813 -0.6769247 -0.36697197 -0.40186566 0.019729747 -1.029148 -0.28757474 -0.73917586 -1.1169811 0.6322357 1.3181682 0.4184846 0.50225466 -0.3608995 -0.16340083 0.6130027 0.39368337 -0.07695184 0.44104877 -0.5081353 1.0837067 -0.30203423 -0.020853173 -0.5545324 0.8133267 0.117268495 1.1106983 -0.43118182 -0.80848646 -0.7198614 0.49754605 0.74441487 0.3747925 -0.316731 0.83351135 0.22326598 -1.1618502 0.6278146 -0.61006176 -0.5971515 0.7720965 -0.23484175 0.7537505 -0.63703215 -1.1472604 -1.3860497 0.601219 -0.00040475852 -0.73310596 -0.7095769 -0.1672394 0.26300257 -0.7568195 0.5782539 -0.2408297 0.64819175 -0.26673803 -1.1027997 0.8529012 0.122183375 -0.231137 1.1371815 -0.03161754 0.24255544 0.93989766 -0.60799295 1.3295339 -0.22550195 -0.5412908 0.4811465 -0.5647428 0.1906802 0.74587685 -0.016609628 -0.6050468 0.41020364 0.19131151 -0.25160417 -0.5264429 1.0207225 -0.082283214 0.41995838 -1.4905349 -0.99361914 0.59145164 0.0035242587 0.124195166 -0.14575063 -0.16466857 -0.30692604 -0.42875025 -1.6801432 -1.1727927 1.4684446 -0.35815775 -0.32194766 0.9418194 1.0217404 -0.6219763 0.9264322 0.4850489 -0.62799966 -0.24370492 0.43467018 1.0083514 -0.32520118 -0.5790504 -0.09272398 -0.3264935 -1.0631458 -0.23986267 -0.9086138 -0.13406661 0.21113639 -0.0014772186 -0.28303498 1.390298 0.5037631 0.445914 -0.82541037 0.044033073 0.12908058 -0.14589818 0.15029752 0.9878278 -0.5345123 0.73580825 -0.13475737 -0.6005445 1.3899523 0.06435678 -0.33792165 0.0027778363 -1.1912502 0.71402407 -0.48178363 -0.8317534 -0.27223814 0.115802325 0.26075295 -0.15983197 -1.4447547 -1.1180946 -0.8293887 -0.3073992 -0.18297517 -0.6963373 0.98036885 -0.92295325 -0.9173401 0.1466793 0.5085759 0.26997524 0.3994258 0.9469627 1.1467092 0.12928395 -0.75882876 0.43513522 0.08916617 -0.026438292 0.7974783 -0.7528829 0.50604165 0.29394382 0.3087357 0.47907978 -0.1171062 0.4352033 1.1090871 -0.14329632 -0.0764661 0.2349709 -0.7517257 -0.36898404 -0.38135952 0.3705919 0.23663425 -0.27817544 -0.37121606 1.2765855 0.17306483 0.06587383 -0.32940745 0.76708 0.20053735 -0.23755103 -0.009829636 -0.9382812 1.3697783 -1.2686433 0.63792694 -0.70825464 0.6667671 -0.28633305 0.7508801 -1.3335512 0.8858407 -1.6349726 -0.5811067 0.17792794 0.41908982 1.4863298 -0.009540681 0.5026543 0.38623166 -1.3214983 0.9032336 0.810767 0.08398317 1.0764697 0.7911155 1.4446539 -0.15428595 0.5782286 -0.693842 -0.28857264 0.66297567 -0.61894083 -1.0032248 0.94380885 0.20236959 0.7206354 -0.13346379 -0.8517442 0.3196661 0.18713371 -0.797436 -0.81388867 1.3058113 -0.22995625 -0.8148114 0.33461916 -0.5646983 -0.89248335 -0.12824209 0.89734674 0.6274488 0.21651119 0.8521699 0.7150459 -0.7330339 -0.23573719 -0.22815578 -0.0694871 -0.01815038 0.6514353 0.94494253 -0.6225527 -1.1162454 0.338431 1.2525339 0.23306742 -0.8558572 0.73512226 -0.16046228 1.7401001
MOVE_EnhancedForStatement -0.011600075 -0.6159109 0.72350353 0.5289906 -0.6997271 -0.13143826 -0.99966973 -0.18953164 0.18355504 0.5992377 -0.27992046 -0.2626741 -0.37271494 0.36168638 -0.40556273 -0.09857805 0.6276497 0.39106894 0.32600507 0.63924813 0.2965662 0.39580628 -0.59783065 0.3321682 -0.49330685 0.09614077 0.044389185 0.14644082 -0.32565147 -0.2257096 -0.10333911 -0.57256234 -0.15822704 0.33767584 0.7886359 0.6703944 0.030425498 -0.19420302 0.056042124 0.35261428 0.860097 0.029805262 0.5126911 -0.20588715 -0.6436961 0.9814585 0.9858595 0.642711 0.35927123 0.2836975 0.27606097 -0.83727556 -0.3207598 0.48705325 0.7636134 -0.09266174 0.23121709 -0.4591307 0.40841642 -0.012417371 0.04709017 0.78258765 -0.19177417 0.49419644 0.15305717 -0.7939278 -0.61966485 0.041727774 -0.27826366 -0.0969801 -0.1898411 -0.901928 0.8922567 0.5276759 -0.42782852 -0.61280614 0.046106387 0.44422984 -0.6502422 0.65432703 -0.7532943 0.7687839 0.7591243 0.022729604 -0.46181324 -0.20012574 -0.90553343 -0.32786557 -0.223071 0.679548 -0.0030164022 0.014212057 -0.14861886 0.043017663 -0.46870336 -0.2689283 -0.35528505 -0.028896362 -0.0684071 -0.67919916 -0.065030895 0.74867797 0.4948327 -0.22140801 0.09187278 0.19332683 -0.63058895 -0.35498568 0.02767602 0.61388034 -0.7541572 0.6252257 0.543925 0.08834099 0.108520575 0.2525629 -0.6241705 -0.7777029 -0.64041376 -0.1860732 -0.6324727 -0.22241125 0.86782503 -0.36296934 0.83074397 0.48990816 0.0536705 0.5818716 -0.006275219 -0.30000147 0.47596812 0.764068 0.23977974 -0.61371905 0.028921818 -0.3571316 -1.1981461 -0.3161794 -0.3041463 0.1865517 0.7050757 -1.0750468 0.42030537 0.62438685 0.44937888 0.33019853 0.18297328 0.42287245 0.56819606 -0.3671892 -0.082998544 0.09663016 -0.50084144 -0.28869388 -0.6635249 -0.31251281 0.5936628 -0.033686064 0.7008705 -0.9076454 0.7295379 -0.55090785 0.72375983 0.5741689 -0.26059416 0.4219188 -0.087558836 0.39201686 -0.6599998 -0.32026094 0.7807434 -1.0537316 -0.5057178 0.56779385 -0.15762185 -0.18183416 0.5732457 -0.08891655 0.8276636 -0.7371652 -0.3887831 0.45633152 0.6827371 -0.465057 0.06483444 -0.07766008 -0.15495697 -0.47951445 -0.35379353 0.038637783 -0.7523217 -0.6188118 1.0494281 -0.19125122 0.26375118 -0.34272635 -0.4555945 -0.60992754 0.07123435 -0.03149698 -0.66169083 0.2957487 1.1394742 -0.3950009 0.25683886 0.40311426 -0.20405877 0.4006838 -0.8338872 -0.056701947 0.40537187 0.7712137 -0.31343576 -0.70907325 -0.6524909 0.33878937 -0.17586718 -0.06511472 -0.38777265 0.35375988 -0.62910837 -0.29435447 0.78581876 -0.17187975 -0.46342704 0.15582706 -0.16182594 0.61701053 -0.21525353 -0.6116477 -0.04008434 0.3968433 0.8582068 -0.7204575 0.19360006 0.6081463 -0.10133547 -0.24036248 -0.52129734 0.7170843 -0.51581794 0.8071 -0.007497588 -0.3670213 0.21885508 -0.11897941 0.8780559 0.6331358 -0.58799845 0.07766594 0.25461558 -0.34099454 -0.53960335 0.15677848 -0.027737604 0.60769653 -0.3907045 -0.6061006 0.6100038 -0.43739343 0.261936 0.48884276 -0.23857476 -0.14712267 0.511024 -0.5040222 -0.9726845 0.47554317 0.8930487 0.9718387 0.00036508564 0.13482961 0.2000653 -0.7023191 0.84699875 -0.52946126 0.31471756 -0.7157028 0.41417298 0.88565415 -0.45331898 0.64831626 0.109899424 0.6110365 0.37833238 -0.15366234 0.4722947 0.28762266 0.85280627 0.8035106 -0.050749812 0.3441099 0.08804228 -1.0581704 0.041891824 -0.52508736 0.38784283 0.78268415 -0.17822938 1.0223813
INS_SingleMemberAnnotation_EnumDeclaration -0.7524399 1.3046522 -0.34738192 0.05962512 -0.9946466 0.9230823 1.1072253 -0.48448193 1.5311801 -0.34117508 -1.657136 1.9712768 0.5915638 -0.5128096 -1.2565883 0.5637422 0.94948024 -0.79488724 0.11837716 -0.66759306 -1.8159719 -2.292114 0.36250722 -0.95302004 0.18787341 -0.01604873 0.31722564 -0.8486645 -0.8317449 -0.34210342 1.5682218 1.2981365 -0.6478501 1.2498597 -1.2882309 -0.7559753 -0.26372606 -0.67009515 -0.17806862 1.2865877 0.48188925 -1.4137763 -0.116621554 0.9951045 -0.892036 -0.6255476 -0.92814004 -0.7624087 -1.57453 -1.697904 0.1607937 -2.0410135 -0.7455935 0.58302426 -0.000653414 -0.12887904 -0.9070394 0.06975637 0.29895663 -0.93115586 1.0192169 -0.68057895 2.4357247 0.12568891 -1.0418905 1.7322528 -1.1171008 2.4297013 1.0278993 0.3787035 -1.3727031 -0.3854649 -0.12779737 -0.7373498 -0.9748848 1.6738607 -1.4253811 -1.6329577 -0.9475196 1.3208164 -1.643923 -0.76111615 0.68764055 -0.4817076 0.31690452 -1.2383068 -0.19594292 -0.056708124 0.8176001 1.578148 0.5265512 1.7416928 0.6714529 0.23483229 -1.424092 -1.1804311 0.3652789 -0.37234294 1.8689002 -1.6606839 1.2392944 1.4246149 -1.2800936 -1.0604286 -0.5765427 -0.46041667 0.9360351 -1.1719198 0.22530359 0.9862852 -0.6714379 1.1125064 0.61885387 -1.5972551 -1.759786 0.728343 0.9524338 1.1208696 -0.027563348 -1.27343 -0.5932261 -0.93956864 1.0320901 0.6710529 -1.6784598 1.8760071 0.6222004 0.54250664 2.0209067 -1.39268 0.7064982 0.81037617 -0.008423916 1.1639401 2.6167574 1.1359568 -0.7053051 1.3824515 -0.61696273 -0.6663502 -0.81941056 -1.1445912 -2.0295815 0.95643747 0.19489987 1.048472 1.3736483 0.7340919 -0.75567704 -1.554605 0.4825497 0.58879894 -0.9859184 -0.32923198 0.08663209 1.1304933 -0.46055123 1.2430087 1.2889625 -0.11997093 -0.5310572 -2.2690368 0.38860402 -0.2714296 -0.6557904 0.4607741 1.633956 -0.14609315 -0.4777642 0.1404973 0.37273508 1.052003 0.12704648 -0.535594 -1.5989226 -0.45897186 -2.037319 -1.1410421 1.2034234 -0.99074364 -0.2706136 1.2858605 -1.1245346 -2.3122385 1.2510979 0.5204386 -0.13035469 -1.586568 0.17379954 -0.7211839 2.0092971 1.4758334 0.6558368 -1.422079 -0.5072172 0.8320761 -0.03824316 -0.6241842 -0.79574627 0.13299124 -0.2515781 -0.9530324 -0.6171109 -0.9915635 -0.81882644 -0.64561385 0.79253364 0.09565779 -0.8966238 -0.526609 -0.089331314 1.4963688 1.1957909 1.1089003 -0.623879 0.62536424 1.3849188 -1.3945736 0.35207006 1.2133613 0.6803914 -0.52538484 -0.512348 0.79326046 -0.70086205 -0.06571358 2.4878583 -1.6739589 0.25234458 1.0343176 0.42206803 -0.92589444 -1.0349077 -1.1245564 0.43447438 0.5196099 -0.6094292 -0.005355986 1.7019486 -1.9178609 -1.0026459 -0.9064711 1.7850162 -1.0437642 -0.63071585 -0.63939035 -0.5388991 2.2039979 1.0220748 -1.2163833 1.1975523 0.26500213 2.074735 0.73394006 0.36968327 -2.3869815 1.7188574 0.58488 -0.34142843 -0.0069351555 -0.40566438 0.72066545 -2.1136558 2.8559818 -1.2183317 0.5095241 0.83929634 -0.81214374 2.3475595 0.9028024 1.308534 -0.929444 -0.015506997 -0.7433764 0.27850085 -1.1171159 -1.7305489 1.1866726 0.19595167 1.4904666 0.84587663 1.7335508 -1.5971788 0.35219088 -0.27636206 0.47123212 -1.5420104 -0.1593397 -2.0606663 -0.85760987 -0.26564142 -1.2797632 0.9945274 -0.52641255 2.0509667 0.22560851 2.1190596 -1.1707793 -0.35502243 0.17246456
INS_TypeLiteral_ReturnStatement -0.0 -0.0 0.0 -0.0 -0.0 0.0 0.0 -0.0 0.0 -0.0 0.0 -0.0 0.0 -0.0 0.0 -0.0 -0.0 -0.0 -0.0 0.0 -0.0 -0.0 -0.0 0.0 0.0 0.0 0.0 0.0 -0.0 -0.0 -0.0 -0.0 -0.0 0.0 0.0 0.0 0.0 -0.0 -0.0 -0.0 0.0 0.0 -0.0 -0.0 0.0 0.0 0.0 0.0 -0.0 -0.0 0.0 -0.0 0.0 0.0 -0.0 -0.0 -0.0 -0.0 -0.0 -0.0 -0.0 -0.0 -0.0 0.0 -0.0 0.0 -0.0 0.0 0.0 -0.0 -0.0 0.0 0.0 -0.0 -0.0 0.0 -0.0 -0.0 -0.0 -0.0 -0.0 -0.0 0.0 -0.0 0.0 0.0 0.0 0.0 0.0 -0.0 -0.0 0.0 0.0 -0.0 -0.0 0.0 0.0 -0.0 -0.0 -0.0 0.0 0.0 0.0 -0.0 0.0 -0.0 -0.0 0.0 0.0 -0.0 0.0 -0.0 0.0 -0.0 -0.0 -0.0 -0.0 0.0 0.0 -0.0 -0.0 -0.0 0.0 -0.0 -0.0 -0.0 -0.0 0.0 -0.0 0.0 0.0 0.0 0.0 -0.0 -0.0 0.0 -0.0 -0.0 0.0 0.0 0.0 -0.0 -0.0 0.0 -0.0 -0.0 0.0 -0.0 -0.0 -0.0 -0.0 0.0 -0.0 0.0 -0.0 -0.0 -0.0 0.0 0.0 -0.0 -0.0 -0.0 0.0 -0.0 0.0 0.0 0.0 -0.0 -0.0 0.0 -0.0 0.0 -0.0 0.0 0.0 -0.0 -0.0 0.0 0.0 0.0 -0.0 0.0 -0.0 -0.0 -0.0 -0.0 0.0 0.0 -0.0 0.0 -0.0 0.0 -0.0 0.0 0.0 0.0 0.0 -0.0 0.0 0.0 -0.0 0.0 -0.0 -0.0 -0.0 -0.0 0.0 0.0 -0.0 0.0 -0.0 0.0 -0.0 -0.0 0.0 -0.0 -0.0 -0.0 0.0 0.0 -0.0 0.0 0.0 0.0 -0.0 0.0 0.0 -0.0 0.0 -0.0 0.0 0.0 -0.0 -0.0 0.0 0.0 0.0 -0.0 0.0 0.0 -0.0 0.0 -0.0 0.0 -0.0 0.0 0.0 0.0 -0.0 -0.0 -0.0 0.0 -0.0 0.0 -0.0 0.0 0.0 0.0 -0.0 -0.0 -0.0 0.0 0.0 0.0 0.0 -0.0 0.0 -0.0 0.0 0.0 -0.0 0.0 0.0 -0.0 -0.0 -0.0 0.0 0.0 -0.0 0.0 0.0 -0.0 0.0 -0.0 0.0 0.0 -0.0 -0.0 -0.0 0.0 -0.0 -0.0 0.0 0.0 -0.0 -0.0 -0.0 -0.0 -0.0 -0.0
MOVE_CreationReference -1.0973408 0.031530894 1.1637266 0.5799845 0.50320643 -1.2215143 -0.3572558 0.9396941 0.36676157 -1.1572195 0.46663508 0.59476113 -0.20890452 1.0032572 -0.15408431 -0.382941 1.2413504 -2.0265508 -0.6719 -0.93673754 -0.46853203 -1.17822 0.6322504 -1.4345278 -0.30124772 -1.01905 0.49199182 0.3903131 1.4112656 0.9149538 0.99852836 0.25165054 -0.69409597 -0.48722902 -1.9007283 -0.7730343 0.687002 0.13269284 0.6196245 1.155188 -0.55072975 -1.6851361 -0.11372069 -0.6853553 0.47156492 -0.9389751 0.5628856 -1.1960475 1.3780957 -0.6785945 -0.72109824 -1.0368338 -1.0016267 1.2562835 0.36361355 -0.92350125 1.2499025 -1.2715458 -0.42990425 0.062172182 -0.83030766 0.5333691 0.4925993 0.23247887 -0.21415178 1.0576712 -1.5220908 -0.851653 1.0501068 -0.38612682 0.11314502 0.050754532 1.054787 0.36019158 -0.67333335 0.63984954 -1.44613 0.42629406 -1.0715194 -0.07360143 1.2859985 1.1742816 1.0055933 1.2817203 -0.24413691 0.5198451 1.1744648 -0.5071068 0.19248866 1.2865288 1.3938724 -1.5527779 0.16319308 0.48179078 -0.7873939 1.3195325 -0.44742718 -0.3382379 0.10331835 0.72604203 0.058466926 -1.5190191 -0.44047043 0.4235866 0.99075335 0.053269092 -0.6011409 -0.14518009 1.0785096 -0.1251308 -0.10119018 1.3444575 -0.7936901 -0.43987462 0.044415448 0.55548346 -0.09286434 -0.5031727 -0.72177005 -0.23688939 0.18786138 -0.7371003 -1.6103889 0.7151707 -1.0607606 -0.47125298 -1.3200136 0.18891555 1.3739891 -1.4303972 -1.423063 -0.93519694 -0.45084232 -1.4937941 -0.15256928 -1.5529965 0.6936877 0.5751703 1.9289227 -0.42752594 -0.00051221607 -1.2238802 0.68732387 0.92509985 0.33991954 0.8670476 -0.6084087 -0.11489271 0.5436892 0.58368975 0.39314884 0.39073896 -0.99123895 0.18649219 0.282134 1.054208 -0.019773085 0.42984763 -0.6983087 0.47451714 -0.40752655 -0.6610487 0.14643314 -0.13913901 0.4637435 0.65269434 0.81333435 0.14736369 -1.0389243 0.7779098 -0.1043598 0.70866865 -1.1928685 0.17060247 -1.2307605 0.09737393 -0.9809217 1.0071112 0.2576812 0.11863016 -0.5071794 -0.06988529 -0.033346783 -0.120497204 0.89546293 -0.09882108 -0.6608203 0.11211278 0.19134061 0.015711488 1.4697561 -0.037702303 0.54582304 1.654351 -0.052687325 -0.5891334 -0.90507036 -0.6973333 0.78264534 -0.5755655 0.6015695 -1.1108856 -0.72176296 -0.34793103 -0.7699737 -1.021334 0.15407392 0.7892102 0.41841874 0.07932228 1.1304512 0.464564 1.2430638 -0.9290855 -2.1496959 0.0061276834 0.54378635 -0.19983017 0.43056384 0.083195165 1.5314922 0.47517517 0.2732468 0.016290622 0.8837374 1.3762457 -0.7403861 -1.1061685 -0.054038092 0.62740105 -0.11815246 -0.888907 -1.2000211 0.64280677 -0.7971074 -0.55616033 -0.49917296 0.034123145 0.8584856 1.5570877 0.6097511 -1.2302811 -1.300139 -1.5401677 -0.39323965 0.17104474 -1.189351 0.83637315 -1.0925592 -1.8800689 -1.3947756 -2.0180693 0.17508101 1.267243 -0.84297943 2.0598643 -0.5895473 -0.9508166 0.2722598 -0.64483726 0.0780067 -0.67036843 0.3883701 -1.2083567 -0.019837843 0.235056 -0.8625156 -0.7991644 0.76320106 -0.74709123 -0.74223286 -0.19516975 0.30004108 -0.9493275 0.9658551 0.13325635 1.0737062 0.15179035 0.116993174 -0.43425816 0.32505515 -1.2524934 -1.2060939 -0.6177506 0.6223669 -1.018059 -1.2895335 1.4141068 0.4992065 0.75684863 -0.046162378 -2.0961914 -0.37097368 0.2915324 -0.885534 -1.0569094 -0.19753145 -0.27927417 -0.96855164 0.376259
INS_ImportDeclaration_CompilationUnit -0.0 0.0 0.0 -0.0 0.0 -0.0 -0.0 -0.0 0.0 -0.0 -0.0 0.0 -0.0 -0.0 0.0 0.0 0.0 0.0 0.0 0.0 0.0 -0.0 0.0 0.0 0.0 -0.0 0.0 0.0 0.0 -0.0 -0.0 -0.0 -0.0 -0.0 -0.0 0.0 -0.0 0.0 -0.0 0.0 0.0 0.0 -0.0 0.0 0.0 -0.0 0.0 -0.0 0.0 -0.0 0.0 0.0 -0.0 0.0 0.0 -0.0 0.0 0.0 -0.0 0.0 -0.0 -0.0 0.0 -0.0 -0.0 -0.0 0.0 -0.0 0.0 0.0 -0.0 -0.0 0.0 -0.0 0.0 -0.0 0.0 0.0 -0.0 0.0 -0.0 -0.0 -0.0 -0.0 0.0 -0.0 0.0 0.0 -0.0 -0.0 0.0 0.0 0.0 0.0 0.0 -0.0 -0.0 0.0 0.0 -0.0 0.0 0.0 0.0 -0.0 0.0 0.0 0.0 0.0 0.0 -0.0 0.0 -0.0 0.0 -0.0 0.0 -0.0 0.0 0.0 0.0 -0.0 -0.0 0.0 -0.0 0.0 0.0 0.0 -0.0 0.0 0.0 -0.0 0.0 0.0 0.0 -0.0 0.0 -0.0 -0.0 0.0 -0.0 0.0 -0.0 0.0 0.0 -0.0 -0.0 -0.0 0.0 -0.0 -0.0 -0.0 -0.0 -0.0 0.0 -0.0 -0.0 0.0 -0.0 -0.0 0.0 0.0 0.0 -0.0 -0.0 -0.0 0.0 -0.0 0.0 -0.0 -0.0 0.0 0.0 -0.0 0.0 0.0 -0.0 0.0 -0.0 -0.0 0.0 -0.0 -0.0 0.0 0.0 -0.0 -0.0 -0.0 -0.0 0.0 -0.0 0.0 -0.0 -0.0 -0.0 0.0 -0.0 -0.0 0.0 -0.0 0.0 0.0 -0.0 -0.0 -0.0 0.0 0.0 0.0 0.0 0.0 -0.0 0.0 -0.0 0.0 0.0 -0.0 -0.0 -0.0 0.0 0.0 0.0 -0.0 -0.0 0.0 -0.0 -0.0 0.0 -0.0 0.0 0.0 0.0 0.0 -0.0 0.0 -0.0 -0.0 -0.0 -0.0 0.0 0.0 -0.0 0.0 0.0 0.0 0.0 -0.0 0.0 -0.0 0.0 0.0 -0.0 -0.0 -0.0 -0.0 -0.0 -0.0 0.0 -0.0 0.0 -0.0 0.0 -0.0 0.0 -0.0 -0.0 -0.0 0.0 -0.0 0.0 0.0 0.0 -0.0 0.0 0.0 0.0 0.0 0.0 -0.0 -0.0 -0.0 0.0 -0.0 0.0 0.0 -0.0 -0.0 0.0 -0.0 -0.0 -0.0 -0.0 -0.0 0.0 0.0 -0.0 0.0 0.0 0.0 -0.0 -0.0 0.0 0.0
INS_TypeDeclaration_TypeDeclaration -0.1260913 -0.91166496 0.13375959 0.50786513 0.3005256 -0.6235559 0.23762786 0.5445957 -0.6276997 -0.36692047 -0.6481903 -0.76111084 0.38552147 0.52272284 0.35999465 0.28365022 0.6825414 -0.46540755 0.4836725 0.084803574 0.6362168 0.007034913 -0.5908621 -0.604609 0.5421476 0.14932723 -0.7414801 0.17944835 0.33236572 0.15896976 0.80705494 0.46092102 -0.6649 -1.144985 -0.6291688 -1.3087928 -0.48157606 -0.40631047 0.048565634 -0.5413492 0.037503887 -0.37023443 0.09825714 -0.049757913 -0.12520137 0.30451053 0.7679415 -0.36785546 0.4185159 0.33928475 0.10836777 0.9084709 0.56769407 0.6016232 -0.5887939 -0.5975107 0.6710115 0.5484132 0.5417579 -0.17843008 0.5091733 0.51529324 -0.5495678 0.11423052 0.29393318 -0.16552241 0.41119152 -0.04664402 -0.47488108 -0.053886235 -0.41754067 -0.41849154 -0.40440497 0.19351752 0.08351317 0.27008104 0.8239821 0.448548 0.41964534 0.7969112 0.3970665 -0.27187935 0.41904598 0.23375784 0.14140473 -0.11331451 -0.081569985 -0.042112343 0.13877977 -0.88473517 0.42307386 0.49559906 -0.0140855 0.7084423 0.20922588 -0.17031552 -0.5586389 -0.25953853 -0.05906781 -0.47950462 0.630802 0.7297194 0.066368625 -0.07032667 -0.40768266 -0.3597865 0.543723 0.25009626 0.6685109 -0.02792359 -0.26199046 0.42966285 -0.23853727 -0.47274876 -0.4771686 -0.38103166 0.21430035 -0.27052882 -0.07677295 -0.42465487 0.6614668 -0.28301555 -0.11558803 0.7280236 -0.12286295 -0.66119444 -0.57073456 -0.099879585 0.43678978 0.69278234 -0.8334419 0.58867127 0.34157622 -0.24814287 -0.1237827 0.20956069 -0.547541 0.074661195 0.5368168 0.91517603 0.6901492 0.43965036 -0.7629301 0.01727437 0.5877661 -0.3007898 -0.47575483 -0.96341735 0.5747948 -0.0065273806 -0.2114091 -0.2977891 -0.7815502 0.7674804 -0.5292985 0.113106936 -0.73824763 -0.3896935 -0.17051442 0.6796478 0.23321146 0.40466088 0.5890978 0.083145864 -0.025790159 -0.22765882 -0.62551206 -0.36954615 0.44816184 -0.60584587 -1.1176555 -0.33021405 0.38736406 0.33594272 0.23834851 -0.62515336 0.79059803 0.41072148 -0.92134446 0.6912617 -0.8610007 0.21521744 -0.16004586 -0.7573989 0.3626703 -1.1240675 0.5501893 0.15815929 -0.6152642 -0.27885908 0.08881819 -0.20900205 0.48759007 0.31632155 -0.43944576 0.77524674 0.55496264 0.2735646 0.2090273 -0.056901686 0.4716805 -0.110976405 0.2667268 -0.779287 0.90163755 0.5611435 -0.18134907 0.5489421 0.12444556 0.31909254 0.9157708 -0.52710956 -0.03654378 0.4272435 -0.23226199 0.4442491 0.58336836 -0.35335797 -0.5510052 -0.90971905 -0.09951835 -0.31367263 0.4510263 -0.59456074 0.3570107 -0.1809275 -0.72434825 0.36607474 -0.2216825 -0.48179287 0.20794515 -0.60753876 -0.27131456 0.5784972 -0.11457556 -0.40679973 0.022913825 0.28429392 0.29022083 0.761289 0.49392486 0.44461253 -0.41260463 -0.5753417 -0.636712 -0.86447424 0.024922995 0.15978524 -0.22196509 -0.43086663 0.59771883 0.047730304 -0.5803095 -0.3885168 0.05643111 -0.46509087 0.21678367 -0.3835717 0.044008456 0.45956525 -0.17195582 0.008609226 -0.40545103 0.2177575 0.13771504 0.415211 1.0206308 -0.4598871 -0.47097185 0.22193396 -0.52372766 -0.13235727 0.009769546 0.6187568 0.6349257 0.18869574 0.40532964 -0.04772401 -0.7511371 -0.040375344 -0.63761705 -0.13921791 -0.17586635 0.6780554 -0.9338778 -0.0970643 -0.56119853 0.6428925 -0.0939443 0.004131494 -0.5402165 -0.55870366 0.42565852 -0.029093754 -0.47882104 0.3945231 0.21540885 -0.29581043 -0.6037549 0.39593178
INS_MethodInvocation_VariableDeclarationFragment 0.2464127 -0.67675835 0.78081405 0.6252238 0.028814554 -0.6035571 -0.26626742 -0.75317645 0.5334594 -0.098823115 0.26939625 -0.31490916 0.34581596 -0.11907016 -0.35806772 -0.20154282 -0.060223494 0.7332438 1.1388055 -0.13742453 -0.59650284 0.46134108 0.37365878 0.15404962 0.24012458 0.8779622 -0.88802534 0.19281039 -0.020103853 -0.030800682 -0.53639317 0.10123479 0.32151103 -0.48730645 0.10294719 0.3329469 -0.58435357 -0.56214696 0.7334099 0.271173 -0.2219449 0.010712662 -0.39958298 -0.2611472 -0.022046447 -0.68188757 0.5025518 -0.11864499 -0.19937286 -0.026896086 0.67434967 -0.009575573 -0.79611605 -0.20133936 -0.16044272 0.045237966 -0.45307243 -0.8551246 -0.35675925 0.2202363 0.43726206 0.36719012 -0.24648869 0.21467929 0.7846865 0.63760483 -0.0073319534 -0.6551879 -0.44366583 0.5818182 -0.5989699 1.0014516 0.4021624 0.2630597 0.547724 -0.46281832 -0.25865653 -0.7048357 0.3490723 0.44258493 -0.3020852 0.102737926 -0.35546762 -0.26227 0.39766982 -0.5901027 0.3293745 -0.6008884 -0.6022649 0.19376767 -0.10207849 0.4469626 0.39891386 0.71173066 0.6348095 0.28230768 0.49052942 0.3035158 0.470271 0.69711876 0.22790645 -0.36224365 0.46234655 -1.0177679 -0.50187945 0.36671737 -0.8565611 0.067566566 -0.55388933 0.19888678 0.30796447 -0.21763302 0.25698262 -0.5669943 0.6884763 -0.49965128 -0.5764388 -0.5873694 -0.77632666 -0.7396445 0.66019464 -0.34739593 -0.09765451 0.86313057 0.16158529 -0.27815595 0.4498371 0.255534 0.3333485 -0.1512724 0.5888652 0.15131053 -0.31350514 -0.6625311 0.18640737 0.41293392 0.15414049 -0.36759105 -0.060086254 -0.111181624 0.35721427 0.23663463 -0.4842314 -0.49993637 0.7299702 -0.22375481 0.62724835 0.39638862 -0.8259794 0.33379924 -0.30226696 -0.46382084 0.4311371 -0.48282915 -0.30980217 0.470956 -0.65127945 0.5361037 0.50548846 0.62556183 -0.45509213 -0.11354415 -0.7154427 0.13022085 -0.13522686 -0.34544447 -0.6049556 -0.6625839 0.1516552 0.30170414 0.043232854 -0.57251155 0.7699937 -0.38982645 -0.40143076 0.49139842 -0.3907161 -0.14997011 0.44477493 -0.43585226 0.69791716 -0.56388754 -0.078643605 -0.124304555 0.50774074 0.66686696 -0.4994736 -0.6443372 0.09001271 0.11974559 0.31709883 -0.38136697 -0.28651413 0.6560967 -0.18887521 0.60945964 -0.045632698 0.7403178 -0.16391557 0.5536222 0.07803356 0.14979483 0.5780084 0.719242 0.4355672 -0.071592666 -0.29265052 0.42776302 0.36349225 -0.32589346 0.60957783 0.62510616 0.48899505 -0.1840599 0.5208354 0.23687305 0.46933442 0.6702733 -0.40819424 -0.67631096 -0.5029842 -0.15128349 0.45334318 -0.1008818 0.48635915 -0.07492627 -0.3984978 -0.3474713 -0.4740055 0.50378513 -0.40070924 0.3301556 0.6484924 -0.58671707 -0.44631007 -0.09037645 -0.44554594 -0.4634136 -0.07562292 0.5055338 0.47238365 -0.024976294 -0.5918437 0.40392575 0.8264986 0.56379634 0.9117016 0.2391306 -0.5291821 0.36735314 -0.46833935 0.2565667 -0.22497275 0.61669713 0.57711387 -0.63719106 0.2998475 0.026793746 -0.14004602 0.64436203 -0.7010752 -0.64165366 0.7342562 -0.013016453 -0.14550433 -0.44090077 -0.7188548 0.5764619 -0.46354058 0.16387688 -0.2051488 0.1200744 -0.40437508 0.5628026 0.28869364 0.14111754 0.40272596 0.2965319 -0.22558413 0.86046255 0.09090864 -0.23774819 0.2834823 0.23015127 0.24212171 0.2252337 -0.29649052 0.6950986 0.4466641 -0.44910687 -0.61317986 -0.23871355 0.249738 0.19358104 0.8045576 0.530897 0.85812575 0.21120699 0.083974995 -0.3125564
INS_SimpleName_MethodDeclaration -0.3668682 0.5273435 0.13392432 -0.08929864 0.51798934 0.46395987 0.21139236 0.22914119 -0.034689005 0.5040676 -0.15420061 -0.16308378 -0.1360838 -0.35248435 0.7154452 0.23589996 -0.9370807 -0.60149586 0.4859962 0.3141778 0.7941442 -0.23457818 0.027450046 -0.6024637 0.3004569 0.041088056 0.90346664 -0.16497524 0.09555739 -0.12836443 -0.34976196 -0.1581421 -0.38478935 0.7223646 -0.11496243 0.8458141 0.87668884 0.29972184 -0.38909593 0.81950396 0.43128565 -0.33341357 -0.044571523 0.32002997 0.6559431 0.31133777 -0.14145909 -0.46447146 0.2899989 0.5925656 -0.104544945 0.71824795 -0.055728797 0.6003717 -0.84879684 0.62577623 -0.41379255 -0.52055573 0.21719241 0.11110441 -0.3423579 -0.23652636 0.12778193 -0.05126494 -0.35896933 0.36496052 0.07656597 -0.62876767 -0.22804198 -0.856264 -0.17398286 -0.1123887 0.70400643 0.11882317 -0.9736157 0.04637426 -0.16478622 -0.21789663 0.19108701 0.46553123 -0.41095722 0.59847283 -0.6652024 0.5608649 -0.655293 -0.56250024 0.7909573 0.11078242 -0.17687185 0.6078475 0.013136727 -0.4191482 0.25352475 0.11121247 0.53894305 0.31518403 -0.70891374 0.66960025 -0.28228214 1.046269 -0.5217384 0.16532902 -0.221816 -0.0975331 -0.3411534 -0.3032902 0.43328354 0.10635946 -0.48175865 0.65065515 -0.14855252 0.23523243 -0.01702478 0.59241205 0.45210788 0.49674824 -0.055907834 0.426564 -0.5823839 -0.13162753 -0.5165125 0.37113228 0.26187885 0.511798 0.51193184 -0.49357826 0.7818357 0.052903157 -0.3477397 -0.54719573 0.4497534 -0.18211563 0.47870144 0.08496825 0.45758048 0.3105128 -0.5959377 -0.69431937 0.16849713 -0.6398473 0.58291245 -0.95499027 -0.29127315 0.62301445 0.5460323 -0.8562498 -0.27083257 0.2459339 -0.83599985 0.11785362 0.6534539 -0.62032914 0.8171986 -0.47957957 -0.17114511 -0.8835693 0.06220838 -0.4328508 -0.53244656 0.3101408 0.82474756 -0.33023486 -0.4661315 -0.6365639 -0.40716282 -0.062012453 -0.24719992 0.27975613 0.44981882 0.08334249 -0.8028584 -0.26381227 0.53579605 0.15712929 0.05419744 0.38300914 -0.6377117 0.52825165 0.07531246 -0.6549058 0.4780362 -0.076748714 0.25996897 0.2574792 0.21355547 0.2211265 -0.7214845 0.011517196 0.44403785 -0.7793594 0.14872101 0.38208732 -0.4853713 0.31145522 -0.718654 -0.7251962 0.5846841 0.40871003 -0.042875428 -0.74608296 0.109384805 0.21444649 -0.29412758 -0.66792285 -0.2429992 0.8236515 -0.0108511625 0.33911332 0.26512015 -0.21644802 0.072474256 -0.18841374 0.55794567 -0.016923202 -0.083102256 -0.0026556288 0.4534133 0.98474073 0.24759242 -0.08560015 0.27503628 0.10292697 0.32414034 0.6525088 -0.98670363 0.5427231 -0.124757215 0.042829387 0.28648978 -0.19004934 0.14682993 -0.06328514 0.1276037 -0.49080223 0.34418952 -0.42978325 -0.3507864 -0.05772871 0.729703 0.9368018 0.00660725 -0.723047 0.17002328 0.08354379 -0.27939543 -0.76205534 0.83970356 0.6006391 -0.2894084 -0.26922977 0.101950884 0.14241831 0.19952825 0.24117188 0.31802744 -0.886766 -0.36667877 0.30243847 -0.02399194 -0.533545 -1.022869 -0.7632938 0.2752948 -0.3581414 0.5081895 -0.6453482 0.42766193 0.6995386 0.059991732 -0.47751352 -0.18552305 -0.19156152 0.82311517 -0.023228092 -0.42328957 -0.45119748 0.1570415 -1.0359466 0.35819867 -0.50803214 0.11836071 0.2489802 0.5828026 -0.59223413 0.23231749 -0.6127059 -0.29176405 -0.8610666 0.45363697 -0.13711037 -0.21234785 0.41212422 0.51455414 0.8466927 -0.91769564 0.18143971 -0.21625896 0.6077537 0.08951684 -0.34811023
DEL_MemberValuePair 0.05765564 -0.7149319 -1.5535764 0.07294652 -0.8293351 0.30668893 0.29110226 -0.20458427 -0.41515785 -0.89202887 -0.6892028 1.0595186 0.098348506 -0.16653557 0.58654845 -0.5712051 0.3920287 0.14036225 -0.6758659 0.92229414 0.341381 1.5044422 0.6154736 0.6807286 -0.7734827 0.087705486 -0.7741866 -0.47274026 0.8388615 -1.2110732 -0.38403544 0.10014874 -0.43522093 0.07075877 0.21655299 1.2074364 -0.28555596 0.1773356 0.32886636 -1.209342 0.8857681 0.090479776 -0.0676783 0.44783476 -0.08921818 0.17765841 0.76517147 -0.010484702 -0.56929016 0.24835065 -0.097168766 0.86771727 -0.20985053 -1.1069945 0.8676196 -0.69563276 0.83033043 -1.1560099 0.71279734 -1.1491826 -0.3501795 1.012137 1.3434434 1.0517321 0.26867273 -0.6727154 0.5359504 0.7754173 0.3995948 0.19042955 0.45290703 -1.0419712 -0.46397793 -0.56125814 -0.75950766 0.33504036 0.5964069 -0.5361995 -0.51596445 -0.4726984 0.011358909 0.57278997 -1.3048888 -0.3151885 0.88460034 0.960228 1.2105483 -0.20199771 0.3914958 -0.57614666 -0.5544102 -0.766275 -0.76248825 0.9438905 0.22266966 -0.08697138 0.90661705 0.52608776 0.17684187 -0.9234122 -0.1405373 -0.32580096 0.8630267 -1.1884443 0.25914922 0.48413324 -1.2899281 0.3317996 1.1674327 -0.50936943 -1.250958 -0.30961424 0.079916686 -0.1817908 1.1228936 0.79166573 -0.9138778 0.39532694 1.6053773 -0.85202575 0.7990083 1.004851 0.11775835 0.8302102 0.32094398 -0.86168057 0.6597263 0.83647954 -0.1675869 0.25815684 0.51181656 0.8744368 0.11377445 1.1245087 0.13995 1.1122348 -0.9616946 0.30210394 -0.54992294 -1.0187478 1.0657675 0.75299436 0.444732 -0.37034753 -0.21240899 -0.4145426 -0.37904543 -1.0421879 0.15298076 -1.0905815 -1.1804178 0.20165657 0.2253849 -0.015670966 -0.53748953 0.19742863 0.049312428 0.94963646 0.84594905 0.9957928 -0.54147595 -0.93251693 -0.36219317 -0.04025305 -0.08073562 0.49488047 0.76691633 0.32866016 0.47899583 -1.3489003 1.1720299 0.27317163 0.4209134 0.26569122 0.3189421 -0.20299096 -1.1778785 -0.9909998 -0.33811873 0.115695655 0.5696922 0.16615832 1.0506096 -0.05407332 0.02618006 0.3174443 -0.18175797 -0.32418263 -0.5103376 -0.08690153 0.508325 -0.43790716 -0.05579053 0.496258 0.79123986 -0.37025946 1.3429493 -0.20285417 -0.31579396 -0.6733517 -0.66705394 0.7255996 -0.7554137 0.9222839 0.17268807 0.56655926 0.056608927 -0.05871693 0.29805267 0.17995082 0.03751741 -0.0036318868 -0.05998401 -0.5350003 -0.905135 -0.0918544 -0.6760052 -0.13831119 -0.5887479 0.93718827 -0.048700407 0.34422013 0.5808848 0.5558745 0.50535476 1.0819625 -0.054676905 -0.4973106 -0.5097549 0.8751242 -0.08049332 0.46184713 -0.4350074 0.89732325 0.24733503 -0.4997714 0.2691511 0.29482943 1.2501743 0.38803068 0.5715831 0.8476952 -0.031946007 1.1888043 1.2337089 0.64317435 -0.7155431 0.11736306 -0.49885187 -1.2412955 -0.6879366 0.93387663 0.9768143 -0.33832422 -0.1597639 1.0938394 0.7950036 0.80755365 0.29694742 0.85868925 -0.41188145 0.6981432 0.53448594 -0.096534796 0.1732373 -0.84529567 -0.7770877 -0.6666092 0.42275527 0.14177734 -0.1358399 0.569692 0.05515581 -0.2785824 -0.022480551 -0.25199354 0.91102517 -0.59919935 0.44101554 -0.6786722 -1.148465 -1.1976229 -0.18321618 0.2538394 0.51555806 -1.3205962 0.6890213 -0.30225796 0.9222558 -1.0323989 0.6290751 -0.9890847 -0.84745973 -0.41964442 -0.9400765 -1.2428379 -0.94605035 0.21396391 0.056824982 -0.80732286
INS_ParenthesizedExpression_ClassInstanceCreation 1.5437486 -0.66262436 0.7277852 -0.20784748 1.2044749 0.33033514 -0.61189234 -0.9510927 -0.2846152 0.67909336 -1.3550274 0.10777575 0.12545371 0.81660795 -0.14000332 0.2724988 -0.13957962 0.32086518 0.85498023 1.9522629 -0.57593024 0.23389779 0.31038207 -0.8080303 -0.49176008 -0.8932644 -1.481781 0.5815391 -0.6643701 0.41820207 -0.5842606 0.62875503 -0.93700117 0.053599145 -0.385933 -0.5663895 2.1060078 -0.4627626 -0.61654794 0.9459956 -0.11596691 0.81021994 1.3529147 0.539603 -0.8999287 -0.1874137 0.52229816 0.08866364 1.3191334 -0.8023843 -1.8636 -0.18603244 -0.47498563 1.1539824 1.8173195 -0.9008776 -1.2224311 0.9422328 0.80793804 -0.8265852 -0.27006057 1.4690466 0.6652478 -0.027316531 0.7664812 -1.3359594 -0.971632 1.6357559 -0.059160315 0.7500559 1.0000137 -1.0693289 -0.5201776 -0.96054107 0.2078419 0.29783878 -0.73040044 -0.057470743 1.4376549 0.88054764 0.81038135 -1.8943039 1.9613887 0.7649641 0.14259087 -0.94128734 -0.49081433 -0.3635549 -2.0867763 -0.21838729 -0.7780513 0.77255756 0.8493589 0.07375353 -0.4736194 -0.6377209 1.5525942 0.651721 -0.36309183 1.1044319 1.1959685 -1.1849998 1.4601334 0.39194438 -0.947232 1.8971971 -1.4430445 1.0168881 -0.52604073 -0.9602532 -1.0286425 0.7546467 1.2194399 -0.58554983 0.5337428 1.565029 -1.0488579 -0.8264143 -0.61942613 -0.1029712 0.96817195 -0.49444783 1.5497285 0.6432725 0.522223 -1.0173104 -0.24009518 -1.2650318 -0.8750073 0.8785652 0.15663663 0.30255768 -0.810265 0.26134315 0.7454147 -0.3988077 -1.6802032 -0.62901247 -0.7269545 -0.073240906 0.47028416 0.5023155 -0.07862297 1.4924977 1.9969207 0.048518125 -0.52422786 1.2656382 -0.23411311 -0.7821218 0.27152812 0.5776818 -0.04370632 -0.40437326 0.5376225 0.40164223 0.25968897 -0.29350835 -1.9492171 1.7854738 0.8745732 1.5693685 0.12126701 0.09772164 2.124781 -0.17089415 0.23826481 -0.46117628 -1.1741323 -1.0413744 0.20936348 -1.0954002 0.7586578 0.7155985 -1.1730839 -0.24301277 1.2601079 -1.7522992 0.944067 0.6724933 0.07824809 1.1856915 0.9613488 0.66776973 -0.20037065 0.8290531 1.6418968 -0.065072045 1.6696293 -0.6786347 0.8184447 -0.7146323 0.30208144 1.0112054 0.35443985 -0.7838494 -0.44069576 -0.42227113 -0.34845847 0.5123245 -0.5853064 -0.33829334 -2.0120707 -0.9076351 -0.8031594 -0.5593393 0.3366442 -0.7565263 -0.8514205 1.3476582 0.86924493 0.58643043 0.8169643 1.2371436 -0.56870353 -1.0293792 0.8351036 -0.47487387 -1.2202288 1.5536996 1.722979 0.4523889 -0.38970298 -0.46013364 -0.36025035 -0.18305907 -1.8634341 0.27383137 -0.038747746 -0.2087031 -0.5023961 -1.0563799 -0.2367602 -0.37474507 1.6000763 0.91676116 1.3445635 0.03551711 0.42650053 -0.8759585 -0.9809579 -0.7767204 -0.3230723 0.88282514 -0.11970084 1.981302 -0.57911485 -0.90311027 0.470355 -1.3533623 1.2698948 -0.039077934 1.484073 -0.40107933 0.2529632 0.6260623 -0.9562144 1.2272564 0.47371596 0.922463 0.19907297 0.63324887 0.52626914 0.36329094 -0.25672528 -0.8675942 1.5413357 -0.22495598 0.9517643 0.33435756 0.14584756 1.0182787 -1.6026477 -0.06683324 -1.3984907 -0.24066076 0.74214256 1.202731 -1.5922194 -0.5628695 -0.8803003 0.091092356 0.9827821 -0.71447825 1.0432936 -0.7758067 1.1446629 0.08040829 -0.85935026 -0.35614902 -0.06359887 0.0042383266 -1.0427973 -0.47792906 0.7733122 0.8779434 -0.7382836 -1.0438136 -0.46807998 -1.3329525
INS_PostfixExpression_ClassInstanceCreation 0.0 -0.0 0.0 -0.0 -0.0 -0.0 -0.0 -0.0 -0.0 -0.0 -0.0 0.0 0.0 0.0 0.0 0.0 -0.0 0.0 -0.0 0.0 -0.0 -0.0 0.0 -0.0 0.0 -0.0 0.0 0.0 0.0 -0.0 0.0 -0.0 0.0 0.0 0.0 -0.0 -0.0 -0.0 -0.0 0.0 0.0 0.0 0.0 0.0 -0.0 -0.0 0.0 0.0 -0.0 0.0 0.0 -0.0 0.0 -0.0 -0.0 0.0 -0.0 -0.0 0.0 -0.0 0.0 0.0 0.0 -0.0 -0.0 -0.0 -0.0 -0.0 0.0 0.0 -0.0 -0.0 -0.0 -0.0 -0.0 -0.0 -0.0 -0.0 0.0 0.0 -0.0 -0.0 -0.0 0.0 0.0 0.0 -0.0 -0.0 -0.0 0.0 0.0 -0.0 0.0 -0.0 0.0 -0.0 0.0 -0.0 0.0 -0.0 -0.0 -0.0 -0.0 -0.0 0.0 0.0 0.0 -0.0 0.0 0.0 -0.0 0.0 -0.0 0.0 0.0 0.0 -0.0 -0.0 0.0 0.0 -0.0 0.0 -0.0 0.0 0.0 0.0 -0.0 -0.0 -0.0 0.0 -0.0 -0.0 -0.0 -0.0 -0.0 -0.0 0.0 0.0 -0.0 0.0 0.0 0.0 -0.0 -0.0 0.0 0.0 0.0 -0.0 -0.0 -0.0 -0.0 -0.0 -0.0 -0.0 0.0 -0.0 -0.0 0.0 -0.0 -0.0 0.0 0.0 0.0 -0.0 -0.0 0.0 0.0 -0.0 0.0 0.0 0.0 -0.0 -0.0 -0.0 -0.0 -0.0 0.0 0.0 0.0 0.0 0.0 0.0 0.0 -0.0 -0.0 0.0 0.0 0.0 -0.0 -0.0 0.0 -0.0 -0.0 -0.0 -0.0 -0.0 -0.0 -0.0 -0.0 -0.0 -0.0 0.0 -0.0 0.0 -0.0 -0.0 -0.0 -0.0 -0.0 -0.0 -0.0 -0.0 -0.0 -0.0 0.0 -0.0 0.0 0.0 0.0 0.0 0.0 -0.0 -0.0 -0.0 -0.0 -0.0 0.0 -0.0 0.0 -0.0 -0.0 0.0 0.0 0.0 -0.0 0.0 -0.0 -0.0 0.0 -0.0 0.0 -0.0 -0.0 -0.0 -0.0 -0.0 -0.0 0.0 0.0 0.0 -0.0 0.0 0.0 -0.0 0.0 0.0 -0.0 0.0 -0.0 -0.0 0.0 0.0 0.0 -0.0 0.0 0.0 0.0 -0.0 0.0 0.0 -0.0 -0.0 0.0 -0.0 0.0 -0.0 -0.0 -0.0 0.0 -0.0 -0.0 -0.0 -0.0 -0.0 0.0 0.0 0.0 0.0 -0.0 -0.0 -0.0 -0.0 -0.0 0.0 0.0 0.0 -0.0 0.0 -0.0 0.0
INS_ArrayAccess_SwitchStatement -1.1151806 1.2867388 0.8037558 0.82845056 -1.116448 -1.3429809 0.72784907 0.30606365 -0.77458984 -0.53194356 -0.31682765 1.8825797 -1.0041552 0.46996582 0.44297487 -1.2763112 1.476259 1.7002959 0.26310933 1.3610255 -1.9732769 1.3373203 0.048411064 0.08222601 -0.43522263 0.19214445 0.011691949 0.9773255 1.2253385 -1.3326461 0.9642348 -0.6236462 1.5381314 -0.8697769 -1.471528 -1.4545524 0.5340391 1.1305974 0.71581787 -0.77363324 0.82396233 0.45482445 0.37247124 1.0741411 -0.45353714 1.6563743 1.007449 1.5017389 0.8940894 -1.5686643 0.4898423 -0.51748973 -0.93044466 -0.58318764 -0.80775535 0.45345545 -0.5839313 -1.3800647 -0.43562996 -1.571843 -0.77726454 0.15652047 0.31259423 -0.8942765 1.402778 0.34856087 -0.25178906 0.82525384 -1.3798118 -1.0800617 0.31131 1.0504695 1.2397085 1.7831389 -0.06509206 -1.3346734 1.3206269 1.6002345 0.2310221 1.0684823 0.3551049 -1.1134603 -0.36065936 0.33632106 -1.4134736 -0.22837137 -1.1606377 0.4492561 1.2297252 2.259113 0.37500295 0.91012883 -1.2040329 0.8959286 1.6671911 0.785328 0.6660067 1.3019689 1.058981 -0.0723538 1.3883529 -0.61363816 -0.04673027 0.18071838 0.5328271 0.61070246 0.22814052 1.3686475 -0.004489825 0.08372792 1.4390538 -0.10550237 0.4803213 -1.7351336 1.0382208 1.0924361 0.38350976 -2.230134 -0.021910874 -1.2188869 0.5800349 0.3653869 -1.0088426 0.7956374 0.387071 -0.36109978 0.07468892 1.0662476 -1.6958151 -0.31032625 -0.16481291 0.9424785 -1.5669339 -0.29928657 -0.4134782 -0.6130444 1.1752315 1.3628579 -0.7209985 -1.4025489 -1.1137135 -1.3677902 -1.0230603 0.9773463 -1.2918786 0.8493912 -1.0571467 -0.08372114 0.41648933 -0.7778365 -0.6672863 -0.20992205 -1.3563641 1.6965473 0.23799883 -2.0824378 0.8848675 -0.3281421 0.14586146 -0.45821884 -0.503075 1.1997294 -0.25784072 -0.43275017 -0.79558706 -1.2871939 0.96498734 0.90864575 -0.67369133 -0.07859812 0.071243785 1.3874162 -0.8148118 -0.13242738 -0.70200956 -0.82979685 0.20351988 1.2489837 0.40752134 -1.5167496 -0.7384736 0.9181673 0.5014178 -0.47390568 -1.866938 1.1162937 0.7160503 0.4521473 1.3301219 -1.319952 -1.5299548 -0.6142939 -0.060817786 -1.0814978 0.48914963 0.038245462 -0.5308021 0.5038193 -0.2503557 0.19406812 0.65130925 0.43024763 -0.45234907 0.0879825 0.25835755 -0.98896235 -0.2275897 0.47258008 -0.36010298 0.73176897 1.6005744 -0.78876996 -0.79278326 -1.8598862 1.3653642 -0.8655422 -1.123528 1.2087084 0.5007016 0.74998 0.23638315 -0.33325654 0.2223463 -0.9875034 -0.019749476 1.5539228 0.84805584 0.8921774 -0.071664795 -0.6685075 0.57386154 0.07419007 0.61857826 1.8658457 -2.2447124 -1.1224855 -0.86722046 -1.1125228 -0.33471015 1.2351412 -1.0904241 1.0488669 -0.8685716 0.12963377 0.010509386 -1.4168174 -0.5695036 -1.0203692 0.17091963 -0.60700804 -0.22813784 -0.71890754 1.3075883 0.8602031 1.6914649 -1.2616173 -0.6942668 -1.2734971 0.57737964 -0.6324033 0.526938 0.6825116 -0.13296609 1.0358049 1.6456842 -1.6946555 0.52755153 -0.32588777 -0.5797458 -0.74554443 -1.6106908 -0.7193183 0.11587896 1.0130309 0.34685972 -0.75797576 0.506117 -0.060354408 -0.99895686 -0.116818435 0.92159486 0.650204 1.0136325 0.9592052 -0.60487574 0.5651168 0.35960215 -1.3028039 -1.0988908 -0.17184158 -0.93415564 0.507902 -1.3514199 1.1133846 -0.13929234 -0.018754821 -1.3121145 -1.8314075 -1.6126553 -0.2352566
INS_QualifiedName_SuperConstructorInvocation -0.8480263 0.77807695 0.08527033 0.29522094 -0.5228827 -0.90549237 -0.94783443 -0.015814066 0.32689458 1.1123221 0.045393012 -0.47543684 0.6277008 0.032847937 0.86456597 -0.3436626 0.11183993 -1.2135373 -0.9785283 -0.33344725 -0.22700337 0.49375618 -1.2635131 0.04284319 1.6844952 0.57693154 -0.16790648 -0.08846336 0.4933993 0.4238966 -1.6550426 -0.23794916 -0.0473135 -0.8956772 -1.1032541 1.0102614 -0.05801785 1.3119253 0.47139037 0.47907698 1.0634006 0.6443041 0.57492274 0.81690884 0.1212127 -1.3338921 -0.96725374 -0.9329215 0.4887465 -0.66939545 -0.69478244 1.0828202 0.9871427 -0.4222308 0.3974676 0.27783808 -0.51621145 0.009840552 0.7375122 -0.1545612 -0.84649444 -0.530228 0.36849365 0.5883165 -0.23379003 0.82323056 0.24803025 1.9136566 -0.35009745 1.0684284 -0.24288855 -0.8628972 1.186506 1.1151154 -0.030339045 -0.90802044 -1.5421271 0.96087605 0.34226403 -0.65662223 -0.33182302 -1.1727293 -0.24371204 -0.6046219 0.916234 0.17174874 -0.6228233 0.9220474 -1.1171405 -0.41449904 -0.9196042 -0.5509176 -0.43033206 0.43069842 0.13035983 -0.16122343 0.05415984 0.030738 -0.5995251 -0.6257049 -1.0557792 -1.2741382 0.43250355 0.6585657 0.5407451 -0.38051292 1.0868199 0.48000658 -0.8823016 0.44799918 -0.92353976 0.73174196 0.505666 0.90493935 -1.0550544 -0.70225036 -1.0631539 0.22441302 -0.8071455 0.86783445 -0.8768672 -0.55029726 0.4035745 0.23006362 0.38523006 -0.7378976 -0.03434976 0.3329782 -0.2206136 0.79089254 0.66713434 1.145554 0.19372994 0.74832624 0.012718703 0.13437787 -1.0910583 -0.6973602 -0.404456 -0.38902932 -0.88687426 -0.6774933 0.09875074 0.8407998 0.64082664 -0.004015355 -0.41392702 -0.8197724 0.45288026 0.49725968 1.1709661 0.12116716 0.56451535 0.69132274 0.6354619 0.008531381 -0.49202117 -1.0476829 0.7152069 0.16292106 -0.4441687 -0.39832354 -0.08675966 0.58054155 -0.57973033 0.1037802 -0.65924174 0.11747562 0.22405979 -0.8374518 -0.29676723 -1.2066004 -0.09590246 0.8825869 -0.22933021 -0.9016547 -1.035438 -0.76964533 -1.4399514 0.29306757 1.123324 0.90820944 0.63831496 -0.7083965 -1.388993 -0.87819755 -0.53130364 -0.32126263 0.80684036 -0.28671303 0.20465855 0.3225985 -1.7358432 -1.0572155 -0.23467478 1.1841079 -0.70965356 -0.18277766 -0.007796618 -1.1554487 -0.46720925 0.4544204 -0.356388 0.70597744 0.5884419 0.4292732 0.03890404 -1.4652416 -0.75893945 -0.38762113 -0.37189215 -0.4244023 -1.0561274 -2.276816 -0.104146495 0.006456436 -0.6654258 -0.105902575 -0.34143177 1.1283253 0.82744676 0.31967956 -0.2832104 0.39064643 -0.2322723 0.6952817 0.5141905 0.93527263 0.11401957 1.0949132 0.78569597 0.2707121 0.37408724 -0.49596104 -0.46370837 -0.16306591 -0.8810213 0.5946329 0.8547384 -0.5881173 0.90459377 -0.3533891 0.62941337 -0.008590268 0.943531 1.2770224 -0.23135887 -0.409548 0.23241144 0.60239255 0.5864956 -0.4199923 0.08322974 -0.7510272 -1.3773276 -1.0118705 0.87413883 0.111898854 -0.27729976 -0.07857188 -0.36984357 0.19686522 0.62546295 -0.22518542 -0.4366702 -1.3196098 -0.062184464 -0.6081228 0.10034923 0.38279894 0.57577384 1.4389783 1.1821308 0.59714216 0.99819666 -0.6896825 -0.06073969 0.22081774 -0.70401204 0.45532116 -0.49116278 0.51294315 0.38865522 -0.5257402 -0.51157916 -0.6534088 -0.47008508 0.6603888 -0.29150373 0.041972857 -1.4318908 0.89002746 1.3045679 0.73822105 1.191174 1.2588687 -0.3251373 -0.9005005 -0.5612338 -0.6894614
INS_QualifiedName_ArrayCreation -0.10993099 1.2942917 -0.2953653 0.48952305 -1.1846334 -1.0046847 0.57518786 0.55776644 -1.5539135 -1.0061357 -0.763342 -0.69356275 -1.9938828 -0.116696864 -0.53250456 0.76681936 -0.19334076 -0.70646644 -0.59296054 -0.6592997 -0.2959301 -1.0518999 -0.65977925 0.9314332 1.1578627 -0.36270756 -0.61442685 -1.4479132 0.20318449 0.3560782 -1.0849832 -0.22150066 -0.69567865 1.3653994 -0.05060179 0.21203895 -0.8617619 -0.056652855 0.27879202 -0.3173922 0.9458934 -1.0899445 -0.48965055 0.9506582 -0.53180003 0.38499543 -1.2633802 -0.9060708 0.64468896 -0.75674194 -1.6446348 0.14466567 -0.6692544 -0.6494141 -1.4942421 0.8940159 -0.98614043 1.0990633 0.44345084 -0.9032273 -0.7164139 0.39021164 -0.5803252 0.72310334 0.61530644 -0.3135446 -0.8832133 -0.3930936 1.1404788 0.35593662 0.09966237 -1.0036651 -0.1959898 -0.35091954 0.3411965 -0.1932256 0.8932303 -0.05471995 0.053239487 0.3206828 -0.009764047 0.5578426 1.3579807 1.2688881 0.6096846 0.14509825 1.5589095 0.48620597 0.887203 1.2263151 1.2240059 -0.5918974 -0.4692177 0.8840664 0.9408269 -0.35417017 0.22245039 1.2998797 -0.8455926 -0.5473273 -0.1127151 0.917618 -0.84092396 1.0725408 1.0292256 0.5710657 1.4394348 -1.0408591 0.50519353 0.51431453 0.7917035 -0.87161964 0.0065831016 -0.06715535 -1.2492661 -0.22973408 0.7049931 0.61326915 1.0489715 -0.32975274 -0.9973532 -1.6694463 -1.5017921 0.67065215 -0.92930204 0.20070863 -1.027559 -0.28961462 1.1757183 -0.5404033 -0.7325935 0.27539426 -0.8746139 -0.7417264 0.119609274 0.08798758 0.3823496 -0.18148285 -0.9461373 -1.098033 0.7685405 1.4635305 -0.9363072 -0.44680828 -0.15883246 0.123706944 -0.85180926 -1.160797 0.9642597 -0.5967603 0.562879 -0.8958522 0.048185617 0.39118353 1.4094433 -0.43153676 0.3069026 0.45243332 -1.516649 -1.0294546 0.7358 -0.017854841 0.9363547 -0.18688823 -0.70792484 -1.4414525 0.91781276 0.8978486 -0.46684632 0.55978084 -0.7836927 0.09707545 0.05023977 -0.21436323 -0.39520952 -0.44608468 -1.173618 -1.4278334 -0.6234758 0.2446327 -0.9897519 -0.08881764 -0.49088302 0.29131263 -1.0721545 0.34262988 0.42782995 -0.22651789 0.32029498 1.0532103 1.0374653 -0.00043955524 -0.5124519 0.618785 1.1089411 0.011770193 0.40911445 0.5056382 0.33639672 0.5253295 0.44407257 1.3058317 -0.43846005 0.30028674 -1.4580473 -1.0879235 1.3573824 -0.89000404 -0.93474764 -1.297425 -1.1378039 0.10327561 0.8431643 0.47460803 0.42382377 0.88497436 1.1547725 -0.99441445 1.0584002 -0.35146144 -1.5323721 0.5866829 0.49040484 -0.23585987 1.0197691 -0.77003974 -0.93132526 0.08170444 -0.34296083 -0.06703397 -0.664512 1.2882837 -0.1072817 -0.7117633 0.16039008 -0.063808836 -0.6532408 -0.40126085 0.57633114 -0.8484295 -0.36183426 0.4630901 -0.29604036 -0.34605476 -0.49362266 -0.568414 -1.2244195 -0.95241404 0.997237 0.8913854 0.14890897 1.2488241 -0.9202066 -0.510221 -0.120826796 0.5665168 0.24629809 0.11285357 1.1383855 0.31182036 -0.314094 -0.43681982 -1.1271678 -0.22331868 1.3626684 -0.7719106 -0.6358594 0.87911683 -0.6929311 1.0437391 0.44292578 0.6356959 -0.3510918 -1.288949 -1.0451133 -0.51065755 -0.045624934 0.5001646 0.181564 -0.96931386 0.2430255 -0.12819292 0.15098074 -1.5510726 -1.0642744 0.47214592 0.22210614 0.55684257 0.54364467 0.6330646 0.1468716 -1.1208732 1.3710142 1.0349894 -0.0888379 1.0478172 -0.25591585 1.5274729 -0.71602196 0.5550391
INS_InstanceofExpression_MethodInvocation -0.0 -0.0 0.0 -0.0 -0.0 0.0 -0.0 -0.0 0.0 -0.0 -0.0 0.0 -0.0 0.0 -0.0 0.0 -0.0 0.0 -0.0 -0.0 -0.0 -0.0 0.0 -0.0 -0.0 -0.0 -0.0 -0.0 0.0 -0.0 -0.0 -0.0 0.0 -0.0 0.0 0.0 -0.0 -0.0 -0.0 -0.0 0.0 0.0 0.0 -0.0 -0.0 0.0 -0.0 -0.0 -0.0 0.0 -0.0 -0.0 -0.0 -0.0 0.0 -0.0 0.0 0.0 -0.0 -0.0 -0.0 -0.0 -0.0 -0.0 -0.0 -0.0 -0.0 0.0 0.0 0.0 0.0 0.0 -0.0 -0.0 0.0 0.0 -0.0 -0.0 0.0 -0.0 -0.0 -0.0 -0.0 0.0 0.0 0.0 -0.0 -0.0 -0.0 -0.0 -0.0 -0.0 -0.0 0.0 -0.0 0.0 0.0 -0.0 0.0 0.0 0.0 -0.0 0.0 0.0 -0.0 0.0 -0.0 0.0 -0.0 0.0 -0.0 0.0 0.0 0.0 -0.0 0.0 0.0 -0.0 0.0 0.0 0.0 0.0 -0.0 0.0 -0.0 0.0 -0.0 0.0 -0.0 -0.0 0.0 0.0 -0.0 -0.0 -0.0 -0.0 -0.0 -0.0 0.0 -0.0 -0.0 0.0 0.0 -0.0 0.0 -0.0 0.0 0.0 -0.0 0.0 0.0 0.0 -0.0 0.0 0.0 -0.0 -0.0 0.0 0.0 0.0 0.0 -0.0 -0.0 0.0 -0.0 0.0 0.0 -0.0 -0.0 -0.0 -0.0 -0.0 0.0 0.0 -0.0 -0.0 -0.0 -0.0 -0.0 0.0 -0.0 -0.0 -0.0 -0.0 0.0 0.0 0.0 0.0 -0.0 -0.0 -0.0 0.0 0.0 -0.0 0.0 -0.0 0.0 0.0 0.0 -0.0 0.0 -0.0 -0.0 -0.0 0.0 0.0 -0.0 0.0 0.0 0.0 -0.0 -0.0 -0.0 0.0 -0.0 0.0 -0.0 -0.0 0.0 -0.0 0.0 0.0 0.0 0.0 0.0 -0.0 -0.0 -0.0 0.0 0.0 -0.0 0.0 0.0 0.0 0.0 -0.0 0.0 -0.0 0.0 -0.0 -0.0 -0.0 0.0 -0.0 0.0 -0.0 -0.0 -0.0 -0.0 -0.0 0.0 -0.0 0.0 -0.0 0.0 -0.0 -0.0 -0.0 -0.0 -0.0 -0.0 -0.0 -0.0 -0.0 -0.0 -0.0 -0.0 0.0 0.0 -0.0 -0.0 -0.0 -0.0 -0.0 0.0 0.0 -0.0 0.0 -0.0 -0.0 -0.0 -0.0 -0.0 -0.0 -0.0 0.0 0.0 0.0 -0.0 0.0 -0.0 -0.0 0.0 0.0 -0.0 0.0 0.0 0.0 -0.0 0.0
MOVE_ArrayAccess 0.52654636 0.3790671 0.78911036 0.8553468 0.15097384 -0.2736278 -0.6364895 0.51408243 0.38861778 -0.8730304 0.4148031 0.08123488 -0.6709834 0.209581 0.885591 0.34748843 -0.17916013 -0.36232537 0.36886296 1.1631838 0.7230321 -0.31195986 -0.4688708 -0.39423513 0.8189434 0.19472866 0.7274667 -0.83808964 -0.011480622 -0.5484152 0.8786099 0.26322868 0.4729026 0.83841324 -0.56281006 -0.34202534 -1.1976513 0.44128332 0.4287714 -0.271974 0.07549838 -0.35005048 0.84323275 -0.017145097 -0.17825203 -0.4574202 0.61945623 -0.67198306 -0.82303756 -0.50596017 0.24620868 -1.4627689 0.8819278 0.9851192 -0.2549014 -0.22126056 0.78835213 -0.082815036 -0.5653992 -1.3582511 0.2955723 0.43378028 -0.9749139 -0.5009471 0.2605601 0.6783576 0.59765965 -1.285466 0.5115105 0.26593056 1.1614256 0.16667649 0.120457806 0.051766913 -1.1953684 0.8642489 0.58161783 0.5623106 -0.020823471 1.4253905 0.8480306 -0.12133181 -0.17612816 -0.6600912 1.2504848 0.85006374 0.6621635 -0.36480772 0.59332275 -0.44975474 0.60403806 -0.8978285 -0.119039886 -0.82870764 -0.83181334 0.62897354 0.027052071 -0.36396492 -0.81023747 -1.1840534 -0.18613608 -1.2295766 0.19368206 0.12510559 -1.1173965 1.2185804 -0.78144354 -0.63916886 0.68271905 -0.6881138 0.6416336 0.27141538 0.1828589 -0.20734937 0.115728386 -0.36280027 -0.3542042 0.69291216 -0.0910462 0.23425736 -0.14159092 0.475163 0.064903215 0.4760667 -0.07032675 -0.020933291 0.47550926 -0.54120487 0.22978805 -0.19635195 0.1060639 -0.9053521 0.4721875 0.0072376733 1.2936662 0.39727592 -0.08621017 -0.5911251 0.65205246 0.49512058 -1.1249162 -0.31525257 0.30687556 0.34366387 0.4922153 -0.5993987 0.9654007 0.53757465 -0.56306237 0.4236706 0.5013668 0.3343733 0.563317 0.32238647 0.6341305 0.5673442 0.9389906 -0.81306916 0.17872147 -1.2588309 -0.10191156 -0.5450955 0.824392 -0.9049005 -0.75154376 -0.12215887 0.16233051 0.28830436 0.7956506 0.27777436 -1.2080567 0.3459372 0.01501459 -0.84083444 -0.4986092 -0.07320586 -0.24942376 -0.14094616 0.26110935 0.13807014 0.39033478 0.54066503 0.19201373 -0.610234 0.91454124 1.1066754 -0.33577645 -0.89087844 -0.5652982 0.6570782 -0.7527122 -1.3944045 0.24277106 -0.061803833 0.10195451 -0.67907655 -0.23354274 -0.24338585 -1.250675 0.0014386155 0.5575027 -0.1734533 0.40587822 -0.54900604 -0.95444626 -0.6690026 0.6600587 0.1438145 0.052933555 1.0967425 -0.31378815 0.26874548 0.12287749 -0.42428824 0.44733632 0.26586863 0.14461257 -0.18821675 -0.073410295 0.8710416 0.5070415 -0.5267496 1.0114331 0.546247 -0.45550585 -0.12063917 -0.22943926 -0.6301739 0.09987839 0.56632894 0.25223592 -0.28493673 -0.32973933 -1.2537128 1.1096065 0.33969757 1.2267734 0.7990894 0.5188248 0.8438552 0.0748247 -0.4635546 0.1411415 -1.2667189 0.3136454 0.9667558 -0.09298627 0.6664378 -0.23149766 -0.0735575 0.66921055 -0.11856465 -0.7958082 0.71616966 0.9282557 0.04678272 0.35039636 0.7807299 0.085445255 -0.599861 -0.6581589 -0.5449841 0.5196459 0.28815505 -0.7712494 1.0493276 0.94569296 1.1377872 -0.32303107 -0.18263413 -0.1987467 0.2889487 0.608984 0.5191579 -0.83610046 0.54926485 0.8052642 0.5105975 0.3205282 0.7875762 -0.0059509943 -0.7889877 -0.7511503 -0.36134657 -0.6931838 0.4155731 -0.19159614 0.71980405 -0.5757213 -0.7281917 -0.112068415 -0.05504811 -0.85801184 0.44521138 -0.4327838 1.3100363 0.37853885 0.59475994 0.62244916 -1.330638
INS_MethodInvocation_CastExpression -0.8191866 0.03358555 0.61312026 0.3930967 0.91545105 0.49039024 -0.23307306 0.34862623 1.0800107 -0.16081782 0.54831916 -0.21063933 0.39636433 0.89780617 -1.2395594 0.4263746 -0.380296 -0.5194735 -0.6963763 -0.6516596 1.2171162 0.665582 -1.0320159 -0.68402743 0.43279305 -0.6779705 1.2677809 0.19587025 0.84139085 0.90407 -0.6371613 -0.43508366 -0.42927235 0.33105803 -0.35316914 1.4836441 0.050013613 -0.41525114 -0.7061588 0.2236961 -1.4965804 -0.6291688 0.6236327 4.0992985e-05 1.0075594 1.3746486 -0.7018009 0.73654747 -0.74202454 0.66031164 0.63120747 -0.38976866 0.1836613 -0.62370765 -0.5900344 0.54752415 -0.44316182 -0.67836 -0.038389202 -0.24539863 1.0161369 -1.480329 0.22616287 0.0109864455 0.13860816 0.10108399 0.45776302 0.2569091 1.1014788 0.80939883 0.46944672 0.39780948 0.1154117 0.39261982 -0.02121406 -0.22274789 0.7194311 0.02137077 0.36374986 -0.35791636 0.22044182 -0.5287504 -0.38268894 0.68190384 0.33161464 -1.0474975 -0.06286461 0.88955224 0.59325296 -0.8544614 -0.8372221 -0.6197015 -0.3238155 1.3472264 0.98176455 1.2183088 0.19576028 -0.28059134 0.47175857 -0.15253963 0.32740575 0.692267 -0.244724 -1.1672354 -0.6582266 -0.24972592 1.1332862 -0.28760764 -0.03402239 0.6245144 1.0001556 0.8625645 0.9260998 -0.5775939 0.20035283 0.5994979 -0.7911247 -0.097827695 0.8110094 -0.72548664 0.27876905 0.3598072 -0.8691496 -0.9162417 0.53340083 -0.37717453 0.6781793 1.2929709 1.0224224 0.81192076 -1.0538541 0.8791167 -0.46960968 0.7164622 -0.96764207 0.03441816 0.91615814 -0.09748386 -0.76638675 0.22195876 -0.278146 0.59376585 1.0370656 0.31565508 -0.28143314 -0.524763 0.57978785 -0.86726964 0.19731283 -0.8115161 -1.0818447 -0.96359676 -1.0353978 0.8816077 1.1342361 -0.4517499 -0.32502103 -0.21445324 -0.2976567 -0.25563797 -0.5184416 0.65108675 -0.41829753 0.6104056 1.0623791 -0.8157797 0.5746599 -0.9669233 0.9699557 0.31770843 0.71273714 -0.41181412 0.14252435 1.0940809 0.4234592 -0.6492541 -0.6272057 0.10390571 0.90260106 0.8216992 -0.49202862 -0.23484741 -0.07584228 -0.03499715 -0.49037012 0.186324 -0.17295821 0.88707465 0.20277971 0.9996912 -0.47167012 -0.608987 -0.045052152 0.69836575 0.54636765 0.11614535 0.20267832 -0.6427396 -0.7250614 -0.23011182 -1.0077307 -0.18972799 -0.9022479 1.2475623 0.21522218 0.3223406 0.2888278 -0.2463146 1.1197232 1.0789317 0.52229315 -0.18987906 -1.1060641 -0.06660954 0.6081335 -0.38576993 0.7023986 -0.15876326 -0.49829358 -1.0058565 -0.3955991 -0.8641806 1.3728459 -1.1194226 -0.11487798 1.0940492 -0.31933987 0.4451866 0.63782984 -0.6544835 -0.6783659 0.7090632 0.42762342 -1.1515945 0.6466374 0.54618806 1.3628695 -0.19737893 0.8121938 0.55220985 0.9273185 -0.9046279 -0.11026633 0.6192985 0.10141123 -0.89322835 -0.89138776 0.5660172 1.1055095 -0.5821214 -0.70205194 -1.0456676 -0.3433724 0.27411148 0.22786485 0.94680524 0.66997266 -0.34132436 0.21098377 -0.8153411 0.77196145 0.17722976 -0.19963428 0.45957038 0.8856468 1.0502906 -0.46202365 0.09170687 1.1225593 -0.44989341 -0.69819164 -0.3817424 0.95697033 -0.34799427 0.1341243 0.19689824 -0.2821722 -1.0156996 0.5263621 -0.6880791 -0.7495654 -0.46569476 0.2075082 0.7305247 -0.46160543 1.0204899 0.8111562 -0.6128162 -0.036834396 0.3341155 0.15426764 1.3306314 0.91748 1.0770108 -0.13945836 0.33756647 1.472546 0.08825385 -0.39022523 -1.0148898
INS_Modifier_FieldDeclaration 0.0 0.0 -0.0 0.0 -0.0 -0.0 0.0 0.0 -0.0 -0.0 -0.0 0.0 0.0 -0.0 -0.0 -0.0 0.0 0.0 -0.0 -0.0 -0.0 -0.0 -0.0 -0.0 -0.0 -0.0 0.0 -0.0 0.0 0.0 0.0 0.0 -0.0 0.0 -0.0 -0.0 -0.0 -0.0 0.0 -0.0 0.0 -0.0 -0.0 -0.0 -0.0 -0.0 0.0 0.0 -0.0 -0.0 0.0 0.0 0.0 0.0 0.0 0.0 -0.0 0.0 0.0 0.0 -0.0 0.0 -0.0 -0.0 0.0 0.0 -0.0 0.0 0.0 -0.0 -0.0 0.0 -0.0 0.0 -0.0 0.0 0.0 0.0 0.0 0.0 -0.0 0.0 -0.0 -0.0 -0.0 0.0 -0.0 -0.0 0.0 0.0 0.0 -0.0 0.0 -0.0 0.0 -0.0 0.0 0.0 0.0 -0.0 0.0 -0.0 -0.0 -0.0 -0.0 0.0 -0.0 0.0 -0.0 0.0 0.0 0.0 -0.0 -0.0 0.0 0.0 -0.0 -0.0 0.0 -0.0 0.0 0.0 0.0 0.0 -0.0 -0.0 -0.0 -0.0 -0.0 -0.0 0.0 -0.0 0.0 0.0 -0.0 0.0 -0.0 0.0 0.0 0.0 -0.0 0.0 -0.0 -0.0 -0.0 -0.0 0.0 -0.0 0.0 -0.0 0.0 0.0 -0.0 0.0 -0.0 0.0 -0.0 0.0 -0.0 0.0 -0.0 -0.0 -0.0 0.0 -0.0 0.0 -0.0 0.0 -0.0 -0.0 0.0 0.0 0.0 -0.0 0.0 -0.0 0.0 0.0 0.0 -0.0 0.0 0.0 -0.0 0.0 0.0 -0.0 0.0 -0.0 0.0 0.0 -0.0 0.0 -0.0 -0.0 0.0 -0.0 -0.0 -0.0 0.0 -0.0 -0.0 0.0 0.0 0.0 0.0 -0.0 -0.0 -0.0 -0.0 -0.0 -0.0 -0.0 -0.0 0.0 0.0 -0.0 -0.0 -0.0 -0.0 -0.0 0.0 -0.0 -0.0 -0.0 0.0 -0.0 -0.0 -0.0 0.0 -0.0 0.0 -0.0 -0.0 0.0 -0.0 0.0 0.0 0.0 -0.0 -0.0 0.0 0.0 0.0 0.0 -0.0 0.0 0.0 0.0 -0.0 0.0 -0.0 -0.0 -0.0 0.0 0.0 -0.0 0.0 -0.0 -0.0 -0.0 0.0 -0.0 -0.0 -0.0 0.0 0.0 0.0 0.0 -0.0 0.0 0.0 0.0 -0.0 0.0 -0.0 0.0 -0.0 -0.0 -0.0 -0.0 0.0 0.0 0.0 0.0 -0.0 -0.0 -0.0 -0.0 0.0 -0.0 -0.0 -0.0 0.0 -0.0 -0.0 0.0 -0.0 0.0 0.0 0.0
INS_ParenthesizedExpression_IfStatement 1.3333495 0.6523329 1.0963513 -0.17241706 0.0021035357 0.061683405 -0.65427387 1.0579262 -0.22646807 -1.0663211 -2.054922 -0.9211266 -0.85120624 0.18918982 -0.1558695 0.37763625 -0.42691442 -0.6733115 0.9985045 0.30634388 0.6257374 -0.65506274 -0.35800147 0.5875743 -0.20997916 1.2726701 0.6687136 -0.4711084 0.53980905 0.23065329 -0.29334256 0.6029381 0.3374108 -0.70079124 -0.60196316 -0.4902208 1.1436207 0.040286113 -1.0138209 -1.459932 -0.10384107 -0.5860299 0.7499291 -0.1972837 0.754426 0.41893825 -0.27112117 -0.13275588 0.9312824 -0.26296902 -0.57636535 -1.2051148 -1.214223 -0.35613194 0.63807833 0.16395675 -0.58029926 -1.1967641 0.4918337 0.8493928 -0.98446745 1.387018 -0.18923484 -1.0126384 -0.1624676 -0.7095337 -1.1091758 -0.53481853 -1.1405725 0.7783451 0.060745686 -0.8511077 -1.4975092 0.04905051 0.106993005 0.75082994 -0.23968413 -1.770025 1.046548 -0.02796005 0.5247501 -0.39838144 -0.15214422 -0.8043181 0.93266577 -1.0536827 0.1173056 0.25388548 -0.2936496 -0.5147502 0.17417741 1.3035593 0.6073936 0.60534585 -0.29761875 -0.009365434 0.17891273 0.6910456 -0.010461144 -0.06703417 -0.58148867 -0.20588616 -0.0058029415 -0.9427512 -0.10182674 1.040096 -0.75185215 0.1564615 -1.1731288 -1.0044297 0.2377888 0.77157104 -0.82079184 1.1295501 0.7734175 -0.74084896 -0.5547796 0.7851982 -0.4844353 0.27931386 0.11161717 1.0783776 -1.56912 1.1466802 0.38432685 1.0642738 -1.0813106 0.39934996 -0.4563488 -1.2425401 -0.9225266 -1.2739671 -0.76518506 -1.0821437 1.0660614 0.21265183 -1.4720478 -0.75568795 -1.3412365 -0.33142257 -1.2218071 0.47891337 -0.27535567 -0.02665004 0.92337954 1.1983006 1.3070412 -0.37458286 0.20710686 -1.0082014 -0.10679674 -0.4026051 0.4675551 -0.054737553 -1.0088499 -0.36383107 -0.7046852 -0.34965637 -0.52824026 1.0792263 1.2254133 0.23490906 1.3127716 -0.9362425 -0.62349397 -0.9604204 0.8346307 -0.58272487 -0.12017094 -0.3772585 1.0070494 1.3502134 1.7607704 0.4570862 -0.2803399 -0.1642272 -0.1425462 1.4437385 -0.5116808 0.5756555 -0.31330034 0.9995467 0.1760011 -0.12447173 0.4015933 -0.79153574 0.15618192 -0.018623639 -0.45872974 0.11896912 0.45946667 0.8525901 -1.3057513 0.24384059 -0.2861675 0.28143677 -0.03833967 -0.5248016 0.6840923 -0.2569409 -0.7582911 1.2588463 0.5050065 0.099568315 -0.24219209 -1.3024617 0.03804466 0.9333733 -0.9351525 -0.20665891 -0.75556076 -0.54287213 -0.31610298 -0.73187596 -0.7439471 0.55572253 1.1356004 -0.25258508 -0.29010698 0.50416404 -0.5418485 -0.7845037 0.3004122 0.5296848 0.60253936 0.6512411 0.34290805 -0.24429736 0.055967815 -0.20811075 1.2784641 -1.3991674 1.4767613 1.9169974 -0.24953593 0.67191005 0.67419356 0.87922204 -1.4461356 1.0312946 -0.19646484 -1.4412404 1.5838532 -0.31337413 -0.62232184 0.38874078 1.37479 -1.0220346 0.86590606 -1.4400829 0.30037788 -1.141816 -0.83356833 -0.957802 -0.7796716 -1.4175601 -0.83750814 0.09369821 -0.3313718 -1.0598103 0.40132672 0.12580281 -0.4079807 -0.12898566 -0.5045164 -1.0027285 0.5400302 -0.51733613 0.63958687 -0.23936537 -0.82234204 1.4102564 0.3528096 -0.9388384 -0.7950686 -0.41401508 -0.6011272 -0.70308566 -1.0361121 -1.852629 -0.35331717 0.16287069 0.15376753 1.920857 0.67176 -1.1186708 -0.7081082 0.8299308 0.22670016 1.2241576 0.7008819 -0.17080027 -0.30846527 0.7001278 0.15397589 -0.15900873 0.6436205 0.8437683 -0.9297711 0.09330211
MOVE_EnumDeclaration -0.4769045 -0.06992688 0.4225828 0.46700615 -1.2764392 0.3247447 0.17686749 0.61073035 0.6070508 0.75899446 -0.6771564 -0.14713103 0.8530984 -0.67996264 -0.2168372 -0.37174392 -0.905838 0.66125125 0.566303 0.50224483 0.41183233 -0.8204518 0.83853453 0.20362394 0.70713645 0.4213118 0.08466744 -0.3612147 -0.040912244 -0.10260373 -0.5051855 -1.0499679 -0.46301553 0.7242838 0.39630502 0.30725205 -0.40732414 0.97662556 -0.2876549 -0.35550454 0.4896228 0.51182395 -0.5674214 1.5409491 -0.45346588 -1.4174756 -0.16711473 0.40262565 1.0217769 0.03199861 -0.48248097 -0.07510424 0.15558681 0.4201573 1.2047203 -0.6968651 0.53679085 -0.8269825 0.17490523 0.5447306 1.0943038 0.84659624 -0.002370207 -0.9521489 0.32697445 1.4429497 -0.92334604 -0.108322576 -0.33807594 0.377188 0.41796783 -0.10023475 -0.40494934 -1.2289743 0.16318254 -0.32405168 0.90456283 -0.7535187 0.58376586 0.47005498 0.5909023 -0.67374605 -0.9636605 1.0034275 0.15927961 -1.300292 -0.8686401 -0.29492188 -0.08558476 -0.49573216 0.092657536 0.794155 0.16810222 1.0000982 1.2121862 1.0997708 -0.792473 -0.5061193 0.5220788 1.1118801 0.53392595 -1.14686 -1.4770263 0.171845 -0.13849327 -0.50518453 -0.4399585 0.4564236 -1.3036209 0.8183711 -1.3788207 -0.09073192 0.48755267 1.4275055 -1.0261718 -0.19331692 0.5546296 0.6092123 0.58140343 0.0021480515 -0.17595921 -0.5299545 0.015287658 -0.62791955 -0.91079074 -0.5248689 -0.8602296 -0.68868214 -0.17364533 -1.0912759 0.95037943 -0.88662314 0.56176496 -0.03133849 0.90939164 0.8424572 -0.41282198 -1.3516414 -1.4033073 1.0781119 -0.46661147 -0.84040403 -0.21493644 -0.6491552 0.3599156 0.01994889 -0.1730092 0.44315982 -0.3022291 0.038612675 0.42995244 0.3105132 1.1961782 -0.05298513 0.32409403 -0.7026126 -0.31568027 0.9601131 -0.33640686 1.0326005 -1.0583893 0.08341643 -1.0297663 0.0034618087 -0.5272219 -0.24194822 -0.19012366 0.22773491 0.5188393 0.5460328 -0.25962624 -0.40699625 -0.5310816 -1.0540501 -0.4909932 0.904876 0.94018465 0.11070302 0.6661023 -0.13371818 -0.63017917 0.72619957 0.43978393 0.42203578 -0.83019996 1.1816264 0.17052177 -0.87279975 -0.33893076 0.38456386 -0.32703468 -0.106320575 0.48738578 1.3253733 0.10589846 -0.6059811 -0.16353258 -0.7528954 -0.46545514 -0.35270783 -0.7670971 -0.1494884 -0.7115251 0.32097533 -0.31363326 -0.12430758 0.5302876 0.8735731 1.1257461 -0.51104355 -0.0046667336 -0.8418093 -0.9583223 0.22596113 0.080967255 -0.56172013 -0.6463454 -0.41997316 0.4082173 0.85588056 -0.43417382 0.8752431 -1.5121979 0.8909381 0.115287945 0.35588405 -0.24335869 0.85446423 0.642734 -0.27107334 -0.2642447 -0.4069241 -0.9325677 1.3143893 0.3757857 -0.99786377 -0.66980666 1.022516 -0.7366279 -0.55210453 -0.66984266 -0.44152194 -0.80834514 1.441539 -0.21269716 0.12089579 -0.3758185 -1.0283937 -1.0001501 0.21916376 0.42727017 -0.28301543 -0.46721265 -0.8706905 -0.79218334 -0.31853852 -0.056138895 -1.0550534 0.3357119 -1.0167066 0.5014958 0.5097676 0.25824887 0.5175162 -0.67228615 -0.61694837 -1.2605237 1.3415439 -0.3620152 1.0113491 -0.2566781 0.4014656 0.25365648 0.48453832 -0.6774318 0.4519839 -0.5393881 -1.2972505 0.75590575 0.30762362 0.30755684 -0.9706801 -0.83424467 -0.2135228 0.25821078 1.0484277 -0.05398308 -0.23005895 1.0366012 0.6320381 -0.8792316 0.72347087 1.2740128 0.41498888 -0.28781283 0.13348633 -0.053379968 -0.53311384 -1.1078781 -0.9868126
DEL_CatchClause -0.69501466 -0.049475975 -0.29822126 0.6113312 -0.15602945 0.8307654 0.061581604 0.48743033 -0.57670283 -0.6652601 -0.09650753 1.585555 -0.035190135 0.38268444 0.98718154 -0.89239657 -0.80441934 0.4059713 0.82934064 0.31071872 0.39700553 -0.5903063 0.011222738 -0.1419687 1.05935 0.19850034 -0.25408977 1.1418688 0.28742865 -0.089831844 -0.44404507 -0.65012074 0.41919383 0.030817945 -0.19815451 -0.15447734 -0.48006216 -0.39113376 0.5107168 -0.25071043 -0.85001266 -0.37725547 -0.7436267 -0.3186427 0.42893067 0.24858274 0.18668999 -0.5577921 0.15915601 0.56880075 -0.002159707 -1.2057495 0.5169151 0.7595788 -0.056417085 0.5504698 0.16714863 -0.33496544 0.8570019 0.18234023 0.2695091 0.67784375 0.717923 -0.88088304 0.068895265 0.22331843 -0.99111855 -0.32489288 -0.33905584 -0.36431688 0.024558447 -0.7226405 0.01297418 0.16352163 -0.28047326 -1.7310581 0.19555545 -0.23701273 -0.16029592 -0.24160609 0.022064641 -0.31916294 0.77384055 0.53097534 0.55323774 -0.4357879 -0.05114941 0.0053442824 0.36433607 0.81830275 -0.69742185 -0.2259186 -0.20779614 0.07665685 -0.8672274 0.3242328 -0.35225967 0.8364168 0.5796499 -0.5489818 0.8739077 0.7063048 -0.03487302 1.0547314 -1.398035 -0.7659662 0.19368449 0.27352822 0.4309501 -0.12520407 0.7616403 -0.34213975 -0.87371576 0.44149378 0.53031915 -0.6856192 -0.19300151 -0.816913 0.731627 -0.67522025 -0.43577704 -0.21272631 -0.33925673 -0.61900353 0.8939871 -0.39114156 -0.26120803 0.047852304 0.30111688 0.6894823 -0.21292244 -0.7846278 0.2390326 -0.028300658 0.94272614 0.4199463 -0.99572784 0.83748674 0.08420953 -0.46391675 0.32744157 0.5609617 -0.81342465 -0.6467083 -0.21556114 -0.22448947 0.06586154 -0.57638365 -0.40141553 -0.68561363 -0.07973039 -0.7859273 0.7548798 1.3076327 0.9254557 0.24459627 -0.50554377 1.2681352 -0.4643831 -0.4195327 -0.8591646 -0.34044766 -0.62633735 1.4248986 -0.022881031 0.047481492 -0.27895263 -0.5485979 -0.36370048 -0.6716575 -1.0214313 -0.8826572 -0.33811873 1.1654602 0.2081541 -0.086845994 0.58447963 0.1333674 0.07675913 -0.2598777 -0.31775373 -0.5972951 1.2279869 0.8207052 0.49927253 -0.26015356 1.3331417 -0.40344822 0.020525439 -0.5222259 0.35844064 0.43622258 0.93350023 0.8116651 -0.15555967 -0.40463078 -0.22653893 0.44322866 1.1319097 -0.47309884 -0.77239954 -0.6042848 0.7313397 -0.42689785 0.40930578 -0.13279115 -0.49660996 -0.4207796 -0.32196426 -0.8845696 -0.28557125 0.948425 -0.34437567 -0.056743644 -0.27018222 1.3275765 -0.83107775 -0.6011664 0.71921384 0.2727883 0.41614908 0.028499495 -0.37481207 0.09478724 0.33574092 0.40887257 0.8880355 0.3467609 -0.773974 -0.76739687 0.11436841 0.3325782 0.4849013 0.570776 0.3829864 0.61360466 1.1619413 -0.31780368 -0.18819733 0.17649391 -0.48311645 0.2909681 0.07052013 -1.0770565 0.8047879 -0.57586634 0.51870966 0.95094013 0.077561595 -0.4583305 0.95696956 -0.3137008 0.9628549 1.1507642 0.1694246 0.29042926 1.0482545 0.6056881 0.6257925 -0.36435664 0.028425867 0.18198052 -0.6014596 -0.8271706 1.1762371 -0.5082365 0.7893381 -0.095207475 -0.36653784 -0.6351417 0.31992128 0.064002134 -0.6534927 -0.11860502 -0.9061811 0.9367103 -0.22454691 0.73214656 -0.48456737 -0.3439803 0.12691835 -0.32297304 -0.17687412 0.62016255 -1.1014647 -0.55208766 -0.25421104 -0.11228346 -0.6614926 0.37067944 -0.6588288 -0.5159443 -0.60237926 0.6113278 0.824921 -0.12734362 -0.02137725 -0.9392211 0.2709107 0.06582217
INS_StringLiteral_ConstructorInvocation 0.62819725 1.4168794 -0.39630675 0.3439157 -0.11941579 -0.32164827 0.2496084 0.1777049 1.006198 -1.8408651 0.48670435 0.1103966 1.7909366 0.37029928 0.9522862 -1.0375966 2.062694 0.22709545 -0.9886098 -0.7204477 -0.82330793 -0.13421291 0.09978208 -0.25196266 -0.14598578 0.28034633 -1.0811445 -0.100812696 0.27460653 -0.14756073 0.8510955 0.4375987 -0.31359854 -1.0229262 1.0052853 0.7961603 -0.07312367 -1.1065983 -1.205402 0.43640155 -0.2444794 -1.0184778 1.0857526 1.1470671 -0.37368768 -0.7299598 1.2418938 -0.14502497 0.93207335 -0.5880669 -1.2586374 0.656536 1.1210998 0.555236 1.6848195 0.8964828 0.72215503 -0.7104067 0.3860178 0.57530224 2.1093838 -0.64056003 -0.57219154 0.63438773 -0.38785604 -0.36125675 -0.86872464 -1.4374176 1.233623 -1.0795147 -0.38169104 0.6119863 0.54001147 1.6681705 1.0419801 -0.84229386 0.09455942 -0.9468918 -0.001699847 -0.14056097 -0.83241725 0.0281554 0.09484047 -0.1970415 -1.1706856 1.6997851 -1.912303 0.5960861 -0.14910504 -0.5336461 1.0934132 -0.92105377 -0.5576606 0.5798516 0.19587801 -0.8810866 -0.14376053 -0.33852938 -1.129173 -0.10736134 0.34750688 0.6894667 1.4706533 1.0911044 -0.76880693 0.06639166 -0.8251132 -0.33245254 -0.17249757 0.55424815 -0.3420364 0.3967174 -0.6769276 -0.27449954 2.0441737 -1.7665753 0.2136326 -0.6703906 1.4679563 -0.091513224 0.5468439 -2.2410138 -0.2031768 -2.0207884 0.06993024 0.60641617 0.9267366 -0.8728186 0.8429232 0.46451867 -0.6074566 -1.2230061 0.51174295 0.45710596 -0.6089655 -0.79716825 -1.61093 -1.4920512 -0.4143449 -0.46998814 0.43379012 1.1586807 -1.0873797 0.6819078 0.64907366 -0.075477384 1.131732 -1.5867058 -0.60935646 -0.9565219 1.2175206 0.633966 -1.1043091 0.924508 1.2575657 -0.5367041 0.20816416 -0.1900797 0.6321353 0.5524556 -1.1353952 0.40163392 -0.89832157 0.008860448 0.9813875 1.1236624 1.5734843 1.4865197 0.0021707346 -0.86995095 0.25158483 -1.1115613 -0.01807406 -0.055810735 1.9033831 1.0284226 -0.31028402 1.7542553 0.15511277 0.6112011 -0.053361394 0.97456145 0.52380353 -0.8205265 -1.4937943 0.37987712 0.4442511 -1.1690731 0.5984785 -1.8197442 1.1128647 0.69614416 -1.529893 1.5257795 -0.10484386 -0.09022302 0.7387207 -1.0865073 -0.3865828 0.96128005 -0.3617836 -0.81966585 0.31307992 -0.64181757 0.41601542 -1.2812055 -0.44986793 0.89162695 0.67918247 -1.3441852 0.3869285 -1.1034633 0.28691205 -1.1323043 -0.96716887 -2.184913 1.512862 0.024313632 1.010597 -0.57630265 1.7840377 -0.37913114 -1.3013335 0.36446998 1.1954603 -0.7454688 -0.805589 -1.7224226 0.17582348 0.29722318 0.099344045 1.9223328 -1.6763554 1.7553289 -1.4852495 -1.6923892 0.21788195 0.2864062 -0.77819145 0.5814346 -0.051684663 0.8924487 -1.6960815 -0.83526856 -0.28216767 -0.8768478 0.7039811 -0.86940557 1.3176311 -1.322524 -0.8970446 1.1890621 -0.9604094 0.880577 -0.65040183 -1.1896602 0.15267324 2.1309998 -1.3462443 -0.67003125 1.5442226 0.17833471 -1.1194865 -0.9034759 0.70910066 -0.2343768 -0.00039358094 0.15178402 1.7539014 -1.8477595 -0.1509749 0.6584925 1.771691 1.3622824 -0.495696 0.2088447 1.2983477 1.8501736 1.1254499 -0.0349383 0.8734274 0.020021757 -2.355527 0.33134434 -1.6400805 0.81582564 1.6656847 -2.4674227 0.1477199 1.2170231 1.1361351 -0.016518239 0.6529398 -0.63337785 0.06151991 1.394965 1.279176 -1.7105639 -0.63993514 0.48688352
INS_ConditionalExpression_IfStatement 0.0 0.0 0.0 0.0 -0.0 0.0 0.0 0.0 0.0 0.0 -0.0 0.0 -0.0 0.0 -0.0 -0.0 0.0 0.0 -0.0 0.0 0.0 0.0 0.0 -0.0 -0.0 -0.0 -0.0 -0.0 0.0 0.0 0.0 0.0 -0.0 -0.0 -0.0 0.0 0.0 -0.0 0.0 0.0 -0.0 0.0 -0.0 -0.0 -0.0 -0.0 -0.0 0.0 -0.0 0.0 0.0 -0.0 0.0 -0.0 0.0 0.0 -0.0 0.0 -0.0 -0.0 -0.0 -0.0 -0.0 -0.0 0.0 -0.0 -0.0 -0.0 -0.0 -0.0 -0.0 -0.0 0.0 -0.0 0.0 -0.0 0.0 -0.0 -0.0 -0.0 0.0 0.0 0.0 0.0 -0.0 0.0 -0.0 -0.0 -0.0 0.0 -0.0 0.0 -0.0 0.0 0.0 -0.0 0.0 -0.0 -0.0 -0.0 -0.0 -0.0 -0.0 -0.0 -0.0 -0.0 -0.0 0.0 -0.0 -0.0 -0.0 -0.0 -0.0 0.0 0.0 0.0 0.0 -0.0 -0.0 0.0 0.0 0.0 0.0 -0.0 0.0 0.0 0.0 0.0 -0.0 0.0 0.0 -0.0 -0.0 0.0 0.0 -0.0 -0.0 -0.0 -0.0 0.0 0.0 -0.0 -0.0 0.0 0.0 0.0 0.0 -0.0 0.0 0.0 0.0 0.0 -0.0 -0.0 0.0 -0.0 0.0 0.0 -0.0 -0.0 -0.0 0.0 0.0 -0.0 -0.0 -0.0 -0.0 -0.0 0.0 -0.0 -0.0 0.0 -0.0 -0.0 0.0 0.0 0.0 -0.0 -0.0 0.0 -0.0 0.0 0.0 -0.0 -0.0 -0.0 0.0 -0.0 -0.0 -0.0 0.0 0.0 -0.0 0.0 -0.0 -0.0 0.0 -0.0 0.0 0.0 -0.0 0.0 -0.0 0.0 0.0 -0.0 0.0 -0.0 -0.0 0.0 0.0 0.0 -0.0 -0.0 -0.0 -0.0 -0.0 -0.0 0.0 -0.0 0.0 0.0 -0.0 -0.0 0.0 -0.0 -0.0 0.0 0.0 0.0 -0.0 -0.0 0.0 -0.0 0.0 0.0 -0.0 0.0 -0.0 -0.0 -0.0 -0.0 -0.0 -0.0 0.0 0.0 -0.0 -0.0 0.0 -0.0 -0.0 0.0 -0.0 -0.0 -0.0 -0.0 0.0 -0.0 -0.0 -0.0 0.0 0.0 0.0 0.0 0.0 -0.0 0.0 0.0 0.0 0.0 0.0 0.0 -0.0 -0.0 0.0 -0.0 -0.0 0.0 0.0 0.0 -0.0 -0.0 0.0 -0.0 0.0 0.0 -0.0 -0.0 -0.0 0.0 0.0 0.0 0.0 -0.0 0.0 -0.0 0.0 0.0 0.0 0.0
DEL_VariableDeclarationExpression 0.23349935 -0.92399883 -0.09130862 -0.37816796 -0.048951298 -0.4067779 -0.87248 -0.94121176 0.90086466 0.79156184 0.88218427 0.059685394 1.1015369 0.38370416 -0.2614251 -0.8225291 -0.14645928 -0.44469506 1.5924376 0.35822713 0.2337639 -1.415917 0.91220486 -0.20939198 -0.8391051 -0.43652773 -0.54754496 0.057619512 1.1287261 -0.6017127 -0.8889859 -0.4798973 -0.30453634 0.43377715 0.85811144 -0.8577265 -0.6485841 -0.919422 -0.55019766 0.012253519 -0.2804445 1.3801897 0.77238643 -0.61768806 1.1648211 0.04281648 0.13949049 -0.5990333 -0.8572597 0.08882428 1.4068929 -0.17101094 -0.035141606 0.8603219 -0.66786444 0.94527054 -1.008894 0.1287173 -0.056458585 -1.2511553 0.47929266 -0.09792071 0.4451757 -0.19715968 0.93870467 -0.09432972 0.5559787 0.07011128 -0.58393544 -0.78251636 0.14835595 -0.364891 0.25554988 0.6538597 1.2519584 0.10697881 0.57990515 0.381064 0.022092668 0.38066092 0.064439006 1.1719303 0.5611772 0.3998659 -0.655463 -0.8648455 -0.5804274 0.5473386 -1.117511 -0.0544987 0.903277 -1.4220457 0.6708226 0.75097597 0.1677477 -0.8601998 -0.31764412 -0.39404538 -0.5746283 0.74509996 -0.08287188 -0.81663585 -0.48139843 0.42503107 -0.57986295 -0.031246953 -0.98045367 0.94719905 0.7608807 -0.6623922 -0.40682098 0.1122332 -0.10346904 0.906958 -0.1641889 -0.8456974 -0.5054325 0.031434495 -0.58856004 -0.5292247 -0.53074336 -0.18291256 0.3288861 -0.12969823 1.0195088 -0.20980188 0.3977013 0.2964515 0.84919244 -0.7788322 0.4312317 1.1143632 0.26382953 1.5104388 -0.43186337 0.32691622 -0.7152668 -0.85048485 -0.86525995 -0.59327966 -0.08297974 0.27903733 -0.8334699 0.09865117 -0.1956553 0.87688065 0.7423205 -0.32241073 -0.0797001 0.61125106 0.7491353 -0.35820058 -1.3112794 0.3099798 0.5055732 0.5858263 0.64021415 0.8937635 0.965029 -0.68029404 1.0017928 -0.7952603 -0.3380103 0.024090253 -1.0954236 -0.49129376 -0.28366077 -0.09507176 -0.41603756 0.6730246 0.75180423 0.9856001 0.09024627 -0.22895783 -0.4738521 0.14740688 -0.85592735 -0.044714086 0.67791957 0.3710414 0.038233303 -0.78691643 -1.2440066 0.9895656 -1.0070689 -1.2735461 -0.45968205 -0.014567795 0.80685854 -0.8326364 0.44649574 0.3414347 -1.5488608 -0.00568108 0.94291455 -0.079543635 0.5108391 -0.2542411 -0.37304062 0.06616378 -0.030040257 0.25332704 -0.44578153 0.91720587 -0.67584455 -0.41649845 -0.0066914386 -0.73411554 -1.134094 0.43626204 -0.22314762 -0.15731989 -0.4650114 -1.0223202 -0.65310204 0.26903123 0.8078812 -0.5544371 0.12231909 -0.24836236 0.33789012 -0.39150816 -0.30691713 1.3710585 0.12200099 0.8231034 -1.2687845 -0.27982846 -0.2592952 -0.9496924 -0.71841717 0.39983082 0.574154 0.98634577 1.2552791 -0.7698167 0.28091225 0.63176626 0.120168276 -1.3110528 0.2893751 -0.3954207 0.36159587 -0.12992267 0.6121398 0.95070696 0.46375284 0.12998313 -1.2049935 0.9341815 -0.5589295 -1.0550488 1.1287497 -0.13957311 -1.1229128 0.9738766 -0.44270265 0.1709028 0.2637672 -0.8134464 -0.48862252 0.9203117 -0.5515305 -0.14976268 -0.3121467 -0.950613 0.2702297 0.20202078 1.1764826 -0.24492107 0.06630541 1.1722362 0.4508736 0.046890397 -0.6967913 0.68161255 0.48138404 -0.75828797 1.2005092 0.168627 -0.57228184 0.81784904 -0.47462404 -0.94926006 1.0469445 -0.675557 -0.38926756 -0.09585697 1.1413171 0.47504723 1.3145522 0.7376372 0.5475427 -0.9605815 1.4278508 1.4143445 -0.41848832 0.24737772 -0.8652321 0.50204873
INS_SimpleType_AnnotationTypeMemberDeclaration 0.0 -0.0 -0.0 -0.0 -0.0 -0.0 0.0 -0.0 -0.0 0.0 0.0 -0.0 -0.0 -0.0 0.0 0.0 0.0 -0.0 -0.0 -0.0 -0.0 -0.0 -0.0 0.0 0.0 0.0 0.0 0.0 0.0 -0.0 -0.0 0.0 -0.0 0.0 0.0 0.0 -0.0 -0.0 0.0 0.0 0.0 0.0 -0.0 0.0 0.0 -0.0 0.0 0.0 -0.0 -0.0 0.0 0.0 -0.0 -0.0 0.0 -0.0 -0.0 0.0 0.0 0.0 0.0 -0.0 0.0 -0.0 -0.0 0.0 0.0 -0.0 0.0 -0.0 -0.0 0.0 0.0 -0.0 -0.0 -0.0 0.0 -0.0 -0.0 0.0 0.0 0.0 -0.0 0.0 0.0 -0.0 0.0 0.0 0.0 -0.0 -0.0 -0.0 0.0 -0.0 0.0 -0.0 -0.0 -0.0 -0.0 -0.0 0.0 0.0 -0.0 -0.0 0.0 -0.0 0.0 -0.0 -0.0 0.0 -0.0 0.0 0.0 -0.0 0.0 0.0 -0.0 0.0 -0.0 -0.0 0.0 0.0 -0.0 0.0 0.0 0.0 0.0 -0.0 -0.0 -0.0 -0.0 0.0 -0.0 -0.0 -0.0 -0.0 -0.0 0.0 0.0 0.0 -0.0 0.0 -0.0 -0.0 0.0 -0.0 0.0 0.0 -0.0 0.0 -0.0 0.0 0.0 -0.0 0.0 0.0 -0.0 -0.0 0.0 -0.0 0.0 -0.0 0.0 0.0 -0.0 0.0 0.0 -0.0 0.0 0.0 0.0 0.0 0.0 -0.0 -0.0 -0.0 -0.0 -0.0 0.0 -0.0 -0.0 -0.0 -0.0 -0.0 0.0 -0.0 -0.0 0.0 -0.0 0.0 0.0 0.0 -0.0 0.0 0.0 -0.0 0.0 0.0 -0.0 -0.0 0.0 0.0 0.0 -0.0 0.0 -0.0 -0.0 -0.0 0.0 0.0 0.0 0.0 -0.0 -0.0 -0.0 0.0 -0.0 0.0 0.0 0.0 -0.0 -0.0 0.0 0.0 0.0 0.0 -0.0 -0.0 0.0 0.0 -0.0 0.0 -0.0 -0.0 0.0 0.0 -0.0 -0.0 0.0 0.0 0.0 -0.0 -0.0 -0.0 -0.0 0.0 -0.0 -0.0 0.0 -0.0 0.0 -0.0 -0.0 0.0 0.0 0.0 -0.0 -0.0 0.0 -0.0 0.0 0.0 0.0 0.0 -0.0 -0.0 -0.0 0.0 0.0 0.0 0.0 -0.0 0.0 -0.0 0.0 -0.0 0.0 -0.0 -0.0 -0.0 0.0 -0.0 0.0 0.0 0.0 0.0 0.0 0.0 0.0 0.0 0.0 0.0 -0.0 -0.0 0.0 -0.0 0.0 -0.0 0.0 0.0
INS_ForStatement_Block -0.47266233 -0.029995946 0.5677899 0.58463645 -0.6947794 -0.16054025 0.7208908 -0.0902921 0.26048002 0.93411356 0.33215034 0.5599062 0.63470703 0.23953268 -0.19937544 0.056767616 0.08961428 -0.48950472 0.6817324 -0.039582334 -0.1600584 0.2754837 -0.16312046 1.0053755 0.30704257 0.09200189 0.6386943 -0.074372396 0.87703764 -0.11564652 0.07056263 -0.583054 -0.07173871 -1.4514297 -0.36255223 0.3519258 0.33369556 -0.67336214 0.5981759 0.99566 -0.8040342 -0.4661146 -0.47359228 -0.99986947 -0.031534713 -0.85391283 0.6985802 0.0922114 0.36512533 1.0987742 0.62877065 0.23113528 -0.24521947 0.85982054 0.34516424 -0.3078083 -0.4024715 0.29385564 -0.73231596 -0.4008854 -0.23734652 -0.20063232 0.1859056 -0.79557484 0.7694676 -0.38507244 -0.49422058 0.5997837 -0.1185114 -0.71359646 0.8980027 0.3140086 0.056233373 0.7658237 -0.7117649 -0.37782046 1.4173024 -0.6156914 0.051278297 0.38862118 0.8187548 0.826669 0.20674719 -0.048512857 -0.6791969 0.1971723 0.66406804 0.8166945 0.017897235 -0.47145694 -0.52858675 -0.090307765 -0.12481313 -0.3239214 0.4840769 0.88861305 0.24408579 0.71281517 -0.8092905 1.0528548 0.7279386 0.98371166 -0.36849588 -0.8603203 -0.8715591 0.09132334 0.5082549 0.45906827 0.19324447 0.8584254 -0.428164 0.3705069 0.16216257 0.0025385553 -0.14778812 1.3085903 0.7699091 0.09001081 0.37081304 -0.99292517 0.68553144 -0.499947 0.81236285 -0.0790018 0.5811218 0.41756544 -0.42963275 0.7743145 0.49273366 0.12409021 -0.65393573 0.65286404 -0.06575875 0.76639026 0.124648444 0.14826848 -0.7308522 1.3285549 -0.051173694 0.5450424 0.41621852 -0.2122976 0.56802523 -0.1437429 0.21909177 -0.01697187 0.34992445 0.19486725 -0.52007854 0.48759985 0.42883947 0.08096873 0.087592475 0.5306081 0.31155148 -0.760785 0.04747168 0.4690782 -0.9562776 1.0854394 0.13184923 -0.57201743 -0.78698534 -0.68267196 -0.7062013 -0.7607394 -0.5142549 -0.18293142 -0.034992065 0.13926806 0.94390064 -0.23245074 -0.23961101 0.24574557 0.12612882 -0.6658345 -0.9132837 0.5885737 -0.83199036 -1.2442976 -0.7035553 -0.26341075 0.6164589 0.57867235 0.2575409 0.07720519 0.23432505 0.9486382 -0.7217705 0.05020153 -0.6088881 -0.20220542 -0.035739254 -0.9108949 0.8652473 -0.6407333 -0.79152423 0.7469289 -0.5577523 -0.40241033 0.36679325 0.7087267 -0.30570266 -0.2774182 0.4326998 -0.75636065 0.95541584 -0.60517377 -0.6467625 -0.8314462 -0.52827185 0.37016773 0.68658483 0.22834201 -0.27874234 -0.29712325 -0.04577716 0.5326948 0.7917276 -0.083677016 -0.5288414 0.6051286 -0.3602346 0.5715224 -0.5211697 -0.7984282 0.32988632 -0.67457956 -0.8714921 -0.68095815 0.72360665 0.47778848 -0.75296 0.93755937 0.41316363 -1.0609471 -0.9692146 0.6312481 0.47595808 0.30872375 -0.35348365 -1.1574059 0.50590014 0.75374633 -0.10798213 -0.1763865 0.020479051 0.5144506 -0.079330474 0.56774056 0.5267662 -0.6011876 0.0042685797 -0.50264895 0.7323314 0.7554725 0.65752035 -0.20813675 -0.70166546 -0.15567859 -0.6223854 0.48561648 0.72378016 -0.7021048 0.18863055 -0.011080766 -0.80913794 -0.12931804 0.7589829 -0.56624156 0.30261832 0.7370739 -0.4636048 -0.14589565 0.15546428 -0.5188585 0.57657844 0.045981057 -0.6392272 0.13163196 -0.7101933 -0.2357129 -1.0987847 -0.19460544 -0.6443939 -0.07737177 0.26973483 0.1735042 -0.12765013 -0.023389049 -0.8915022 0.08922593 0.18111692 -0.8424774 0.38760486 -1.0007844 -0.74801016 0.5685223 0.70196146 -0.18531968
INS_PrefixExpression_DoStatement -0.5196854 -0.51743686 -1.1993293 0.9812493 1.3256236 -0.3178028 0.34964752 -1.0217716 0.5972912 -1.5364299 -0.91279674 -0.20396581 -1.4544209 1.0761018 -0.4824184 0.5963053 0.8349482 0.19438495 0.8242102 -1.0942324 -0.54348946 1.511689 -0.7479139 0.066041514 0.74124956 -0.7283754 -0.2053147 0.5700686 -0.17457688 -0.85980433 0.35671 -1.7119396 0.5772666 -0.30344394 -1.8327643 1.125241 1.1842839 -0.4641031 0.61494374 1.0813243 -1.5850773 0.25590575 -0.57558906 1.5052164 -0.09858701 1.0974236 -0.53250754 -0.10508033 -0.8675456 -1.4680375 0.98355323 1.2525847 -1.0997493 2.4312506 -0.81205016 -0.16360882 -0.27688146 -0.62530106 1.7788169 -1.599587 -1.2702675 -0.62059075 0.33137476 1.1497737 0.57232136 -0.694604 0.4127778 0.72617304 0.7668433 0.38934553 -0.67164403 -2.0616484 -0.636238 -1.720911 -0.43729022 1.4274694 -0.6297221 -2.3148348 1.8456143 -0.80081165 -1.1130574 -0.9334426 -0.37460646 0.2808645 -1.8668729 0.7499024 1.9098941 0.9685651 -0.05135667 -1.2449313 0.07922864 -0.16400614 1.8116951 -1.0750527 0.19292955 -0.55361617 -0.7659887 -0.61806005 0.20349859 -0.15117566 -0.6331542 0.5071794 -0.5343031 0.3290113 0.55580235 0.5503777 1.5984315 0.14451733 0.1394974 1.0875632 -1.7893759 -0.119042926 -0.34416527 1.8680394 0.1312848 -1.8890613 -1.0352654 1.1073525 0.7570242 -0.2979047 0.22938576 0.03242859 -0.8679811 0.70130426 0.36777872 0.22070393 -0.8805546 0.48224562 -2.0359306 0.9636499 0.2077754 -0.8510182 0.14930502 -0.063626416 0.8240774 -0.87507504 -0.8327526 0.050116044 0.32093278 0.83958226 1.2591405 0.5201794 1.1202717 1.0429842 -1.0137228 0.81624264 0.49061108 -1.5669289 1.3533691 1.3508794 -2.078149 -0.22746485 1.2928536 1.4108396 -1.1512381 1.1231859 -1.130369 -1.3192108 1.1838046 1.0762717 -0.954981 1.1491377 1.5600026 -0.40381896 0.2609917 0.8159952 -1.2586079 -0.43730968 1.07215 -1.9232706 -0.9766674 0.83528626 1.2056615 -0.4852121 1.7793304 -0.42195544 0.31642884 -0.07907235 0.6714788 -0.48825952 0.06873664 -1.744371 -1.2658623 0.009962316 0.72103804 -2.1718798 0.74270314 0.044539966 1.227886 0.90433955 -0.056646142 1.9200281 0.27146855 1.807961 1.1094217 0.10050509 -1.4768357 2.062129 -1.2031152 -0.99615026 -0.46906883 0.5596077 1.2049364 0.41472653 1.5935395 -1.9872731 0.8236997 -0.1729521 1.687328 -1.6470696 1.2356908 -0.66784763 -0.24960302 -0.8946962 -0.69037473 0.85051495 -0.3656057 -0.9331866 -0.5686249 0.9805826 1.5563095 -1.1857634 -1.5465221 1.0377386 1.7187728 0.4733041 -0.864254 -0.7624123 -1.7264179 0.42484716 -0.65666366 0.08172254 -1.5292087 -1.5177376 -1.580328 -0.072763495 -0.8105347 1.8476619 -0.23625751 -0.080036044 0.3034133 0.46906516 -1.5091401 -0.2898607 0.33769864 0.8312639 0.53639734 -0.486661 -0.49450615 -0.15886018 -1.2811996 0.17376785 0.6658394 -0.8200366 0.72417396 0.37921745 1.1392684 -0.9735325 0.30860817 -0.3936134 -0.63324314 0.23874782 1.2972965 0.13468961 -0.6212357 -1.0248262 -0.7355636 -1.2213225 0.60920894 0.14241481 2.5674732 -0.46157885 0.5534009 -1.6413574 1.6238738 -1.1719433 -0.15722635 -0.69231766 0.99479115 0.8033973 0.24615854 0.6266141 -0.8751381 -0.18034407 1.4029301 0.6327784 -0.33675915 0.56314176 -1.3274144 -0.8327419 -0.51076484 0.6693206 0.6562099 0.8113153 0.67132115 -0.13819948 -0.70124584 -1.152637 0.81508327 0.81136763
INS_CastExpression_EnumConstantDeclaration -0.41953766 -2.108797 0.83878666 1.3857442 -0.38101006 -0.4714036 -0.6149301 0.5451362 -0.17461368 1.5947393 -0.36055502 1.92285 1.1188304 -0.53556573 1.0045238 -0.24155498 1.7372996 0.4494721 0.047849108 -1.1305741 0.87798226 -0.35376373 -0.57049346 -0.4752888 0.34313598 -1.6478798 1.5175899 -0.037215076 0.7310017 -0.38076925 2.0233526 0.21131316 -0.112908505 -0.3311162 -0.41847923 1.5728147 0.62352157 1.6385059 0.18998827 0.6425509 -0.6449591 -0.5681546 -1.6753638 0.5806232 -0.4606081 -2.062684 0.21442817 0.6470089 0.9609095 -1.1104546 0.7016186 -0.88834053 0.6294936 -0.49585655 1.6946346 0.30365345 0.51016736 0.57389075 -0.058870096 -0.4555289 0.9284319 1.2754387 -0.113804236 0.42771548 -0.62244827 1.3635929 -0.42082125 -0.7074922 1.5526396 -0.102895744 0.16457753 -0.17169133 0.71666163 0.5513361 1.2302176 0.017946655 1.4402286 -1.8589417 -0.06575606 -1.067937 -0.60791844 -0.4542318 0.74129474 1.338376 0.014784188 1.0503938 0.0069562695 -1.7067606 -1.6776657 1.5159187 -0.60478413 -1.6064563 1.5952486 1.4500164 0.873212 -0.5204863 0.80130345 -1.8397325 0.57421106 0.09456089 1.706735 1.1018605 1.1899118 0.79663825 0.7611684 0.66127574 0.113065355 0.4344693 -1.6058955 0.77966654 0.042104222 -0.32401654 1.0246756 1.1147566 1.0830789 -0.42240167 -0.1504954 0.7244673 0.42404324 0.6295002 -2.0668015 -0.32314593 0.9699711 -1.4543701 -1.6193401 1.4297129 -1.0559818 0.5941087 -0.82729673 2.133473 1.755771 -0.88126785 -2.1254168 -1.4463474 -0.9950271 0.5924524 1.2113026 -1.3573314 -0.53818244 0.8286616 0.46780312 1.1472965 1.6152979 1.3890357 -0.2553082 0.68791 0.9373442 -1.2074114 1.0575912 -0.044771615 -0.061083794 0.052521624 -0.3828183 0.7926375 1.3256936 -1.0061319 1.5364206 -1.5754693 -1.1795785 -0.6200332 -1.3185388 -1.2769365 0.50146943 0.14265153 -0.20785716 1.5561885 0.19845118 -0.7496392 1.3650424 1.4322646 1.0718857 0.58776015 0.50563043 -0.6476994 0.84061474 1.2228861 0.45947358 -1.0897745 -1.7420323 1.9426924 0.13634239 -1.1582626 1.8085593 -1.1181468 1.0779898 1.7557207 0.8621656 -0.9758654 1.8987328 0.5535694 0.14996813 0.33761346 -0.73039067 0.20349944 0.13631718 -1.3861262 -1.3354551 0.40224332 0.23900856 0.75771064 -0.23591332 1.4605213 -0.32977036 0.27016062 1.185753 -0.35187906 -0.5007854 0.14311077 -0.43211678 -1.388297 -0.17988208 1.3371195 1.3021688 0.2120398 1.7107586 1.3311133 0.1841244 1.6020557 -0.6020938 -1.254185 -0.83201545 -0.5202053 -1.3313152 0.51084936 0.3995185 0.04474916 1.5497978 -0.43111786 1.2291701 0.37361237 0.10016959 -0.41313392 -0.9630811 2.1796026 0.9751991 1.1939478 0.0661449 0.08741228 1.4727654 -1.5845647 -0.932388 0.5418477 -1.1846688 -1.8304951 -0.2740461 0.18940349 -1.4009019 -0.7927896 1.2027636 0.27696943 -0.8578931 -1.7694149 -0.8050116 0.5906829 -0.6417688 1.5645101 -1.3080696 0.42976427 0.18453339 -0.7072385 0.9733778 -1.5604403 -0.4914649 -0.599159 0.44303232 -1.362305 1.3887329 0.4541621 0.020524899 -0.7211351 -0.6447325 -0.7883639 -0.6078279 -0.4283067 0.14141007 0.954794 -0.99981415 0.064502455 0.44207975 -1.3852203 -1.9465013 0.8055224 0.37771103 1.7820299 0.08279868 -0.61694 0.86919427 -1.844112 -1.1826128 -0.5507598 0.29483858 1.3761759 0.7459068 1.3039318 -0.7996342 0.5609575 -0.8045686 1.0347618 -1.2840428 -0.66124135
INS_Block_LambdaExpression 0.0 -0.0 0.0 0.0 0.0 0.0 0.0 0.0 -0.0 0.0 0.0 0.0 0.0 0.0 -0.0 0.0 -0.0 -0.0 0.0 0.0 -0.0 0.0 0.0 -0.0 -0.0 -0.0 -0.0 -0.0 0.0 0.0 -0.0 0.0 -0.0 0.0 -0.0 -0.0 -0.0 -0.0 -0.0 -0.0 -0.0 -0.0 -0.0 -0.0 0.0 0.0 0.0 -0.0 -0.0 0.0 0.0 0.0 0.0 -0.0 0.0 0.0 0.0 -0.0 -0.0 -0.0 -0.0 -0.0 0.0 -0.0 -0.0 -0.0 0.0 0.0 0.0 0.0 -0.0 -0.0 -0.0 -0.0 -0.0 -0.0 -0.0 -0.0 0.0 -0.0 -0.0 -0.0 0.0 0.0 0.0 -0.0 0.0 -0.0 -0.0 -0.0 0.0 -0.0 -0.0 -0.0 0.0 0.0 -0.0 0.0 -0.0 -0.0 0.0 0.0 0.0 -0.0 0.0 0.0 0.0 -0.0 0.0 0.0 0.0 0.0 0.0 0.0 0.0 0.0 -0.0 0.0 0.0 -0.0 -0.0 -0.0 -0.0 0.0 -0.0 0.0 -0.0 -0.0 0.0 -0.0 0.0 0.0 -0.0 0.0 0.0 -0.0 0.0 -0.0 0.0 -0.0 0.0 0.0 0.0 -0.0 -0.0 0.0 0.0 -0.0 -0.0 -0.0 -0.0 -0.0 -0.0 -0.0 -0.0 -0.0 -0.0 0.0 -0.0 0.0 0.0 -0.0 -0.0 -0.0 -0.0 -0.0 0.0 -0.0 -0.0 -0.0 0.0 0.0 -0.0 -0.0 -0.0 -0.0 0.0 0.0 0.0 -0.0 0.0 0.0 0.0 -0.0 -0.0 -0.0 0.0 0.0 -0.0 0.0 0.0 -0.0 -0.0 0.0 -0.0 0.0 0.0 0.0 0.0 -0.0 -0.0 0.0 0.0 -0.0 -0.0 -0.0 -0.0 -0.0 -0.0 0.0 0.0 0.0 -0.0 0.0 0.0 -0.0 -0.0 -0.0 -0.0 -0.0 -0.0 0.0 -0.0 -0.0 -0.0 0.0 0.0 -0.0 0.0 0.0 0.0 -0.0 -0.0 0.0 0.0 -0.0 0.0 0.0 0.0 0.0 0.0 0.0 0.0 0.0 0.0 0.0 0.0 -0.0 -0.0 -0.0 0.0 0.0 0.0 0.0 0.0 0.0 -0.0 0.0 -0.0 0.0 0.0 -0.0 -0.0 -0.0 0.0 0.0 -0.0 -0.0 0.0 0.0 0.0 -0.0 0.0 0.0 0.0 -0.0 -0.0 -0.0 0.0 -0.0 0.0 0.0 -0.0 -0.0 -0.0 -0.0 0.0 0.0 0.0 0.0 0.0 0.0 -0.0 -0.0 0.0 0.0 0.0 0.0 0.0 0.0
INS_SwitchStatement_SwitchStatement -0.28704175 -1.1786491 0.799214 0.07960762 -1.1702963 -0.81986403 1.555908 0.6345459 1.4213796 -0.97474295 -0.3116007 -1.1802595 0.33504096 0.73344564 0.08784413 -0.12207862 0.68527913 -0.7809157 -1.2400863 0.30536208 1.457668 0.64450365 -1.1756096 -0.48609355 -0.6061476 -0.8808215 0.19487935 -0.5748025 -0.86122125 0.13652311 0.09600502 -0.70816433 0.4213943 -0.110637926 0.054153655 0.48945755 -0.84064484 0.098479636 0.25188002 1.1114796 0.44937238 -0.29936886 -0.5643767 -0.33679637 0.29039073 0.693824 -0.59834963 -0.77192277 0.022805698 0.33276746 0.4739894 0.25715393 0.093206845 1.3303795 0.8369834 0.12607802 0.10878954 0.47855482 0.8762869 -0.18781598 0.6553983 1.227215 -1.0438948 0.23383766 -0.8297423 0.44040385 -0.038452227 0.24679203 1.2359582 -0.5745693 0.67820513 1.0420644 0.66363406 -0.75591046 -0.43117303 0.8439923 0.11073414 0.709568 -0.16298035 -0.03722147 1.2010198 0.10795633 0.09645364 -0.4346925 -0.33725038 -0.15407774 0.5297424 -0.10816487 0.21862896 0.33387095 -0.93606776 0.7982646 -0.47731075 -0.3340399 0.44435868 -0.41205776 0.18438646 0.8231061 -0.16463864 -0.18810599 -0.23933944 -0.87157714 0.13703807 0.95131695 1.0903562 -0.35526067 1.6537385 -0.6414367 -0.6792458 0.25439182 -0.88191664 -1.1327807 -0.22810148 1.4400691 1.2809005 0.46034032 0.18170641 0.74017197 -0.3029554 0.84424514 -0.5002502 -0.23702458 -1.2749685 0.38863388 -0.44193426 -0.49518684 0.022622969 1.0434932 -1.065848 -1.2087425 0.99281806 0.8231091 -1.0067886 0.97887665 -0.34520832 -0.4059941 -1.3939182 0.3902537 0.35132208 0.5674181 1.2216825 0.23942941 1.4776831 0.06329484 1.1460798 -0.3946166 -0.8676382 -1.0984342 -0.1746219 0.8590016 -1.0674272 -0.6280578 -0.98581314 -0.64149714 -0.74964684 -1.3950745 0.7857983 -0.9438099 -0.33756757 0.93111634 -0.61056316 1.8802927 -1.0328813 -0.06564368 -0.11269553 1.1862701 0.35174295 0.67567235 1.0278542 -0.71951514 -0.38540506 -0.046366815 -0.62747306 -0.42884856 1.2234174 -0.08778595 0.743486 0.8123904 -0.44334635 0.7657335 -0.44708955 1.095544 -0.56018436 -0.3216123 -0.6341435 -0.19001167 0.6427481 -0.5062691 -0.55074954 -0.95264316 -0.037025105 0.7178104 -0.011587395 -1.0950226 -0.505101 -0.3352629 0.18965228 0.44136444 -0.03590761 1.0481366 1.0337421 -1.3499228 0.056373388 0.046333037 0.3705419 -0.69586265 0.69287884 0.15585454 -0.21737652 -0.0896329 0.04703256 0.3576267 0.24291778 -0.4477759 -0.44841856 -0.7310412 -1.3798895 -0.47722423 -0.3959156 -0.07058315 0.63104695 -0.8221134 -0.38039196 0.12041923 -0.40173304 -0.09904067 0.32029483 0.5864026 -0.92351085 0.30941942 -0.5454879 1.8066008 0.8701212 0.54438084 0.13316922 0.11972724 1.1230791 -0.91387093 -0.70798767 0.86925364 -0.7976993 1.0177143 -0.44018605 0.6363206 0.13948637 -0.9734868 -1.1904652 0.38509318 -0.5442718 -0.37459603 -0.0962057 -0.2516447 -0.931042 -1.0901899 -0.88063407 0.81964487 0.6379204 0.19667211 0.85015386 -1.0158542 -1.3852551 -0.035262 0.63373935 -0.02252677 0.55310905 0.8805812 0.2277297 0.4245463 -0.78769046 0.26895204 0.41841784 -1.2381604 -0.7365545 -1.2600096 -0.4650557 0.4037518 -0.8214391 1.0740293 0.34942138 0.5048081 -0.77051365 -0.10439586 0.17442425 1.7653397 -0.5397991 -0.22817202 0.56634784 0.84676075 -0.46076 -1.2847651 -0.57666606 -0.443179 0.96667707 0.71683276 -0.32890436 0.32951438 -0.66149515 0.7372471 0.189415 -0.3102802
